{
  "backend": "torch",
  "state_size": 546,
  "option_size": 109,
  "hidden_size": 96,
  "architecture": "deep_v2",
  "device_preference": "cpu",
  "state_dict": {
    "joint_bias": [
      0.12130418419837952,
      -0.26024264097213745,
      -0.2591601610183716,
      0.23079602420330048,
      -0.2753340005874634,
      0.6276454925537109,
      0.7435995936393738,
      -0.04772631451487541,
      1.0439469814300537,
      0.565280556678772,
      -0.5312504172325134,
      0.686086893081665,
      -0.7588802576065063,
      0.2326207160949707,
      0.9006403088569641,
      0.4571007192134857,
      -0.3295983076095581,
      0.6491062045097351,
      2.5396742820739746,
      0.17392048239707947,
      -0.7432287335395813,
      -1.7489161491394043,
      -1.044745922088623,
      1.4154328107833862,
      0.0,
      0.0,
      0.0,
      0.0,
      0.0,
      0.0,
      0.0,
      0.0,
      0.0,
      0.0,
      0.0,
      0.0,
      0.0,
      0.0,
      0.0,
      0.0,
      0.0,
      0.0,
      0.0,
      0.0,
      0.0,
      0.0,
      0.0,
      0.0,
      0.0,
      0.0,
      0.0,
      0.0,
      0.0,
      0.0,
      0.0,
      0.0,
      0.0,
      0.0,
      0.0,
      0.0,
      0.0,
      0.0,
      0.0,
      0.0,
      0.0,
      0.0,
      0.0,
      0.0,
      0.0,
      0.0,
      0.0,
      0.0,
      0.0,
      0.0,
      0.0,
      0.0,
      0.0,
      0.0,
      0.0,
      0.0,
      0.0,
      0.0,
      0.0,
      0.0,
      0.0,
      0.0,
      0.0,
      0.0,
      0.0,
      0.0,
      0.0,
      0.0,
      0.0,
      0.0,
      0.0,
      0.0
    ],
    "state_linear.weight": [
      [
        0.4940108358860016,
        -3.1617677211761475,
        1.3580363988876343,
        -3.761897325515747,
        -2.047532796859741,
        -1.8119107484817505,
        -2.3306164741516113,
        1.2852492332458496,
        2.38493275642395,
        0.14179980754852295,
        -1.3316401243209839,
        0.6780513525009155,
        -0.3962636888027191,
        0.6359749436378479,
        0.5403622984886169,
        1.3062469959259033,
        2.6354432106018066,
        3.186246156692505,
        -1.3716105222702026,
        -1.9908188581466675,
        -2.7404744625091553,
        0.018596436828374863,
        3.084430694580078,
        2.1264164447784424,
        1.0794719457626343,
        2.7381083965301514,
        -0.26277676224708557,
        0.4299153685569763,
        1.3274418115615845,
        -3.047982931137085,
        5.346452236175537,
        -0.7651865482330322,
        -2.2288930416107178,
        1.8540114164352417,
        0.1393199861049652,
        1.8817518949508667,
        10.068277359008789,
        0.6603384017944336,
        2.3924782276153564,
        -5.9167561531066895,
        0.5926845669746399,
        4.817387580871582,
        1.7833741903305054,
        0.972382128238678,
        0.042271364480257034,
        0.013041261583566666,
        0.029329191893339157,
        0.01727937161922455,
        -0.1943468302488327,
        -3.410785675048828,
        -1.457434892654419,
        -3.1119799613952637,
        0.1894780397415161,
        -2.558979034423828,
        -1.5388033390045166,
        2.265906572341919,
        1.6767325401306152,
        0.3560275137424469,
        -0.8717159032821655,
        -0.4573468565940857,
        0.6641010642051697,
        0.009653609246015549,
        0.4114992618560791,
        -0.9197450280189514,
        4.107024669647217,
        4.986261367797852,
        -0.8111305832862854,
        0.38753461837768555,
        -2.4748291969299316,
        2.075044631958008,
        2.401869535446167,
        1.8761247396469116,
        3.3636419773101807,
        2.2715210914611816,
        0.5078762173652649,
        1.7146497964859009,
        1.6726258993148804,
        -0.3953074812889099,
        1.2873612642288208,
        1.9937952756881714,
        -0.7982080578804016,
        3.7657089233398438,
        0.05496324598789215,
        2.2267842292785645,
        4.579153060913086,
        1.4640084505081177,
        -0.44013720750808716,
        -3.8013675212860107,
        -1.7419564723968506,
        0.7258913516998291,
        3.5178682804107666,
        0.11583928018808365,
        0.020473141223192215,
        -0.005075026303529739,
        -0.03375384584069252,
        0.012901641428470612,
        -0.4583793878555298,
        -4.2585835456848145,
        -1.9315017461776733,
        -3.3787057399749756,
        -0.3841906785964966,
        -2.4793195724487305,
        -4.249369144439697,
        3.8545165061950684,
        1.4684910774230957,
        -1.1499669551849365,
        0.07620371878147125,
        -2.9920949935913086,
        -0.6112548112869263,
        -0.24301600456237793,
        1.6033656597137451,
        -0.6516939997673035,
        4.333653926849365,
        6.675897121429443,
        0.48907360434532166,
        -1.0755934715270996,
        -6.670555114746094,
        0.24151284992694855,
        -0.32997745275497437,
        2.3522047996520996,
        5.812298774719238,
        6.687265396118164,
        -3.806128740310669,
        -1.5246635675430298,
        0.2456718534231186,
        1.204562783241272,
        6.312006950378418,
        -0.5713087320327759,
        -2.3926022052764893,
        4.429965019226074,
        -0.3294467329978943,
        2.864475965499878,
        7.93742561340332,
        0.8012707829475403,
        0.07775143533945084,
        -3.3471481800079346,
        3.5056257247924805,
        3.0097270011901855,
        4.995068550109863,
        1.5257673263549805,
        -0.020756885409355164,
        -0.015310999006032944,
        -0.02170223742723465,
        0.03689703717827797,
        1.4651919603347778,
        0.932852029800415,
        -0.9849992990493774,
        -6.200232028961182,
        3.5811212062835693,
        0.0005220696330070496,
        -1.7436165809631348,
        1.1831053495407104,
        0.8102014660835266,
        -0.36083877086639404,
        -4.183769702911377,
        -1.5639735460281372,
        3.0311334133148193,
        1.4765833616256714,
        -0.025833144783973694,
        0.029844585806131363,
        0.022007260471582413,
        -0.03430987149477005,
        0.028343554586172104,
        1.8068773746490479,
        -0.028074173256754875,
        -0.012409424409270287,
        -0.7813431620597839,
        -1.4955761432647705,
        2.116164207458496,
        -3.1915149688720703,
        -1.666097640991211,
        0.3399709165096283,
        -0.7822648286819458,
        0.040332671254873276,
        -0.027691613882780075,
        0.13667067885398865,
        0.8155462145805359,
        3.2060093879699707,
        0.42295384407043457,
        0.6043006181716919,
        0.001102149486541748,
        1.1200309991836548,
        0.36898472905158997,
        -0.0011582672595977783,
        5.747013092041016,
        2.7637205123901367,
        0.029904615134000778,
        0.562835693359375,
        -0.036590296775102615,
        0.02121609076857567,
        0.027511324733495712,
        0.004370983690023422,
        0.5337201356887817,
        -2.0365993976593018,
        -0.30085670948028564,
        -4.964204788208008,
        0.7165896892547607,
        -2.7699923515319824,
        -3.439746141433716,
        2.5839250087738037,
        2.381364583969116,
        0.6152166128158569,
        -2.5969488620758057,
        -1.5907707214355469,
        0.09459765255451202,
        0.839652955532074,
        0.8755504488945007,
        -0.9808681011199951,
        3.669822931289673,
        2.486250638961792,
        0.06254728883504868,
        -5.472468852996826,
        -6.240287780761719,
        1.6067421436309814,
        1.789651870727539,
        2.060817241668701,
        -0.4252776503562927,
        4.257931709289551,
        -2.4402360916137695,
        0.6986330151557922,
        0.9958850741386414,
        -0.7824336290359497,
        5.314340591430664,
        1.9335310459136963,
        -3.9158859252929688,
        2.161559581756592,
        0.7688708305358887,
        2.663625955581665,
        7.980411529541016,
        2.921550989151001,
        2.018454074859619,
        -2.7808308601379395,
        2.691438674926758,
        2.008413791656494,
        2.6661646366119385,
        0.19001922011375427,
        1.4238934516906738,
        0.8109424710273743,
        0.1125272884964943,
        0.5682201385498047,
        1.111860752105713,
        1.3326094150543213,
        2.934629201889038,
        -0.836035966873169,
        2.500929594039917,
        0.43115776777267456,
        -1.9407306909561157,
        1.4889196157455444,
        2.10945200920105,
        1.4026710987091064,
        -0.8677537441253662,
        1.9354956150054932,
        -2.0330495834350586,
        2.0138330459594727,
        -0.08882217854261398,
        -0.39710912108421326,
        -2.2519373893737793,
        1.794413447380066,
        1.2718958854675293,
        -1.4803853034973145,
        -2.456751585006714,
        4.361919403076172,
        1.6262954473495483,
        0.3873137831687927,
        -3.4717917442321777,
        -4.65938138961792,
        5.675323963165283,
        1.9013566970825195,
        2.3872721195220947,
        9.465423583984375,
        4.702470779418945,
        -0.7160587310791016,
        -0.13787539303302765,
        3.381826639175415,
        0.8020071387290955,
        3.72411847114563,
        -3.5131313800811768,
        -0.7819453477859497,
        3.362460136413574,
        -3.769195318222046,
        -4.616180896759033,
        1.6409128904342651,
        -2.171173334121704,
        -1.538259744644165,
        0.028559718281030655,
        -0.026507828384637833,
        -0.009683821350336075,
        0.0038009360432624817,
        -0.2766752243041992,
        2.42111873626709,
        1.6279528141021729,
        9.356880187988281,
        -0.7749301791191101,
        2.922642469406128,
        2.5803184509277344,
        0.9191425442695618,
        0.6031721830368042,
        -0.6875340342521667,
        0.6853344440460205,
        3.4522223472595215,
        -0.21668098866939545,
        -0.4294336140155792,
        0.2585452198982239,
        3.136002540588379,
        -2.4260001182556152,
        -0.3877018094062805,
        0.8590536713600159,
        8.291998863220215,
        0.2924063503742218,
        5.420222282409668,
        1.376126766204834,
        2.2524945735931396,
        4.441780090332031,
        -8.862191200256348,
        0.18850280344486237,
        4.459631443023682,
        2.0878727436065674,
        4.4063849449157715,
        4.55651330947876,
        6.522415637969971,
        1.2578612565994263,
        6.594302654266357,
        -0.23314104974269867,
        0.2295094132423401,
        6.219155788421631,
        1.5655301809310913,
        -1.4896427392959595,
        2.935206890106201,
        -3.318223714828491,
        2.71490740776062,
        -1.486775517463684,
        -3.8319780826568604,
        0.0306679867208004,
        -0.009433392435312271,
        0.018242090940475464,
        0.03262706473469734,
        0.07974174618721008,
        1.9491299390792847,
        1.9157624244689941,
        10.410513877868652,
        -1.2534234523773193,
        3.5735034942626953,
        1.513184666633606,
        1.5812824964523315,
        0.27594059705734253,
        -2.1560349464416504,
        -0.7136709690093994,
        4.307470321655273,
        -0.005258865654468536,
        -0.055004362016916275,
        -0.18099306523799896,
        3.361037015914917,
        -2.943389415740967,
        2.197850465774536,
        0.06700827181339264,
        7.5426201820373535,
        1.4066648483276367,
        6.478928565979004,
        -2.263197183609009,
        3.6929409503936768,
        3.8140857219696045,
        -14.974655151367188,
        1.7832412719726562,
        3.9294960498809814,
        5.46132755279541,
        0.10730407387018204,
        10.791369438171387,
        5.048043251037598,
        0.6982093453407288,
        5.276815414428711,
        -0.03587362542748451,
        0.1178198978304863,
        4.710052490234375,
        2.7271032333374023,
        0.19906136393547058,
        8.978555679321289,
        -4.105360507965088,
        6.825399398803711,
        -0.41128337383270264,
        -8.40579891204834,
        0.010956402868032455,
        0.04099153354763985,
        0.015689034014940262,
        -0.010873585939407349,
        0.03598086163401604,
        0.036176811903715134,
        -0.007644616067409515,
        0.039441321045160294,
        0.01574370265007019,
        -0.0031410828232765198,
        0.025927212089300156,
        0.017281580716371536,
        -0.028742590919137,
        -0.0408913753926754,
        -0.019955966621637344,
        -0.008962266147136688,
        0.033707644790410995,
        0.02372189238667488,
        0.0048993900418281555,
        0.017589177936315536,
        -0.006538968533277512,
        -0.030884474515914917,
        -0.020214280113577843,
        0.02849430963397026,
        0.025817375630140305,
        0.03422116860747337,
        -0.0412583127617836,
        -0.026400942355394363,
        0.027907345443964005,
        0.0358235128223896,
        0.03587549552321434,
        -0.004157885909080505,
        -0.01949119195342064,
        -0.008508812636137009,
        -0.028767120093107224,
        -0.03233232721686363,
        0.04113691672682762,
        -0.02356589026749134,
        -0.009149167686700821,
        0.018191490322351456,
        -0.014710672199726105,
        0.038556214421987534,
        0.004591718316078186,
        -0.03363313898444176,
        0.023935984820127487,
        0.01972712203860283,
        0.037586603313684464,
        -0.019320718944072723,
        -0.012062769383192062,
        0.022860895842313766,
        -0.00955682247877121,
        0.02071230486035347,
        1.7560142278671265,
        1.2450079917907715,
        0.7183126211166382,
        5.694822788238525,
        2.2463908195495605,
        0.03207160159945488,
        3.1447460651397705,
        3.780527114868164,
        6.77431583404541,
        -0.1029563844203949,
        0.4784955084323883,
        3.701847791671753,
        -0.20377272367477417,
        1.7593108415603638,
        0.01269550621509552,
        -0.023991359397768974,
        -0.023563986644148827,
        -0.02066291682422161,
        0.03606836125254631,
        -2.7279136180877686,
        0.029959451407194138,
        0.015492841601371765,
        2.5889899730682373,
        1.6915950775146484,
        3.058988332748413,
        -3.13604998588562,
        1.9209821224212646,
        5.529872894287109,
        3.843703508377075,
        0.015052668750286102,
        -0.02874625474214554,
        2.1928019523620605,
        5.983344078063965,
        3.2273619174957275,
        1.6913968324661255,
        3.3855223655700684,
        -0.002056322991847992,
        2.2406082153320312,
        7.192412853240967,
        0.004807773977518082,
        -0.6257739067077637,
        0.6540533900260925,
        0.02535829320549965,
        0.6872881054878235,
        0.023574378341436386,
        -0.02348751202225685,
        0.012411434203386307,
        0.04003647342324257,
        2.5118045806884766,
        2.5524532794952393,
        1.9792957305908203,
        0.016764342784881592,
        1.929071068763733,
        2.873523473739624,
        3.865412950515747,
        1.618605375289917,
        2.9208950996398926,
        -0.026442836970090866,
        -1.1001390218734741,
        5.117468357086182,
        0.02649042382836342,
        0.007404383271932602,
        0.9088146090507507,
        2.697561025619507,
        -6.14053201675415,
        1.4245127439498901,
        3.970914125442505,
        0.012097373604774475,
        -0.3370338976383209,
        6.185213088989258,
        -0.02666860818862915,
        -0.036984819918870926,
        0.005094405263662338,
        0.005884066224098206,
        -5.3042826652526855,
        0.027581948786973953,
        5.593313694000244,
        -0.1416221261024475,
        5.184634685516357,
        -0.03988155722618103,
        -0.4747617542743683,
        -0.010545700788497925,
        2.9580554962158203,
        9.022086143493652,
        1.0618925094604492,
        0.00295913964509964,
        4.027520656585693,
        7.864386081695557,
        -0.1731080412864685,
        6.286532878875732,
        -0.8227689266204834,
        0.009875435382127762,
        4.85997200012207,
        -0.8154386281967163,
        -0.3335241377353668,
        -0.042173366993665695,
        0.17551971971988678,
        -0.7503505945205688,
        0.7429975271224976,
        0.41679245233535767,
        -0.9925268888473511,
        -0.2719361484050751,
        0.7806496620178223,
        0.9662212133407593,
        -0.1928127557039261,
        0.5216912031173706,
        -0.16645412147045135,
        -0.35871240496635437,
        0.5162179470062256,
        1.7259231805801392,
        0.10944736748933792,
        -0.19864173233509064,
        2.523641586303711,
        0.5324756503105164
      ],
      [
        0.45473459362983704,
        -0.06917235255241394,
        1.7688109874725342,
        1.2910935878753662,
        3.6884429454803467,
        -5.3059234619140625,
        -1.768350601196289,
        -5.662013530731201,
        -4.1533331871032715,
        2.375971555709839,
        0.5509322881698608,
        -0.5102220177650452,
        -0.502627432346344,
        1.0789000988006592,
        -3.1458797454833984,
        -2.8011045455932617,
        -0.9772132635116577,
        -1.7789639234542847,
        -5.464078903198242,
        3.5643320083618164,
        -0.9176037907600403,
        -1.9302113056182861,
        -3.85735821723938,
        0.4166116416454315,
        -6.498961448669434,
        -0.26784518361091614,
        2.3664233684539795,
        -1.662101149559021,
        -1.5614159107208252,
        -5.942860126495361,
        6.980981826782227,
        2.4904584884643555,
        0.1923413872718811,
        2.4697418212890625,
        -0.5146273970603943,
        0.02607177384197712,
        3.733647346496582,
        9.563980102539062,
        2.6607823371887207,
        2.2483386993408203,
        9.52066421508789,
        -3.0436105728149414,
        -2.9351906776428223,
        3.3182809352874756,
        -0.0405387282371521,
        -0.0008882023394107819,
        0.03744478151202202,
        0.023661267012357712,
        0.21256506443023682,
        1.1320222616195679,
        1.6154507398605347,
        4.3456034660339355,
        2.3273842334747314,
        -2.6598706245422363,
        -1.0686848163604736,
        -2.017042398452759,
        -2.7824668884277344,
        0.7555729746818542,
        3.0178062915802,
        0.2897297441959381,
        0.05962124466896057,
        1.0055450201034546,
        -4.245070934295654,
        -1.287026047706604,
        -0.7855966091156006,
        0.6569141745567322,
        -4.827532768249512,
        3.596635580062866,
        -1.2413896322250366,
        0.3437444567680359,
        -1.647090196609497,
        0.5376964807510376,
        -10.005355834960938,
        0.4672020971775055,
        2.8890774250030518,
        -0.029105378314852715,
        -1.6686984300613403,
        -3.735887050628662,
        4.607554912567139,
        -0.4617000222206116,
        0.41137760877609253,
        -2.602691650390625,
        -0.08888106793165207,
        0.5482285022735596,
        3.999338150024414,
        8.982884407043457,
        2.2220475673675537,
        1.8987427949905396,
        7.3223795890808105,
        -2.5663506984710693,
        -2.267268180847168,
        4.159872531890869,
        0.02228419855237007,
        -0.036989979445934296,
        0.01248672604560852,
        -0.016555845737457275,
        0.708641529083252,
        1.1546952724456787,
        1.3057657480239868,
        8.081899642944336,
        2.874701499938965,
        -5.002159118652344,
        -0.4214113652706146,
        -3.5638458728790283,
        -3.9641916751861572,
        2.1223490238189697,
        1.7045669555664062,
        0.8081549406051636,
        0.39444056153297424,
        1.2323870658874512,
        -4.21110725402832,
        -3.0071403980255127,
        -2.7393429279327393,
        4.043676853179932,
        -6.052014350891113,
        1.277891755104065,
        -2.686344623565674,
        -1.33268404006958,
        -2.826195001602173,
        0.07787022739648819,
        -5.299163818359375,
        -1.0393667221069336,
        2.0267786979675293,
        -0.7061845064163208,
        -2.842844247817993,
        -2.8800458908081055,
        2.338716506958008,
        1.66457200050354,
        1.1529253721237183,
        2.8280014991760254,
        0.4288959205150604,
        0.3262401521205902,
        9.005517959594727,
        15.140209197998047,
        -0.06003689765930176,
        -1.8391282558441162,
        10.16130542755127,
        -5.327116012573242,
        -2.6745331287384033,
        2.3652169704437256,
        -0.020804794505238533,
        0.033185627311468124,
        0.022935394197702408,
        -0.00888492539525032,
        0.8453017473220825,
        0.39281317591667175,
        -0.8707705736160278,
        6.2115068435668945,
        2.7848095893859863,
        0.03846190497279167,
        -2.6342968940734863,
        1.9693279266357422,
        0.030655015259981155,
        0.5755718946456909,
        4.758187294006348,
        1.8923161029815674,
        0.6133648753166199,
        0.8096413612365723,
        0.027328554540872574,
        0.001134585589170456,
        0.03416570648550987,
        0.035544503480196,
        0.022749703377485275,
        3.709632158279419,
        0.0023292824625968933,
        0.022854860872030258,
        0.2881104648113251,
        2.8780288696289062,
        1.2126744985580444,
        -0.2453337013721466,
        0.9786432981491089,
        4.0109076499938965,
        1.4769643545150757,
        0.0023626163601875305,
        0.01385071873664856,
        3.85290265083313,
        -0.27437037229537964,
        2.7034645080566406,
        1.9728041887283325,
        0.6227092742919922,
        -0.01573197916150093,
        -0.8818807601928711,
        -1.3328425884246826,
        0.029041748493909836,
        2.7124123573303223,
        0.13718385994434357,
        0.03866462782025337,
        2.58675217628479,
        0.010437842458486557,
        -0.007969636470079422,
        -0.0008533596992492676,
        -0.021476631984114647,
        0.04337219148874283,
        -2.8290417194366455,
        1.4023828506469727,
        6.434968948364258,
        2.3267455101013184,
        -6.007905960083008,
        -1.0658162832260132,
        -2.941646099090576,
        -3.3834424018859863,
        0.6518867611885071,
        0.8824203610420227,
        -0.08871730417013168,
        -0.5031006932258606,
        0.7186709046363831,
        -3.7938520908355713,
        -2.043351173400879,
        1.0392800569534302,
        -1.7665894031524658,
        -3.494725227355957,
        1.6586400270462036,
        -0.9761713743209839,
        -2.3905954360961914,
        -4.2493510246276855,
        0.8624002933502197,
        0.33417102694511414,
        2.1112565994262695,
        4.954720973968506,
        -0.6807118058204651,
        2.1746039390563965,
        -0.9579794406890869,
        3.670943260192871,
        6.953304767608643,
        0.10818939656019211,
        3.6424078941345215,
        -0.3116472065448761,
        0.047615356743335724,
        5.326099872589111,
        11.326644897460938,
        5.1598920822143555,
        6.029440879821777,
        8.96229076385498,
        -3.0489015579223633,
        -3.507439374923706,
        2.36521577835083,
        -1.0246919393539429,
        -2.2183961868286133,
        1.0967332124710083,
        -4.849777698516846,
        0.9475415945053101,
        0.41097453236579895,
        -0.43193575739860535,
        -0.5272321105003357,
        -1.9441832304000854,
        0.8253021240234375,
        1.068342685699463,
        -1.7713061571121216,
        1.2450052499771118,
        0.06915181875228882,
        0.040726277977228165,
        0.6950618624687195,
        2.3567042350769043,
        -0.04450813680887222,
        -0.25946927070617676,
        -0.37715575098991394,
        -0.7172379493713379,
        0.8710485696792603,
        -1.4497876167297363,
        2.8925817012786865,
        -1.0316681861877441,
        3.37723708152771,
        -1.1043102741241455,
        1.211084008216858,
        -4.045123100280762,
        0.5711478590965271,
        0.011766050010919571,
        -4.3862786293029785,
        -2.8365418910980225,
        -3.247454881668091,
        2.5876238346099854,
        0.7269248366355896,
        -0.08953148871660233,
        -5.4226884841918945,
        0.6830596923828125,
        0.12737464904785156,
        -2.3409736156463623,
        6.2004923820495605,
        0.20776404440402985,
        1.7928967475891113,
        1.2486515045166016,
        -2.125178575515747,
        2.45198917388916,
        0.9282898902893066,
        0.03864600136876106,
        0.0232265405356884,
        -0.03198842704296112,
        -0.009025715291500092,
        0.558584451675415,
        -0.8807692527770996,
        -2.635549306869507,
        -4.256614685058594,
        0.9108798503875732,
        5.149763107299805,
        -1.5650566816329956,
        0.3373269736766815,
        0.6388710141181946,
        -3.74029541015625,
        -0.7759349942207336,
        4.518537521362305,
        0.3102257549762726,
        -0.0776122435927391,
        2.577008008956909,
        3.32285475730896,
        -1.4972243309020996,
        -2.2126269340515137,
        1.1936668157577515,
        7.478090286254883,
        2.2967896461486816,
        -0.11234952509403229,
        -4.770079135894775,
        1.3380392789840698,
        -0.830151379108429,
        1.0451183319091797,
        -0.6961795687675476,
        -1.8159303665161133,
        -2.309509754180908,
        4.893099784851074,
        -6.461512565612793,
        -3.6372225284576416,
        -0.0024740768130868673,
        -11.416524887084961,
        0.4773213565349579,
        7.287354946136475,
        -9.974409103393555,
        0.2382178008556366,
        -0.04427478089928627,
        -5.244276523590088,
        1.2596896886825562,
        -5.4877028465271,
        -1.7688847780227661,
        -0.8948163986206055,
        0.0182422436773777,
        -0.0033719539642333984,
        -0.015295188874006271,
        -0.012652819976210594,
        0.05824790894985199,
        -2.409982204437256,
        -2.458022356033325,
        -5.109586238861084,
        -0.6338405013084412,
        4.671209812164307,
        -3.381815195083618,
        -1.4928375482559204,
        1.8447043895721436,
        -3.7150585651397705,
        -3.1033577919006348,
        6.4611663818359375,
        0.4496215879917145,
        -0.3716399073600769,
        4.734365940093994,
        2.3254101276397705,
        0.07709009945392609,
        -4.507810115814209,
        2.8052377700805664,
        3.479302406311035,
        5.983983516693115,
        1.291385293006897,
        -0.6037610173225403,
        2.1140496730804443,
        -2.767652988433838,
        -0.45907196402549744,
        -0.3798132836818695,
        -2.5614824295043945,
        3.488048553466797,
        -2.613461494445801,
        -1.5335990190505981,
        -4.872543811798096,
        -0.6206223368644714,
        -10.682496070861816,
        0.06101539731025696,
        6.759909629821777,
        -11.296030044555664,
        0.7494243383407593,
        2.1517136096954346,
        -0.7634261846542358,
        -1.7707496881484985,
        -4.513870716094971,
        -4.135337829589844,
        -1.4082649946212769,
        0.023838546127080917,
        -0.03488779813051224,
        0.030525129288434982,
        -0.011143434792757034,
        0.007936198264360428,
        -0.014852229505777359,
        -0.008810453116893768,
        -0.03709503263235092,
        -0.0028630197048187256,
        0.035275209695100784,
        -0.03653440624475479,
        0.025706786662340164,
        -0.03387076035141945,
        -0.03700116276741028,
        0.03274836018681526,
        0.0007654428482055664,
        0.04229157045483589,
        -0.02281145192682743,
        -0.009959757328033447,
        -0.01547214575111866,
        0.005756121128797531,
        0.009389296174049377,
        -0.03745428845286369,
        -0.026818612590432167,
        -0.0020454488694667816,
        -0.010730024427175522,
        0.04204045608639717,
        -0.002383589744567871,
        -0.007620181888341904,
        0.041232090443372726,
        0.01528741791844368,
        -0.03517703339457512,
        -0.03543027117848396,
        0.004265386611223221,
        -0.013635838404297829,
        0.005652241408824921,
        0.01319393515586853,
        0.017989754676818848,
        -0.03190681338310242,
        0.036043282598257065,
        -0.014977296814322472,
        0.01920202374458313,
        0.02740752324461937,
        0.01660538837313652,
        0.013912152498960495,
        -0.03559517860412598,
        -0.02866850048303604,
        -0.04090474173426628,
        -0.01211470551788807,
        -0.0019533932209014893,
        -0.03504432737827301,
        0.006204672157764435,
        0.23825116455554962,
        0.04956354945898056,
        -0.5721545815467834,
        -4.261655807495117,
        -1.1341166496276855,
        -0.012393124401569366,
        0.04748113080859184,
        -3.0503833293914795,
        -1.9476593732833862,
        -2.776433229446411,
        0.46763038635253906,
        -4.701904296875,
        -5.26141357421875,
        0.23257477581501007,
        -0.00834491103887558,
        -0.009257566183805466,
        0.0376591719686985,
        -0.03848051652312279,
        -0.006477769464254379,
        1.4709054231643677,
        0.029450219124555588,
        -0.030414516106247902,
        2.033043146133423,
        0.9960950613021851,
        -2.112597703933716,
        0.1479782611131668,
        -3.3095579147338867,
        0.15634049475193024,
        0.6667080521583557,
        -0.04054087772965431,
        0.03454439714550972,
        -1.6962146759033203,
        -2.0156915187835693,
        -1.3328217267990112,
        -2.1606545448303223,
        -1.101639747619629,
        0.022596042603254318,
        0.3216537833213806,
        -1.578998327255249,
        0.03050968423485756,
        -0.284978449344635,
        1.8266842365264893,
        0.013069458305835724,
        0.0033703246153891087,
        2.7593225240707397e-05,
        -0.03510889783501625,
        -0.0076507143676280975,
        0.01541130244731903,
        0.6579812169075012,
        2.371074914932251,
        2.304751396179199,
        0.020123910158872604,
        -0.5634273290634155,
        1.4583337306976318,
        3.7451915740966797,
        -0.07994652539491653,
        0.08288726955652237,
        -1.4362620115280151,
        -1.029123067855835,
        0.029569067060947418,
        -0.008450362831354141,
        0.006850983947515488,
        -0.4940812587738037,
        0.1422637403011322,
        -2.829674005508423,
        -2.833658456802368,
        0.6495901346206665,
        -0.01153532788157463,
        4.655564308166504,
        4.953415870666504,
        0.006681118160486221,
        -0.020475788041949272,
        -0.007560864090919495,
        0.018056578934192657,
        -1.6838821172714233,
        -0.002739854156970978,
        -0.23970486223697662,
        0.4423235356807709,
        7.650580883026123,
        0.011705789715051651,
        0.07325500249862671,
        -0.03848796710371971,
        -0.4400193691253662,
        -6.674194812774658,
        -4.652830600738525,
        -0.00201202929019928,
        7.646726608276367,
        -0.65472811460495,
        -1.2939811944961548,
        -0.4684574007987976,
        -1.7801259756088257,
        -0.015746386721730232,
        0.5163311958312988,
        -1.576714277267456,
        2.7588369846343994,
        -0.005694963037967682,
        -0.6985852122306824,
        0.5406045913696289,
        -0.3844947814941406,
        0.06415054947137833,
        1.0514048337936401,
        0.0017264714697375894,
        -0.04785916209220886,
        0.8631046414375305,
        -0.06182316690683365,
        0.5049026012420654,
        0.18706440925598145,
        0.7186096906661987,
        0.03074527718126774,
        0.26522180438041687,
        0.05361885204911232,
        0.550841748714447,
        0.6372528672218323,
        0.12713056802749634
      ],
      [
        0.08773759752511978,
        -4.588959217071533,
        6.160373210906982,
        -7.133844375610352,
        -6.179915904998779,
        -1.3234158754348755,
        -2.3383970260620117,
        0.030324555933475494,
        -0.31203731894493103,
        2.669297695159912,
        -4.2610578536987305,
        -1.46889066696167,
        0.13533063232898712,
        0.09059266746044159,
        2.612457752227783,
        -2.2899038791656494,
        1.3114970922470093,
        0.4452492892742157,
        -4.320831298828125,
        -3.301915168762207,
        -4.9675211906433105,
        -4.849836349487305,
        -0.39789271354675293,
        -2.118211269378662,
        -5.46198844909668,
        -1.8552213907241821,
        1.2309848070144653,
        -3.5747945308685303,
        -2.8845937252044678,
        2.182935953140259,
        -0.31344151496887207,
        -1.8110432624816895,
        -0.8664104342460632,
        -8.052424430847168,
        0.22688119113445282,
        -4.136931896209717,
        -0.003328421851620078,
        2.9900856018066406,
        -0.32746532559394836,
        -2.934583902359009,
        -5.031885147094727,
        -3.5877137184143066,
        -1.1224497556686401,
        1.938260555267334,
        0.021387819200754166,
        0.04119562730193138,
        0.03761514648795128,
        0.02145017310976982,
        0.14105123281478882,
        -5.111348628997803,
        2.951519727706909,
        -7.026214599609375,
        -2.9296858310699463,
        -2.7554917335510254,
        -0.9716216921806335,
        0.9324215650558472,
        1.607486605644226,
        2.280590534210205,
        -2.9400827884674072,
        -0.31862348318099976,
        -0.28323209285736084,
        -0.052843090146780014,
        -0.007813111878931522,
        -1.5689553022384644,
        2.717416763305664,
        1.17741858959198,
        -3.827765941619873,
        -7.3663787841796875,
        -6.135514259338379,
        -5.256026744842529,
        -2.1821813583374023,
        -0.3687361180782318,
        -5.940832614898682,
        -1.4686453342437744,
        0.12142109870910645,
        -7.512179851531982,
        -5.021391868591309,
        1.2372076511383057,
        -4.816128730773926,
        -4.237194538116455,
        -1.8443306684494019,
        -5.963653087615967,
        0.40405166149139404,
        -3.479499101638794,
        -1.627655267715454,
        1.6511940956115723,
        -1.8880455493927002,
        -6.035316467285156,
        -5.183394908905029,
        -1.3285200595855713,
        -0.22975105047225952,
        1.0708789825439453,
        -0.02600453607738018,
        0.0367552675306797,
        -0.0160969290882349,
        -0.01871092990040779,
        0.024344274774193764,
        -3.9881277084350586,
        6.431386470794678,
        -8.124582290649414,
        -4.240255832672119,
        -2.718418836593628,
        -1.1511807441711426,
        -0.2601694166660309,
        1.158829689025879,
        2.7801668643951416,
        -4.370866775512695,
        -1.2561099529266357,
        -0.6833582520484924,
        -0.12277423590421677,
        -0.6830407977104187,
        -0.21664083003997803,
        0.21201220154762268,
        1.416031002998352,
        -4.056500434875488,
        -1.3415648937225342,
        -6.490340709686279,
        -5.257109642028809,
        -1.5752192735671997,
        -2.5528459548950195,
        -6.545949935913086,
        -5.177431583404541,
        0.5024431347846985,
        -7.197963237762451,
        -5.9342427253723145,
        -1.737444281578064,
        -4.308313846588135,
        -2.8472275733947754,
        -1.3787063360214233,
        -7.370510578155518,
        -0.13566328585147858,
        -3.9618656635284424,
        0.2550141513347626,
        4.4916768074035645,
        -1.5939695835113525,
        -2.077817916870117,
        -6.8987135887146,
        -1.9407113790512085,
        -0.27486148476600647,
        1.8703728914260864,
        0.030741211026906967,
        -0.008938591927289963,
        0.0418054424226284,
        0.013911034911870956,
        0.7140892744064331,
        -0.48870715498924255,
        -1.410353422164917,
        -7.781137943267822,
        -5.528841972351074,
        -0.04230763763189316,
        -0.7689287662506104,
        -4.2564191818237305,
        -5.083696365356445,
        -2.4898838996887207,
        -5.114509582519531,
        -5.307801723480225,
        -3.671208381652832,
        0.684707522392273,
        -0.026064487174153328,
        -0.01220129057765007,
        -0.005316242575645447,
        0.018960826098918915,
        0.0202813558280468,
        -4.089622974395752,
        -0.022780535742640495,
        0.02738432213664055,
        -3.2421419620513916,
        -1.044448971748352,
        -3.2313950061798096,
        -3.2658050060272217,
        -3.658024549484253,
        -5.175535202026367,
        -6.478114128112793,
        -0.010848090052604675,
        -0.029265448451042175,
        -4.898914813995361,
        -3.5932023525238037,
        -2.84696626663208,
        -1.3258880376815796,
        -1.787229299545288,
        -0.035453278571367264,
        -6.8442206382751465,
        -4.140937328338623,
        0.009610023349523544,
        -0.9333692193031311,
        -3.7934515476226807,
        -0.03666513413190842,
        -1.28387451171875,
        -0.01762334816157818,
        0.03943386301398277,
        0.023998688906431198,
        0.015894483774900436,
        0.22072333097457886,
        -0.6666723489761353,
        2.3553988933563232,
        -9.345102310180664,
        -2.125927448272705,
        -0.3067716062068939,
        -2.6546812057495117,
        1.0375738143920898,
        -1.9530084133148193,
        4.2278618812561035,
        -3.983642339706421,
        -2.402324676513672,
        -0.2793140113353729,
        0.19332586228847504,
        5.248475551605225,
        -2.4722213745117188,
        0.5413826704025269,
        0.12561596930027008,
        -6.888317108154297,
        -4.157846927642822,
        -15.68651294708252,
        -6.28318977355957,
        -1.1243929862976074,
        -3.000131130218506,
        -2.6819353103637695,
        -0.5761759281158447,
        1.2892225980758667,
        -1.824362874031067,
        -4.988953113555908,
        -0.33506765961647034,
        -8.417469024658203,
        -1.9938570261001587,
        -1.2853484153747559,
        -8.499204635620117,
        0.0745740681886673,
        -3.6884829998016357,
        -3.3570425510406494,
        1.741214394569397,
        -0.5453839898109436,
        -3.077328681945801,
        -5.54116153717041,
        -5.340151309967041,
        -0.8936861157417297,
        0.9664180874824524,
        -0.4515873193740845,
        -0.2354857176542282,
        0.1326197236776352,
        -3.3351283073425293,
        0.4264240264892578,
        -0.39761075377464294,
        0.43495896458625793,
        -3.010007858276367,
        -2.290980339050293,
        -0.6186802983283997,
        -1.1194437742233276,
        -1.4089313745498657,
        -0.5201999545097351,
        0.572504460811615,
        -0.11327946931123734,
        -0.5942184329032898,
        -0.41267094016075134,
        -0.018698344007134438,
        0.5162137150764465,
        0.07279037684202194,
        -0.46970823407173157,
        -1.1112093925476074,
        -3.917067050933838,
        -1.8059909343719482,
        -5.334079742431641,
        -5.866549491882324,
        -2.919381618499756,
        -1.8684067726135254,
        -3.3444995880126953,
        1.2661288976669312,
        -1.4562143087387085,
        -2.042335033416748,
        -1.5408297777175903,
        2.551612615585327,
        0.8145957589149475,
        -0.9638547897338867,
        0.8448250889778137,
        1.2882633209228516,
        0.5303750038146973,
        -2.4236085414886475,
        0.6056003570556641,
        1.7856848239898682,
        -2.2439136505126953,
        -1.23624849319458,
        1.7173938751220703,
        1.1448179483413696,
        -1.2090693712234497,
        -0.7159196734428406,
        0.013263937085866928,
        -0.02953403629362583,
        0.011281032115221024,
        0.02014000341296196,
        0.3566416800022125,
        6.808534145355225,
        1.0688300132751465,
        -0.44186630845069885,
        1.725462555885315,
        2.320751667022705,
        1.4272642135620117,
        -3.0839476585388184,
        -3.047355890274048,
        4.166963577270508,
        -0.2526645064353943,
        0.3827187418937683,
        -1.0254062414169312,
        0.4058234691619873,
        -2.1919939517974854,
        -0.13488514721393585,
        -2.5117383003234863,
        -3.1299610137939453,
        -7.770716667175293,
        5.297255516052246,
        15.57419490814209,
        -3.795456886291504,
        -1.3950490951538086,
        1.8442562818527222,
        -8.695993423461914,
        -0.9218266010284424,
        -2.3156304359436035,
        -1.6465951204299927,
        4.707645416259766,
        -4.091148853302002,
        11.131370544433594,
        1.4113929271697998,
        1.815585970878601,
        12.812644004821777,
        0.07058706879615784,
        -1.0998066663742065,
        -4.531861782073975,
        -4.378051280975342,
        -1.289610505104065,
        8.116719245910645,
        13.89403247833252,
        -3.704564094543457,
        -3.724608898162842,
        -0.280985563993454,
        0.0014702565968036652,
        0.02241281047463417,
        0.018487710505723953,
        -0.0016146227717399597,
        0.24492603540420532,
        8.693253517150879,
        -0.5168612599372864,
        -3.6696534156799316,
        6.127201557159424,
        1.803735375404358,
        4.366514205932617,
        -3.706969976425171,
        -2.8061723709106445,
        5.616194248199463,
        -1.6482114791870117,
        1.6910778284072876,
        -1.0876930952072144,
        0.19858549535274506,
        -3.481232166290283,
        0.15428794920444489,
        -0.7545940279960632,
        -1.5412297248840332,
        -7.715467929840088,
        2.442357301712036,
        11.792969703674316,
        -5.952878952026367,
        -3.6903324127197266,
        2.430635452270508,
        -7.894641399383545,
        -0.8950589895248413,
        -3.5791735649108887,
        5.814718723297119,
        4.020175933837891,
        -6.472346782684326,
        17.006643295288086,
        -0.014827152714133263,
        1.402758240699768,
        12.582194328308105,
        -0.12643946707248688,
        -0.5995490550994873,
        -3.7519524097442627,
        -2.4667365550994873,
        -0.48785755038261414,
        6.052184581756592,
        17.302000045776367,
        -3.4985604286193848,
        -3.4441020488739014,
        1.090576410293579,
        -0.020578857511281967,
        -0.012788515537977219,
        -0.016268329694867134,
        0.0018204860389232635,
        -0.042545683681964874,
        0.03407396748661995,
        -0.0022078603506088257,
        0.007006198167800903,
        0.007320787757635117,
        0.023934897035360336,
        0.017224926501512527,
        0.019068442285060883,
        0.03040611371397972,
        0.040884409099817276,
        -0.01840471662580967,
        0.03213658556342125,
        0.04008610174059868,
        -0.006127212196588516,
        -0.03021780401468277,
        0.008647792041301727,
        -0.01411791704595089,
        0.02158048376441002,
        0.030287977308034897,
        0.013047296553850174,
        -0.014235144481062889,
        0.012303594499826431,
        0.005746860057115555,
        -0.03853011131286621,
        0.03372873738408089,
        -0.038874994963407516,
        -0.0030270181596279144,
        -0.008569419384002686,
        0.011331666260957718,
        0.010532859712839127,
        -0.009075302630662918,
        -0.027165425941348076,
        0.029041718691587448,
        -0.042063649743795395,
        -0.01738724112510681,
        0.015028644353151321,
        -0.02452431246638298,
        0.026475798338651657,
        0.02359027788043022,
        -0.007547762244939804,
        0.039951954036951065,
        -0.017388135194778442,
        0.004545111209154129,
        0.021792713552713394,
        -0.041374485939741135,
        0.0019927285611629486,
        -0.03237799555063248,
        -0.033152054995298386,
        -0.9464225769042969,
        0.2876911163330078,
        3.0183980464935303,
        6.572207450866699,
        6.440256595611572,
        -0.005292821675539017,
        1.715146780014038,
        2.1911723613739014,
        -2.0161406993865967,
        2.661289691925049,
        5.05278205871582,
        4.635657787322998,
        5.7625885009765625,
        -0.9221498966217041,
        0.03647821024060249,
        0.016089700162410736,
        -0.04153924807906151,
        -0.03805208206176758,
        -0.023279424756765366,
        4.3859992027282715,
        0.041915591806173325,
        -0.021789206191897392,
        0.9666532278060913,
        -0.5624960660934448,
        2.34203839302063,
        6.880749702453613,
        3.3039753437042236,
        -0.42401716113090515,
        6.804852485656738,
        0.013693701475858688,
        -0.03348834812641144,
        7.224377632141113,
        -0.027192337438464165,
        3.6252944469451904,
        0.1766318827867508,
        4.1107025146484375,
        -0.016151225194334984,
        0.22705939412117004,
        1.7265801429748535,
        -0.024191806092858315,
        6.965869426727295,
        -1.3624740839004517,
        -0.008796542882919312,
        6.173095703125,
        -0.020440682768821716,
        0.008990619331598282,
        -0.039780884981155396,
        0.0013248920440673828,
        -0.41190314292907715,
        -0.359417587518692,
        -0.49115127325057983,
        0.015884090214967728,
        15.195420265197754,
        -0.16954821348190308,
        4.263340473175049,
        -1.5627710819244385,
        -2.959752321243286,
        0.8889044523239136,
        -0.49145078659057617,
        1.2458330392837524,
        -0.03333988040685654,
        0.022001560777425766,
        0.466615229845047,
        0.26531949639320374,
        1.7752820253372192,
        -2.6925201416015625,
        -1.943735957145691,
        -0.028938505798578262,
        16.44955825805664,
        0.26674166321754456,
        0.0018798895180225372,
        0.038179632276296616,
        -0.011422902345657349,
        0.02706800028681755,
        8.098331451416016,
        -0.0338662825524807,
        14.177264213562012,
        -2.2120776176452637,
        14.025193214416504,
        -0.0003963746130466461,
        0.23434075713157654,
        -0.03211590275168419,
        0.9666602611541748,
        6.368385314941406,
        -0.4983569085597992,
        0.017710953950881958,
        1.0216214656829834,
        8.351797103881836,
        12.383706092834473,
        -1.1612766981124878,
        -2.607795000076294,
        -0.03694441542029381,
        -3.501293659210205,
        -2.8788259029388428,
        -0.7851042747497559,
        -0.021953348070383072,
        -1.0731717348098755,
        -0.6232262253761292,
        0.14429958164691925,
        0.13769638538360596,
        -1.5728310346603394,
        -0.13091513514518738,
        -1.6753162145614624,
        -0.9684027433395386,
        -1.7245405912399292,
        0.07229605317115784,
        0.11053158342838287,
        0.043470535427331924,
        0.2279844582080841,
        -0.8507512211799622,
        0.18376101553440094,
        0.40134918689727783,
        -0.37639331817626953,
        -0.20469047129154205
      ],
      [
        0.3534224033355713,
        2.486758232116699,
        3.9745662212371826,
        1.5141044855117798,
        -1.00458824634552,
        1.3869553804397583,
        0.3641303479671478,
        -1.7195460796356201,
        -0.0416555218398571,
        3.8132665157318115,
        -3.168199300765991,
        0.805860698223114,
        -0.26410964131355286,
        0.013006462715566158,
        -2.2605011463165283,
        3.2289488315582275,
        -2.1791319847106934,
        -2.504655361175537,
        -1.7750195264816284,
        -5.432952880859375,
        3.4572978019714355,
        -1.4423528909683228,
        -4.5250349044799805,
        -3.543679714202881,
        -3.9839138984680176,
        6.671703815460205,
        1.1631555557250977,
        3.3021557331085205,
        1.0518211126327515,
        -0.2418459802865982,
        4.398575305938721,
        2.6962497234344482,
        -1.1206539869308472,
        3.708467721939087,
        0.3755038380622864,
        -2.6408936977386475,
        -0.7602157592773438,
        0.9320611953735352,
        1.7055583000183105,
        -1.7830536365509033,
        -0.5125842094421387,
        0.18599948287010193,
        -1.2468355894088745,
        1.391646385192871,
        0.007083579897880554,
        -0.04140157997608185,
        0.013799093663692474,
        0.018841274082660675,
        0.3776651918888092,
        0.819108247756958,
        2.1448259353637695,
        2.70772385597229,
        -1.689570665359497,
        1.7557963132858276,
        -0.17939476668834686,
        -3.1528377532958984,
        0.9858567118644714,
        3.144117832183838,
        -3.898327112197876,
        0.8859593272209167,
        0.13396020233631134,
        0.158635675907135,
        -4.720798492431641,
        3.8980655670166016,
        0.22227193415164948,
        -1.7509691715240479,
        -1.8108071088790894,
        -8.127689361572266,
        2.513716220855713,
        -4.834446907043457,
        -7.2018303871154785,
        -4.0041046142578125,
        -4.624613285064697,
        5.213816165924072,
        1.328572154045105,
        1.462909460067749,
        -0.8183749318122864,
        -3.343762159347534,
        4.554162502288818,
        -1.4408636093139648,
        -0.2855139374732971,
        2.8828752040863037,
        0.48427945375442505,
        -2.8220608234405518,
        2.4357264041900635,
        5.034984111785889,
        2.06742262840271,
        2.198188066482544,
        -4.910708427429199,
        -2.434915542602539,
        3.1682240962982178,
        0.9106478095054626,
        -0.008364289999008179,
        -0.019697586074471474,
        0.006095193326473236,
        -0.008912086486816406,
        0.17925231158733368,
        -0.027513625100255013,
        2.4764087200164795,
        1.4873106479644775,
        -1.9998670816421509,
        2.1439146995544434,
        -0.30334341526031494,
        -2.447211742401123,
        2.1324543952941895,
        4.524682998657227,
        -3.290677547454834,
        0.05769100785255432,
        0.09202467650175095,
        -0.009111111052334309,
        -2.950347423553467,
        4.734755039215088,
        -0.8683696985244751,
        3.825407028198242,
        -3.612475633621216,
        -4.794394016265869,
        9.027154922485352,
        -1.6196293830871582,
        -7.327044486999512,
        -1.949647068977356,
        -5.909183025360107,
        7.835525989532471,
        1.4682577848434448,
        -2.2398109436035156,
        2.9875900745391846,
        -0.1715625524520874,
        -0.31276634335517883,
        0.7054819464683533,
        -1.0397069454193115,
        1.6349971294403076,
        0.4383942782878876,
        -1.1862115859985352,
        1.2813421487808228,
        2.7907791137695312,
        2.2470250129699707,
        -0.34517043828964233,
        -2.5307929515838623,
        -4.235912799835205,
        -0.7837679386138916,
        1.4008475542068481,
        0.020234961062669754,
        -0.0036612562835216522,
        -0.02997826598584652,
        0.02463594451546669,
        -2.272357702255249,
        -0.4063563942909241,
        -2.323431968688965,
        3.351438522338867,
        0.9914172291755676,
        -0.009536553174257278,
        -4.415416717529297,
        2.4781417846679688,
        -0.7960513830184937,
        -1.9523051977157593,
        1.8362867832183838,
        1.735607624053955,
        3.0994014739990234,
        -2.288179636001587,
        0.038687918335199356,
        -0.024204635992646217,
        -0.005766537040472031,
        -0.016321035102009773,
        -0.002558387815952301,
        2.0086934566497803,
        -0.04046744108200073,
        -0.016804348677396774,
        0.3355128765106201,
        0.6875922083854675,
        1.523470401763916,
        2.1809194087982178,
        -1.3138461112976074,
        1.989108920097351,
        1.6205323934555054,
        -0.025723937898874283,
        -0.014415724202990532,
        3.825517177581787,
        -2.036055564880371,
        3.7709689140319824,
        -1.254389762878418,
        0.9496880769729614,
        0.024308178573846817,
        -2.9914042949676514,
        -2.0220959186553955,
        -0.006417922675609589,
        1.9734607934951782,
        -0.9711669087409973,
        0.005544900894165039,
        2.5298054218292236,
        0.03531378135085106,
        -0.022390613332390785,
        -0.003269381821155548,
        0.029869478195905685,
        0.1916050761938095,
        -0.7378198504447937,
        3.619509220123291,
        -0.8798772096633911,
        -1.8050578832626343,
        0.732375979423523,
        -1.5142496824264526,
        -1.424035906791687,
        1.9893125295639038,
        -0.2193785160779953,
        -2.0267040729522705,
        1.8641798496246338,
        0.4635144770145416,
        0.11969196051359177,
        -3.550342082977295,
        5.411835670471191,
        2.9633989334106445,
        -1.8645482063293457,
        0.1928015947341919,
        -2.7507781982421875,
        2.7147018909454346,
        -4.363866329193115,
        -4.838939189910889,
        -0.6481906175613403,
        -0.5233557820320129,
        5.699608325958252,
        0.5368003249168396,
        3.8186614513397217,
        0.5530533194541931,
        -3.7923061847686768,
        4.676244258880615,
        2.139136552810669,
        0.9474955797195435,
        3.040135383605957,
        0.3626073896884918,
        -0.19943660497665405,
        1.1089986562728882,
        1.5238665342330933,
        2.14782452583313,
        0.730006992816925,
        -1.6664891242980957,
        1.1240453720092773,
        -0.9258337616920471,
        1.3093440532684326,
        -0.4186892807483673,
        -1.5573177337646484,
        0.5744959115982056,
        -3.789794445037842,
        0.23620536923408508,
        0.629866898059845,
        -0.12002364546060562,
        3.6536824703216553,
        1.5218428373336792,
        2.0734305381774902,
        3.1845972537994385,
        -3.262159824371338,
        -0.9008369445800781,
        2.3812668323516846,
        -0.09537842869758606,
        1.1454646587371826,
        -0.1785229742527008,
        0.6661874055862427,
        1.231248378753662,
        -0.05686663091182709,
        5.703211784362793,
        -7.296792984008789,
        2.8109090328216553,
        -4.3073344230651855,
        -0.6479637622833252,
        -0.8751997351646423,
        -1.0950572490692139,
        -0.32252466678619385,
        -13.037104606628418,
        3.947136163711548,
        -1.645887017250061,
        4.335412979125977,
        5.057425022125244,
        1.972766637802124,
        3.8479790687561035,
        -1.5205810070037842,
        1.6587789058685303,
        -0.6615870594978333,
        -0.24136805534362793,
        1.2736953496932983,
        4.489087104797363,
        0.9661341905593872,
        -0.064055897295475,
        1.1917028427124023,
        -1.6616451740264893,
        -2.2007369995117188,
        2.5723416805267334,
        0.48962706327438354,
        0.02564838156104088,
        -0.0010032877326011658,
        -0.02805936709046364,
        0.006518270820379257,
        -0.570776641368866,
        -2.448237180709839,
        -3.3064422607421875,
        -2.572348117828369,
        0.4088616669178009,
        1.086955189704895,
        3.1165530681610107,
        -0.7576195001602173,
        -0.397400438785553,
        2.0810160636901855,
        0.7724050879478455,
        -0.3585590124130249,
        -0.49997174739837646,
        -0.8201040625572205,
        -0.6592161059379578,
        3.141331195831299,
        2.040447235107422,
        -2.069911479949951,
        1.0374659299850464,
        -11.480430603027344,
        -5.958332061767578,
        1.0280827283859253,
        -0.32448193430900574,
        1.1085017919540405,
        0.10735629498958588,
        -2.1681509017944336,
        -3.914768934249878,
        0.3804674744606018,
        -0.3368968069553375,
        3.370060443878174,
        -4.151093006134033,
        -9.222262382507324,
        1.0012402534484863,
        -5.263420581817627,
        -0.46474871039390564,
        -3.8768310546875,
        4.967418670654297,
        0.5471526980400085,
        0.10756924003362656,
        -5.900718688964844,
        1.1383470296859741,
        1.467516541481018,
        4.01495361328125,
        -7.032869815826416,
        -0.022559475153684616,
        0.020424049347639084,
        -0.03628186881542206,
        -0.019382154569029808,
        -0.18057258427143097,
        -2.00451922416687,
        -4.036083221435547,
        -0.33783388137817383,
        0.2585797905921936,
        1.8152283430099487,
        2.960344076156616,
        -1.2593085765838623,
        -2.0721094608306885,
        1.2044380903244019,
        -0.15889884531497955,
        -0.7417868375778198,
        -1.1984399557113647,
        -0.6565132141113281,
        4.948662757873535,
        2.165602922439575,
        1.0565253496170044,
        -0.03501695394515991,
        6.0556511878967285,
        -5.080543041229248,
        -7.479099273681641,
        1.8854835033416748,
        -4.030455589294434,
        -2.708315849304199,
        1.0046863555908203,
        -4.580567359924316,
        -5.518442630767822,
        4.658342361450195,
        -0.8314699530601501,
        8.891826629638672,
        2.268885612487793,
        -8.370655059814453,
        1.1789909601211548,
        -3.6930456161499023,
        -0.47182631492614746,
        -2.4783365726470947,
        4.925563812255859,
        -0.16588187217712402,
        0.214521586894989,
        -1.3999227285385132,
        -3.528599739074707,
        2.0427005290985107,
        4.984155654907227,
        -5.891760349273682,
        0.0244445763528347,
        0.004818465560674667,
        -0.0034972578287124634,
        0.023057270795106888,
        -0.035370081663131714,
        0.022748608142137527,
        -0.02988370507955551,
        -0.03952481225132942,
        0.002499181777238846,
        0.022459056228399277,
        -0.01136947050690651,
        -0.006616756319999695,
        0.0009723268449306488,
        -0.030363913625478745,
        0.01328267902135849,
        0.02555098757147789,
        0.02611299231648445,
        -0.0050647929310798645,
        0.01402193307876587,
        -0.013047304004430771,
        -0.019354013726115227,
        0.005227360874414444,
        -0.0020515955984592438,
        0.01929868385195732,
        0.03668111935257912,
        -0.03427421301603317,
        -0.0005413293838500977,
        0.03018636628985405,
        0.023823332041502,
        0.035045746713876724,
        -0.027763046324253082,
        0.03109467402100563,
        0.014608144760131836,
        -0.005259986966848373,
        0.018111471086740494,
        -0.02970964089035988,
        -0.02083275280892849,
        -0.01855349726974964,
        -0.036292072385549545,
        -0.026439465582370758,
        0.022032860666513443,
        -0.02059987559914589,
        0.0072290487587451935,
        0.014088347554206848,
        0.005374342203140259,
        -0.01346452347934246,
        -0.01779685541987419,
        0.003905259072780609,
        -0.015678809955716133,
        0.018269773572683334,
        0.010176416486501694,
        -0.036210205405950546,
        -1.6712275743484497,
        -1.7847400903701782,
        0.37978747487068176,
        -6.3909478187561035,
        0.24551451206207275,
        -0.021633753553032875,
        2.19462513923645,
        -3.9410011768341064,
        -5.18468713760376,
        0.5200635194778442,
        -5.55615758895874,
        -1.1209608316421509,
        -3.911308765411377,
        -1.672631859779358,
        0.006579745560884476,
        0.04129967465996742,
        -0.025007564574480057,
        0.0068557485938072205,
        -0.0010265707969665527,
        -1.728527545928955,
        0.04225287213921547,
        -0.01996862329542637,
        -1.392537236213684,
        -0.07587753236293793,
        -0.42478352785110474,
        -1.328147053718567,
        1.319972276687622,
        -2.5362470149993896,
        2.48909068107605,
        -0.010183021426200867,
        0.02440016344189644,
        -2.2370784282684326,
        -0.482067346572876,
        -5.706328868865967,
        -3.2330310344696045,
        -3.0137948989868164,
        -0.009019725024700165,
        5.989475727081299,
        -1.7734558582305908,
        0.001840539276599884,
        -1.1389254331588745,
        0.2948349416255951,
        0.018674291670322418,
        -1.4380755424499512,
        -0.0030506402254104614,
        -0.026770707219839096,
        -0.03942173719406128,
        0.004594136029481888,
        1.4759939908981323,
        0.9805250763893127,
        0.5582573413848877,
        -0.01247132383286953,
        -1.7957805395126343,
        1.227675437927246,
        2.4187138080596924,
        -3.671376943588257,
        -3.797936201095581,
        6.592275142669678,
        -0.4625823199748993,
        -3.4870049953460693,
        0.040053416043519974,
        -0.00026744231581687927,
        0.6543604135513306,
        0.44842055439949036,
        2.1185050010681152,
        -4.849465370178223,
        1.5432041883468628,
        -0.031177029013633728,
        -12.07801342010498,
        -2.114515542984009,
        -0.02520562708377838,
        0.006084170192480087,
        -0.013054195791482925,
        -0.03346690535545349,
        -0.16669897735118866,
        0.042340610176324844,
        -3.9065990447998047,
        5.038931846618652,
        -9.015254020690918,
        -0.0035368427634239197,
        -3.2838973999023438,
        0.022302646189928055,
        2.2168357372283936,
        -9.812361717224121,
        2.1996970176696777,
        0.004168670624494553,
        -2.384138584136963,
        -5.184479713439941,
        1.113517165184021,
        2.1186859607696533,
        0.3099082112312317,
        -0.011845273897051811,
        -0.009689425118267536,
        0.923816442489624,
        -2.1065051555633545,
        0.040720630437135696,
        -0.4031013250350952,
        0.2447277158498764,
        1.5403707027435303,
        0.2755531370639801,
        0.8301927447319031,
        0.46816471219062805,
        0.17997972667217255,
        -0.836367666721344,
        3.0279932022094727,
        0.33215388655662537,
        0.4396291673183441,
        0.15739251673221588,
        0.1854245513677597,
        -1.6365156173706055,
        -0.18839412927627563,
        -0.5863913297653198,
        1.4637247323989868,
        0.06086340919137001
      ],
      [
        -0.1601995974779129,
        -2.003904104232788,
        -2.7802088260650635,
        -2.730185031890869,
        2.258336305618286,
        -1.4226254224777222,
        0.405754417181015,
        0.038343507796525955,
        0.5602225065231323,
        1.5965673923492432,
        1.6320842504501343,
        -0.22628404200077057,
        -0.11148227751255035,
        -0.05896725133061409,
        -6.2800703048706055,
        3.2020740509033203,
        0.818809986114502,
        4.49355411529541,
        -0.11978353559970856,
        -1.612668752670288,
        -7.933440685272217,
        -3.028329849243164,
        -1.9279664754867554,
        3.6180732250213623,
        -7.165008068084717,
        0.5858520269393921,
        -2.4316983222961426,
        -4.894195556640625,
        -0.15298444032669067,
        -2.056284189224243,
        -6.3810858726501465,
        2.1501624584198,
        0.04576224461197853,
        -1.8690093755722046,
        0.5059974789619446,
        0.34980207681655884,
        4.971043109893799,
        0.6980664730072021,
        -1.7947704792022705,
        -11.776555061340332,
        -0.2931278944015503,
        -0.18323767185211182,
        3.8049309253692627,
        1.0771265029907227,
        -0.005392678081989288,
        -0.018906785175204277,
        -0.03288693726062775,
        -0.01689177192747593,
        0.3861171007156372,
        -0.23242713510990143,
        -0.23124003410339355,
        -4.085157871246338,
        1.6623810529708862,
        -0.20419421792030334,
        0.7008830308914185,
        0.2723288834095001,
        -0.16498050093650818,
        1.1032447814941406,
        1.156243085861206,
        -0.40837734937667847,
        0.5202591419219971,
        0.3836399018764496,
        -4.262522220611572,
        2.0994064807891846,
        3.788482666015625,
        0.9962568283081055,
        2.528625726699829,
        -1.449101448059082,
        -3.690459728240967,
        -1.8151752948760986,
        0.11819347739219666,
        0.18438346683979034,
        -2.905984401702881,
        1.737917184829712,
        -2.379061460494995,
        -1.791723370552063,
        2.3417913913726807,
        -6.742452621459961,
        -0.5990771055221558,
        0.29780781269073486,
        0.8537168502807617,
        -3.40319561958313,
        0.5340163707733154,
        -0.5529531240463257,
        4.321876525878906,
        1.8777345418930054,
        0.887702226638794,
        -6.433236598968506,
        -1.8974820375442505,
        -0.8198485970497131,
        1.5253468751907349,
        1.7470288276672363,
        -0.03734889626502991,
        -0.0012137927114963531,
        -0.009607188403606415,
        0.01713118702173233,
        0.564070999622345,
        -1.3866567611694336,
        -1.5012426376342773,
        0.42702221870422363,
        1.8469324111938477,
        -0.7915549278259277,
        0.016097920015454292,
        -0.853873074054718,
        0.9609763622283936,
        2.3284659385681152,
        1.2537699937820435,
        -0.525380551815033,
        0.6826310157775879,
        0.5062856078147888,
        -4.580786228179932,
        2.8855838775634766,
        2.233309745788574,
        2.1982953548431396,
        1.605991005897522,
        -2.0505917072296143,
        -11.300206184387207,
        -1.3560240268707275,
        -0.7264578342437744,
        2.8879382610321045,
        -4.322483539581299,
        1.043814778327942,
        -4.325626373291016,
        -0.7003682851791382,
        3.997673988342285,
        0.4790216088294983,
        -3.2491085529327393,
        -1.8569170236587524,
        1.0103422403335571,
        -0.08687499910593033,
        0.8165623545646667,
        0.09716574102640152,
        6.501433849334717,
        -0.6428999304771423,
        -1.3134350776672363,
        -6.6440348625183105,
        -2.2340385913848877,
        0.2348369061946869,
        4.219886302947998,
        2.2713711261749268,
        0.003417186439037323,
        0.004377957433462143,
        -0.02799256145954132,
        0.034903060644865036,
        3.1952688694000244,
        0.7107031941413879,
        0.6438308954238892,
        -6.151187419891357,
        -1.0695279836654663,
        0.02142789587378502,
        -3.6370675563812256,
        -0.627325713634491,
        -3.482844114303589,
        -0.5945845246315002,
        -2.349616289138794,
        -1.493024468421936,
        -2.1683008670806885,
        3.199298620223999,
        -0.02123679593205452,
        -0.011158838868141174,
        -0.026804175227880478,
        -0.020688496530056,
        -0.01842765510082245,
        -1.748408555984497,
        -0.01298345997929573,
        0.02567073330283165,
        -3.6124560832977295,
        1.2860863208770752,
        -4.303164482116699,
        -4.064294815063477,
        -4.4789838790893555,
        -6.552212238311768,
        -4.98094367980957,
        0.016769055277109146,
        0.005714643746614456,
        -1.0807604789733887,
        -2.0520236492156982,
        -7.638874530792236,
        1.8953099250793457,
        -1.1989809274673462,
        0.025503050535917282,
        -1.0548548698425293,
        -1.7033149003982544,
        0.01804722100496292,
        -1.6646963357925415,
        -2.3730647563934326,
        0.012114856392145157,
        -1.7869826555252075,
        -0.03750269114971161,
        -0.0023905225098133087,
        -0.010038740932941437,
        -0.025889217853546143,
        0.19998595118522644,
        0.4024346172809601,
        -1.431560754776001,
        -1.6637284755706787,
        1.142336368560791,
        -2.640228033065796,
        0.04438134655356407,
        1.2191511392593384,
        2.002729654312134,
        0.3265543282032013,
        1.0611557960510254,
        0.5277682542800903,
        0.08621686697006226,
        0.5419527292251587,
        -6.206620693206787,
        2.414656639099121,
        2.8613688945770264,
        2.787182092666626,
        -1.0264897346496582,
        -3.223691463470459,
        -11.757664680480957,
        -3.2301642894744873,
        -1.8469126224517822,
        1.9387938976287842,
        -5.321335315704346,
        -0.7491476535797119,
        -4.715712547302246,
        -6.159921169281006,
        2.2452290058135986,
        -6.047471046447754,
        -8.94063663482666,
        -0.11301737278699875,
        -1.3929325342178345,
        -3.4907124042510986,
        0.567283570766449,
        -1.1798169612884521,
        3.1846840381622314,
        0.8996163010597229,
        -3.04982590675354,
        -13.549051284790039,
        -1.5677411556243896,
        0.5011419653892517,
        5.038744926452637,
        2.067448139190674,
        2.478292226791382,
        1.2332708835601807,
        0.395836740732193,
        -6.196289539337158,
        -0.681581974029541,
        -1.3023279905319214,
        -0.99943608045578,
        1.272220492362976,
        0.08801427483558655,
        -0.41483575105667114,
        1.5158203840255737,
        0.6773437261581421,
        0.01663951389491558,
        -1.0959405899047852,
        2.319284439086914,
        -0.9763999581336975,
        1.3647534847259521,
        -0.6783812046051025,
        -0.9733768105506897,
        0.6152886152267456,
        2.263715982437134,
        0.6422837972640991,
        -2.0623490810394287,
        0.5120425820350647,
        1.7184381484985352,
        4.783197402954102,
        0.10535620898008347,
        -1.6168581247329712,
        2.3338425159454346,
        3.236859083175659,
        -1.9655864238739014,
        -1.242010474205017,
        1.0242302417755127,
        1.5092430114746094,
        -1.5148677825927734,
        1.3820995092391968,
        2.3876655101776123,
        0.6130056977272034,
        -0.46804386377334595,
        -1.003351092338562,
        1.0284944772720337,
        -0.3291972577571869,
        1.0451732873916626,
        -10.852469444274902,
        1.1845426559448242,
        0.4219781756401062,
        -0.9329068660736084,
        0.05122145265340805,
        0.012993428856134415,
        0.02756907418370247,
        0.042390648275613785,
        0.02637365832924843,
        -0.964630663394928,
        2.2846524715423584,
        0.29347458481788635,
        10.487187385559082,
        -2.507927179336548,
        0.7902690768241882,
        1.7064766883850098,
        -0.15098945796489716,
        -0.6198372840881348,
        -5.867588043212891,
        3.2026894092559814,
        3.422502279281616,
        -1.3179051876068115,
        -1.0627799034118652,
        0.4386274516582489,
        0.2971250116825104,
        -4.989434242248535,
        1.194387435913086,
        3.1181704998016357,
        2.2760961055755615,
        7.819398403167725,
        -2.375757932662964,
        -3.855624198913574,
        -6.215493202209473,
        3.5614285469055176,
        -0.3005213737487793,
        2.5065932273864746,
        2.862778663635254,
        3.514028310775757,
        -7.347867965698242,
        0.29357296228408813,
        -5.23271369934082,
        1.8648980855941772,
        2.601374864578247,
        -1.3796441555023193,
        2.0935792922973633,
        -6.613274574279785,
        -3.5364246368408203,
        3.7556188106536865,
        0.24465374648571014,
        -6.11683464050293,
        -1.3691532611846924,
        -2.506958484649658,
        -2.5508997440338135,
        0.030466970056295395,
        -0.01477518305182457,
        0.008244846016168594,
        0.005518987774848938,
        -0.8213359117507935,
        2.702324867248535,
        -0.33502891659736633,
        11.225521087646484,
        -2.027958631515503,
        2.183565616607666,
        1.4645634889602661,
        0.04630022123456001,
        -1.5494307279586792,
        -8.533393859863281,
        3.0850577354431152,
        4.65446138381958,
        -0.7426156997680664,
        -0.6154131293296814,
        1.2589409351348877,
        0.11964086443185806,
        -3.3962085247039795,
        2.46643328666687,
        2.5004804134368896,
        1.987675666809082,
        5.0041046142578125,
        -4.791713714599609,
        -2.9557547569274902,
        -9.806183815002441,
        4.431020259857178,
        -0.30352845788002014,
        1.9547133445739746,
        0.7101580500602722,
        3.172078847885132,
        -8.983172416687012,
        -0.008249406702816486,
        -3.7130837440490723,
        2.4402883052825928,
        1.7406947612762451,
        -1.0098295211791992,
        0.903096616268158,
        -7.0739617347717285,
        -5.184884071350098,
        2.684619665145874,
        4.687280178070068,
        -7.748968124389648,
        -1.6356807947158813,
        -1.5227302312850952,
        -2.2906339168548584,
        0.042382899671792984,
        0.02233075723052025,
        0.02793581411242485,
        0.001990754157304764,
        0.016950033605098724,
        -0.012055939063429832,
        0.024081427603960037,
        -0.007618695497512817,
        0.026146095246076584,
        -0.010489854961633682,
        -0.030241956934332848,
        -0.024631967768073082,
        0.02258724346756935,
        0.026162799447774887,
        -0.03828723356127739,
        0.03025452420115471,
        0.012528486549854279,
        0.029074091464281082,
        0.02454482391476631,
        0.022447403520345688,
        -0.018647216260433197,
        -0.029564686119556427,
        0.027476217597723007,
        0.013060476630926132,
        -0.004191610962152481,
        0.02299562469124794,
        -0.0036657042801380157,
        0.021691810339689255,
        -0.020664550364017487,
        0.025251302868127823,
        -0.039308756589889526,
        -0.028723934665322304,
        0.03004666045308113,
        0.003430694341659546,
        0.020650368183851242,
        -0.011911805719137192,
        -0.02090458944439888,
        -0.03031911328434944,
        -0.02447688765823841,
        0.030263643711805344,
        0.025143731385469437,
        -0.04127533361315727,
        -0.017421947792172432,
        0.039841022342443466,
        -0.008205275982618332,
        0.039628710597753525,
        -0.0038205645978450775,
        0.010265421122312546,
        -0.0165715329349041,
        0.032067809253931046,
        0.029645834118127823,
        -0.019528480246663094,
        -2.7972280979156494,
        1.7967512607574463,
        -0.3258258104324341,
        5.5785698890686035,
        -1.952703595161438,
        -0.01665702648460865,
        -0.2860986292362213,
        3.5359725952148438,
        2.2420730590820312,
        -2.804591178894043,
        0.09062620997428894,
        0.6835300922393799,
        7.956417560577393,
        -2.769798994064331,
        0.0272737555205822,
        -0.04206077754497528,
        0.024587344378232956,
        -0.023991186171770096,
        -0.015318471938371658,
        3.991173028945923,
        0.018538866192102432,
        -0.041331399232149124,
        3.8307154178619385,
        1.4384368658065796,
        5.6855878829956055,
        1.3912509679794312,
        3.3290414810180664,
        1.6249542236328125,
        5.231288433074951,
        0.007781751453876495,
        -0.039992835372686386,
        -3.1027133464813232,
        -2.61708927154541,
        1.7202118635177612,
        -2.2071502208709717,
        2.358083486557007,
        -0.03850412741303444,
        1.1971046924591064,
        -0.076583132147789,
        -0.016758866608142853,
        0.694019615650177,
        -0.06830250471830368,
        -0.02768344059586525,
        -3.197147846221924,
        0.024470839649438858,
        0.037674855440855026,
        -0.00222112238407135,
        -0.012516273185610771,
        -0.6276323199272156,
        0.24715885519981384,
        -0.027200568467378616,
        0.03685849532485008,
        -2.7866947650909424,
        -0.8048914074897766,
        5.574093341827393,
        0.08741573244333267,
        0.24798476696014404,
        -4.131003379821777,
        0.857093334197998,
        3.088191270828247,
        0.03726589307188988,
        0.011942528188228607,
        -0.31064072251319885,
        1.7291370630264282,
        -4.583556652069092,
        3.86022686958313,
        -0.3910236954689026,
        -0.030627332627773285,
        6.925461769104004,
        1.809852957725525,
        -0.04049655422568321,
        0.00032573193311691284,
        -0.035720791667699814,
        0.0366651825606823,
        -2.884732723236084,
        0.006983764469623566,
        4.6744704246521,
        -5.5883989334106445,
        -1.545499324798584,
        0.03237676993012428,
        3.67587947845459,
        -0.0033456720411777496,
        -1.749711513519287,
        3.390472888946533,
        -3.6762137413024902,
        -0.008375082165002823,
        -7.476867198944092,
        1.5211013555526733,
        -5.727361679077148,
        -2.811136245727539,
        -0.8024294376373291,
        0.03418100252747536,
        -0.8627505302429199,
        -0.7291834354400635,
        1.6053211688995361,
        0.04259948804974556,
        1.0351526737213135,
        -0.15508049726486206,
        -0.4144289493560791,
        -0.3949072062969208,
        0.12929128110408783,
        0.17296437919139862,
        0.24513749778270721,
        -0.650499165058136,
        0.9342082142829895,
        -0.11381164193153381,
        0.3986113667488098,
        0.6269524097442627,
        0.1775623857975006,
        -2.803799629211426,
        -0.8392278552055359,
        -1.0068628787994385,
        -0.6041803359985352,
        0.03944704681634903
      ],
      [
        -0.636040449142456,
        11.28363037109375,
        3.2918975353240967,
        3.548308849334717,
        5.672382354736328,
        5.283433437347412,
        1.3500373363494873,
        -3.5988597869873047,
        -3.805047035217285,
        2.5803771018981934,
        -0.44321638345718384,
        -0.6426180005073547,
        -0.9043779373168945,
        -0.9577855467796326,
        3.8235602378845215,
        -0.8107192516326904,
        -4.064364433288574,
        -1.5352753400802612,
        -2.196516513824463,
        4.960864543914795,
        12.109186172485352,
        3.5778589248657227,
        0.5924903750419617,
        -1.7392305135726929,
        2.109806776046753,
        2.447129011154175,
        0.6066243052482605,
        -0.17270292341709137,
        3.928025722503662,
        -3.7066028118133545,
        8.252941131591797,
        1.018954873085022,
        2.7248167991638184,
        9.9675874710083,
        -1.12970769405365,
        0.0035662634763866663,
        -5.383690357208252,
        -0.9013566374778748,
        0.9218637943267822,
        10.886449813842773,
        4.609344005584717,
        -4.010408401489258,
        -2.9968795776367188,
        1.716019630432129,
        0.00534464418888092,
        0.020035427063703537,
        0.018490638583898544,
        -0.015671906992793083,
        -1.4270272254943848,
        7.671629428863525,
        3.5756185054779053,
        3.912017583847046,
        -0.0846681222319603,
        4.5714311599731445,
        -0.4535253047943115,
        -2.350325584411621,
        -4.289750099182129,
        1.7693679332733154,
        -1.6848511695861816,
        -2.2141778469085693,
        -0.9949672222137451,
        -1.4601929187774658,
        3.824815034866333,
        -0.6750242710113525,
        -2.920980930328369,
        0.7126187086105347,
        -2.342280149459839,
        5.110255718231201,
        8.826004028320312,
        6.0402727127075195,
        0.795199453830719,
        -2.492215394973755,
        4.1319966316223145,
        2.8492836952209473,
        0.4677150845527649,
        -2.1952598094940186,
        2.184009313583374,
        -3.4106218814849854,
        5.948362350463867,
        1.192872166633606,
        1.632283091545105,
        6.503070831298828,
        -1.902505874633789,
        0.01625095121562481,
        -2.3002820014953613,
        -0.12377974390983582,
        0.8174858689308167,
        9.634400367736816,
        3.9953362941741943,
        -1.7967113256454468,
        -2.641042947769165,
        0.41435062885284424,
        0.0365336649119854,
        0.03848994895815849,
        0.008153393864631653,
        -0.0370437353849411,
        -1.6347318887710571,
        9.746562957763672,
        2.9932212829589844,
        2.9008090496063232,
        1.7383784055709839,
        6.054452896118164,
        0.797701358795166,
        -2.589104652404785,
        -6.409420967102051,
        1.046025037765503,
        -0.7895740270614624,
        -1.7408417463302612,
        -1.961303949356079,
        -1.7770620584487915,
        2.604811191558838,
        -0.9951956868171692,
        -4.633016586303711,
        -2.1161818504333496,
        -3.2443411350250244,
        6.487083435058594,
        9.233871459960938,
        4.112635135650635,
        -0.9670266509056091,
        -2.3308067321777344,
        0.9836223125457764,
        3.672213315963745,
        -0.5519247651100159,
        3.678654193878174,
        2.165482521057129,
        -4.116349220275879,
        7.784680366516113,
        3.4206199645996094,
        1.5744988918304443,
        10.872686386108398,
        -2.0193443298339844,
        0.5341808795928955,
        -4.276836395263672,
        0.12391356378793716,
        -0.890845537185669,
        7.870388984680176,
        3.188822031021118,
        -2.7910642623901367,
        -4.609567642211914,
        0.08299337327480316,
        0.008316494524478912,
        0.004127237945795059,
        0.04218020662665367,
        0.030972305685281754,
        -2.2471506595611572,
        0.8249748349189758,
        -0.1652979552745819,
        8.986038208007812,
        2.0078866481781006,
        -0.007855061441659927,
        1.4149274826049805,
        5.438880443572998,
        3.88409423828125,
        2.9285976886749268,
        3.412109375,
        3.1090779304504395,
        3.031447172164917,
        -2.2104389667510986,
        -0.014465214684605598,
        -0.011974183842539787,
        0.010978039354085922,
        0.04175447300076485,
        0.040459420531988144,
        6.013700485229492,
        -0.0017977356910705566,
        0.025969248265028,
        3.789890766143799,
        0.7574339509010315,
        1.6093621253967285,
        7.768615245819092,
        4.1269707679748535,
        8.996969223022461,
        5.403839588165283,
        0.006945431232452393,
        -0.030448850244283676,
        6.825963497161865,
        2.4738948345184326,
        6.609600067138672,
        -1.190924048423767,
        0.506474494934082,
        0.018473483622074127,
        5.326766490936279,
        3.713555335998535,
        0.029442403465509415,
        1.7952499389648438,
        6.232509136199951,
        0.009864568710327148,
        3.1157567501068115,
        -0.002680916339159012,
        -0.013393085449934006,
        -0.042347151786088943,
        -0.0047935545444488525,
        -0.8438664078712463,
        6.807457447052002,
        5.406946659088135,
        3.3654515743255615,
        1.998246431350708,
        7.662403583526611,
        0.720413327217102,
        -4.532057762145996,
        -3.272566795349121,
        2.4271233081817627,
        -1.3045680522918701,
        -2.1923069953918457,
        -0.7730795741081238,
        -1.8444441556930542,
        7.0040788650512695,
        0.9240530133247375,
        -4.002563953399658,
        -0.03355945274233818,
        -2.929701089859009,
        6.011119842529297,
        13.627397537231445,
        2.7497124671936035,
        1.1416360139846802,
        0.13407188653945923,
        2.0824134349823,
        3.242189407348633,
        0.8941676616668701,
        -0.438953161239624,
        3.7804932594299316,
        -4.787947654724121,
        15.031412124633789,
        2.8880040645599365,
        3.6332831382751465,
        6.621551513671875,
        -1.08846116065979,
        1.7729302644729614,
        -3.511566638946533,
        -0.682540237903595,
        1.6324855089187622,
        11.226127624511719,
        2.9294071197509766,
        -4.4368815422058105,
        -2.0786943435668945,
        0.5593564510345459,
        0.6726726293563843,
        -0.7095739841461182,
        -0.5348435044288635,
        2.50437593460083,
        -0.40474623441696167,
        -1.0905224084854126,
        1.1545270681381226,
        1.41067636013031,
        -0.3657624125480652,
        0.337397962808609,
        1.2501238584518433,
        -0.49572399258613586,
        0.6018449068069458,
        0.3024340867996216,
        -1.2689801454544067,
        -0.19998440146446228,
        -0.4804184138774872,
        -0.16710489988327026,
        -0.13804472982883453,
        -0.228012815117836,
        -0.3815123438835144,
        0.234573096036911,
        -0.2700157165527344,
        3.581186532974243,
        1.8176484107971191,
        1.9267839193344116,
        0.46655887365341187,
        1.2909570932388306,
        2.676546335220337,
        2.322117567062378,
        -0.24081332981586456,
        -1.154202938079834,
        -0.5065355896949768,
        -0.49782148003578186,
        2.1223855018615723,
        0.23306888341903687,
        -1.1610209941864014,
        0.1598604917526245,
        -0.18549314141273499,
        0.7556976079940796,
        -1.6932529211044312,
        2.791538953781128,
        0.20407184958457947,
        0.5816386342048645,
        3.7746641635894775,
        2.0305099487304688,
        0.2513774037361145,
        1.2483630180358887,
        0.025575947016477585,
        0.0339348129928112,
        -0.013803960755467415,
        -0.01957368664443493,
        -0.12143445760011673,
        -6.875758647918701,
        -1.783848524093628,
        -7.320069789886475,
        -0.09053394198417664,
        -5.696990966796875,
        -0.6245858073234558,
        -1.1983603239059448,
        4.451584815979004,
        -0.5726540684700012,
        -1.9570215940475464,
        1.0824859142303467,
        -0.13488785922527313,
        0.09846385568380356,
        -2.4127917289733887,
        -1.5049159526824951,
        4.522580623626709,
        1.500593900680542,
        2.165651798248291,
        -3.4518821239471436,
        4.126011848449707,
        -3.4215314388275146,
        -0.580162525177002,
        1.1926401853561401,
        4.9048614501953125,
        2.7711734771728516,
        -0.48217833042144775,
        1.4370797872543335,
        0.3428940176963806,
        -2.1466946601867676,
        0.11366383731365204,
        -3.597878932952881,
        -2.4916868209838867,
        -2.863355875015259,
        0.029013128951191902,
        1.604194164276123,
        0.8982092142105103,
        0.8656891584396362,
        1.1575615406036377,
        -6.260663986206055,
        -1.0822662115097046,
        2.799853563308716,
        1.7952120304107666,
        0.9053233861923218,
        -0.02553413063287735,
        -0.022820819169282913,
        0.024278435856103897,
        0.02881650999188423,
        -0.1339324712753296,
        -9.607131958007812,
        -0.09717422723770142,
        -8.617949485778809,
        -4.669732570648193,
        -7.1547980308532715,
        -1.934394121170044,
        -0.9157765507698059,
        5.293203353881836,
        -1.7670478820800781,
        -2.308974266052246,
        1.2104817628860474,
        0.1632559895515442,
        0.001360471360385418,
        -1.339989185333252,
        -1.138655662536621,
        6.029892444610596,
        1.097706913948059,
        3.4682626724243164,
        -3.2178423404693604,
        -0.09292229264974594,
        -3.11830472946167,
        0.7636536359786987,
        1.616300106048584,
        2.582340955734253,
        1.4078547954559326,
        -0.6404722332954407,
        2.446302652359009,
        -0.46317097544670105,
        -0.9677614569664001,
        -0.4443502724170685,
        -3.1649293899536133,
        -2.662862777709961,
        0.19047965109348297,
        0.07546759396791458,
        1.1414543390274048,
        1.5745080709457397,
        0.675105631351471,
        1.936728596687317,
        -9.798450469970703,
        0.0640263706445694,
        3.2488455772399902,
        2.3979978561401367,
        0.43099266290664673,
        -0.021234184503555298,
        -0.03267243131995201,
        0.03802168741822243,
        0.013076134026050568,
        0.0005464106798171997,
        0.035226453095674515,
        -0.02575279399752617,
        -0.021597204729914665,
        0.03134073689579964,
        0.01920655369758606,
        0.015523668378591537,
        -0.03091708943247795,
        0.030708815902471542,
        -0.027897339314222336,
        0.005443178117275238,
        0.006334178149700165,
        -0.03276112303137779,
        0.01771826297044754,
        0.0052965618669986725,
        0.03727841004729271,
        -0.010705020278692245,
        0.025376636534929276,
        -0.021067490801215172,
        0.022698942571878433,
        0.007567014545202255,
        0.04159913584589958,
        0.0253770612180233,
        -0.016144031658768654,
        0.03958640620112419,
        0.04036084935069084,
        0.005885526537895203,
        0.04154335334897041,
        0.008198317140340805,
        -0.00013451650738716125,
        0.016548283398151398,
        0.009540233761072159,
        -0.011234093457460403,
        -0.02412501908838749,
        -0.01344337873160839,
        -0.03560149297118187,
        0.008135270327329636,
        0.035658400505781174,
        0.030893448740243912,
        -0.005654674023389816,
        -0.02489917352795601,
        -0.014522358775138855,
        -0.03369053825736046,
        0.030563894659280777,
        0.04122145101428032,
        -0.03487994521856308,
        -0.0048865750432014465,
        0.013002414256334305,
        1.0176799297332764,
        -1.3497353792190552,
        2.698805332183838,
        -6.093814373016357,
        -5.1899919509887695,
        -0.03776995837688446,
        1.0034763813018799,
        1.0549769401550293,
        0.3208063840866089,
        -0.05062032490968704,
        -1.933969497680664,
        -2.3400349617004395,
        -1.7235431671142578,
        1.012843132019043,
        -0.03699741140007973,
        -0.007761038839817047,
        0.03808566555380821,
        -0.012635815888643265,
        -0.019620154052972794,
        -0.9292570352554321,
        -0.009205926209688187,
        -0.002843908965587616,
        -0.874971330165863,
        -2.1124699115753174,
        -1.0329790115356445,
        0.44313517212867737,
        -1.0668140649795532,
        -6.274091720581055,
        -3.298569679260254,
        -0.027430539950728416,
        -0.036530110985040665,
        -3.1404998302459717,
        0.9118064641952515,
        -1.3629941940307617,
        0.6067388653755188,
        -0.36457154154777527,
        -0.0077935196459293365,
        3.048055648803711,
        0.7496951818466187,
        0.02573653683066368,
        -4.080143928527832,
        -0.2536989748477936,
        -0.04266273230314255,
        0.525709331035614,
        -0.003793109208345413,
        0.04004206880927086,
        -0.010602958500385284,
        0.023002702742815018,
        -0.8844617605209351,
        -2.1043527126312256,
        -3.2012827396392822,
        -0.027444109320640564,
        -3.3491733074188232,
        -1.3645914793014526,
        0.2074880450963974,
        1.8110898733139038,
        -0.06014353409409523,
        -2.2900478839874268,
        -0.492074579000473,
        -0.6672436594963074,
        -0.015079418197274208,
        0.0017864182591438293,
        -1.8058151006698608,
        0.33041247725486755,
        4.398197174072266,
        1.667801856994629,
        -0.9390130639076233,
        0.002330455929040909,
        -8.041817665100098,
        -3.505173683166504,
        0.02400139346718788,
        -0.02414442040026188,
        -0.02077876217663288,
        0.013554226607084274,
        -10.144392967224121,
        -0.004876274615526199,
        -3.2519137859344482,
        0.4837746322154999,
        -11.993246078491211,
        -0.017560193315148354,
        -0.5774016380310059,
        -0.0036759227514266968,
        -0.5297423601150513,
        -4.781067848205566,
        4.655796527862549,
        0.031323399394750595,
        -0.07051892578601837,
        -9.422591209411621,
        -1.5317020416259766,
        0.9862908720970154,
        0.026764007285237312,
        -0.00122176855802536,
        -1.8851451873779297,
        -0.020125720649957657,
        0.9469673037528992,
        -0.02549961768090725,
        -1.0859706401824951,
        -1.067891240119934,
        0.2524217665195465,
        0.7063834071159363,
        1.012734055519104,
        0.08259651809930801,
        0.6117079854011536,
        -0.3234226405620575,
        -0.6848583221435547,
        -0.6438115239143372,
        -1.4002448320388794,
        -1.5862417221069336,
        -0.7973313331604004,
        1.0768061876296997,
        -0.13674741983413696,
        -0.08380309492349625,
        -0.833524227142334,
        -0.28506699204444885
      ],
      [
        0.15915481746196747,
        0.13682745397090912,
        -0.7374017834663391,
        -2.46395206451416,
        -0.4498524069786072,
        3.7626142501831055,
        3.0311055183410645,
        -0.07884927093982697,
        -0.12736661732196808,
        2.2554702758789062,
        -1.345860481262207,
        1.4771901369094849,
        -0.9310118556022644,
        -0.21813493967056274,
        2.70935320854187,
        2.2507481575012207,
        -2.9549896717071533,
        8.636468887329102,
        -0.5500574111938477,
        4.873202323913574,
        4.168759822845459,
        -0.7343211770057678,
        -0.19310466945171356,
        -0.9157006740570068,
        2.576617956161499,
        1.605483055114746,
        -2.8148112297058105,
        3.2041189670562744,
        5.562758445739746,
        -5.3720502853393555,
        -0.007880553603172302,
        6.334269046783447,
        1.1719975471496582,
        -2.4972987174987793,
        -0.31054672598838806,
        -1.626783847808838,
        -1.6800951957702637,
        6.147773742675781,
        2.2814130783081055,
        8.252907752990723,
        -2.098752975463867,
        -0.4314461946487427,
        3.210900068283081,
        5.525514602661133,
        -0.03478255495429039,
        -0.015581352636218071,
        -0.01564902625977993,
        0.03148774430155754,
        -0.39239904284477234,
        1.0887795686721802,
        0.46985477209091187,
        1.4756898880004883,
        -1.6507420539855957,
        3.6520299911499023,
        3.513092517852783,
        -0.22544069588184357,
        0.8545604944229126,
        2.582427501678467,
        -1.6680999994277954,
        3.6642911434173584,
        -1.2413592338562012,
        -0.7028311491012573,
        1.0039204359054565,
        2.3082680702209473,
        -2.5383856296539307,
        4.020755290985107,
        0.868452787399292,
        8.644020080566406,
        2.3001465797424316,
        -2.06986927986145,
        -0.2801668345928192,
        -2.663738250732422,
        -0.18361449241638184,
        3.0681724548339844,
        -1.421161413192749,
        3.1161651611328125,
        4.02987003326416,
        -3.3268487453460693,
        3.251708984375,
        2.836900472640991,
        2.743298292160034,
        -2.0542826652526855,
        -0.8204953074455261,
        -2.2291576862335205,
        1.1514208316802979,
        8.833730697631836,
        4.020111083984375,
        3.2933924198150635,
        -5.458969593048096,
        2.709771156311035,
        3.227696657180786,
        4.517477989196777,
        -0.007898379117250443,
        -0.04013689607381821,
        0.03938665613532066,
        -0.014704566448926926,
        -0.5193141102790833,
        -1.0569185018539429,
        -0.4030357003211975,
        -3.584073781967163,
        -0.3961044251918793,
        2.5479891300201416,
        3.9533448219299316,
        -1.0488007068634033,
        0.9574418067932129,
        3.0383548736572266,
        -0.5772445797920227,
        2.3156018257141113,
        -1.1493624448776245,
        -0.6898951530456543,
        2.2708566188812256,
        1.8538341522216797,
        -2.714869976043701,
        8.803488731384277,
        2.012561798095703,
        0.387567400932312,
        0.9088931083679199,
        3.382521152496338,
        1.7488739490509033,
        -1.4971219301223755,
        2.0400564670562744,
        1.2115083932876587,
        -0.6480901837348938,
        1.76383638381958,
        5.322235584259033,
        -7.399576663970947,
        -3.167451858520508,
        0.6716761589050293,
        0.6939035654067993,
        -0.9388479590415955,
        -0.813602864742279,
        -1.0718997716903687,
        -0.5926111340522766,
        8.320257186889648,
        2.2109129428863525,
        6.119687557220459,
        -3.4793789386749268,
        -0.025436395779252052,
        3.0717575550079346,
        3.953331470489502,
        -0.021778549998998642,
        -0.01159198023378849,
        -0.03398403897881508,
        -0.01765025407075882,
        -0.2141997218132019,
        0.7959429621696472,
        2.981264114379883,
        1.583580493927002,
        -2.4342122077941895,
        0.030869293957948685,
        -0.9219748377799988,
        -1.2181792259216309,
        -0.5878843665122986,
