{
  "backend": "torch",
  "state_size": 546,
  "option_size": 109,
  "hidden_size": 24,
  "architecture": "legacy_v1",
  "device_preference": "cpu",
  "state_dict": {
    "joint_bias": [
      -0.22749930620193481,
      0.03637886419892311,
      0.17311717569828033,
      0.17668350040912628,
      -0.18207742273807526,
      -0.2191971242427826,
      -0.16435906291007996,
      -0.21825659275054932,
      -0.2642376124858856,
      -0.24254104495048523,
      -0.11692017316818237,
      -0.08868002891540527,
      -0.2815149426460266,
      0.2891901433467865,
      0.27073022723197937,
      -0.21150194108486176,
      0.21225950121879578,
      0.1041947677731514,
      -0.28642627596855164,
      -0.0666453093290329,
      -0.24976499378681183,
      -0.11196061223745346,
      0.21929292380809784,
      -0.09257335215806961
    ],
    "state_linear.weight": [
      [
        0.35169896483421326,
        1.098863959312439,
        0.9235928058624268,
        1.0544301271438599,
        0.4283551573753357,
        0.538042426109314,
        0.6799558997154236,
        0.38688308000564575,
        0.07852235436439514,
        0.7005345225334167,
        0.799518883228302,
        0.6873158812522888,
        0.06362351030111313,
        0.2715664505958557,
        0.22765807807445526,
        0.4404343068599701,
        -0.3012482225894928,
        -0.011024911887943745,
        0.4917031526565552,
        0.46076980233192444,
        0.17045488953590393,
        0.5334144234657288,
        0.29073405265808105,
        0.2405090481042862,
        0.2534649968147278,
        -0.10059205442667007,
        0.9586895704269409,
        0.18715322017669678,
        0.36896613240242004,
        0.2967110872268677,
        0.09751290082931519,
        0.3814580738544464,
        0.6322806477546692,
        0.2774144113063812,
        0.3171063959598541,
        0.8582164645195007,
        0.06113004684448242,
        0.10052670538425446,
        -0.5239635705947876,
        0.1936003416776657,
        0.9711913466453552,
        0.15346986055374146,
        0.11775128543376923,
        0.4096128046512604,
        0.032917652279138565,
        0.03050101175904274,
        0.0015560723841190338,
        -0.010657195001840591,
        -0.012520483694970608,
        0.09857819974422455,
        0.24131807684898376,
        0.7059935331344604,
        0.030461927875876427,
        -0.08647630363702774,
        0.35628822445869446,
        -0.2458423227071762,
        -0.05627146363258362,
        0.16382071375846863,
        0.4010509252548218,
        0.04452932998538017,
        -0.10582379996776581,
        -0.029975172132253647,
        0.243238627910614,
        0.028038090094923973,
        -0.07087933272123337,
        0.1032366007566452,
        0.6093711853027344,
        0.1912958323955536,
        0.12470348924398422,
        0.4016571044921875,
        0.3511321246623993,
        -0.14688053727149963,
        0.13447584211826324,
        0.012602586299180984,
        0.47084513306617737,
        0.03176429495215416,
        0.10158935934305191,
        0.23142272233963013,
        0.18613511323928833,
        0.4772159159183502,
        -0.10747374594211578,
        -0.004394312389194965,
        0.027952047064900398,
        0.2647891342639923,
        -0.15713590383529663,
        0.08647285401821136,
        -0.5489716529846191,
        -0.022064775228500366,
        0.5971425175666809,
        -0.29957473278045654,
        0.019733741879463196,
        0.12198185175657272,
        -0.007352836430072784,
        -0.012488296255469322,
        -0.011132996529340744,
        0.024324577301740646,
        0.01387455128133297,
        0.35745495557785034,
        0.2547896206378937,
        0.5730614066123962,
        0.039050135761499405,
        0.24285663664340973,
        0.2739008665084839,
        0.05321134254336357,
        -0.10910402983427048,
        0.056453920900821686,
        0.4684586226940155,
        0.33669236302375793,
        -0.12438147515058517,
        -0.0033105171751230955,
        0.1879940778017044,
        0.1774117350578308,
        -0.440643310546875,
        0.2711489796638489,
        0.19870713353157043,
        0.010990836657583714,
        0.0844680666923523,
        0.2271447330713272,
        -0.01820649392902851,
        0.147844597697258,
        0.1600019484758377,
        0.4008960723876953,
        0.4309244155883789,
        0.42103615403175354,
        -0.38584110140800476,
        0.25343260169029236,
        0.08723445236682892,
        0.5250824689865112,
        0.06463942676782608,
        0.00928102433681488,
        -0.005430303979665041,
        0.5489830374717712,
        -0.22069254517555237,
        0.09084054827690125,
        -0.5127413272857666,
        0.01708575338125229,
        0.5646095275878906,
        -0.3470477759838104,
        -0.08412066102027893,
        0.34675344824790955,
        -0.029430482536554337,
        -0.022685756906867027,
        -0.02151634730398655,
        0.018394116312265396,
        0.5737673044204712,
        0.7037174105644226,
        0.7370797395706177,
        0.29496294260025024,
        0.276336133480072,
        -0.010427158325910568,
        0.49403631687164307,
        0.20906910300254822,
        0.35452041029930115,
        0.49647068977355957,
        0.4405812621116638,
        0.2876853048801422,
        -0.07975997030735016,
        0.6042379140853882,
        0.011893700808286667,
        0.004512451589107513,
        0.03565550968050957,
        0.008772537112236023,
        -0.025532646104693413,
        0.06710390001535416,
        -0.023910216987133026,
        -0.018995793536305428,
        0.24198052287101746,
        -0.034693095833063126,
        -0.025909267365932465,
        0.2727202773094177,
        0.5910371541976929,
        0.04239241033792496,
        0.29079362750053406,
        -0.04261947423219681,
        0.003728725016117096,
        0.13538172841072083,
        0.4600157141685486,
        0.20540834963321686,
        0.4873199164867401,
        0.3742886185646057,
        0.014648061245679855,
        0.012358623556792736,
        0.2746894657611847,
        0.009393423795700073,
        -0.010390162467956543,
        0.06765919178724289,
        0.01646370440721512,
        0.3438798189163208,
        -0.0012081749737262726,
        0.004653237760066986,
        0.039810050278902054,
        0.029246624559164047,
        -0.11881659179925919,
        0.30753064155578613,
        -0.15022768080234528,
        0.38695812225341797,
        0.06678251177072525,
        0.5151420831680298,
        0.24667352437973022,
        -0.3875775635242462,
        0.12472705543041229,
        -0.08007226884365082,
        0.04894847422838211,
        0.12680715322494507,
        -0.13558609783649445,
        -0.1774788200855255,
        0.4020589292049408,
        0.28755927085876465,
        -0.2200254648923874,
        -0.20510828495025635,
        0.202049121260643,
        0.053375162184238434,
        0.12187783420085907,
        0.3897194564342499,
        0.2767253816127777,
        0.121332548558712,
        -0.02324189618229866,
        0.010753114707767963,
        0.7212501764297485,
        -0.02768469974398613,
        0.37733975052833557,
        0.26569467782974243,
        0.17072293162345886,
        0.5253042578697205,
        0.010045756585896015,
        0.05311594530940056,
        -0.11620311439037323,
        0.18167249858379364,
        -0.20000702142715454,
        -0.17998753488063812,
        -0.41702625155448914,
        0.14453792572021484,
        0.6120855808258057,
        -0.6545410752296448,
        -0.22495605051517487,
        0.17497387528419495,
        -0.09500747174024582,
        -0.041422974318265915,
        0.07754796743392944,
        -0.013232657685875893,
        -0.04503333941102028,
        -0.05158480629324913,
        0.08048169314861298,
        0.19704553484916687,
        -0.08152411133050919,
        -0.1782006025314331,
        0.12600620090961456,
        0.17752501368522644,
        -0.10540149360895157,
        0.38418272137641907,
        0.12212216109037399,
        0.23709456622600555,
        0.11853210628032684,
        0.055959299206733704,
        -0.04650436341762543,
        -0.1235320195555687,
        0.14783130586147308,
        0.43540728092193604,
        0.10843677818775177,
        -0.19649820029735565,
        0.006637778133153915,
        0.05998843163251877,
        0.06963939219713211,
        -0.181085005402565,
        0.669750988483429,
        0.48210155963897705,
        -0.06113501265645027,
        -0.1615336686372757,
        0.44090980291366577,
        -0.1302572637796402,
        0.2378186732530594,
        0.4155278205871582,
        0.16763702034950256,
        0.25922614336013794,
        -0.04618886113166809,
        0.4619283378124237,
        0.6063811779022217,
        0.3524795472621918,
        -0.05334111675620079,
        -0.22552619874477386,
        0.13532274961471558,
        0.146695077419281,
        -0.05622125789523125,
        -0.22892525792121887,
        0.028968941420316696,
        0.03313713148236275,
        -0.014987245202064514,
        0.031961437314748764,
        -0.08329189568758011,
        -0.4409991204738617,
        -0.3695624768733978,
        -0.7328343987464905,
        -0.057976964861154556,
        -0.6637465953826904,
        -0.5192883014678955,
        0.24864856898784637,
        0.007600132841616869,
        -0.28502482175827026,
        -0.5013335943222046,
        -0.16534914076328278,
        0.08972374349832535,
        -0.06538081914186478,
        -0.18481194972991943,
        -0.6508698463439941,
        0.7955102324485779,
        0.10367174446582794,
        -0.4355585277080536,
        -0.010419481433928013,
        -0.1618252992630005,
        -0.4156518578529358,
        -0.29814550280570984,
        0.039973508566617966,
        0.003664714749902487,
        0.2537336051464081,
        -0.30324095487594604,
        -0.08258771896362305,
        0.7888942956924438,
        -0.44015777111053467,
        -0.129192516207695,
        -0.49196016788482666,
        -0.058941613882780075,
        -0.4725531339645386,
        -0.059354864060878754,
        -0.23038235306739807,
        0.10373260825872421,
        0.5255293250083923,
        0.415631502866745,
        -0.027732763439416885,
        -0.24936774373054504,
        -0.05287504941225052,
        -0.06182161346077919,
        -0.14738011360168457,
        -0.03822069987654686,
        0.01810949295759201,
        0.0038367323577404022,
        0.021899905055761337,
        -0.09764940291643143,
        -0.865205705165863,
        -0.5578259825706482,
        -1.235874056816101,
        -0.10469812154769897,
        -0.7877130508422852,
        -0.615969717502594,
        0.18393650650978088,
        -0.04949188604950905,
        -0.36176031827926636,
        -0.6794429421424866,
        -0.14607612788677216,
        0.16454334557056427,
        -0.05217676982283592,
        -0.19147208333015442,
        -0.7485437393188477,
        0.959831714630127,
        0.6345264315605164,
        -0.6858690977096558,
        -0.11412635445594788,
        -0.23508548736572266,
        -0.7640579342842102,
        -0.09107537567615509,
        0.14197108149528503,
        0.3884526491165161,
        0.08409720659255981,
        -0.4632292091846466,
        -0.18781529366970062,
        0.22092603147029877,
        -0.49860283732414246,
        -0.2711440324783325,
        -0.5956477522850037,
        -0.13720078766345978,
        -0.6096823811531067,
        -0.0030026761814951897,
        -0.036349765956401825,
        0.062370043247938156,
        0.6464550495147705,
        0.46587106585502625,
        -0.24475407600402832,
        -0.37891247868537903,
        0.01762758381664753,
        -0.12442176043987274,
        -0.23554515838623047,
        0.028234202414751053,
        -0.02173081785440445,
        -0.04216201230883598,
        -0.031787410378456116,
        -0.024248138070106506,
        -0.0014716647565364838,
        -0.03881891071796417,
        -0.009774785488843918,
        -0.021734286099672318,
        -0.04000524803996086,
        0.01533486321568489,
        0.01705748587846756,
        -0.039867013692855835,
        0.008358839899301529,
        0.004704907536506653,
        -0.032286372035741806,
        0.014319337904453278,
        0.013133011758327484,
        -0.0038413554430007935,
        -0.029562585055828094,
        -0.0009251870214939117,
        -0.004397734999656677,
        0.011862803250551224,
        -0.016529684886336327,
        0.03625938668847084,
        0.005166240036487579,
        0.0318358950316906,
        0.028350677341222763,
        0.01067386195063591,
        0.030416589230298996,
        -0.03932703658938408,
        -0.03915376588702202,
        -0.027642805129289627,
        0.003969397395849228,
        0.03930819407105446,
        0.011484362185001373,
        0.03212885931134224,
        -0.01938939280807972,
        -0.003418687731027603,
        -0.004567995667457581,
        0.0015396550297737122,
        0.00625041127204895,
        0.0369177870452404,
        0.035896483808755875,
        0.03523869439959526,
        0.038292933255434036,
        -0.006566636264324188,
        0.022286858409643173,
        0.02153189107775688,
        -0.027318153530359268,
        0.009315695613622665,
        0.00119829922914505,
        -0.5048715472221375,
        -0.4992337226867676,
        -0.5117018222808838,
        -0.3000069856643677,
        -0.31841787695884705,
        -0.021555116400122643,
        -0.24736368656158447,
        -0.25460490584373474,
        -0.2758145034313202,
        -0.38605812191963196,
        -0.18107393383979797,
        0.14381422102451324,
        -0.22185827791690826,
        -0.49751028418540955,
        0.010950770229101181,
        0.013788007199764252,
        0.0371004156768322,
        -0.008150618523359299,
        -0.027417367324233055,
        0.08643296360969543,
        0.006928861141204834,
        -0.04103471338748932,
        0.1765647977590561,
        0.029222117736935616,
        0.06999040395021439,
        0.041552431881427765,
        -0.31643742322921753,
        -0.31382253766059875,
        0.19099675118923187,
        0.021830547600984573,
        -0.02374517358839512,
        0.06286485493183136,
        -0.40688416361808777,
        -0.38499709963798523,
        -0.509872555732727,
        0.17626062035560608,
        -0.012475231662392616,
        -0.0053713880479335785,
        -0.1519334614276886,
        -0.016403615474700928,
        0.07247023284435272,
        -0.035499412566423416,
        0.03985832259058952,
        -0.320423424243927,
        0.031622398644685745,
        0.02481437847018242,
        -0.03957374766469002,
        -0.022846076637506485,
        -0.501125693321228,
        -0.762401282787323,
        -0.32036149501800537,
        -0.026060154661536217,
        -0.2968589961528778,
        -0.6548189520835876,
        -0.20772181451320648,
        0.33447420597076416,
        -1.2706280946731567,
        -0.12034588307142258,
        -0.29301318526268005,
        0.3161779046058655,
        0.009316068142652512,
        0.02018645778298378,
        -0.20954164862632751,
        -0.458464115858078,
        0.5668383240699768,
        0.016077520325779915,
        -0.3992212116718292,
        0.009290467947721481,
        -0.09150134772062302,
        -0.1498485952615738,
        -0.011206626892089844,
        -0.011256605386734009,
        -0.04250721633434296,
        -0.029984286054968834,
        -1.233390212059021,
        0.03653178736567497,
        -0.02821686491370201,
        -0.589500367641449,
        -0.14599573612213135,
        0.011204544454813004,
        -0.3983018100261688,
        -0.007795773446559906,
        -0.5944457054138184,
        -0.2405797690153122,
        0.5910336971282959,
        -0.023276567459106445,
        -0.22920703887939453,
        -0.11585851013660431,
        -0.2443091869354248,
        0.628280520439148,
        -0.084578737616539,
        0.010284878313541412,
        -0.3636183440685272,
        -0.008445767685770988,
        -0.5021591782569885,
        0.01737193763256073,
        0.1259690225124359,
        0.02755860984325409,
        0.7158215641975403,
        0.21584628522396088,
        0.13929687440395355,
        -0.3092527687549591,
        0.15327255427837372,
        0.28368306159973145,
        -0.28186744451522827,
        0.4132748246192932,
        -0.0657426118850708,
        0.03160909563302994,
        -0.07246860861778259,
        -0.47389963269233704,
        -0.10239212960004807,
        -0.12578879296779633,
        -0.5564389228820801,
        0.2421024888753891
      ],
      [
        -0.4317428767681122,
        -0.7745550870895386,
        -0.5305275321006775,
        -0.18396501243114471,
        -0.5044589638710022,
        -0.6879839897155762,
        -0.48134222626686096,
        -0.10608070343732834,
        -0.26923301815986633,
        -0.36473724246025085,
        -0.2609245777130127,
        -0.5353070497512817,
        -0.2515816390514374,
        -0.4400539696216583,
        -0.18589287996292114,
        -0.48487868905067444,
        0.29822367429733276,
        0.22172442078590393,
        -0.34227240085601807,
        -0.46148690581321716,
        0.05626557022333145,
        -0.6262494325637817,
        -0.015837280079722404,
        -0.1368526816368103,
        0.17227570712566376,
        -0.05501755326986313,
        -0.40839684009552,
        -0.06264869123697281,
        -0.5353603363037109,
        -0.13172896206378937,
        -0.3089885115623474,
        -0.13865986466407776,
        -0.4769914746284485,
        -0.0643053650856018,
        -0.3680706024169922,
        -0.20141765475273132,
        -0.32962948083877563,
        -0.00043747780728153884,
        -0.20999744534492493,
        -0.11407656967639923,
        -0.5703431963920593,
        -0.11210530251264572,
        -0.25973889231681824,
        -0.44715604186058044,
        -0.023548701778054237,
        0.04278700426220894,
        -0.005894020199775696,
        0.01728251576423645,
        0.11012591421604156,
        -0.044740237295627594,
        0.12982238829135895,
        -0.10520726442337036,
        0.12807710468769073,
        0.01336502656340599,
        0.1501210480928421,
        0.30753108859062195,
        -0.03080226294696331,
        0.10873427242040634,
        -0.1549922376871109,
        -0.0073434533551335335,
        0.19402286410331726,
        0.08922526985406876,
        -0.1393507719039917,
        0.057028207927942276,
        -0.4099235236644745,
        0.04532669857144356,
        -0.07065816223621368,
        -0.19418704509735107,
        0.03929338604211807,
        -0.5790051221847534,
        0.34982264041900635,
        -0.042694684118032455,
        -0.24996891617774963,
        -0.19051632285118103,
        -0.014826217666268349,
        0.11360016465187073,
        -0.31985434889793396,
        -0.05868508666753769,
        -0.32634100317955017,
        -0.22194065153598785,
        0.217225581407547,
        0.4557725191116333,
        0.058905042707920074,
        0.2996954321861267,
        -0.3939655125141144,
        0.5161342620849609,
        0.054316215217113495,
        0.0006234340253286064,
        -0.43093857169151306,
        0.3784676790237427,
        -0.38037028908729553,
        -0.5310577154159546,
        -0.001085955649614334,
        -0.020277300849556923,
        0.02351338043808937,
        -0.011914830654859543,
        -0.038908712565898895,
        -0.08098509162664413,
        0.07359515875577927,
        -0.43672648072242737,
        0.014555574394762516,
        -0.25036412477493286,
        -0.015952710062265396,
        0.3187185823917389,
        -0.35572120547294617,
        0.22191379964351654,
        -0.3640890419483185,
        -0.050619956105947495,
        0.10308931767940521,
        0.05316731333732605,
        -0.2731417715549469,
        -0.154629647731781,
        -0.0727032795548439,
        -0.29537099599838257,
        -0.22085599601268768,
        -0.23635682463645935,
        0.0653313547372818,
        -0.2567361891269684,
        0.3197539746761322,
        -0.48140767216682434,
        0.27639245986938477,
        -0.13077540695667267,
        0.02562752738595009,
        0.1346254050731659,
        -0.1395406574010849,
        -0.008451800793409348,
        -0.27724751830101013,
        0.07570922374725342,
        0.004370278678834438,
        0.3154078423976898,
        0.037452101707458496,
        0.10632133483886719,
        -0.29123666882514954,
        0.26945826411247253,
        -0.28804993629455566,
        -0.04856596887111664,
        -0.4694089889526367,
        0.3077777326107025,
        -0.16576890647411346,
        -0.2683635950088501,
        0.005423042923212051,
        -0.020222356542944908,
        -0.0019574202597141266,
        -0.002797674387693405,
        -0.3570040166378021,
        -0.4238176643848419,
        -0.5687830448150635,
        -0.23173609375953674,
        -0.2885865569114685,
        -0.01781487464904785,
        -0.5214620232582092,
        0.01200918573886156,
        -0.3252619504928589,
        -0.24442724883556366,
        -0.45356041193008423,
        -0.07802216708660126,
        -0.016120878979563713,
        -0.4017373025417328,
        0.04079615697264671,
        0.009137600660324097,
        0.020046140998601913,
        0.011243429034948349,
        0.008597515523433685,
        0.0751924216747284,
        0.040347080677747726,
        -0.021436838433146477,
        -0.26016518473625183,
        -0.01791263557970524,
        0.00904279574751854,
        -0.0388784259557724,
        -0.29180532693862915,
        -0.18660974502563477,
        -0.06927426904439926,
        0.00018300116062164307,
        0.013212490826845169,
        -0.09311168640851974,
        -0.2906546890735626,
        -0.41773417592048645,
        -0.5009016990661621,
        -0.05066253989934921,
        -0.041445519775152206,
        -0.08460735529661179,
        -0.23682457208633423,
        0.005134474486112595,
        -0.0004981908714398742,
        0.035226523876190186,
        0.029691901057958603,
        -0.3622170686721802,
        0.02584264799952507,
        -0.022919006645679474,
        0.03864332661032677,
        -0.0007624328136444092,
        0.06202048808336258,
        -0.14867934584617615,
        0.2517032027244568,
        -0.12135127931833267,
        -0.0007127114804461598,
        -0.25437700748443604,
        0.009465097449719906,
        0.7051257491111755,
        -0.3489115238189697,
        0.33662888407707214,
        -0.21949751675128937,
        -0.0422908179461956,
        0.1009877398610115,
        0.13028749823570251,
        -0.17759892344474792,
        -0.17382997274398804,
        -0.04168367758393288,
        0.5713656544685364,
        -0.42218729853630066,
        0.046291664242744446,
        0.0674026608467102,
        -0.6161282062530518,
        0.20556065440177917,
        -0.24000465869903564,
        0.06570985168218613,
        0.3786431550979614,
        -0.12144842743873596,
        0.16381223499774933,
        -0.4165308475494385,
        -0.10283391922712326,
        -0.2684868574142456,
        -0.2234807312488556,
        0.27467283606529236,
        0.029868783429265022,
        0.021145058795809746,
        0.26550182700157166,
        -0.18740113079547882,
        0.2085479497909546,
        -0.214918851852417,
        -0.08383294194936752,
        -0.5519223213195801,
        0.6601728796958923,
        -0.281628280878067,
        -0.10115337371826172,
        -0.200687974691391,
        -0.45935696363449097,
        0.22419048845767975,
        -0.10315750539302826,
        -0.017893582582473755,
        -0.17429080605506897,
        -0.08276387304067612,
        -0.011052211746573448,
        0.06925216317176819,
        -0.35409224033355713,
        0.30551648139953613,
        0.05005408450961113,
        0.0572369210422039,
        -0.20442049205303192,
        -0.21510905027389526,
        -0.15047037601470947,
        0.2983255088329315,
        0.20597147941589355,
        -0.49950823187828064,
        -0.02255793660879135,
        0.22874918580055237,
        -0.18665505945682526,
        -0.015103640966117382,
        0.6618426442146301,
        -0.5352153182029724,
        -0.10943864285945892,
        0.17164811491966248,
        -0.17213913798332214,
        -0.18377339839935303,
        0.08388940244913101,
        -0.22283922135829926,
        -0.3087208569049835,
        -0.037620581686496735,
        -0.21500134468078613,
        -0.5606546998023987,
        -0.1611243188381195,
        0.2795214056968689,
        -0.0673883929848671,
        -0.11476791650056839,
        -0.15602156519889832,
        -0.14421576261520386,
        0.3181721568107605,
        0.2674160897731781,
        0.16655342280864716,
        -0.6018296480178833,
        0.5032147169113159,
        -0.08794989436864853,
        0.19676291942596436,
        -0.036331892013549805,
        0.03286789730191231,
        0.03197752311825752,
        -0.0038594529032707214,
        0.06354546546936035,
        0.04771028831601143,
        0.212301105260849,
        -0.21115179359912872,
        0.052306752651929855,
        0.08399271219968796,
        0.2758205831050873,
        0.03674010559916496,
        -0.09067180007696152,
        0.2724897563457489,
        0.015051452443003654,
        -0.11567872762680054,
        -0.022633109241724014,
        0.056036513298749924,
        -0.11109354346990585,
        0.20296788215637207,
        0.16962237656116486,
        -0.28379371762275696,
        0.1575516313314438,
        0.16996778547763824,
        -0.15577317774295807,
        0.33502787351608276,
        0.5261432528495789,
        -0.5699252486228943,
        -0.07406771928071976,
        0.2563999593257904,
        0.2451293170452118,
        -0.1812133491039276,
        -0.28286680579185486,
        0.19393391907215118,
        -0.010322514921426773,
        0.2802313566207886,
        -0.011731104925274849,
        -0.2119956761598587,
        -0.008386914618313313,
        -0.17113493382930756,
        -0.012172340415418148,
        0.34135255217552185,
        -0.2258012592792511,
        -0.10515616089105606,
        -0.19651342928409576,
        -0.12099146842956543,
        0.08850812166929245,
        0.10168524086475372,
        0.016388561576604843,
        -0.03653336688876152,
        0.027127597481012344,
        -0.008094698190689087,
        0.04248956963419914,
        0.12752796709537506,
        0.43453270196914673,
        0.28202444314956665,
        0.028633397072553635,
        -0.09335160255432129,
        0.705042839050293,
        0.10006614029407501,
        -0.08836932480335236,
        0.38597777485847473,
        0.3675495982170105,
        0.07308051735162735,
        -0.017555812373757362,
        0.009466788731515408,
        -0.16046832501888275,
        0.041832856833934784,
        -0.23452576994895935,
        -0.36110368371009827,
        -0.027959192171692848,
        0.20018887519836426,
        -0.061863772571086884,
        0.17490540444850922,
        0.4797309637069702,
        -0.4398675858974457,
        -0.22472555935382843,
        0.11699904501438141,
        0.2109665721654892,
        -0.23537196218967438,
        -0.32223275303840637,
        0.3127632141113281,
        0.1617521345615387,
        0.3767683804035187,
        0.23552675545215607,
        -0.331808865070343,
        -0.03521422669291496,
        0.0877436026930809,
        0.14811275899410248,
        0.1742171049118042,
        0.08610840141773224,
        0.013221261091530323,
        -0.38602688908576965,
        0.0076356129720807076,
        -0.02327585034072399,
        0.07997341454029083,
        -0.01901053823530674,
        0.02315584197640419,
        -0.030567560344934464,
        -0.010719303041696548,
        -0.04252509027719498,
        0.03739320859313011,
        0.02940717712044716,
        0.003277398645877838,
        -0.04138721525669098,
        -0.01633622869849205,
        0.03999795392155647,
        -0.0012471601366996765,
        0.019776467233896255,
        0.024918410927057266,
        0.008289303630590439,
        0.012341205030679703,
        0.038214851170778275,
        -0.024158159270882607,
        0.01635603979229927,
        0.03294242545962334,
        -0.0028017275035381317,
        0.01073959469795227,
        -0.035462990403175354,
        0.029928337782621384,
        0.012618336826562881,
        0.02494136616587639,
        0.020360354334115982,
        0.018439333885908127,
        0.0417504720389843,
        -0.033391207456588745,
        -0.025784587487578392,
        0.030405912548303604,
        -0.03240446746349335,
        0.025040488690137863,
        -0.02548295073211193,
        0.00781027227640152,
        -0.023585479706525803,
        -0.03922472521662712,
        0.03290458396077156,
        -0.01856360398232937,
        -0.042473774403333664,
        -0.006390076130628586,
        0.01959485560655594,
        -0.03279493376612663,
        0.020338114351034164,
        -0.002650730311870575,
        -0.0012723617255687714,
        0.006153270602226257,
        -0.03600842505693436,
        0.03659770265221596,
        -0.005413129925727844,
        -0.012773429974913597,
        0.2953280210494995,
        0.16335104405879974,
        -0.009257194586098194,
        -0.01379755511879921,
        0.2776486575603485,
        0.02821320667862892,
        0.18336980044841766,
        0.3023993670940399,
        -0.005031866021454334,
        0.32582369446754456,
        -0.13470350205898285,
        0.14080047607421875,
        0.13952484726905823,
        0.2612037658691406,
        -0.0037955529987812042,
        0.00351778045296669,
        -0.03539249673485756,
        0.024838287383317947,
        0.016183309257030487,
        0.04258325695991516,
        0.008304335176944733,
        -0.0056687407195568085,
        -0.12736162543296814,
        -0.010187453590333462,
        0.002459445036947727,
        -0.03209922835230827,
        -0.013971347361803055,
        -0.04922512546181679,
        0.05762409418821335,
        -0.015643423423171043,
        -0.008769262582063675,
        0.10411645472049713,
        0.6081907153129578,
        -0.13293397426605225,
        0.242570698261261,
        0.21041885018348694,
        0.007449880242347717,
        -0.05632849410176277,
        0.12016765773296356,
        0.039420876652002335,
        0.11829514056444168,
        0.0015459686983376741,
        -0.01574581488966942,
        0.17213669419288635,
        -0.025513453409075737,
        0.024821508675813675,
        0.015390433371067047,
        0.004656560719013214,
        0.205656036734581,
        0.1363181322813034,
        0.3483135998249054,
        0.0286405049264431,
        -0.07956541329622269,
        0.19001664221286774,
        0.47062548995018005,
        0.05551522970199585,
        0.34726110100746155,
        0.4261947274208069,
        -0.07911983877420425,
        -0.21708239614963531,
        0.01365642249584198,
        0.004843469709157944,
        0.15365687012672424,
        0.22557413578033447,
        -0.17908766865730286,
        -0.23332586884498596,
        0.06583302468061447,
        0.010950852185487747,
        -0.04324923828244209,
        -0.2936631739139557,
        0.003766968846321106,
        -0.004360824823379517,
        0.03639378771185875,
        -0.010018620640039444,
        0.5627143979072571,
        0.010551787912845612,
        -0.03250572457909584,
        0.2529090940952301,
        -0.019578635692596436,
        -0.03720290586352348,
        0.31112781167030334,
        -0.024135803803801537,
        0.1153745949268341,
        -0.39607182145118713,
        -0.016078006476163864,
        -0.023747963830828667,
        0.058541398495435715,
        -0.08819294720888138,
        -0.1138596311211586,
        -7.272034417837858e-05,
        -0.0835782065987587,
        0.03912661597132683,
        -0.09543102234601974,
        -0.0026986445300281048,
        0.023279983550310135,
        0.004722855985164642,
        -0.11575658619403839,
        -0.001083733863197267,
        -0.07666254043579102,
        -0.12056087702512741,
        -0.11672570556402206,
        0.11513130366802216,
        -0.09582347422838211,
        0.06482318788766861,
        0.5058271884918213,
        -0.5006631016731262,
        0.06720190495252609,
        -0.06688293814659119,
        0.05687020719051361,
        0.28561291098594666,
        0.012523443438112736,
        0.049434810876846313,
        0.1460353434085846,
        -0.010036798194050789
      ],
      [
        -0.44921037554740906,
        -0.8343938589096069,
        -0.7200108170509338,
        -0.15169742703437805,
        -0.34537506103515625,
        -0.4543949067592621,
        -0.4287491738796234,
        -0.4009478688240051,
        0.07184766978025436,
        -0.4678775668144226,
        -0.5507131218910217,
        -0.6291019916534424,
        -0.3434789180755615,
        -0.41520482301712036,
        -0.025295963510870934,
        -0.6202110648155212,
        0.023417426273226738,
        -0.2094622701406479,
        -0.55034339427948,
        -0.5804862380027771,
        -0.08322659879922867,
        -0.17816424369812012,
        -0.6487373113632202,
        -0.22355833649635315,
        -0.38386520743370056,
        0.16523377597332,
        -0.6721330881118774,
        -0.06068018823862076,
        -0.3372631072998047,
        -0.1079164370894432,
        -0.09170594811439514,
        -0.33262842893600464,
        -0.4983859062194824,
        -0.05397936701774597,
        -0.37603193521499634,
        -0.7192248702049255,
        0.0710071250796318,
        -0.5394875407218933,
        0.3582189083099365,
        -0.04707364737987518,
        -0.4949274957180023,
        -0.05419830605387688,
        -0.5061172842979431,
        -0.42642003297805786,
        0.01208917424082756,
        0.011865712702274323,
        -0.0021341443061828613,
        -0.01608297973871231,
        0.10674974322319031,
        0.05747975409030914,
        0.013700783252716064,
        -0.6131856441497803,
        0.05948181450366974,
        0.3368079364299774,
        -0.1677412986755371,
        0.26191920042037964,
        0.4894489347934723,
        0.18660861253738403,
        -0.4169892370700836,
        0.03928510844707489,
        0.0007085477700456977,
        0.06312745809555054,
        0.14986106753349304,
        0.17073890566825867,
        -0.1326005607843399,
        0.05056776851415634,
        -0.4763782024383545,
        -0.2923681139945984,
        -0.22410409152507782,
        0.017650151625275612,
        -0.46473658084869385,
        0.1899234652519226,
        -0.3004102408885956,
        0.41851040720939636,
        -0.2654668390750885,
        0.008025458082556725,
        -0.031306374818086624,
        -0.0896388590335846,
        0.08827009052038193,
        -0.6636291742324829,
        0.1347290426492691,
        0.0296158604323864,
        0.037786588072776794,
        -0.33938851952552795,
        0.5978343486785889,
        -0.34885314106941223,
        0.6315357089042664,
        0.034125372767448425,
        -0.48461318016052246,
        0.23545317351818085,
        0.050794895738363266,
        0.13808314502239227,
        0.02770164981484413,
        -0.0001362152397632599,
        -0.021754968911409378,
        -0.042209696024656296,
        -0.007464162074029446,
        -0.11436113715171814,
        -0.16176564991474152,
        -0.3405151069164276,
        0.07883122563362122,
        0.0229948703199625,
        -0.27433180809020996,
        0.0313991904258728,
        0.16252698004245758,
        0.13726261258125305,
        -0.3639683127403259,
        -0.49270614981651306,
        0.0834975615143776,
        0.031009040772914886,
        0.2329159826040268,
        -0.12105768173933029,
        -0.08852291107177734,
        -0.11584148555994034,
        -0.060821082442998886,
        -0.3673568069934845,
        -0.12911230325698853,
        -0.021000834181904793,
        -0.4278023838996887,
        -0.13384069502353668,
        -0.4429316818714142,
        -0.1545446664094925,
        -0.366273432970047,
        -0.14534123241901398,
        0.1818801611661911,
        -0.06403056532144547,
        0.14578185975551605,
        -0.7033581137657166,
        0.0031212205067276955,
        0.13215360045433044,
        0.034290194511413574,
        -0.6103078722953796,
        0.02956877090036869,
        -0.1542162448167801,
        0.37954771518707275,
        0.06013006716966629,
        -0.058548156172037125,
        0.04693039134144783,
        -0.04808512330055237,
        -0.2986851930618286,
        0.037396665662527084,
        0.014179658144712448,
        -0.010460790246725082,
        -0.022862683981657028,
        -0.30651527643203735,
        -0.3817209005355835,
        -0.2326735407114029,
        -0.18256938457489014,
        -0.30306363105773926,
        0.0017470121383666992,
        -0.3967379331588745,
        -0.08420784771442413,
        -0.19451327621936798,
        -0.3046953082084656,
        -0.3758620321750641,
        -0.03673544526100159,
        0.0895158052444458,
        -0.3214449882507324,
        -0.003594081848859787,
        0.030943613499403,
        -0.013345185667276382,
        -0.03185552731156349,
        0.017146233469247818,
        -0.04084719717502594,
        0.023245062679052353,
        -0.002343270927667618,
        -0.026687664911150932,
        -0.026237722486257553,
        -0.05027490854263306,
        -0.018371110782027245,
        -0.28666722774505615,
        -0.05927268788218498,
        -0.11166440695524216,
        0.03150221332907677,
        -0.0021118447184562683,
        -0.134221613407135,
        -0.33692046999931335,
        -0.07592731714248657,
        -0.33563852310180664,
        0.008646401576697826,
        -0.019035397097468376,
        0.033510178327560425,
        -0.3090536594390869,
        -0.012452973052859306,
        -0.055324554443359375,
        0.04910808801651001,
        0.016329646110534668,
        -0.27167704701423645,
        0.036190275102853775,
        0.015125542879104614,
        -0.03855442628264427,
        0.039297837764024734,
        0.09338779002428055,
        -0.07633835077285767,
        0.22329825162887573,
        -0.18871189653873444,
        0.01635090447962284,
        -0.19701075553894043,
        -0.33940625190734863,
        0.15605846047401428,
        0.2322230488061905,
        0.15474700927734375,
        -0.10857135057449341,
        -0.1642797291278839,
        0.10411033034324646,
        0.10048089176416397,
        0.018398413434624672,
        -0.08688118308782578,
        -0.035302381962537766,
        -0.08528954535722733,
        -0.2687053680419922,
        -0.18675753474235535,
        -0.14253011345863342,
        -0.07354220002889633,
        -0.409795343875885,
        -0.24467594921588898,
        -0.07041838020086288,
        0.10398466885089874,
        -0.07364553958177567,
        0.19327934086322784,
        -0.20323972404003143,
        -0.1325329840183258,
        -0.13122829794883728,
        -0.39416784048080444,
        -0.020172905176877975,
        0.22680756449699402,
        0.1246306523680687,
        -0.1643107831478119,
        0.27275288105010986,
        -0.090024434030056,
        0.4271668493747711,
        -0.08364321291446686,
        -0.24845027923583984,
        0.384874552488327,
        0.10442034900188446,
        0.0906457006931305,
        -0.04462428763508797,
        0.29246437549591064,
        0.0273672416806221,
        -0.11499569565057755,
        -0.02606995776295662,
        -0.01441886741667986,
        -0.13827405869960785,
        0.059245042502880096,
        0.2204737514257431,
        0.12361516058444977,
        -0.21522100269794464,
        -0.09055393189191818,
        -0.10011293739080429,
        0.17100340127944946,
        -0.0873519629240036,
        -0.3114820718765259,
        0.001980226021260023,
        -0.14046968519687653,
        0.258241206407547,
        0.047964129596948624,
        -0.28232091665267944,
        -0.31581637263298035,
        -0.4943508803844452,
        -0.36335092782974243,
        0.12674231827259064,
        0.5279982089996338,
        -0.6508278250694275,
        -0.04031875729560852,
        -0.6665380001068115,
        0.23352408409118652,
        0.011407291516661644,
        0.371008038520813,
        -0.43671321868896484,
        -0.28767791390419006,
        -0.59783935546875,
        -0.01736462675035,
        -0.10616889595985413,
        0.02321632206439972,
        0.00018470047507435083,
        -0.46235886216163635,
        -0.16332434117794037,
        0.17837591469287872,
        -0.15303963422775269,
        -0.10988795012235641,
        0.038419608026742935,
        0.06671880930662155,
        -0.12719295918941498,
        -0.07301544398069382,
        -0.011495813727378845,
        -0.02582761086523533,
        -0.04272521287202835,
        -0.00883350521326065,
        0.1252758651971817,
        0.41043850779533386,
        0.3778637647628784,
        0.599330484867096,
        0.16475525498390198,
        0.3605668544769287,
        0.28995609283447266,
        -0.17816367745399475,
        -0.0033190103713423014,
        0.38435041904449463,
        0.20867648720741272,
        -0.09822514653205872,
        -0.037356775254011154,
        0.057910673320293427,
        0.32842719554901123,
        0.3009619116783142,
        -0.5532237887382507,
        -0.06766564399003983,
        0.03528160974383354,
        -0.0033215933945029974,
        0.13976459205150604,
        0.20925597846508026,
        -0.11537475138902664,
        -0.15466761589050293,
        0.17758791148662567,
        0.34069761633872986,
        0.24854819476604462,
        0.38484784960746765,
        -0.3615819811820984,
        0.07848529517650604,
        -0.006411285139620304,
        0.6042280197143555,
        0.08770108968019485,
        0.37829867005348206,
        0.12478642910718918,
        0.07830223441123962,
        -0.19923898577690125,
        -0.6111146211624146,
        -0.34747520089149475,
        0.16768664121627808,
        0.22542734444141388,
        0.15948931872844696,
        -0.21556159853935242,
        0.862489640712738,
        0.04056647792458534,
        -0.027149854227900505,
        0.03329136595129967,
        0.0009621381759643555,
        0.14955978095531464,
        0.7688915133476257,
        0.5369137525558472,
        0.9129593372344971,
        0.19478681683540344,
        0.7028055191040039,
        0.4854865074157715,
        -0.18588797748088837,
        -0.0412156917154789,
        0.4117698669433594,
        0.5633626580238342,
        0.1450597643852234,
        -0.19751287996768951,
        0.026169098913669586,
        0.4081265330314636,
        0.6557552218437195,
        -1.096616506576538,
        -0.2474239319562912,
        0.2543412148952484,
        -0.008992820978164673,
        0.025398485362529755,
        0.6199226975440979,
        0.3012213110923767,
        -0.007070318795740604,
        -0.4152340292930603,
        0.34515658020973206,
        0.3462359309196472,
        0.37000328302383423,
        0.0428355447947979,
        0.14239050447940826,
        0.13540925085544586,
        0.45765602588653564,
        0.07810936123132706,
        0.7154908776283264,
        0.017237799242138863,
        0.11961597204208374,
        -0.10656112432479858,
        -0.3990457355976105,
        -0.40971890091896057,
        0.27984049916267395,
        0.42603957653045654,
        0.25027701258659363,
        0.020709937438368797,
        0.6318487524986267,
        0.033431265503168106,
        -0.028172973543405533,
        0.008869025856256485,
        -0.02355223149061203,
        -0.003607228398323059,
        0.0130988210439682,
        0.013414748013019562,
        0.011260058730840683,
        0.03142073377966881,
        0.015757568180561066,
        0.017522048205137253,
        0.0017303191125392914,
        0.002501886337995529,
        0.023914847522974014,
        0.02354566380381584,
        -0.005617618560791016,
        0.011624947190284729,
        -0.0009035579860210419,
        -0.029777953401207924,
        -0.022574305534362793,
        -0.007138453423976898,
        0.0050674304366111755,
        0.01343691349029541,
        0.004538603127002716,
        -0.0384477935731411,
        -0.036366429179906845,
        -0.009996391832828522,
        -0.011411186307668686,
        -0.03395096957683563,
        0.01126386970281601,
        -0.035223186016082764,
        0.040007296949625015,
        0.001963149756193161,
        -0.03780677914619446,
        -0.019528282806277275,
        -0.021028392016887665,
        0.034801725298166275,
        0.03642023727297783,
        0.024730678647756577,
        -0.035919561982154846,
        -0.0026212818920612335,
        0.004974566400051117,
        -0.03760674595832825,
        0.02127310261130333,
        0.010823611170053482,
        0.028122086077928543,
        0.000319894403219223,
        0.04131947085261345,
        0.021483037620782852,
        -0.026806211099028587,
        -0.04122692719101906,
        0.030434701591730118,
        0.34994253516197205,
        0.36846980452537537,
        0.39886587858200073,
        0.1895187497138977,
        0.07767990231513977,
        -0.03824758902192116,
        -0.0161159485578537,
        0.17272193729877472,
        0.016899917274713516,
        0.35369616746902466,
        0.053504277020692825,
        -0.04626932740211487,
        -0.01595625840127468,
        0.40011879801750183,
        0.02852759137749672,
        -0.009598176926374435,
        0.002938229590654373,
        -0.00033341720700263977,
        -0.0009353384375572205,
        -0.07823293656110764,
        0.03706083819270134,
        -0.011504195630550385,
        -0.01820124313235283,
        -0.047680824995040894,
        -0.06765870749950409,
        0.02581924945116043,
        0.43485966324806213,
        0.14852385222911835,
        -0.17843063175678253,
        -0.034905653446912766,
        -0.002072203904390335,
        -0.01736714318394661,
        0.2403276413679123,
        0.20393644273281097,
        0.3498925566673279,
        -0.028746603056788445,
        0.003153368830680847,
        -0.02063348889350891,
        -0.010350754484534264,
        0.04080456867814064,
        -0.09536069631576538,
        -0.004630641546100378,
        0.02966570481657982,
        0.08503920584917068,
        -0.034033939242362976,
        0.008836962282657623,
        0.016737695783376694,
        0.03498714789748192,
        0.5243567824363708,
        0.6279835104942322,
        0.29031887650489807,
        -0.012452492490410805,
        0.2562764585018158,
        0.6700944900512695,
        0.252427339553833,
        0.02226140908896923,
        1.0100986957550049,
        0.23001830279827118,
        0.4056863784790039,
        -0.17736613750457764,
        -0.010949235409498215,
        -0.011824607849121094,
        0.32190996408462524,
        0.4992046654224396,
        -0.38896122574806213,
        0.1943952739238739,
        0.4149196147918701,
        -0.024915490299463272,
        0.18922580778598785,
        0.1568385362625122,
        0.03645337000489235,
        0.0047203414142131805,
        0.006571982055902481,
        -0.01210738904774189,
        1.107744812965393,
        0.030976947396993637,
        0.038953423500061035,
        0.41586098074913025,
        0.05742959678173065,
        -0.02755831554532051,
        0.7540090680122375,
        0.025922294706106186,
        0.5627232193946838,
        0.08982940763235092,
        -0.5124344229698181,
        -0.01838591694831848,
        -0.013719948008656502,
        0.2420853227376938,
        0.24912677705287933,
        -0.2552858293056488,
        0.10576927661895752,
        0.023728925734758377,
        0.2809947729110718,
        0.17837171256542206,
        0.6632788181304932,
        0.015451177954673767,
        -0.13508038222789764,
        -0.016941973939538002,
        -0.46051326394081116,
        -0.22933925688266754,
        -0.11883188039064407,
        0.11433214694261551,
        -0.24740992486476898,
        -0.27714595198631287,
        0.2666517198085785,
        -0.4590010941028595,
        0.09461577236652374,
        0.057083308696746826,
        0.12126784026622772,
        0.4055745005607605,
        0.09235993772745132,
        0.1236889436841011,
        0.5889574289321899,
        -0.1503559947013855
      ],
      [
        -0.4048255681991577,
        -0.8557129502296448,
        -0.7157605886459351,
        -0.21935389935970306,
        -0.3589431047439575,
        -0.6449211239814758,
        -0.3685246407985687,
        -0.3245571553707123,
        -0.0463285930454731,
        -0.5575328469276428,
        -0.5100919604301453,
        -0.47286710143089294,
        -0.16212865710258484,
        -0.36436182260513306,
        -0.4116653501987457,
        -0.3661807179450989,
        0.27830564975738525,
        -0.040515270084142685,
        -0.23227456212043762,
        -0.3952990472316742,
        -0.09742370992898941,
        -0.37952208518981934,
        -0.4039207100868225,
        -0.19438019394874573,
        -0.21761298179626465,
        0.10797443240880966,
        -0.8404704928398132,
        -0.15576763451099396,
        -0.2414114624261856,
        -0.3399146795272827,
        -0.3143567144870758,
        -0.1358678787946701,
        -0.5698825120925903,
        -0.3569192588329315,
        -0.29964154958724976,
        -0.42810896039009094,
        0.08466918766498566,
        -0.12637141346931458,
        0.48162275552749634,
        -0.13995198905467987,
        -0.8892524838447571,
        -0.029923314228653908,
        -0.1414368450641632,
        -0.24555356800556183,
        0.0249609537422657,
        0.041531357914209366,
        0.01174522191286087,
        0.003732103854417801,
        0.047565147280693054,
        -0.1124880462884903,
        -0.23940493166446686,
        -0.459682822227478,
        0.07155925780534744,
        -0.11610095202922821,
        -0.017539210617542267,
        0.22337312996387482,
        0.15124304592609406,
        -0.21686162054538727,
        -0.18006744980812073,
        0.03342355415225029,
        0.0726059153676033,
        0.08600004017353058,
        -0.19061139225959778,
        -0.06906665861606598,
        0.07838220149278641,
        -0.006579119246453047,
        -0.2740117609500885,
        -0.25001245737075806,
        -0.1256641000509262,
        -0.3308398127555847,
        -0.023823099210858345,
        0.19206368923187256,
        -0.033542387187480927,
        -0.09221414476633072,
        -0.4633071720600128,
        0.02800087258219719,
        -0.21231642365455627,
        -0.31376224756240845,
        -0.3084023892879486,
        -0.49181848764419556,
        0.11404763907194138,
        0.307271808385849,
        0.03084409423172474,
        -0.18232661485671997,
        0.16020749509334564,
        0.38074415922164917,
        0.6718181371688843,
        0.01089109294116497,
        -0.409454345703125,
        0.20188745856285095,
        -0.08967886120080948,
        -0.03491680324077606,
        0.037077147513628006,
        0.025499407202005386,
        -0.0019238963723182678,
        -0.019783534109592438,
        0.033888187259435654,
        -0.28478530049324036,
        -0.08294451981782913,
        -0.35444602370262146,
        0.026267550885677338,
        -0.2589510977268219,
        -0.14026722311973572,
        0.08185531198978424,
        -0.00018370871839579195,
        -0.02028052508831024,
        -0.24989201128482819,
        -0.22087310254573822,
        0.13349144160747528,
        0.034142378717660904,
        -0.23189564049243927,
        -0.15552695095539093,
        0.499277263879776,
        -0.2844456136226654,
        -0.04284723848104477,
        -0.07511166483163834,
        0.0681644156575203,
        -0.11273013800382614,
        0.056592222303152084,
        -0.24563151597976685,
        -0.11435306072235107,
        -0.23191064596176147,
        -0.33110368251800537,
        -0.3053015470504761,
        0.1729080229997635,
        -0.3265511095523834,
        -0.018673161044716835,
        -0.0519840270280838,
        -0.08667546510696411,
        0.027389496564865112,
        0.029217202216386795,
        -0.30713558197021484,
        0.08400826901197433,
        0.1630752831697464,
        0.5209771394729614,
        -0.09932806342840195,
        -0.3327169120311737,
        0.2920973300933838,
        0.06990625709295273,
        -0.15894366800785065,
        0.035770442336797714,
        -0.006021853536367416,
        -0.020583979785442352,
        0.04231451824307442,
        -0.5479182004928589,
        -0.7048357725143433,
        -0.7093124985694885,
        -0.40737074613571167,
        -0.35400718450546265,
        -0.03150934725999832,
        -0.6210497617721558,
        -0.25569403171539307,
        -0.22332845628261566,
        -0.4077128469944,
        -0.49958691000938416,
        -0.33477649092674255,
        0.055152323096990585,
        -0.5627340078353882,
        -0.015445571392774582,
        0.035422686487436295,
        0.016192737966775894,
        0.026078272610902786,
        -0.03420620039105415,
        -0.0061367047019302845,
        0.01556328684091568,
        -0.014116831123828888,
        -0.24033737182617188,
        0.008895429782569408,
        0.012083953246474266,
        -0.21262875199317932,
        -0.5663299560546875,
        -0.052456606179475784,
        -0.2356759011745453,
        -0.014560738578438759,
        -0.04216102138161659,
        -0.15407299995422363,
        -0.4528060853481293,
        -0.2594663202762604,
        -0.4850947856903076,
        -0.35155802965164185,
        0.032978374511003494,
        -0.06707993894815445,
        -0.2848184406757355,
        0.009074855595827103,
        -0.04733029007911682,
        -0.09141001850366592,
        0.04100273177027702,
        -0.4080747067928314,
        -0.03165692836046219,
        0.014646880328655243,
        -0.01588347926735878,
        0.023903269320726395,
        0.08356638252735138,
        -0.2573407292366028,
        0.14732792973518372,
        -0.10702060163021088,
        -0.05405645817518234,
        -0.705655038356781,
        -0.10071594268083572,
        0.34133705496788025,
        -0.07124429941177368,
        0.1695658266544342,
        -0.04262378439307213,
        -0.007055736146867275,
        0.17534631490707397,
        0.1565016210079193,
        -0.27885863184928894,
        -0.4185013175010681,
        0.3373485803604126,
        0.23231849074363708,
        -0.0965440571308136,
        -0.058368489146232605,
        0.05951550230383873,
        -0.3078918159008026,
        -0.18420159816741943,
        0.0020795827731490135,
        0.0906483456492424,
        0.021887492388486862,
        -0.5298416614532471,
        0.14751097559928894,
        -0.31593650579452515,
        -0.28500911593437195,
        -0.17309993505477905,
        -0.1901971399784088,
        0.07630888372659683,
        0.039747871458530426,
        0.06969869881868362,
        -0.008737960830330849,
        0.001970458310097456,
        0.33953914046287537,
        0.603370189666748,
        -0.1657436043024063,
        -0.460460901260376,
        0.5764307379722595,
        0.003944295458495617,
        0.05800708755850792,
        0.008739755488932133,
        0.16031484305858612,
        0.11002173274755478,
        0.08655482530593872,
        0.010290534235537052,
        -0.00473412312567234,
        -0.05120629444718361,
        -0.04310698062181473,
        0.1492544263601303,
        -0.07435301691293716,
        0.030346356332302094,
        -0.08263339102268219,
        -0.03760608658194542,
        -0.15664000809192657,
        -0.152205690741539,
        -0.20226117968559265,
        0.013178393244743347,
        0.012213317677378654,
        0.0591316744685173,
        -0.08848430961370468,
        -0.2521474063396454,
        -0.43023741245269775,
        0.031059499830007553,
        -0.015189570374786854,
        -0.011599138379096985,
        -0.1620340496301651,
        -0.09752695262432098,
        0.09183108806610107,
        -0.07714030891656876,
        -0.23152494430541992,
        0.0087125850841403,
        0.09413831681013107,
        -0.19662585854530334,
        -0.38055872917175293,
        -0.3489401340484619,
        -0.20502561330795288,
        0.09514982253313065,
        -0.30861157178878784,
        -0.021668586879968643,
        -0.40998461842536926,
        -0.4414512813091278,
        0.1824766844511032,
        0.02749011479318142,
        0.04197810962796211,
        -0.26225072145462036,
        0.15629369020462036,
        -0.1653265655040741,
        -0.010713892988860607,
        -0.028124593198299408,
        -0.03976805880665779,
        0.019032057374715805,
        0.03405864164233208,
        0.036760568618774414,
        0.45748987793922424,
        0.4291163384914398,
        0.829954206943512,
        0.09659425914287567,
        0.8029187917709351,
        0.4572998583316803,
        -0.01257389783859253,
        0.16652646660804749,
        0.482272744178772,
        0.5555418729782104,
        0.05455759912729263,
        -0.11453566700220108,
        -0.018930520862340927,
        0.557090163230896,
        0.6738176345825195,
        -0.5688361525535583,
        -0.17411504685878754,
        0.4038101136684418,
        -0.025194983929395676,
        0.22229932248592377,
        0.43907657265663147,
        0.22959648072719574,
        -0.0050993310287594795,
        -0.12742123007774353,
        0.1506366729736328,
        0.3181018829345703,
        0.13173441588878632,
        -0.21990464627742767,
        0.3372432589530945,
        0.156789168715477,
        0.6159439086914062,
        0.10531773418188095,
        0.3498826026916504,
        0.06046375632286072,
        0.06896111369132996,
        -0.14258505403995514,
        -0.43383270502090454,
        -0.478076696395874,
        0.05425737798213959,
        0.3594612777233124,
        0.21134595572948456,
        0.1298830509185791,
        0.5221704840660095,
        -0.030128903687000275,
        0.03750054910778999,
        0.012770317494869232,
        -0.02812250703573227,
        0.0727560892701149,
        0.712896466255188,
        0.4682394564151764,
        1.1867594718933105,
        0.07750577479600906,
        0.8061259984970093,
        0.6928741335868835,
        -0.15327268838882446,
        0.013268145732581615,
        0.40981733798980713,
        0.6714575290679932,
        0.03679298982024193,
        -0.16418340802192688,
        -0.04401783645153046,
        0.26158690452575684,
        0.8029859066009521,
        -1.0776746273040771,
        -0.5781998634338379,
        0.6772515177726746,
        0.09519687294960022,
        0.1373940259218216,
        0.6405746936798096,
        0.1697324961423874,
        -0.38732197880744934,
        -0.3840382397174835,
        0.17520023882389069,
        0.36343079805374146,
        0.3056993782520294,
        0.10671128332614899,
        0.2521367073059082,
        0.4020390808582306,
        0.6129867434501648,
        0.16170470416545868,
        0.7345448136329651,
        -0.01740964502096176,
        -0.006587715819478035,
        -0.14885804057121277,
        -0.5238638520240784,
        -0.4992634057998657,
        0.30919164419174194,
        0.42622116208076477,
        0.13369351625442505,
        0.20144246518611908,
        0.5107373595237732,
        -0.0014696493744850159,
        -0.013247473165392876,
        0.02517949417233467,
        -0.028326604515314102,
        0.016630005091428757,
        0.01716923713684082,
        0.013841774314641953,
        -0.02556683123111725,
        -0.019011935219168663,
        -0.03227224946022034,
        -0.018385024741292,
        0.016473233699798584,
        -0.0017490312457084656,
        -0.021493736654520035,
        -0.029682153835892677,
        -0.041140034794807434,
        0.020829934626817703,
        0.02933100238442421,
        0.005887564271688461,
        -0.011484503746032715,
        0.033205073326826096,
        0.017698276787996292,
        0.019733335822820663,
        -0.03278748318552971,
        0.01304217055439949,
        -0.0013501346111297607,
        0.037507448345422745,
        -0.036445751786231995,
        0.041644152253866196,
        0.02730647847056389,
        -0.039329253137111664,
        0.04239964857697487,
        0.001878894865512848,
        -0.01888173446059227,
        0.022278185933828354,
        0.03132043406367302,
        -0.009675901383161545,
        -0.021885046735405922,
        0.04268390312790871,
        0.006028797477483749,
        -0.01025398075580597,
        -0.019535822793841362,
        -0.028804607689380646,
        -0.02315952442586422,
        0.011026240885257721,
        -0.039414457976818085,
        -0.038437698036432266,
        0.001720145344734192,
        -0.006347589194774628,
        0.00832638144493103,
        -0.03679218888282776,
        0.041120294481515884,
        0.7053948640823364,
        0.7358421683311462,
        0.5975468754768372,
        0.37249526381492615,
        0.4106225371360779,
        0.03661574050784111,
        0.2632904350757599,
        0.39624327421188354,
        0.3358239531517029,
        0.4384462237358093,
        0.1723608374595642,
        0.06733380258083344,
        0.24293053150177002,
        0.7091786861419678,
        0.035486217588186264,
        -0.039888765662908554,
        -0.035995688289403915,
        -0.013324473053216934,
        0.02702777460217476,
        -0.035724665969610214,
        -0.03398609906435013,
        0.008403044193983078,
        -0.09161945432424545,
        -0.014368528500199318,
        0.05443977937102318,
        -0.04311978816986084,
        0.39364540576934814,
        0.2662520706653595,
        -0.053734369575977325,
        0.04064227268099785,
        -0.027652891352772713,
        0.03171899914741516,
        0.5622296929359436,
        0.319473534822464,
        0.7241151928901672,
        0.05747639387845993,
        0.015130560845136642,
        -0.06898368149995804,
        0.3460952043533325,
        -0.02656804397702217,
        -0.12014357000589371,
        0.04234924912452698,
        -0.004279527813196182,
        0.2717311978340149,
        0.03368298336863518,
        0.03596937283873558,
        0.018631301820278168,
        0.00036479532718658447,
        0.612654447555542,
        0.7319597005844116,
        0.2671230435371399,
        -0.027124550193548203,
        0.32562151551246643,
        0.6484587788581848,
        0.23505118489265442,
        0.05965222790837288,
        1.3982001543045044,
        0.25893428921699524,
        0.5798872113227844,
        -0.3506774306297302,
        0.009411018341779709,
        -0.02665548585355282,
        0.46323102712631226,
        0.518962025642395,
        -0.26241156458854675,
        -0.04809040203690529,
        0.24840833246707916,
        0.020642388612031937,
        0.01012944895774126,
        -0.062426742166280746,
        -0.001199483871459961,
        -0.022339744493365288,
        0.01308436319231987,
        0.019954632967710495,
        1.4734798669815063,
        0.03695916756987572,
        0.005211698357015848,
        0.35700520873069763,
        0.13904930651187897,
        -0.019827434793114662,
        0.8976402282714844,
        0.03873814269900322,
        0.5193282961845398,
        -0.11977538466453552,
        -0.6462950110435486,
        0.025632496923208237,
        0.06704957783222198,
        0.14182396233081818,
        0.34171247482299805,
        -0.4383236765861511,
        0.10704494267702103,
        0.014259357005357742,
        0.06746640801429749,
        0.09680824726819992,
        0.32456839084625244,
        -0.008293449878692627,
        -0.08343587070703506,
        -0.038150619715452194,
        -0.5393900871276855,
        -0.21178017556667328,
        -0.17652927339076996,
        0.10970853269100189,
        -0.08836915343999863,
        -0.10936561971902847,
        0.41616058349609375,
        -0.40577232837677,
        0.007849621586501598,
        0.02110619843006134,
        0.07352787256240845,
        0.7120333313941956,
        0.06400895863771439,
        0.0600338950753212,
        0.6276043653488159,
        -0.1630091816186905
      ],
      [
        -0.36742115020751953,
        0.323469877243042,
        0.26180166006088257,
        1.196590781211853,
        -0.33332526683807373,
        0.5134767889976501,
        -0.004628339782357216,
        0.014100734144449234,
        0.28592243790626526,
        0.2448800802230835,
        0.4714132845401764,
        0.05105022341012955,
        -0.554395318031311,
        -0.3596384525299072,
        0.3778514862060547,
        0.420470654964447,
        -0.22856122255325317,
        0.004382775165140629,
        -0.14588096737861633,
        0.43176907300949097,
        0.044663384556770325,
        0.36715367436408997,
        0.40676215291023254,
        0.5112674236297607,
        0.574215292930603,
        0.3824164867401123,
        0.3331663906574249,
        0.3771183490753174,
        0.2409660369157791,
        0.442596435546875,
        0.2614898383617401,
        0.35716676712036133,
        -0.13795389235019684,
        0.6085970997810364,
        -0.4178377389907837,
        0.2657806873321533,
        -0.039121899753808975,
        0.23328430950641632,
        -0.28793951869010925,
        0.23646938800811768,
        0.8267226219177246,
        0.25246915221214294,
        -0.18233002722263336,
        0.8470538854598999,
        -0.02640087716281414,
        0.014134105294942856,
        -0.028022401034832,
        -0.01333034411072731,
        0.09974224865436554,
        0.36599886417388916,
        0.546771228313446,
        0.5892435312271118,
        0.03668007254600525,
        0.04403788223862648,
        0.4061641991138458,
        -0.14017000794410706,
        0.146217480301857,
        0.33353888988494873,
        0.27001169323921204,
        0.2945583164691925,
        -0.008731655776500702,
        0.17529623210430145,
        0.23840995132923126,
        -0.009794694371521473,
        -0.06712673604488373,
        -0.0342647060751915,
        0.07443555444478989,
        0.1256662756204605,
        0.07435218244791031,
        0.2900027632713318,
        0.23134826123714447,
        -0.008569750934839249,
        0.20186765491962433,
        0.22291933000087738,
        0.5794743299484253,
        0.20230689644813538,
        0.291467547416687,
        0.2768682837486267,
        0.33750686049461365,
        0.30906397104263306,
        0.20659172534942627,
        0.28165143728256226,
        0.10051475465297699,
        0.6712745428085327,
        -0.3126256763935089,
        0.278572142124176,
        -0.22341778874397278,
        0.1302352100610733,
        0.2738702893257141,
        0.15434494614601135,
        -0.20558224618434906,
        0.2506459057331085,
        0.030392777174711227,
        0.026034075766801834,
        0.01482648029923439,
        0.004437599331140518,
        0.03633414953947067,
        0.3251536786556244,
        0.19950798153877258,
        0.7692463994026184,
        0.09319008886814117,
        0.3011249303817749,
        0.36441314220428467,
        0.18617340922355652,
        0.2410920262336731,
        0.04338835924863815,
        0.4317810833454132,
        0.26933324337005615,
        -0.038720227777957916,
        0.0017345654778182507,
        0.13641256093978882,
        0.3237012028694153,
        -0.18858613073825836,
        0.18515647947788239,
        -0.33209317922592163,
        0.04560811072587967,
        0.139828622341156,
        0.4079369902610779,
        0.09172616899013519,
        0.11880938708782196,
        0.37670081853866577,
        0.11988669633865356,
        0.2520908713340759,
        0.5769783854484558,
        0.025288265198469162,
        0.4160991609096527,
        0.12641046941280365,
        0.0064558545127511024,
        0.17089912295341492,
        0.17293648421764374,
        0.033487576991319656,
        0.398618221282959,
        -0.24594718217849731,
        0.20915982127189636,
        -0.3324773609638214,
        0.1459350436925888,
        0.6727567911148071,
        -0.15418249368667603,
        -0.31277236342430115,
        0.13224101066589355,
        0.017928898334503174,
        0.012970615178346634,
        -0.029235918074846268,
        0.03151692822575569,
        0.5513573288917542,
        0.5597826838493347,
        0.50739985704422,
        0.24619963765144348,
        0.226029634475708,
        0.006044402718544006,
        0.32670655846595764,
        0.3265702426433563,
        0.02140270173549652,
        0.47006845474243164,
        0.32380279898643494,
        0.3264569044113159,
        0.04965023323893547,
        0.5473706126213074,
        -0.02218540944159031,
        -0.0362078957259655,
        0.013188820332288742,
        -0.032349392771720886,
        0.03353901579976082,
        0.07212716341018677,
        -0.04155045375227928,
        0.04098806157708168,
        0.12307516485452652,
        0.00556185282766819,
        -0.04831097275018692,
        0.12732458114624023,
        0.41857120394706726,
        0.023851042613387108,
        0.17828235030174255,
        -0.018903682008385658,
        -0.012911945581436157,
        0.15559062361717224,
        0.3548763692378998,
        0.13487304747104645,
        0.4316914975643158,
        0.3510453402996063,
        0.022532355040311813,
        0.058766238391399384,
        0.03894486278295517,
        0.009145267307758331,
        0.09944979101419449,
        0.0507054440677166,
        -0.03994208946824074,
        0.29275405406951904,
        -0.009057652205228806,
        -0.0057547427713871,
        0.039209041744470596,
        -0.003281686455011368,
        0.15392108261585236,
        0.40642625093460083,
        0.09338033944368362,
        0.23695041239261627,
        0.2166626751422882,
        0.8288819193840027,
        0.3503410816192627,
        0.21432889997959137,
        0.399463415145874,
        0.3368331491947174,
        -0.06827325373888016,
        0.443358451128006,
        0.029936622828245163,
        -0.009176270104944706,
        0.693021833896637,
        0.5374956130981445,
        -0.1168457567691803,
        -0.16185416281223297,
        -0.2527504861354828,
        -0.13222716748714447,
        0.01325158029794693,
        0.2788251042366028,
        -0.08838924765586853,
        -0.13068754971027374,
        0.016123807057738304,
        0.02208106964826584,
        0.675681471824646,
        -0.056636709719896317,
        0.16239690780639648,
        0.36779046058654785,
        0.2744123041629791,
        0.29729345440864563,
        0.37778183817863464,
        0.06926161050796509,
        0.14175215363502502,
        0.19788675010204315,
        0.007608509622514248,
        0.28424710035324097,
        -0.45060017704963684,
        0.1956082433462143,
        0.31815171241760254,
        0.08835961669683456,
        0.14759893715381622,
        -0.14924854040145874,
        0.09074107557535172,
        0.0958663821220398,
        0.2796507775783539,
        0.015863187611103058,
        -0.05304955318570137,
        -0.07342617958784103,
        -0.030735870823264122,
        0.11913693696260452,
        -0.03749696910381317,
        -0.10531450808048248,
        0.02914171665906906,
        0.17515307664871216,
        -0.0437827967107296,
        0.18975655734539032,
        0.022547394037246704,
        -0.01500222459435463,
        -0.06400243192911148,
        -0.026137277483940125,
        -0.11265834420919418,
        -0.10908147692680359,
        0.15677747130393982,
        0.644234836101532,
        -0.4137466251850128,
        -0.07597272843122482,
        0.040397267788648605,
        -0.12370199710130692,
        0.1051906943321228,
        -0.2448882758617401,
        0.20310552418231964,
        0.5232867002487183,
        -0.13436438143253326,
        -0.0669514536857605,
        0.327629029750824,
        0.4347134828567505,
        -0.16405709087848663,
        0.0044553098268806934,
        0.1300654411315918,
        0.2365936040878296,
        -0.10718680918216705,
        0.16204595565795898,
        0.006707598455250263,
        0.5105981826782227,
        0.11994993686676025,
        -0.06517130136489868,
        0.21234700083732605,
        0.21045583486557007,
        0.06335770338773727,
        -0.15999563038349152,
        -0.02842056378722191,
        -0.00912570208311081,
        0.026960212737321854,
        0.022089015692472458,
        -0.0318555049598217,
        -0.134100079536438,
        -0.375751256942749,
        -0.5250709056854248,
        0.1328769028186798,
        -0.3003979027271271,
        -0.13801901042461395,
        0.16425777971744537,
        0.19674645364284515,
        -0.1842731535434723,
        -0.2160550206899643,
        0.02102099545300007,
        0.040857646614313126,
        0.03402973338961601,
        -0.024418987333774567,
        -0.2988085150718689,
        0.6085222959518433,
        0.03697396442294121,
        -0.18382975459098816,
        0.016441596671938896,
        -0.217152938246727,
        -0.2868906557559967,
        -0.1397574096918106,
        0.17121621966362,
        0.09543348103761673,
        -0.27191081643104553,
        -0.09104297310113907,
        -0.20685496926307678,
        0.24262702465057373,
        -0.5158942937850952,
        -0.1540105640888214,
        -0.4202568829059601,
        0.07828159630298615,
        -0.09754928946495056,
        -0.06764010339975357,
        -0.20567917823791504,
        0.19538843631744385,
        0.5048786401748657,
        0.5678150057792664,
        0.01127750426530838,
        0.1986643671989441,
        0.004457320552319288,
        0.029006529599428177,
        -0.3948023319244385,
        -0.02680167555809021,
        0.04060309752821922,
        -0.022320199757814407,
        0.033507589250802994,
        -0.07913704961538315,
        -0.5690412521362305,
        -0.3799905478954315,
        -1.2570273876190186,
        -0.008738653734326363,
        -0.5302075743675232,
        -0.1978580355644226,
        0.1422566920518875,
        0.1024690717458725,
        -0.1929401457309723,
        -0.44705215096473694,
        -0.10289053618907928,
        0.07947366684675217,
        0.015526529401540756,
        -0.11826480180025101,
        -0.47741949558258057,
        1.0129457712173462,
        0.25772199034690857,
        -0.32778799533843994,
        0.12375767529010773,
        -0.14487971365451813,
        -0.5283389687538147,
        -0.026375560089945793,
        -0.013371295295655727,
        0.18032364547252655,
        0.17656809091567993,
        -0.4171532392501831,
        -0.3429790437221527,
        0.2415785938501358,
        -0.4780024588108063,
        -0.4104771316051483,
        -0.41711127758026123,
        0.061529163271188736,
        -0.5651340484619141,
        -0.06467247009277344,
        -0.18312117457389832,
        0.4067586362361908,
        0.7809993028640747,
        0.5711735486984253,
        -0.11864323914051056,
        -0.2714937627315521,
        -0.0058610751293599606,
        0.09207826852798462,
        -0.3210109770298004,
        -0.020667651668190956,
        0.025685403496026993,
        -0.00671062245965004,
        -0.015696415677666664,
        -0.007504899054765701,
        -0.019430391490459442,
        -0.0010883882641792297,
        0.04111187532544136,
        0.01624315232038498,
        0.021034929901361465,
        -0.0025245286524295807,
        -0.017289508134126663,
        -0.03927954286336899,
        0.0019038468599319458,
        -0.0024743787944316864,
        0.03904582932591438,
        0.03582559898495674,
        0.002684425562620163,
        0.01931161805987358,
        -0.016651354730129242,
        0.031706396490335464,
        -0.016136344522237778,
        0.013524163514375687,
        0.007292412221431732,
        0.0027930624783039093,
        -0.003190789371728897,
        0.029641393572092056,
        0.006247248500585556,
        0.02847612276673317,
        -0.03713277354836464,
        0.01338573545217514,
        -0.0011391639709472656,
        -0.015264062210917473,
        0.006162188947200775,
        -0.0007516965270042419,
        0.006059844046831131,
        0.0004386492073535919,
        0.033667463809251785,
        -0.007600549608469009,
        -0.011893736198544502,
        -0.0295712947845459,
        0.036727432161569595,
        0.03113529458642006,
        0.021141011267900467,
        -0.014122692868113518,
        0.005196481943130493,
        -0.024334698915481567,
        0.002669192850589752,
        -0.03495574742555618,
        0.02337169274687767,
        -0.011491697281599045,
        0.031982678920030594,
        -0.225904643535614,
        -0.2592736780643463,
        -0.3099493682384491,
        -0.326170951128006,
        -0.2652255892753601,
        0.010502465069293976,
        -0.045880116522312164,
        -0.1907551884651184,
        -0.03137640655040741,
        -0.3798801600933075,
        -0.18158042430877686,
        0.09404042363166809,
        -0.24182218313217163,
        -0.2165750116109848,
        8.420273661613464e-05,
        -0.03602989763021469,
        0.02691798284649849,
        -0.04182436317205429,
        0.002769719809293747,
        0.10975874960422516,
        0.014654021710157394,
        0.03662347421050072,
        0.12250997871160507,
        -0.04203451797366142,
        -0.017764437943696976,
        0.08753655850887299,
        -0.23218698799610138,
        -0.23210690915584564,
        0.08266711235046387,
        0.013857401907444,
        -0.0010231435298919678,
        -0.014469250105321407,
        -0.16834911704063416,
        -0.3302936255931854,
        -0.3349255621433258,
        0.03895328938961029,
        0.030211981385946274,
        -0.03511650860309601,
        0.09014873206615448,
        0.026559438556432724,
        0.055526893585920334,
        0.07389000058174133,
        0.01945849135518074,
        -0.24887876212596893,
        -0.031499557197093964,
        -0.0319848358631134,
        -0.026532519608736038,
        -0.042568448930978775,
        -0.4307059943675995,
        -0.5582118630409241,
        -0.43903157114982605,
        0.03345050290226936,
        -0.1412874311208725,
        -0.5406871438026428,
        -0.07330381125211716,
        0.13568563759326935,
        -1.0113499164581299,
        -0.02469288930296898,
        -0.14506159722805023,
        0.2891896367073059,
        -0.0026251748204231262,
        0.019694317132234573,
        -0.04276927560567856,
        -0.47167670726776123,
        0.4730960428714752,
        0.0646342784166336,
        -0.10697977244853973,
        0.03478546068072319,
        -0.122355155646801,
        0.19288890063762665,
        -0.008993078023195267,
        -3.9268285036087036e-05,
        -0.040213897824287415,
        -0.03151318058371544,
        -1.0633742809295654,
        -0.037705883383750916,
        -0.042484674602746964,
        -0.30194225907325745,
        -0.2413637936115265,
        -0.028464090079069138,
        -0.5600512027740479,
        -0.03938959538936615,
        -0.5051953792572021,
        -0.18086710572242737,
        0.5049299001693726,
        -0.028043262660503387,
        -0.20103904604911804,
        -0.010814232751727104,
        -0.06770583242177963,
        0.5614794492721558,
        -0.053942009806632996,
        0.0304783396422863,
        0.018143486231565475,
        -0.01660473644733429,
        -0.1427507996559143,
        0.03727293387055397,
        -0.021600017324090004,
        0.13426390290260315,
        0.6037008762359619,
        0.26662132143974304,
        -0.041260045021772385,
        0.12652228772640228,
        0.46386685967445374,
        0.01189576555043459,
        0.08422302454710007,
        -0.32058408856391907,
        0.0872308611869812,
        0.02089763805270195,
        0.09971737116575241,
        -0.25083276629447937,
        -0.05107249692082405,
        -0.05052097141742706,
        -0.5004441142082214,
        -0.043952878564596176
      ],
      [
        -0.06500526517629623,
        0.6257306933403015,
        0.5255380272865295,
        1.1536763906478882,
        -0.14133049547672272,
        0.640150249004364,
        0.009953638538718224,
        -0.09145942330360413,
        -0.05981803685426712,
        0.43350180983543396,
        0.4700775444507599,
        0.22423718869686127,
        -0.42559391260147095,
        -0.17254869639873505,
        0.4942491054534912,
        0.4444286823272705,
        -0.3583574891090393,
        0.04702441394329071,
        0.015561975538730621,
        0.4479198753833771,
        0.10906778275966644,
        0.450370192527771,
        0.22873954474925995,
        0.38535046577453613,
        0.05434727296233177,
        0.31418222188949585,
        0.697890043258667,
        0.35686662793159485,
        0.22738300263881683,
        0.3859963119029999,
        0.3058437407016754,
        0.40923580527305603,
        0.09830529242753983,
        0.4774712920188904,
        -0.15572771430015564,
        0.49403688311576843,
        -0.14808592200279236,
        0.1438867747783661,
        -0.760711669921875,
        0.24656875431537628,
        0.9252582788467407,
        -0.16756249964237213,
        -0.23884761333465576,
        0.7372206449508667,
        0.036408137530088425,
        -0.019794268533587456,
        -0.014005910605192184,
        0.02131200209259987,
        0.10921920835971832,
        0.33540937304496765,
        0.4563726484775543,
        0.6205164194107056,
        0.015251015312969685,
        0.09878901392221451,
        0.3747379183769226,
        -0.19151516258716583,
        -0.0809568241238594,
        0.44856366515159607,
        0.3703764081001282,
        0.07559007406234741,
        -0.042937081307172775,
        0.07567140460014343,
        0.47490233182907104,
        -0.09454166889190674,
        -0.2302148938179016,
        0.06746287643909454,
        0.052687693387269974,
        -0.03823896497488022,
        0.040371861308813095,
        0.4154333174228668,
        0.1687762439250946,
        -0.10173985362052917,
        -0.08696679770946503,
        0.164705291390419,
        0.6694107055664062,
        0.08165016770362854,
        0.1418929547071457,
        0.2851564884185791,
        0.3492427170276642,
        0.48747938871383667,
        0.07714936882257462,
        -0.09693699330091476,
        0.03865961357951164,
        0.3719036281108856,
        -0.4188861846923828,
        -0.15118654072284698,
        -0.7011788487434387,
        0.046563439071178436,
        0.5774409174919128,
        -0.32965895533561707,
        -0.19849488139152527,
        0.28570809960365295,
        -0.03301931172609329,
        -0.02457030490040779,
        0.0001952722668647766,
        -0.01757342368364334,
        0.06058655306696892,
        0.3894442915916443,
        0.28174158930778503,
        0.6875354647636414,
        0.06796815246343613,
        0.37623000144958496,
        0.3542373776435852,
        -0.02085212431848049,
        -0.08364000916481018,
        0.11577745527029037,
        0.43741756677627563,
        0.14977140724658966,
        -0.10467240959405899,
        0.013791178353130817,
        0.23909176886081696,
        0.29717278480529785,
        -0.3462695777416229,
        0.34099072217941284,
        -0.27490660548210144,
        0.09613887220621109,
        0.05457514896988869,
        0.3961924910545349,
        0.06232599914073944,
        -0.0032365289516747,
        0.2680295407772064,
        0.19430336356163025,
        0.4110632836818695,
        0.4979487359523773,
        -0.20758764445781708,
        0.47274163365364075,
        0.12292648106813431,
        0.3252650797367096,
        0.05570220574736595,
        -0.01030179113149643,
        0.03199690952897072,
        0.29361945390701294,
        -0.44240301847457886,
        -0.17071306705474854,
        -0.9406026005744934,
        0.08057211339473724,
        0.6417251229286194,
        -0.3665012717247009,
        -0.20585165917873383,
        0.24173258244991302,
        0.0012401938438415527,
        -0.0399608239531517,
        0.018002621829509735,
        0.0028898417949676514,
        0.6639847755432129,
        0.7629214525222778,
        0.6145707368850708,
        0.181783527135849,
        0.39667758345603943,
        -0.015617039054632187,
        0.5811493396759033,
        0.19815503060817719,
        0.19200049340724945,
        0.4326087534427643,
        0.35697439312934875,
        0.5264716148376465,
        -0.0580841600894928,
        0.7122381925582886,
        0.039577703922986984,
        0.016269609332084656,
        0.029860910028219223,
        -0.04054354876279831,
        0.02808414027094841,
        0.017662540078163147,
        0.01756972447037697,
        0.013572026044130325,
        0.2016630321741104,
        -0.06251402944326401,
        0.013549917377531528,
        0.18251189589500427,
        0.6166957020759583,
        0.009180387482047081,
        0.28254202008247375,
        0.00524260476231575,
        -0.008125577121973038,
        0.18914195895195007,
        0.4548560380935669,
        0.15658700466156006,
        0.5704265832901001,
        0.5160989761352539,
        -0.022580448538064957,
        0.10168792307376862,
        0.1896655410528183,
        -0.015536217018961906,
        0.138130784034729,
        0.04449921101331711,
        0.02430049702525139,
        0.3042357265949249,
        0.010882671922445297,
        0.010895922780036926,
        -0.0021867752075195312,
        0.012285448610782623,
        0.1898832470178604,
        0.5723822712898254,
        0.008088283240795135,
        0.2627905309200287,
        0.21408052742481232,
        1.095872163772583,
        0.40391579270362854,
        -0.06282924115657806,
        0.2800807058811188,
        0.2005922943353653,
        0.015502545051276684,
        0.2555246651172638,
        -0.04644953832030296,
        -0.009796435944736004,
        0.709619402885437,
        0.6470108032226562,
        -0.4557434022426605,
        -0.2927369773387909,
        -0.18734978139400482,
        0.1306658685207367,
        -0.07602690160274506,
        0.6187543272972107,
        -0.01699025183916092,
        -0.07793665677309036,
        -0.1079656332731247,
        0.029253371059894562,
        0.7704772353172302,
        -0.1187751442193985,
        0.22908902168273926,
        0.4388597309589386,
        0.35553914308547974,
        0.5120493173599243,
        0.2530323565006256,
        -0.05159299448132515,
        0.14266298711299896,
        0.2686125338077545,
        -0.17277294397354126,
        -0.19348572194576263,
        -0.7695661187171936,
        0.3036622703075409,
        0.6790382862091064,
        -0.32381483912467957,
        -0.047139957547187805,
        -0.018973838537931442,
        -0.05739320069551468,
        0.03273604437708855,
        0.10164391994476318,
        -0.21317052841186523,
        -0.014916607178747654,
        -0.028612375259399414,
        0.020721599459648132,
        0.0041868193075060844,
        -0.14644795656204224,
        -0.051353324204683304,
        -0.07708046585321426,
        0.043914977461099625,
        -0.05401747673749924,
        -0.009269830770790577,
        0.08199501782655716,
        0.203347310423851,
        -0.21880339086055756,
        -0.04107540473341942,
        0.03192916139960289,
        -0.1606302410364151,
        0.09999580681324005,
        0.4872240722179413,
        -0.26479998230934143,
        -0.10936886072158813,
        -0.15153758227825165,
        -0.08889065682888031,
        -0.24224360287189484,
        -0.47232145071029663,
        0.16743776202201843,
        0.26086121797561646,
        -0.056899428367614746,
        -0.2091384083032608,
        0.5222102999687195,
        0.2589370906352997,
        0.29266268014907837,
        0.3325996398925781,
        -0.050856586545705795,
        0.17359524965286255,
        -0.10023165494203568,
        0.5121873617172241,
        0.2571110427379608,
        0.2637289762496948,
        -0.04377518966794014,
        -0.20546482503414154,
        0.3834533989429474,
        0.03345212712883949,
        -0.13271287083625793,
        -0.1496545970439911,
        -0.0009515956044197083,
        -0.041237723082304,
        -0.03305628150701523,
        -0.005444630980491638,
        -0.07554890960454941,
        -0.3712508976459503,
        -0.45980197191238403,
        -0.9170648455619812,
        0.017584025859832764,
        -0.6978482007980347,
        -0.5417423844337463,
        0.08321452140808105,
        -0.11461326479911804,
        -0.2683044672012329,
        -0.5900203585624695,
        0.04548024386167526,
        0.07941058278083801,
        0.014818775467574596,
        -0.46646466851234436,
        -0.7064964175224304,
        0.5078569650650024,
        0.03677204251289368,
        -0.389422208070755,
        0.1232721135020256,
        -0.24377459287643433,
        -0.41486677527427673,
        -0.36243560910224915,
        0.00516864750534296,
        0.14265058934688568,
        -0.03816064074635506,
        -0.19226355850696564,
        -0.4119025766849518,
        0.41629889607429504,
        -0.6102015376091003,
        -0.20152488350868225,
        -0.3127870559692383,
        -0.14796878397464752,
        -0.559545636177063,
        -0.07760272175073624,
        -0.07964721322059631,
        0.19252260029315948,
        0.5739911794662476,
        0.5324080586433411,
        -0.0629112496972084,
        -0.16418427228927612,
        0.14512485265731812,
        -0.19913820922374725,
        -0.20461702346801758,
        -0.017190944403409958,
        -0.017220038920640945,
        -0.03604467213153839,
        -0.010806571692228317,
        -0.013278516009449959,
        -0.8125526905059814,
        -0.5614203214645386,
        -1.6660312414169312,
        -0.11360890418291092,
        -0.8436486124992371,
        -0.6045973896980286,
        0.04422386363148689,
        -0.07339600473642349,
        -0.49809351563453674,
        -0.8541734218597412,
        0.001323687843978405,
        0.15588997304439545,
        0.010852636769413948,
        -0.40375977754592896,
        -0.7698606252670288,
        1.030437707901001,
        0.41429075598716736,
        -0.5796909332275391,
        0.06449954956769943,
        -0.2809211015701294,
        -0.7909507155418396,
        -0.3264314830303192,
        0.09724507480859756,
        0.16031458973884583,
        -0.0498153492808342,
        -0.40228912234306335,
        -0.37024131417274475,
        0.1505119353532791,
        -0.6193259954452515,
        -0.46424227952957153,
        -0.446387380361557,
        -0.11813012510538101,
        -0.8654147982597351,
        -0.05689634755253792,
        -0.005329999141395092,
        0.46425339579582214,
        0.6376127004623413,
        0.6427105665206909,
        -0.3584522306919098,
        -0.5608590841293335,
        -0.08539114147424698,
        -0.007475412450730801,
        -0.3576391339302063,
        -0.013040447607636452,
        0.009845934808254242,
        0.039572153240442276,
        -0.02046719193458557,
        0.04188082739710808,
        -0.029112841933965683,
        0.023607570677995682,
        -0.02783495932817459,
        0.02356591448187828,
        -0.007214367389678955,
        -0.03723660483956337,
        0.002839360386133194,
        0.01923098787665367,
        0.012957528233528137,
        -0.041618142277002335,
        0.03528832271695137,
        -0.029903551563620567,
        0.04058963432908058,
        -0.02197444438934326,
        -0.020659269765019417,
        -0.015133056789636612,
        0.03158659115433693,
        -0.021464336663484573,
        0.027322519570589066,
        -0.00678948312997818,
        -0.02321075089275837,
        -0.0073205940425395966,
        0.003117784857749939,
        -0.014119984582066536,
        -0.038183435797691345,
        -0.03159983456134796,
        -0.02282918617129326,
        -0.00011501088738441467,
        -0.00544290617108345,
        -0.039962414652109146,
        -0.007380276918411255,
        -0.03798402473330498,
        0.014310870319604874,
        0.008392766118049622,
        -0.007457062602043152,
        -9.000301361083984e-05,
        -0.0018063932657241821,
        -0.024340596050024033,
        0.005723811686038971,
        -0.010940499603748322,
        -0.00013339519500732422,
        0.03066008910536766,
        -0.02278725989162922,
        -0.020509902387857437,
        0.010115880519151688,
        -0.040096819400787354,
        -0.006847888231277466,
        -0.3576437532901764,
        -0.40436476469039917,
        -0.416434645652771,
        -0.39901429414749146,
        -0.5268847942352295,
        -0.001975111663341522,
        -0.20846039056777954,
        -0.22316426038742065,
        -0.4021848142147064,
        -0.3257442116737366,
        -0.2939010560512543,
        0.0919700413942337,
        -0.2443259358406067,
        -0.39661654829978943,
        -0.01837804540991783,
        -0.007685676217079163,
        -0.0127158984541893,
        0.02145589515566826,
        0.01212148368358612,
        0.02603454329073429,
        1.2762844562530518e-05,
        -0.029275517910718918,
        0.12110169976949692,
        -0.06998179852962494,
        -0.05433306843042374,
        0.055155836045742035,
        -0.2498331069946289,
        -0.21272528171539307,
        0.04470458999276161,
        0.0028116703033447266,
        0.0111762173473835,
        0.028614861890673637,
        -0.2989426851272583,
        -0.3730667233467102,
        -0.5049583315849304,
        -0.03325115516781807,
        0.04176587238907814,
        0.018745727837085724,
        -0.20431412756443024,
        0.0077265240252017975,
        0.081401526927948,
        -0.028145696967840195,
        -0.042563773691654205,
        -0.20782768726348877,
        -0.0008192434906959534,
        -0.010647311806678772,
        -0.020665667951107025,
        -0.026780150830745697,
        -0.7241902947425842,
        -0.8725543022155762,
        -0.546796441078186,
        0.015465889126062393,
        -0.4235270023345947,
        -0.7949373126029968,
        -0.26981520652770996,
        0.11197912693023682,
        -1.7101069688796997,
        -0.26082655787467957,
        -0.3599179983139038,
        0.1315678358078003,
        -0.021122921258211136,
        -0.034062325954437256,
        -0.494259774684906,
        -0.7504085302352905,
        0.4550485908985138,
        0.07483679801225662,
        -0.2716086804866791,
        -0.01844368316233158,
        -0.17759940028190613,
        -0.03238387033343315,
        0.02567148581147194,
        0.01639378070831299,
        0.015205904841423035,
        0.0027946271002292633,
        -1.7139734029769897,
        -0.015502791851758957,
        -0.014121509157121181,
        -0.6291394233703613,
        -0.31262028217315674,
        -0.03094666264951229,
        -0.705848753452301,
        -0.028384514153003693,
        -0.7591826915740967,
        -0.3420206904411316,
        0.5094719529151917,
        0.0007134340703487396,
        -0.2468728870153427,
        -0.1359315663576126,
        -0.4060385525226593,
        0.6467100381851196,
        -0.3887188732624054,
        0.023173678666353226,
        -0.28696969151496887,
        -0.30854785442352295,
        -0.3118024468421936,
        0.007625211030244827,
        0.04287320002913475,
        -0.07596971839666367,
        1.1088850498199463,
        0.37990838289260864,
        0.031036006286740303,
        0.10137292742729187,
        0.4497380554676056,
        0.14275945723056793,
        -0.09663549810647964,
        -0.0891256257891655,
        0.10920275747776031,
        0.07267455011606216,
        0.17000503838062286,
        -0.3769904673099518,
        -0.04978204518556595,
        -0.09089184552431107,
        -0.6797838807106018,
        0.013210229575634003
      ],
      [
        0.27731573581695557,
        0.8605840802192688,
        0.7912817597389221,
        0.6684939861297607,
        0.2641945779323578,
        0.427428275346756,
        0.4646525979042053,
        0.22916771471500397,
        -0.0048305923119187355,
        0.563290536403656,
        0.5963061451911926,
        0.41486117243766785,
        0.041659165173769,
        0.19074788689613342,
        0.1871705949306488,
        0.373357355594635,
        -0.4431416690349579,
        -0.12858283519744873,
        0.3213927745819092,
        0.38237428665161133,
        0.22207839787006378,
        0.5496773719787598,
        0.2903438210487366,
        0.3129715025424957,
        0.3102859556674957,
        -0.16236992180347443,
        0.6805341243743896,
        0.17270563542842865,
        0.2635733187198639,
        0.23934748768806458,
        0.07657120376825333,
        0.41963887214660645,
        0.5863170027732849,
        0.0895301103591919,
        0.23660394549369812,
        0.6760465502738953,
        0.06450432538986206,
        0.14412198960781097,
        -0.6089498996734619,
        0.08162840455770493,
        0.8465537428855896,
        0.04032737761735916,
        0.011768775060772896,
        0.4193718731403351,
        0.03886349871754646,
        0.014089267700910568,
        0.013451062142848969,
        0.003483545035123825,
        -0.009288417175412178,
        0.13743709027767181,
        0.2690262496471405,
        0.608330249786377,
        -0.007596204988658428,
        0.04501907899975777,
        0.2595197558403015,
        -0.24978190660476685,
        -0.06931133568286896,
        0.3927125334739685,
        0.2558504641056061,
        -0.050587065517902374,
        -0.10843858122825623,
        0.009478582069277763,
        0.1099863201379776,
        0.15312589704990387,
        -0.27198970317840576,
        -0.07068552821874619,
        0.2648327648639679,
        0.19976302981376648,
        0.16680973768234253,
        0.3264099061489105,
        -0.03716060519218445,
        -0.05653528496623039,
        0.10419514775276184,
        0.001575135043822229,
        0.5270159244537354,
        -0.13099782168865204,
        0.14426088333129883,
        0.2882665693759918,
        -0.017793871462345123,
        0.5912034511566162,
        -0.02012983337044716,
        -0.3446701169013977,
        0.0604076012969017,
        0.16634400188922882,
        -0.08394309133291245,
        0.026699041947722435,
        -0.6198001503944397,
        -0.11409253627061844,
        0.3723704516887665,
        -0.1870773583650589,
        0.0037377995904535055,
