{
  "backend": "torch",
  "state_size": 546,
  "option_size": 109,
  "hidden_size": 24,
  "architecture": "legacy_v1",
  "device_preference": "auto",
  "state_dict": {
    "joint_bias": [
      0.0,
      0.0,
      0.0,
      0.0,
      0.0,
      0.0,
      0.0,
      0.0,
      0.0,
      0.0,
      0.0,
      0.0,
      0.0,
      0.0,
      0.0,
      0.0,
      0.0,
      0.0,
      0.0,
      0.0,
      0.0,
      0.0,
      0.0,
      0.0
    ],
    "state_linear.weight": [
      [
        0.011742562055587769,
        0.0007590018212795258,
        -0.03470198065042496,
        0.002718653529882431,
        0.0044404976069927216,
        0.019206851720809937,
        -0.024579012766480446,
        0.029476042836904526,
        -0.023208700120449066,
        -0.014048198238015175,
        -0.001645401120185852,
        0.024243827909231186,
        -0.02926250919699669,
        0.02774753049015999,
        -0.027170930057764053,
        -0.018155524507164955,
        -0.03044922649860382,
        0.019638504832983017,
        0.04164933040738106,
        0.01570349559187889,
        -0.0001500062644481659,
        -0.019846029579639435,
        0.010327205061912537,
        -0.037831950932741165,
        0.004160746932029724,
        0.029948297888040543,
        0.02751009538769722,
        -0.039374567568302155,
        0.01328887790441513,
        -0.025780418887734413,
        -0.034344956278800964,
        -0.022339893504977226,
        0.008817631751298904,
        0.039880458265542984,
        -0.0011609643697738647,
        0.03775632753968239,
        0.035502996295690536,
        0.002913888543844223,
        0.026749249547719955,
        0.03125433996319771,
        -0.04013458639383316,
        -0.02010824717581272,
        -0.03671731427311897,
        -0.020403215661644936,
        -0.00968131422996521,
        0.030242975801229477,
        -0.008790913969278336,
        -0.013541968539357185,
        -0.04008827731013298,
        0.03141508623957634,
        -0.02779143676161766,
        -0.022987358272075653,
        0.00034445151686668396,
        0.03597681596875191,
        -0.04198653995990753,
        0.007920097559690475,
        0.004729237407445908,
        0.038879211992025375,
        -0.03315754979848862,
        -0.02789292111992836,
        0.031115863472223282,
        0.00935773178935051,
        -0.03817606717348099,
        0.011870723217725754,
        0.02558940276503563,
        0.03287078067660332,
        -0.008950438350439072,
        0.022500399500131607,
        -0.025421490892767906,
        -0.024911612272262573,
        -0.004202902317047119,
        -0.003483004868030548,
        -0.01858466863632202,
        -0.009443406015634537,
        -0.03913484886288643,
        0.010061938315629959,
        -0.008647307753562927,
        -0.027543693780899048,
        -0.041846927255392075,
        -0.0357237346470356,
        0.0009826608002185822,
        -0.021983029320836067,
        -0.0017301104962825775,
        -0.037014324218034744,
        1.5046447515487671e-05,
        -0.005886077880859375,
        -0.004060111939907074,
        2.878531813621521e-05,
        -0.0398673377931118,
        0.014537546783685684,
        -0.03926887735724449,
        -0.008630283176898956,
        -0.030430197715759277,
        -0.015334883704781532,
        0.0043928734958171844,
        -0.030353087931871414,
        -0.007704831659793854,
        -0.001664239913225174,
        -0.01275351271033287,
        0.020115453749895096,
        -0.006074875593185425,
        -0.03918720409274101,
        0.033073198050260544,
        -0.021666398271918297,
        0.030300091952085495,
        -0.025931918993592262,
        0.03463468328118324,
        -0.025066891685128212,
        -0.021184885874390602,
        0.03880127891898155,
        -0.026487579569220543,
        -0.008377626538276672,
        0.0018875524401664734,
        0.014024902135133743,
        -0.007535666227340698,
        -0.014374375343322754,
        -0.011755989864468575,
        -0.012830767780542374,
        0.02908245101571083,
        -0.011897709220647812,
        0.021204818040132523,
        0.03922153636813164,
        0.03809862211346626,
        0.01629464328289032,
        0.033489059656858444,
        0.012781698256731033,
        -0.01871405728161335,
        -0.009306497871875763,
        0.03820137307047844,
        0.001462649554014206,
        0.036226216703653336,
        0.019261546432971954,
        0.032089296728372574,
        -0.008152928203344345,
        9.585916996002197e-05,
        0.00963762030005455,
        0.0022953860461711884,
        -0.020572764798998833,
        0.04103587195277214,
        -0.03566014766693115,
        0.015565816313028336,
        0.02312402054667473,
        0.005330342799425125,
        -0.0343683660030365,
        0.029502566903829575,
        -0.026445629075169563,
        0.021167736500501633,
        0.014736466109752655,
        -0.03932274505496025,
        0.012760844081640244,
        0.018773667514324188,
        0.04275626316666603,
        0.005995359271764755,
        -0.006743863224983215,
        -0.022002803161740303,
        -0.035117149353027344,
        -0.0011562444269657135,
        -0.006131447851657867,
        0.01817559078335762,
        0.02332637831568718,
        -0.039946552366018295,
        -0.008467420935630798,
        0.0261855311691761,
        -0.013584250584244728,
        -0.038168396800756454,
        0.03768042102456093,
        -0.005044177174568176,
        -0.030319614335894585,
        -0.038288600742816925,
        -0.033545203506946564,
        0.0070246197283267975,
        -0.03444746136665344,
        -0.03651440516114235,
        -0.026381101459264755,
        0.019196636974811554,
        -0.02012052573263645,
        0.03358416631817818,
        0.03521943464875221,
        -0.022646769881248474,
        0.017288345843553543,
        -0.022286877036094666,
        0.033267851918935776,
        -0.013807302340865135,
        -0.02465120144188404,
        0.011472586542367935,
        -0.02627108432352543,
        0.0016952082514762878,
        -0.003814481198787689,
        0.02051464095711708,
        -0.03354450687766075,
        0.0034318827092647552,
        0.03169592097401619,
        0.0005191713571548462,
        -0.007538873702287674,
        -0.04179194197058678,
        0.02547707036137581,
        0.02779174968600273,
        -0.026459336280822754,
        -0.004144508391618729,
        -0.005174953490495682,
        0.035508591681718826,
        -0.03290019556879997,
        -0.0077555179595947266,
        -0.024470306932926178,
        -0.005427949130535126,
        0.008602377027273178,
        -0.019639693200588226,
        -0.02855702117085457,
        -0.0002187192440032959,
        -0.0008252300322055817,
        -0.034345339983701706,
        -0.015436908230185509,
        0.006848253309726715,
        0.002653982490301132,
        -0.026576532050967216,
        0.02008713409304619,
        0.026728209108114243,
        0.01310688629746437,
        0.02319115772843361,
        -0.016211114823818207,
        0.02843550220131874,
        -0.0424683578312397,
        0.005431097000837326,
        -0.03918394818902016,
        -0.01831497810781002,
        0.020943377166986465,
        -0.00027230381965637207,
        0.02323203906416893,
        -0.006322480738162994,
        0.020279783755540848,
        -0.024352798238396645,
        0.03158532455563545,
        -0.03513244539499283,
        0.014356661587953568,
        -0.030684761703014374,
        0.01026783138513565,
        -0.011756755411624908,
        -0.0019067972898483276,
        0.025074537843465805,
        0.035243693739175797,
        0.023554693907499313,
        0.0396864153444767,
        0.019718114286661148,
        0.016151603311300278,
        -0.017040377482771873,
        -0.0027092769742012024,
        0.026159625500440598,
        0.002994522452354431,
        0.024827640503644943,
        -0.006654873490333557,
        0.009334605187177658,
        -0.01344970427453518,
        -0.0282933060079813,
        0.0336376316845417,
        0.022536467760801315,
        -0.02435843087732792,
        0.009524170309305191,
        -0.0034916549921035767,
        0.013706192374229431,
        -0.01409764401614666,
        0.010573811829090118,
        -0.005877699702978134,
        -0.02538943663239479,
        0.020008113235235214,
        -0.017400521785020828,
        0.03898145630955696,
        -0.035190142691135406,
        -0.012415546923875809,
        0.004128076136112213,
        0.023357238620519638,
        0.03317214921116829,
        -0.01786608062684536,
        -0.022330403327941895,
        0.015246160328388214,
        -0.023294290527701378,
        0.0051467642188072205,
        -0.028775829821825027,
        0.0005770735442638397,
        0.025402288883924484,
        -0.042362965643405914,
        -0.005365282297134399,
        0.03266528621315956,
        -0.020351413637399673,
        0.03258002921938896,
        0.016418900340795517,
        -0.023489486426115036,
        -0.009719252586364746,
        -0.023621441796422005,
        -0.037495698779821396,
        0.0174679197371006,
        -0.019432436674833298,
        0.011341478675603867,
        -0.0251474529504776,
        0.03649144247174263,
        0.025829683989286423,
        -0.00906394049525261,
        0.039385732263326645,
        0.012124381959438324,
        -0.035758521407842636,
        -0.03131502866744995,
        0.017525535076856613,
        -0.04062696918845177,
        -0.00022115930914878845,
        -0.028212638571858406,
        0.03624500706791878,
        -0.0070490241050720215,
        -0.004518590867519379,
        -0.006184667348861694,
        -0.01483243890106678,
        0.03222253546118736,
        0.04195742681622505,
        0.005617011338472366,
        0.013051837682723999,
        0.04148159548640251,
        0.00924430787563324,
        -0.002712331712245941,
        -0.028791382908821106,
        -0.025936031714081764,
        0.03160765394568443,
        -0.023132119327783585,
        0.015152953565120697,
        -0.029800526797771454,
        -0.026669679209589958,
        -0.018612436950206757,
        0.003267519176006317,
        0.008196182548999786,
        0.0008022040128707886,
        0.02697773650288582,
        -0.03729265183210373,
        -0.02188779227435589,
        -0.018407553434371948,
        -0.016290726140141487,
        0.04268968477845192,
        -0.007240284234285355,
        -0.019373277202248573,
        -0.014283156022429466,
        -0.023044874891638756,
        0.022530321031808853,
        -0.02034452185034752,
        -0.03982440009713173,
        -0.030700944364070892,
        0.018733352422714233,
        -0.0047675371170043945,
        0.0022570565342903137,
        0.03189850226044655,
        0.03609685227274895,
        -0.029875941574573517,
        -0.017355136573314667,
        0.028226535767316818,
        0.030595812946558,
        -0.037663452327251434,
        0.01844194531440735,
        -0.0171654149889946,
        -0.0014592446386814117,
        0.0012749023735523224,
        -0.028072066605091095,
        -0.025876643136143684,
        -0.0148580651730299,
        -0.005743127316236496,
        0.021288391202688217,
        -0.03626756742596626,
        -0.0006600469350814819,
        0.010151341557502747,
        0.006016895174980164,
        -0.028534632176160812,
        0.03619227185845375,
        0.024731304496526718,
        2.014636993408203e-05,
        -0.01801389269530773,
        -0.04136792942881584,
        -0.03607332333922386,
        -0.031339798122644424,
        -0.03099643439054489,
        0.0020701587200164795,
        0.013295169919729233,
        0.023121479898691177,
        0.016350559890270233,
        -0.012749221175909042,
        -0.027445737272500992,
        -0.021936282515525818,
        0.01070684939622879,
        0.01206914708018303,
        0.01843748614192009,
        -0.007916606962680817,
        0.014377687126398087,
        0.023076537996530533,
        -0.005895018577575684,
        0.03362182155251503,
        -0.02814824879169464,
        0.005333736538887024,
        0.03917026147246361,
        0.02470821514725685,
        -0.011805934831500053,
        -0.020658571273088455,
        0.027639154344797134,
        -0.020946932956576347,
        -0.003281865268945694,
        -0.025830645114183426,
        0.019618351012468338,
        -0.00960523635149002,
        -0.036661919206380844,
        -0.01913248375058174,
        0.030693281441926956,
        0.006756898015737534,
        0.019456174224615097,
        0.008702334016561508,
        -7.234513759613037e-06,
        -0.026736898347735405,
        -0.03031846135854721,
        0.025080453604459763,
        0.013907019048929214,
        0.012581605464220047,
        -0.007030244916677475,
        -0.03780263662338257,
        0.03181050345301628,
        -0.020693140104413033,
        -0.006748173385858536,
        -0.013708123937249184,
        -0.01083388552069664,
        -0.02281775325536728,
        -0.038828156888484955,
        0.022359158843755722,
        0.0183354914188385,
        0.012146223336458206,
        0.03908422216773033,
        0.04073360189795494,
        0.023714032024145126,
        0.020869288593530655,
        0.008515484631061554,
        -0.03765778988599777,
        -0.02630205638706684,
        0.0211743526160717,
        -0.03557508438825607,
        0.013586468994617462,
        -0.013983499258756638,
        -0.005113963037729263,
        -0.019765907898545265,
        0.010400578379631042,
        0.021224286407232285,
        0.005748730152845383,
        0.041199032217264175,
        0.015536736696958542,
        0.031427051872015,
        0.02417127415537834,
        -0.006467685103416443,
        -0.018267406150698662,
        -0.04211334511637688,
        0.03531881049275398,
        0.010355323553085327,
        -0.0068484582006931305,
        0.040810924023389816,
        0.017405454069375992,
        -0.0015100464224815369,
        0.021570365875959396,
        0.011943548917770386,
        0.014835026115179062,
        -0.026683775708079338,
        0.02166890725493431,
        -0.038573674857616425,
        0.04106252267956734,
        -0.004300650209188461,
        -0.0380002036690712,
        0.010858368128538132,
        0.0063452087342739105,
        0.018023893237113953,
        0.03809281066060066,
        -0.014152329415082932,
        -0.014498881995677948,
        -0.04230378195643425,
        0.023421552032232285,
        -0.02240404114127159,
        -0.04023483023047447,
        -0.013336850330233574,
        -0.02823512628674507,
        -0.021744178608059883,
        0.03602730855345726,
        -0.015121767297387123,
        0.012756623327732086,
        -0.012131871655583382,
        -0.034279897809028625,
        -0.010614480823278427,
        -0.011492867022752762,
        -0.04159574955701828,
        -0.0035011544823646545,
        0.02751768007874489,
        -0.02069435827434063,
        -0.03178878873586655,
        0.000911179929971695,
        -0.009502269327640533,
        -0.00535796582698822,
        0.0272800512611866,
        0.008790232241153717,
        0.015200719237327576,
        -0.002137545496225357,
        -0.02797430381178856,
        0.0017705447971820831,
        0.002458568662405014,
        0.007727932184934616,
        -0.03520490974187851,
        0.0006858818233013153,
        0.011277150362730026,
        0.029391039162874222,
        0.02404261752963066,
        -0.004792273044586182,
        0.01623961329460144,
        -0.018045395612716675,
        -0.009801086038351059,
        0.005768660455942154,
        0.010831881314516068,
        -0.02365461364388466,
        0.002081986516714096,
        0.020594511181116104,
        0.01848354935646057,
        -0.0404144711792469,
        0.024822283536195755,
        -0.006238259375095367,
        0.0012952201068401337,
        0.009834237396717072,
        -0.039588816463947296,
        0.015500437468290329,
        -0.0006664060056209564,
        -0.011752601712942123,
        -0.02720686048269272,
        0.03329523280262947,
        0.026329655200242996,
        0.007081467658281326,
        -0.024468975141644478,
        -0.002964537590742111,
        0.04183969274163246,
        0.011739607900381088,
        0.01142141968011856,
        -0.042708005756139755,
        -0.0359262153506279,
        0.020246800035238266,
        -0.017168547958135605,
        0.02789727970957756,
        -0.03843642771244049,
        0.020856980234384537,
        0.023386728018522263,
        -0.03432305157184601,
        0.006758715957403183,
        -0.021570205688476562,
        -0.00780278816819191,
        0.0190303735435009,
        0.03655709698796272,
        0.004477575421333313
      ],
      [
        -0.013220271095633507,
        0.02513015642762184,
        -0.029233623296022415,
        0.038204845041036606,
        0.01569657400250435,
        0.0036839433014392853,
        -0.009170427918434143,
        0.00157146155834198,
        -0.02519124560058117,
        -0.03686108440160751,
        -0.024436380714178085,
        0.014998361468315125,
        -0.009299661964178085,
        0.006096091121435165,
        -0.001546218991279602,
        -0.01337159238755703,
        -0.04228042811155319,
        -0.034112296998500824,
        -0.0018485262989997864,
        0.014056134968996048,
        -0.022592982277274132,
        0.03403181955218315,
        -0.029088838025927544,
        0.015982769429683685,
        0.0076647549867630005,
        0.03351302817463875,
        0.008065782487392426,
        0.03986527398228645,
        0.017703566700220108,
        0.019926082342863083,
        0.003995615988969803,
        0.013385094702243805,
        0.024661336094141006,
        -0.028666719794273376,
        -0.04096013680100441,
        -0.002856593579053879,
        0.0399312861263752,
        0.004944130778312683,
        0.04155654087662697,
        0.04076826944947243,
        -0.009151853621006012,
        -0.03031143546104431,
        0.009218353778123856,
        -0.02166707254946232,
        -0.01979994587600231,
        0.010224584490060806,
        -0.014947043731808662,
        0.01027410477399826,
        -0.010616157203912735,
        -0.040612656623125076,
        -0.027518481016159058,
        -0.022146712988615036,
        0.017278213053941727,
        0.03810494765639305,
        0.01919589564204216,
        0.016579587012529373,
        -0.02219346910715103,
        0.0393165685236454,
        -0.013035574927926064,
        0.014675445854663849,
        -0.013052262365818024,
        -0.026350481435656548,
        -0.006107974797487259,
        0.0009813494980335236,
        -0.009812366217374802,
        0.0333479680120945,
        0.010513797402381897,
        0.027733195573091507,
        0.027401383966207504,
        -0.00419621542096138,
        0.0257587768137455,
        -0.02940167859196663,
        0.016693666577339172,
        -0.03391149267554283,
        -0.01226772554218769,
        0.036465201526880264,
        -0.016410723328590393,
        0.02176986262202263,
        0.016292303800582886,
        0.024278786033391953,
        -0.018027575686573982,
        0.02623959258198738,
        0.03746623918414116,
        0.011984657496213913,
        0.025844756513834,
        -0.04092789813876152,
        0.03606400266289711,
        -0.009198974817991257,
        0.005947832018136978,
        -0.03879193589091301,
        0.004820495843887329,
        -0.008299209177494049,
        0.018712542951107025,
        -0.012990603223443031,
        0.030870262533426285,
        -0.019871508702635765,
        -0.04055153578519821,
        7.667392492294312e-05,
        -0.0026876963675022125,
        0.034045543521642685,
        0.004578851163387299,
        0.02870495244860649,
        0.015603993088006973,
        -0.0009443871676921844,
        0.03429296985268593,
        -0.029089603573083878,
        -0.036424584686756134,
        0.014369327574968338,
        0.02908417209982872,
        0.015630852431058884,
        -0.018760651350021362,
        -0.035296037793159485,
        0.006623990833759308,
        -0.011223353445529938,
        0.03836969658732414,
        -0.03299687057733536,
        0.039351772516965866,
        0.009611550718545914,
        0.04137284681200981,
        -0.014901267364621162,
        -0.039007775485515594,
        -0.029227573424577713,
        -0.010121643543243408,
        0.022811751812696457,
        -0.02463904395699501,
        -0.03178342431783676,
        0.0411803163588047,
        -0.011738481000065804,
        0.008116856217384338,
        0.03093588724732399,
        -0.0266509298235178,
        -0.03658822178840637,
        0.006667770445346832,
        -0.02750169299542904,
        -0.0036478079855442047,
        0.02543320134282112,
        -0.01404648832976818,
        0.012946125119924545,
        0.01546962559223175,
        -0.042667996138334274,
        -0.007285628467798233,
        0.02085701748728752,
        0.03981899842619896,
        -0.03230436146259308,
        0.04127848520874977,
        -0.015649087727069855,
        -0.01277146115899086,
        -0.03998015820980072,
        0.02754336968064308,
        0.028386343270540237,
        -0.021195262670516968,
        0.027607444673776627,
        0.018363088369369507,
        0.00038205087184906006,
        -0.018219811841845512,
        -0.03877553343772888,
        0.018427174538373947,
        0.03651761636137962,
        -0.0326271653175354,
        0.03809027746319771,
        -0.02632538229227066,
        0.0004958994686603546,
        -0.03167369216680527,
        -0.006215572357177734,
        -0.01069081574678421,
        -0.002529773861169815,
        -0.013116879388689995,
        -0.02445353753864765,
        0.030861545354127884,
        0.006852436810731888,
        0.017373885959386826,
        -0.038890279829502106,
        0.026092078536748886,
        0.0427204929292202,
        -0.0035163015127182007,
        -0.028608758002519608,
        -0.01087230071425438,
        0.011895909905433655,
        -0.03776276484131813,
        -0.010942351073026657,
        -0.022910842671990395,
        -0.021009571850299835,
        0.013087086379528046,
        0.011115387082099915,
        0.03500023111701012,
        0.0312349833548069,
        -0.01099422201514244,
        -0.023468313738703728,
        0.031101148575544357,
        0.01156628504395485,
        0.001383848488330841,
        0.0001738816499710083,
        0.024593014270067215,
        -0.03022673726081848,
        -0.03244814649224281,
        -0.031193844974040985,
        0.038327064365148544,
        0.0030241385102272034,
        -0.04060805216431618,
        0.03535589948296547,
        -0.018748056143522263,
        -0.042262572795152664,
        -0.015339011326432228,
        0.0019574612379074097,
        0.03425145521759987,
        -0.037429314106702805,
        0.006348524242639542,
        -0.0012086667120456696,
        0.02999473735690117,
        0.006534505635499954,
        0.034562062472105026,
        -0.04237905144691467,
        -0.027244215831160545,
        0.00043071433901786804,
        0.03810185566544533,
        -0.0099387988448143,
        0.009224016219377518,
        0.010747801512479782,
        -0.02999524399638176,
        0.037615399807691574,
        -0.0152252446860075,
        -0.02509014494717121,
        0.0014969892799854279,
        -0.010406333953142166,
        -0.034082360565662384,
        -0.012875009328126907,
        0.006056763231754303,
        -0.039962537586688995,
        -0.041366126388311386,
        0.03546914830803871,
        -0.008507031947374344,
        -0.026211971417069435,
        0.0024081505835056305,
        -0.03092437982559204,
        0.038629647344350815,
        0.004663463681936264,
        0.029106955975294113,
        0.03887505456805229,
        -0.01316244900226593,
        0.03312596306204796,
        -0.002102721482515335,
        -0.002732224762439728,
        -0.01712656021118164,
        0.01559816300868988,
        -0.007981032133102417,
        -0.0390043742954731,
        0.03939102217555046,
        -0.02085595577955246,
        0.008814346045255661,
        -0.025621727108955383,
        0.0052368976175785065,
        -0.005173671990633011,
        -0.03186476603150368,
        -0.019321657717227936,
        0.03139381483197212,
        0.029794376343488693,
        0.021301385015249252,
        -0.01582181453704834,
        0.024711046367883682,
        0.027135934680700302,
        -0.04186804220080376,
        0.010429546236991882,
        -0.024201810359954834,
        -0.037217073142528534,
        0.03316280618309975,
        -0.0003376603126525879,
        -0.031333744525909424,
        -0.0034119635820388794,
        -0.03573080152273178,
        -0.0008271634578704834,
        0.0004551894962787628,
        -0.036407917737960815,
        -0.038075949996709824,
        -0.03279341012239456,
        0.042694028466939926,
        0.03558041527867317,
        0.04038612172007561,
        0.040047887712717056,
        0.00015503913164138794,
        0.03563697263598442,
        -0.02368495799601078,
        -0.01442161574959755,
        -0.010390646755695343,
        -0.03118773177266121,
        0.035079631954431534,
        -0.02814691886305809,
        0.03523595258593559,
        -0.01730109564960003,
        -0.035511136054992676,
        -0.009973201900720596,
        0.04183254763484001,
        0.005044709891080856,
        -0.004234720021486282,
        0.0014211423695087433,
        0.013780318200588226,
        -0.007958583533763885,
        -0.033028777688741684,
        0.0423693023622036,
        -0.038138970732688904,
        0.03094029799103737,
        -0.010893993079662323,
        0.038532804697752,
        0.020307648926973343,
        -0.02824658900499344,
        -0.022980649024248123,
        0.030544143170118332,
        -0.016806919127702713,
        -0.007645647972822189,
        -0.040233880281448364,
        -0.02528928965330124,
        -0.034162092953920364,
        0.02366076037287712,
        0.03729195520281792,
        -0.03216762840747833,
        -0.012061182409524918,
        0.028806988149881363,
        -0.007035143673419952,
        0.029753517359495163,
        0.023910041898489,
        0.04268756881356239,
        0.04245566204190254,
        -0.004553988575935364,
        0.03340056166052818,
        -0.003177974373102188,
        -0.0069025978446006775,
        -0.014670077711343765,
        0.030097845941781998,
        -0.01349356397986412,
        0.008320070803165436,
        -0.039429791271686554,
        0.033057745546102524,
        -0.002558145672082901,
        0.008694518357515335,
        -0.008047278970479965,
        0.01930825784802437,
        0.03110659494996071,
        0.04062492027878761,
        0.011132095009088516,
        -0.04245325177907944,
        -0.0373971126973629,
        -0.039559341967105865,
        0.007201336324214935,
        0.027433078736066818,
        0.02245866134762764,
        -0.00506061315536499,
        0.014920014888048172,
        0.020657170563936234,
        -0.010889362543821335,
        0.02625391259789467,
        0.009928010404109955,
        -0.02732282131910324,
        0.004025578498840332,
        -0.03075156919658184,
        0.03530645743012428,
        0.02490195259451866,
        0.03010481968522072,
        0.00997854769229889,
        0.03297236189246178,
        -0.018612315878272057,
        -0.00497499480843544,
        0.037144411355257034,
        -0.03185838460922241,
        0.009597007185220718,
        0.004825364798307419,
        -0.012032786384224892,
        0.024495918303728104,
        -0.03998841345310211,
        -0.041703615337610245,
        0.032070551067590714,
        0.02849314734339714,
        -0.01553383469581604,
        0.0027876831591129303,
        0.03159588947892189,
        0.036780599504709244,
        -0.009929195046424866,
        -0.04011691361665726,
        0.04117482528090477,
        -0.00925125926733017,
        0.032895054668188095,
        0.005856148898601532,
        0.011551130563020706,
        0.002043750137090683,
        0.018679503351449966,
        -0.0193353109061718,
        0.010722264647483826,
        -0.04112263023853302,
        0.038428936153650284,
        -0.0051519423723220825,
        0.012732833623886108,
        0.017722830176353455,
        -0.008329525589942932,
        -0.03432632237672806,
        -0.040966589003801346,
        -0.037424758076667786,
        0.011006545275449753,
        -0.040628958493471146,
        0.020507890731096268,
        0.01364680752158165,
        -0.01240166462957859,
        -0.003345988690853119,
        -0.03660042956471443,
        -0.03431904315948486,
        0.02843979373574257,
        -0.010023858398199081,
        0.03748534247279167,
        0.00036443769931793213,
        0.02527870610356331,
        0.022827651351690292,
        -0.03683913126587868,
        0.025722768157720566,
        -0.023671790957450867,
        -0.02633371204137802,
        0.0038323700428009033,
        -0.017357202246785164,
        0.042632054537534714,
        0.026156794279813766,
        -0.0011717155575752258,
        -0.03364217281341553,
        0.018104925751686096,
        -0.031967662274837494,
        -0.028657924383878708,
        0.008472789078950882,
        -0.017754802480340004,
        -0.008258488029241562,
        0.027537498623132706,
        0.025995571166276932,
        0.010210167616605759,
        -6.96033239364624e-05,
        0.03574960306286812,
        -0.041524481028318405,
        0.02634856477379799,
        0.022201653569936752,
        0.022532034665346146,
        -0.0016419216990470886,
        -0.0036711953580379486,
        0.009889446198940277,
        -0.009302575141191483,
        -0.024302730336785316,
        0.017272330820560455,
        -0.041941095143556595,
        -0.01582055538892746,
        -0.03702925518155098,
        -0.026773151010274887,
        0.01428048312664032,
        0.0411454476416111,
        0.027077656239271164,
        -0.03590323030948639,
        -0.03770031780004501,
        0.01985485479235649,
        -0.029199916869401932,
        0.02422298863530159,
        0.007262822240591049,
        -0.024322520941495895,
        0.040939394384622574,
        0.005502238869667053,
        0.001318659633398056,
        -0.01444849744439125,
        -0.03849942982196808,
        0.024561192840337753,
        0.00231199711561203,
        0.0350346677005291,
        -0.03564376011490822,
        -0.01272103562951088,
        0.008719850331544876,
        -0.010936476290225983,
        0.006316721439361572,
        0.03476632758975029,
        -0.04027280583977699,
        -0.03457286208868027,
        -0.022391481325030327,
        0.039143625646829605,
        -0.009977143257856369,
        -0.03631339222192764,
        0.01086936891078949,
        -0.023487430065870285,
        -0.028681911528110504,
        -0.0177727360278368,
        0.011710397899150848,
        0.036391403526067734,
        0.009105954319238663,
        -0.029299747198820114,
        0.020217839628458023,
        -0.012888187542557716,
        0.018035635352134705,
        0.038381706923246384,
        0.041830990463495255,
        -0.03961220383644104,
        -0.02388261817395687,
        0.009845413267612457,
        0.02492436394095421,
        -0.009486842900514603,
        0.03695937618613243,
        -0.037782393395900726,
        -0.027422305196523666,
        0.03639009967446327,
        -0.04137289151549339,
        0.03830377385020256,
        0.028266947716474533,
        -0.026183422654867172,
        0.0156698115170002,
        0.02623577043414116,
        -0.02633678913116455,
        0.03640278801321983,
        0.02010953053832054,
        0.03798941150307655,
        -0.013675672933459282,
        0.005069911479949951,
        0.024195272475481033,
        -0.0050525180995464325,
        0.01061917468905449,
        -0.030037838965654373,
        -0.0026207156479358673,
        0.029175523668527603,
        -0.010041654109954834,
        -0.029280487447977066,
        -0.03495015949010849,
        -0.027708102017641068,
        0.004136640578508377,
        -0.0316552110016346,
        -0.041823264211416245,
        0.03352203592658043,
        0.017347056418657303,
        -0.022581646218895912,
        0.037483032792806625,
        -0.03314150124788284,
        0.012667886912822723,
        -0.03988917917013168,
        0.02975551411509514,
        0.030070658773183823,
        -0.03531624376773834,
        -0.011663669720292091,
        0.015063878148794174,
        0.004323575645685196,
        0.03773083910346031,
        0.011685647070407867,
        0.01527303084731102,
        -0.03228849172592163,
        -0.019432375207543373,
        -0.004671618342399597,
        -0.022962277755141258,
        -0.02218690887093544,
        -0.024212032556533813,
        -0.022419607266783714,
        -0.02858717367053032,
        -0.03174880892038345,
        0.021227654069662094
      ],
      [
        0.03395796939730644,
        0.03108055517077446,
        0.013382960110902786,
        0.0032734423875808716,
        0.028655488044023514,
        0.0072958096861839294,
        -0.03599637746810913,
        -0.0019741803407669067,
        -0.03660660609602928,
        0.032577287405729294,
        0.012606315314769745,
        -0.0009156614542007446,
        0.03610208258032799,
        0.026245590299367905,
        -0.03037976287305355,
        0.022643107920885086,
        0.04084141179919243,
        -0.02041414938867092,
        -0.011706564575433731,
        0.03025933727622032,
        0.01905009150505066,
        -0.01293024979531765,
        -0.026401733979582787,
        0.04076920822262764,
        -0.04004029557108879,
        0.01781993731856346,
        -0.028173048049211502,
        -0.015993783250451088,
        -0.03496015444397926,
        -0.03349732607603073,
        -0.035818830132484436,
        0.005792107433080673,
        -0.0423489511013031,
        -0.01997469924390316,
        0.025391343981027603,
        -0.03228342533111572,
        -0.03848446160554886,
        -0.017533961683511734,
        -0.03112676367163658,
        0.004386544227600098,
        0.03944713994860649,
        0.02992861345410347,
        0.01015668734908104,
        -0.03394283726811409,
        0.02893133834004402,
        -0.017737017944455147,
        0.01734073832631111,
        0.040865931659936905,
        -0.038857001811265945,
        -0.03535207733511925,
        -0.020072566345334053,
        -0.011155277490615845,
        -0.0351593941450119,
        -0.02239031344652176,
        0.027059826999902725,
        -0.025585126131772995,
        0.03328913077712059,
        -0.013410354033112526,
        -0.0319424644112587,
        0.031708862632513046,
        0.010839022696018219,
        0.01543237641453743,
        0.03152332082390785,
        -0.04138023033738136,
        0.035928238183259964,
        0.006120055913925171,
        -0.038454320281744,
        0.01875971630215645,
        0.02805505320429802,
        0.029486220329999924,
        0.014169923961162567,
        0.01817670837044716,
        -0.021476810798048973,
        0.012985069304704666,
        0.01130802184343338,
        -0.026225173845887184,
        0.03381362184882164,
        -0.03577293083071709,
        -0.02266404964029789,
        0.004064790904521942,
        -0.028403889387845993,
        -0.005796562880277634,
        -0.014013756066560745,
        2.6535242795944214e-05,
        -0.02389710582792759,
        0.04150829091668129,
        0.03346588835120201,
        -0.017938872799277306,
        -0.02864180877804756,
        0.0029139444231987,
        0.0007980205118656158,
        0.036661867052316666,
        0.00618477538228035,
        -0.023746969178318977,
        -0.00760616734623909,
        0.00734909251332283,
        -0.030334562063217163,
        0.008853916078805923,
        0.0007351823151111603,
        0.03613883629441261,
        -0.02958301268517971,
        0.030275244265794754,
        -0.029852554202079773,
        -0.026874348521232605,
        -0.028623564168810844,
        0.015524197369813919,
        -0.0009168647229671478,
        0.04181709513068199,
        0.022279884666204453,
        0.016469936817884445,
        -0.005415618419647217,
        -0.006113249808549881,
        0.037418242543935776,
        -0.025139259174466133,
        0.03857420012354851,
        -0.025750232860445976,
        0.024429690092802048,
        -0.019475199282169342,
        0.03597189113497734,
        0.025843452662229538,
        -0.030940141528844833,
        -0.008572883903980255,
        0.04201485589146614,
        -0.037051185965538025,
        -0.039023540914058685,
        -0.01922384463250637,
        -0.02577666938304901,
        0.0032795891165733337,
        -0.03224863484501839,
        0.02313132956624031,
        0.02848007157444954,
        -0.01801925338804722,
        -0.009380176663398743,
        0.0011200718581676483,
        0.03645395115017891,
        -0.028687115758657455,
        -0.016652435064315796,
        0.028624970465898514,
        0.030311275273561478,
        -0.020121918991208076,
        -0.02179088443517685,
        -0.030121631920337677,
        0.00405709445476532,
        -0.033435940742492676,
        0.030998017638921738,
        -0.036040451377630234,
        -0.027079323306679726,
        -0.03353198617696762,
        -0.023204149678349495,
        0.0025023408234119415,
        0.015439137816429138,
        0.02694294974207878,
        -0.023612285032868385,
        0.010607216507196426,
        -0.006981231272220612,
        0.04193999990820885,
        -0.03829098865389824,
        0.03232588991522789,
        -0.039188846945762634,
        -0.041280291974544525,
        -0.0014152228832244873,
        0.007489509880542755,
        -0.008768081665039062,
        0.01309877261519432,
        -0.041914187371730804,
        0.012289058417081833,
        0.003420736640691757,
        -0.0009348690509796143,
        0.035143185406923294,
        -0.002675555646419525,
        -0.029896032065153122,
        0.027211520820856094,
        -0.03162731975317001,
        -0.007382463663816452,
        -0.021139726042747498,
        0.0077978260815143585,
        -0.025259144604206085,
        -0.005517344921827316,
        0.032480787485837936,
        0.027795907109975815,
        0.001206234097480774,
        -0.025233089923858643,
        -0.0384933240711689,
        0.02038545534014702,
        0.005725596100091934,
        -0.0212026908993721,
        0.0345340333878994,
        0.01369013637304306,
        -0.015525396913290024,
        0.008679617196321487,
        -0.025134922936558723,
        -0.03451501205563545,
        0.0203762985765934,
        -0.0024061985313892365,
        -0.03503711521625519,
        -0.03651726618409157,
        -0.04253000766038895,
        -0.008451025933027267,
        0.0024427399039268494,
        -0.03301103413105011,
        0.0012847483158111572,
        -0.0035383515059947968,
        -0.040647365152835846,
        0.04064759984612465,
        -0.016950368881225586,
        0.037188369780778885,
        -0.002649836242198944,
        -0.0176618043333292,
        -0.03313494473695755,
        0.03613480553030968,
        -0.02285991795361042,
        0.029514025896787643,
        -0.04144910350441933,
        0.02090778574347496,
        0.0025948360562324524,
        0.010691054165363312,
        0.01106514036655426,
        -0.02759409323334694,
        0.014715932309627533,
        0.004848551005125046,
        -0.04083143174648285,
        0.005682714283466339,
        0.038438115268945694,
        -0.005891811102628708,
        -0.007885880768299103,
        0.017217345535755157,
        -0.03514815866947174,
        0.04222943261265755,
        0.03712312504649162,
        0.011022642254829407,
        0.020599137991666794,
        -0.023301495239138603,
        -0.004506707191467285,
        -0.016461754217743874,
        -0.0007641501724720001,
        0.039121199399232864,
        0.0001079365611076355,
        -0.005475860089063644,
        0.03078356757760048,
        -0.013436276465654373,
        -0.006850432604551315,
        -0.021396275609731674,
        0.027736354619264603,
        0.011606443673372269,
        -0.038238514214754105,
        -0.039375655353069305,
        -0.020891452208161354,
        0.004259336739778519,
        -0.03912196680903435,
        0.022126059979200363,
        -0.03130769357085228,
        0.001077406108379364,
        0.012356270104646683,
        -0.010989457368850708,
        -0.041976720094680786,
        -0.002395201474428177,
        0.01261209324002266,
        0.00335027277469635,
        -0.0030740611255168915,
        -0.027426887303590775,
        0.03943489119410515,
        -0.04133781045675278,
        -0.013620197772979736,
        -0.022548317909240723,
        0.029418203979730606,
        -0.026992008090019226,
        -0.018486369401216507,
        -0.027022507041692734,
        0.030005987733602524,
        -0.019933901727199554,
        0.0005024224519729614,
        -0.004413533955812454,
        0.002904064953327179,
        0.017515040934085846,
        0.03554018214344978,
        -0.028786219656467438,
        0.038709696382284164,
        0.005525767803192139,
        -0.010551650077104568,
        -0.03444046154618263,
        0.039335209876298904,
        -0.013665331527590752,
        -0.030683789402246475,
        -0.03573048487305641,
        -0.034622497856616974,
        -0.03555816411972046,
        -0.042315393686294556,
        0.018763523548841476,
        -0.0336117297410965,
        -0.00899948924779892,
        -0.039622969925403595,
        0.040522459894418716,
        -0.0394073948264122,
        0.009868130087852478,
        -0.02824622392654419,
        0.03357939049601555,
        -0.00782846286892891,
        -0.03909594938158989,
        0.03534640744328499,
        -0.023137133568525314,
        -0.028297748416662216,
        0.0007849112153053284,
        0.021243449300527573,
        -0.03923891857266426,
        -0.04013717174530029,
        -0.030544312670826912,
        0.016861654818058014,
        -0.01607438363134861,
        -0.005740560591220856,
        0.040336038917303085,
        -0.021996987983584404,
        -0.007467314600944519,
        -0.029493942856788635,
        0.022042784839868546,
        0.04135223850607872,
        -0.01405288651585579,
        -0.004522230476140976,
        -0.022929592058062553,
        -0.027994873002171516,
        0.030612025409936905,
        0.015682589262723923,
        -0.03723909705877304,
        0.02585962787270546,
        -0.00957423821091652,
        -0.03400331735610962,
        -0.029054753482341766,
        0.025592472404241562,
        0.034277480095624924,
        -0.038127873092889786,
        -0.036589257419109344,
        -0.029423069208860397,
        -0.011668780818581581,
        -0.006500843912363052,
        -0.006584197282791138,
        0.02492636814713478,
        -0.007771741598844528,
        -0.007249481976032257,
        0.000775068998336792,
        0.025998827069997787,
        -0.017948957160115242,
        -0.004689466208219528,
        -0.009535379707813263,
        -0.03019702062010765,
        0.025429878383874893,
        0.03812079504132271,
        -0.013553736731410027,
        -0.042343977838754654,
        -0.04030481353402138,
        -0.016462337225675583,
        -0.030213572084903717,
        0.03472648188471794,
        0.027984503656625748,
        -0.04169123247265816,
        -0.03714952617883682,
        -0.03453681617975235,
        -0.032429344952106476,
        -0.015030251815915108,
        0.039759378880262375,
        0.010072141885757446,
        -0.019033556804060936,
        -0.03454221412539482,
        0.04023000970482826,
        0.030933182686567307,
        -0.03223889321088791,
        0.03968272730708122,
        -0.02682698518037796,
        -0.0067597851157188416,
        -0.03796208277344704,
        0.0007626302540302277,
        0.006414443254470825,
        -0.025414245203137398,
        0.01604102924466133,
        -0.0012042522430419922,
        0.011408627033233643,
        0.020769115537405014,
        -0.0354873463511467,
        -0.018934762105345726,
        0.03530306741595268,
        0.04266821965575218,
        -0.02550356090068817,
        0.021600734442472458,
        0.004128910601139069,
        0.03648613020777702,
        0.01174825057387352,
        -0.029902592301368713,
        -0.02327251248061657,
        0.03226016089320183,
        -0.04120174050331116,
        -0.02671000361442566,
        0.017431285232305527,
        0.01589854061603546,
        0.03590678051114082,
        -0.03776375204324722,
        -0.00022437795996665955,
        0.01645790785551071,
        -0.007231514900922775,
        0.035855647176504135,
        0.0021957866847515106,
        0.03127920255064964,
        -0.012857479974627495,
        -0.04076004773378372,
        -0.03626721724867821,
        0.014596477150917053,
        -0.030259791761636734,
        -0.039228394627571106,
        -0.03898356482386589,
        0.00260794535279274,
        -0.021159397438168526,
        -0.009953901171684265,
        -0.02149416133761406,
        -0.02832075208425522,
        0.008399739861488342,
        -0.02137112431228161,
        -0.000597778707742691,
        0.012104827910661697,
        -0.010496485978364944,
        -0.03364233672618866,
        -0.03904961422085762,
        0.02791598066687584,
        0.02432926371693611,
        -0.004311420023441315,
        -0.007442135363817215,
        -0.01335630752146244,
        0.037466298788785934,
        0.012151192873716354,
        -0.029711667448282242,
        -0.03304716572165489,
        -0.037054747343063354,
        -0.018878603354096413,
        0.022215265780687332,
        -0.031042737886309624,
        0.005928155034780502,
        0.004946701228618622,
        0.019311606884002686,
        0.021335545927286148,
        -0.013934032991528511,
        0.030798722058534622,
        0.029557261615991592,
        -0.041354596614837646,
        0.017762474715709686,
        0.010941624641418457,
        0.006391439586877823,
        0.03219246491789818,
        -0.03816072642803192,
        -0.023406941443681717,
        -0.026470595970749855,
        0.03088100627064705,
        -0.04251306876540184,
        -0.026974566280841827,
        0.023771096020936966,
        -0.02302648313343525,
        -0.03605472296476364,
        0.017712678760290146,
        0.02535990998148918,
        -0.024773703888058662,
        0.03854706510901451,
        -0.007927317172288895,
        -0.03763497993350029,
        0.013683285564184189,
        0.00718056783080101,
        0.02266717329621315,
        -0.009164929389953613,
        -0.00047749653458595276,
        0.0019481591880321503,
        0.02995791658759117,
        -0.03764401003718376,
        0.00637030228972435,
        0.025829393416643143,
        0.03984929248690605,
        0.0004057250916957855,
        -0.01311122253537178,
        -0.018135709688067436,
        -0.012975441291928291,
        0.037466440349817276,
        -0.026365909725427628,
        0.030436847358942032,
        0.02637854591012001,
        -0.014793625101447105,
        0.035887908190488815,
        0.0044390372931957245,
        -0.02195529267191887,
        -0.015907099470496178,
        -0.016795910894870758,
        0.023403655737638474,
        -0.028115175664424896,
        0.023340005427598953,
        0.010381355881690979,
        0.030957315117120743,
        -0.017345596104860306,
        -0.00817541778087616,
        -0.002427447587251663,
        -0.03148893266916275,
        -0.012379441410303116,
        -0.04086530581116676,
        0.028490547090768814,
        -0.031146246939897537,
        -0.0277390293776989,
        0.03637843206524849,
        0.0032176747918128967,
        0.028151225298643112,
        0.012178700417280197,
        -0.03525015339255333,
        0.004779480397701263,
        -0.005085352808237076,
        -0.001790326088666916,
        -0.0016754791140556335,
        0.00861779972910881,
        -0.0026443228125572205,
        0.04069816693663597,
        -0.03624756634235382,
        -0.00660458579659462,
        -0.028343001380562782,
        0.027481477707624435,
        -0.030587635934352875,
        -0.003941640257835388,
        0.042603712528944016,
        -0.03170888125896454,
        0.006217263638973236,
        -0.02652161195874214,
        -0.03136545047163963,
        -0.025877641513943672,
        -0.013723619282245636,
        -0.036627788096666336,
        -0.037203457206487656,
        0.02426312491297722,
        0.01936553418636322,
        0.015679270029067993,
        0.028923247009515762,
        -0.015705134719610214,
        -0.003974977880716324,
        0.027970973402261734,
        -0.03661040589213371,
        0.020401518791913986,
        -0.004926610738039017,
        0.015665203332901,
        0.0401110015809536,
        -0.0037339404225349426,
        -0.028891105204820633,
        -0.04160929098725319,
        -0.007495362311601639,
        -0.003910969942808151,
        0.02338235452771187,
        0.02196776494383812,
        0.02351263538002968,
        0.026737172156572342,
        -0.005129251629114151
      ],
      [
        -0.039730388671159744,
        0.03825129196047783,
        -0.030761078000068665,
        0.039317574352025986,
        -0.04194789379835129,
        0.028243277221918106,
        0.015487559139728546,
        0.02903154119849205,
        0.01665450632572174,
        0.022036436945199966,
        -0.02124773897230625,
        0.02059781178832054,
        0.023158591240644455,
        -0.026174994185566902,
        -0.019716620445251465,
        0.003740265965461731,
        -0.012168088927865028,
        0.013310827314853668,
        -0.025703756138682365,
        -0.029355334118008614,
        0.009612232446670532,
        -0.042193759232759476,
        0.033894430845975876,
        0.033684272319078445,
        0.02150886133313179,
        0.011888716369867325,
        -0.03274357318878174,
        -0.018661366775631905,
        0.010631710290908813,
        -0.009209014475345612,
        0.008339498192071915,
        0.03967646136879921,
        -0.03988738730549812,
        -0.004469007253646851,
        0.0022262074053287506,
        0.02428874745965004,
        0.036352504044771194,
        -0.0007997490465641022,
        -0.038501132279634476,
        -0.016875864937901497,
        -0.022429555654525757,
        -0.013588275760412216,
        -0.035263918340206146,
        0.008601643145084381,
        0.039168041199445724,
        0.02991839125752449,
        -0.03347509354352951,
        -0.015048684552311897,
        0.030345018953084946,
        -0.026240138337016106,
        0.04179394617676735,
        0.013594888150691986,
        0.007120631635189056,
        0.03189229592680931,
        -0.009599495679140091,
        0.0001366138458251953,
        -0.026128584519028664,
        0.024333853274583817,
        -0.03340965509414673,
        0.006167862564325333,
        0.01550997793674469,
        -0.011781865730881691,
        0.018803022801876068,
        -0.017014946788549423,
        -0.027632474899291992,
        -0.0415605790913105,
        -0.010413475334644318,
        0.010210137814283371,
        -0.020330486819148064,
        -0.0014305338263511658,
        -0.00975038856267929,
        -0.012190964072942734,
        0.0253867469727993,
        0.03857708349823952,
        0.009061865508556366,
        0.01992074027657509,
        -0.00522884726524353,
        -0.03490753471851349,
        0.009835939854383469,
        -0.025420576333999634,
        -0.022002125158905983,
        0.0015034787356853485,
        -0.02158612385392189,
        5.025789141654968e-05,
        0.010484050959348679,
        0.027513187378644943,
        0.03270789608359337,
        -0.0036701075732707977,
        0.031280625611543655,
        0.01414601132273674,
        -0.029410330578684807,
        0.003907438367605209,
        0.03871334716677666,
        -0.015239667147397995,
        0.04222797229886055,
        -0.027010150253772736,
        0.0018371567130088806,
        -0.025151686742901802,
        0.016757972538471222,
        0.03604159131646156,
        -0.012392135336995125,
        -0.03061435930430889,
        -0.018984733149409294,
        -0.016752148047089577,
        0.03577310964465141,
        0.03757956251502037,
        0.031689200550317764,
        0.03037094697356224,
        -0.0013474635779857635,
        0.03742283210158348,
        -0.03837282955646515,
        0.0030872486531734467,
        -0.01249062828719616,
        -0.03832113742828369,
        0.0419791005551815,
        0.04238094761967659,
        0.010195501148700714,
        0.010842885822057724,
        -0.03983069956302643,
        0.008799571543931961,
        0.014740735292434692,
        0.037238311022520065,
        0.006470993161201477,
        0.013901744037866592,
        0.03965189680457115,
        -0.03061019256711006,
        0.020256806164979935,
        0.028764497488737106,
        0.006522729992866516,
        -0.02629195526242256,
        0.023617420345544815,
        -0.022404827177524567,
        0.04206017777323723,
        -0.030463486909866333,
        -0.01856383867561817,
        0.031524401158094406,
        -0.0021846890449523926,
        0.0035106390714645386,
        -0.040353357791900635,
        0.006492927670478821,
        0.01707114279270172,
        0.03623524680733681,
        -0.002016395330429077,
        -0.013438086956739426,
        0.001744043081998825,
        0.011268764734268188,
        -0.022917745634913445,
        0.02661086991429329,
        -0.008223123848438263,
        0.02110278233885765,
        -0.027423977851867676,
        -0.013727867975831032,
        -0.0017860233783721924,
        -0.004065319895744324,
        0.021327923983335495,
        0.02018328383564949,
        -0.041656892746686935,
        -0.021027779206633568,
        0.03910538926720619,
        -0.004860039800405502,
        0.02364816889166832,
        -0.03257051855325699,
        0.01196405291557312,
        0.04080047085881233,
        -0.0250431839376688,
        -0.01698913611471653,
        -0.011638686060905457,
        0.00983305275440216,
        0.021545711904764175,
        -0.025857996195554733,
        0.021517034620046616,
        -0.034081727266311646,
        -0.02605036459863186,
        -0.008320890367031097,
        -0.04132489487528801,
        0.03872246667742729,
        0.03664376959204674,
        -0.010812178254127502,
        0.03988778218626976,
        -0.029977083206176758,
        -0.013650685548782349,
        0.03654509410262108,
        0.03612808510661125,
        -0.03530976176261902,
        -0.013575322926044464,
        0.004095550626516342,
        0.007216054946184158,
        0.023256618529558182,
        -0.024542545899748802,
        0.03920041397213936,
        -0.002480965107679367,
        -0.02613094076514244,
        0.006536263972520828,
        -0.03088299371302128,
        -0.038582801818847656,
        0.036975961178541183,
        -0.016468025743961334,
        -0.0013623498380184174,
        -0.017565106973052025,
        0.01197977364063263,
        -0.015029136091470718,
        -0.022647330537438393,
        0.03664836660027504,
        0.029657479375600815,
        0.002320263534784317,
        0.0030033178627490997,
        -0.00367731973528862,
        -0.03303007036447525,
        -0.03586546331644058,
        -0.041966259479522705,
        -0.023148927837610245,
        0.009437981992959976,
        0.0031260624527931213,
        -0.005234625190496445,
        0.01681669056415558,
        -0.01948310062289238,
        -0.027707571163773537,
        -0.006956819444894791,
        0.026840824633836746,
        -0.0049590133130550385,
        0.018843967467546463,
        -0.01623283140361309,
        0.033566270023584366,
        0.006942693144083023,
        0.023201916366815567,
        -0.002338644117116928,
        -0.025567766278982162,
        -0.02353806421160698,
        0.009842250496149063,
        0.01912602037191391,
        0.0012583956122398376,
        -0.006437242031097412,
        0.00012001022696495056,
        0.02260749414563179,
        0.04229825362563133,
        -0.003940477967262268,
        0.03094656392931938,
        -0.038725532591342926,
        -0.025077467784285545,
        -0.015895575284957886,
        -0.031589310616254807,
        0.03133166953921318,
        -0.02798311412334442,
        -0.02410401962697506,
        -0.018845176324248314,
        -0.009044162929058075,
        0.03781371936202049,
        0.04085114970803261,
        -0.007062520831823349,
        0.01438409835100174,
        -0.033587388694286346,
        -0.027585767209529877,
        0.0423891507089138,
        -0.02913917973637581,
        -0.03896213322877884,
        -0.009451467543840408,
        -0.03641144186258316,
        -0.031572651118040085,
        0.006758835166692734,
        0.02724434807896614,
        -0.0279868021607399,
        -0.037287354469299316,
        0.024976376444101334,
        -0.030822115018963814,
        -0.01023045927286148,
        0.023064453154802322,
        -0.02411128580570221,
        0.008872196078300476,
        -0.025858797132968903,
        0.01674511656165123,
        0.03915969654917717,
        -0.0014930404722690582,
        -0.035555046051740646,
        -0.03973154351115227,
        0.029647883027791977,
        -0.005139913409948349,
        -0.016341345384716988,
        0.015483174473047256,
        0.03571878746151924,
        0.02212149277329445,
        0.005145944654941559,
        0.01264600083231926,
        -0.005417637526988983,
        -0.0007101744413375854,
        -0.014643441885709763,
        0.022192779928445816,
        -0.00261133536696434,
        0.031109515577554703,
        0.0043851397931575775,
        -0.02643236331641674,
        -0.03326056897640228,
        -0.026703359559178352,
        -0.03988512232899666,
        0.034939561039209366,
        -0.026275038719177246,
        -0.03303483501076698,
        0.010801315307617188,
        -0.020372478291392326,
        -0.034949589520692825,
        0.01754457876086235,
        0.0064148493111133575,
        0.0352834053337574,
        -0.031131552532315254,
        -0.0287769865244627,
        -0.0030497275292873383,
        -0.006005719304084778,
        -0.0077099911868572235,
        -0.026730384677648544,
        -0.02708752267062664,
        -0.03039334900677204,
        -0.0036673210561275482,
        0.04125935211777687,
        -0.03753458708524704,
        -0.028580663725733757,
        0.016502466052770615,
        0.01943199709057808,
        0.027173329144716263,
        0.015760216861963272,
        0.03839036449790001,
        0.03843162581324577,
        -0.026673616841435432,
        -0.005792897194623947,
        -0.0031537264585494995,
        -0.011738792061805725,
        -0.035770319402217865,
        -0.03658014535903931,
        0.010866593569517136,
        -0.025366758927702904,
        -0.03354767709970474,
        -0.023504193872213364,
        -0.032086584717035294,
        -0.007274821400642395,
        -0.04008433595299721,
        -0.009817853569984436,
        -0.03956668823957443,
        -0.02664017677307129,
        -0.03863805532455444,
        0.031721148639917374,
        0.035207729786634445,
        -0.010820671916007996,
        0.005649801343679428,
        -0.033620644360780716,
        -0.008747771382331848,
        -0.018445422872900963,
        0.02856651321053505,
        0.029321487993001938,
        -0.03184719383716583,
        -0.042501647025346756,
        0.01673078164458275,
        0.002840854227542877,
        0.018985293805599213,
        0.03957227244973183,
        0.02796756848692894,
        -0.037596430629491806,
        0.04089280590415001,
        -0.021719206124544144,
        -0.0007549561560153961,
        -0.024739405140280724,
        0.01138998568058014,
        0.03620178624987602,
        0.03322142735123634,
        -0.016565104946494102,
        -0.005808297544717789,
        0.0071861632168293,
        -0.019297920167446136,
        -0.0202342476695776,
        0.03478534147143364,
        0.01108059287071228,
        -0.0348738394677639,
        0.0289127416908741,
        0.036803919821977615,
        0.03942374512553215,
        0.0034541338682174683,
        0.00957481563091278,
        -0.007702209055423737,
        -0.015466926619410515,
        -0.040009427815675735,
        -0.0008227042853832245,
        0.0017029643058776855,
        0.03295894339680672,
        -0.010188780725002289,
        0.005245335400104523,
        0.04152170196175575,
        -0.03385569900274277,
        0.02368135377764702,
        0.0115506611764431,
        -0.004963986575603485,
        0.027064811438322067,
        0.0266815684735775,
        -0.01605818048119545,
        -0.0025573037564754486,
        0.00527021661400795,
        -0.04108517989516258,
        -0.010632630437612534,
        -0.014159133657813072,
        -0.02874811738729477,
        -0.012434840202331543,
        -0.009674705564975739,
        -0.015423847362399101,
        0.03150796517729759,
        0.016161710023880005,
        -0.032548509538173676,
        0.013631686568260193,
        -0.012072890996932983,
        -0.038729265332221985,
        -0.00604875385761261,
        -0.0315726138651371,
        -0.029526179656386375,
        0.0110241137444973,
        0.035532597452402115,
        -0.004839852452278137,
        0.029795948415994644,
        -0.009964562952518463,
        0.01100960373878479,
        -0.024605097249150276,
        -0.04166891798377037,
        -0.02265680953860283,
        0.03767634555697441,
        -0.0319562703371048,
        0.020565662533044815,
        0.024181779474020004,
        -0.03763652965426445,
        -0.03060252219438553,
        -0.005106914788484573,
        -0.0071187615394592285,
        -0.005792159587144852,
        0.011790789663791656,
        -0.02072123996913433,
        0.018751278519630432,
        0.009740471839904785,
        0.006717696785926819,
        0.008535418659448624,
        -0.025066381320357323,
        -0.028815697878599167,
        0.0340840108692646,
        -0.025341542437672615,
        -0.033623240888118744,
        -0.00872340053319931,
        0.010762002319097519,
        -0.03457837924361229,
        -0.009695608168840408,
        0.016091998666524887,
        -0.010854225605726242,
        0.016814175993204117,
        -0.0012582577764987946,
        -0.0019889138638973236,
        -0.006312292069196701,
        -0.0212411992251873,
        -0.018174462020397186,
        -0.009197983890771866,
        0.013118945062160492,
        -0.020085349678993225,
        0.0322573147714138,
        -0.023962825536727905,
        -0.027821753174066544,
        0.015315651893615723,
        -0.020616630092263222,
        0.016973882913589478,
        0.00016959011554718018,
        0.042505938559770584,
        -0.04264289513230324,
        0.038315560668706894,
        0.041068900376558304,
        -0.0013583041727542877,
        0.03019707277417183,
        0.0062077827751636505,
        -0.03908955678343773,
        -0.009397104382514954,
        -0.024730879813432693,
        0.009532168507575989,
        0.009030438959598541,
        0.039033543318510056,
        -0.02432878501713276,
        0.01425301656126976,
        -0.04212070256471634,
        -0.027448348701000214,
        0.012790709733963013,
        0.0038593895733356476,
        -0.03570810705423355,
        -0.012118358165025711,
        0.01691499352455139,
        0.035045456141233444,
        -0.0021443068981170654,
        0.029049430042505264,
        0.029602911323308945,
        0.02124173566699028,
        0.00650344043970108,
        -0.02281501330435276,
        -0.0023935213685035706,
        0.02159765735268593,
        -0.03147420287132263,
        0.031421829015016556,
        -0.027754250913858414,
        -0.01603762060403824,
        0.0237167589366436,
        -0.003294125199317932,
        0.03812849149107933,
        0.019727636128664017,
        0.003559853881597519,
        0.02000110223889351,
        0.029976192861795425,
        0.028014179319143295,
        -0.0073403120040893555,
        0.039200786501169205,
        -0.032323021441698074,
        0.03310755267739296,
        -0.01597561500966549,
        -0.031010393053293228,
        -0.026484381407499313,
        0.02410125359892845,
        0.019943010061979294,
        -0.02495432272553444,
        0.0290897898375988,
        -0.009588364511728287,
        0.024844739586114883,
        0.017059121280908585,
        -0.022757895290851593,
        -0.028363678604364395,
        0.02574801817536354,
        -0.010899830609560013,
        0.02281234785914421,
        -0.009025882929563522,
        -0.014615628868341446,
        0.025228459388017654,
        -0.008042488247156143,
        0.012464482337236404,
        -0.030598590150475502,
        -0.003415152430534363,
        -0.0037526898086071014,
        -0.027768775820732117,
        0.03896751627326012,
        -0.01555514894425869,
        -0.018091922625899315,
        0.02364371344447136,
        -0.0139919463545084,
        0.04211047664284706,
        -0.000393453985452652,
        -0.02040565013885498,
        -0.002787020057439804,
        0.033165011554956436,
        -0.027576513588428497,
        0.00023126602172851562,
        -0.03707621619105339,
        0.028637651354074478,
        -0.030171813443303108,
        -0.00610288605093956
      ],
      [
        -0.023379499092698097,
        0.011410575360059738,
        0.028069715946912766,
        -0.023912273347377777,
        0.00964348018169403,
        -0.0009698979556560516,
        0.02055167779326439,
        -0.01863197609782219,
        -0.027122393250465393,
        0.034972939640283585,
        -0.03391163423657417,
        -0.005190037190914154,
        -0.021120691671967506,
        -0.008138533681631088,
        -0.015402322635054588,
        -0.0355413444340229,
        -0.030098028481006622,
        -0.020195597782731056,
        0.008868038654327393,
        -0.013093892484903336,
        -0.0302034392952919,
        0.0026945210993289948,
        -0.04175474867224693,
        -0.040299948304891586,
        0.04038960859179497,
        -0.018804455175995827,
        0.025606635957956314,
        0.03848837688565254,
        0.006544381380081177,
        0.004830397665500641,
        0.01927695795893669,
        -0.038141995668411255,
        -0.027495071291923523,
        -0.03848184272646904,
        -0.001741848886013031,
        0.010172463953495026,
        0.005426883697509766,
        0.02122502401471138,
        -0.017468445003032684,
        -0.015275822952389717,
        -0.009621668606996536,
        -0.016538923606276512,
        0.030646231025457382,
        0.03753253445029259,
        0.023400049656629562,
        0.03567793592810631,
        -0.003701336681842804,
        -0.00790855661034584,
        0.038122061640024185,
        -0.020415954291820526,
        -0.004350990056991577,
        0.007741227746009827,
        0.03693320229649544,
        0.03709897771477699,
        0.005214229226112366,
        -0.029407382011413574,
        0.02654004469513893,
        0.02613818272948265,
        -0.007183343172073364,
        0.008582379668951035,
        0.0032012276351451874,
        0.0033418461680412292,
        -0.00032821670174598694,
        -0.017398174852132797,
        0.017303477972745895,
        -0.003943420946598053,
        -0.030494464561343193,
        -0.01659681648015976,
        0.02624667063355446,
        -0.003539636731147766,
        0.024895478039979935,
        -0.01601121574640274,
        0.018947720527648926,
        -0.004328150302171707,
        -0.026677055284380913,
        -0.04025367647409439,
        -0.0422859787940979,
        0.026939716190099716,
        -0.0172276608645916,
        -0.026727261021733284,
        0.03942183032631874,
        0.029832888394594193,
        0.007419571280479431,
        0.00780525803565979,
        -0.027986735105514526,
        0.010915461927652359,
        0.012470278888940811,
        0.02348111942410469,
        -0.023630334064364433,
        0.01307234913110733,
        0.02469831332564354,
        -0.040436238050460815,
        0.0012182816863059998,
        -0.027021313086152077,
        -0.039381708949804306,
        0.029661688953638077,
        -0.04101021587848663,
        0.0004623420536518097,
        -0.0079466812312603,
        0.010915204882621765,
        -0.009974945336580276,
        -0.018370311707258224,
        0.008104778826236725,
        -0.03651642054319382,
        0.03264361992478371,
        -0.002560347318649292,
        -0.011389270424842834,
        0.02447383478283882,
        -0.01575358398258686,
        0.029298927634954453,
        0.024807404726743698,
        -0.03877587616443634,
        0.020995911210775375,
        0.03442300483584404,
        -0.0244701337069273,
        -0.005548618733882904,
        0.04209446534514427,
        0.00970117375254631,
        -0.015699930489063263,
        -0.022838996723294258,
        0.023386377841234207,
        -0.02530156448483467,
        -0.03373987600207329,
        -0.0056823305785655975,
        0.004470035433769226,
        0.023800324648618698,
        0.028877701610326767,
        -0.041551001369953156,
        0.01695304363965988,
        0.012505177408456802,
        0.040623363107442856,
        -0.03293600305914879,
        0.022100191563367844,
        -0.04220987483859062,
        -0.017693107947707176,
        -0.004315163940191269,
        0.022758346050977707,
        -0.03421596437692642,
        0.003976520150899887,
        -0.03866678848862648,
        0.03163452073931694,
        0.013796057552099228,
        0.03297935053706169,
        0.02447139099240303,
        -0.033622242510318756,
        -0.007675211876630783,
        0.03709377720952034,
        0.0236441008746624,
        -0.026841100305318832,
        -0.033883512020111084,
        -0.0034377314150333405,
        -0.033400386571884155,
        0.04087865725159645,
        0.04015994444489479,
        -0.035342056304216385,
        0.026652906090021133,
        -0.028053225949406624,
        -0.011647425591945648,
        -0.0391697995364666,
        0.011399589478969574,
        -0.007246248424053192,
        0.01484297588467598,
        0.0308171845972538,
        -0.03159919008612633,
        -0.017094232141971588,
        0.03198022022843361,
        -0.018915003165602684,
        -0.02735278382897377,
        0.04116285964846611,
        -0.01910402998328209,
        0.00027398020029067993,
        0.01271645724773407,
        -0.0134035125374794,
        -0.005102232098579407,
        -0.029454153031110764,
        0.03418784961104393,
        -0.03675410524010658,
        0.00821714848279953,
        -0.03908832371234894,
        -0.01008383184671402,
        -0.022867845371365547,
        0.04244432970881462,
        0.03764556720852852,
        0.01019269973039627,
        0.010627549141645432,
        -0.04049358516931534,
        0.041745249181985855,
        0.040534090250730515,
        0.03650067374110222,
        -0.03243887051939964,
        -0.04248528927564621,
        0.028098735958337784,
        0.03924853727221489,
        0.026996072381734848,
        -0.0237274132668972,
        0.012107938528060913,
        -0.02740425057709217,
        -0.030143534764647484,
        -0.006588853895664215,
        0.04070976749062538,
        0.007470756769180298,
        0.011364966630935669,
        0.016479816287755966,
        -0.029113927856087685,
        -0.04115201532840729,
        -0.03903527930378914,
        -0.008219029754400253,
        0.029725883156061172,
        -0.026629125699400902,
        -0.028882566839456558,
        -0.018556950613856316,
        0.03309822455048561,
        0.02033400908112526,
        0.03261173889040947,
        -0.008902687579393387,
        -0.01468854583799839,
        0.030102189630270004,
        0.009501464664936066,
        0.042463865131139755,
        -0.006962411105632782,
        -0.01071176677942276,
        -0.010420020669698715,
        -0.03981509804725647,
        0.0072495900094509125,
        0.04058969393372536,
        0.003510989248752594,
        -0.00711754709482193,
        -0.04269719496369362,
        -0.020963722839951515,
        0.024855267256498337,
        0.02688349410891533,
        0.0036238916218280792,
        0.013867028057575226,
        0.023808885365724564,
        -0.0020930953323841095,
        0.029625263065099716,
        -0.03801148384809494,
        0.01884172111749649,
        0.032486919313669205,
        0.004145916551351547,
        0.03131335601210594,
        -0.03798995912075043,
        -0.026959234848618507,
        -0.03863327205181122,
        0.029011745005846024,
        0.028179224580526352,
        0.029895108193159103,
        -0.03430446609854698,
        -0.02991655096411705,
        -0.01614750176668167,
        0.020430322736501694,
        0.014795351773500443,
        -0.013171013444662094,
        0.022983122617006302,
        0.03664132580161095,
        0.023948680609464645,
        0.017925698310136795,
        -0.03905700147151947,
        -0.02855265513062477,
        -0.0383024737238884,
        -0.004074182361364365,
        -0.018496232107281685,
        0.015251927077770233,
        -0.011571109294891357,
        -0.017076019197702408,
        0.016296114772558212,
        0.02633911743760109,
        0.0019390136003494263,
        -0.01685057021677494,
        0.01795688271522522,
        -0.005253363400697708,
        -0.01915121078491211,
        -0.0052856989204883575,
        -0.010675054043531418,
        0.016331754624843597,
        0.009393978863954544,
        -0.020584918558597565,
        0.0418960265815258,
        -0.030939938500523567,
        0.010895002633333206,
        0.028584253042936325,
        -0.041888244450092316,
        0.022233452647924423,
        0.01451157033443451,
        -0.028703559190034866,
        0.03544631227850914,
        0.04243200644850731,
        0.0029252879321575165,
        -0.027977414429187775,
        -0.030354667454957962,
        -0.03617025539278984,
        -0.005535639822483063,
        -0.02931167557835579,
        0.007269836962223053,
        0.014577530324459076,
        -0.009717989712953568,
        0.013413641601800919,
        0.010960523039102554,
        0.015432719141244888,
        -0.038935501128435135,
        0.022364895790815353,
        0.019605766981840134,
        -0.03481271117925644,
        -0.003664892166852951,
        -0.007057540118694305,
        0.019214585423469543,
        -0.032168008387088776,
        -0.017881890758872032,
        0.00735035166144371,
        -0.01627713069319725,
        -0.008370373398065567,
        0.04000606760382652,
        0.008265003561973572,
        -0.025599651038646698,
        -0.03457866981625557,
        0.0406680665910244,
        -0.0011951476335525513,
        -0.0003657415509223938,
        -0.03237414360046387,
        0.03687172010540962,
        -0.025003181770443916,
        -0.02926154062151909,
        -0.020012784749269485,
        -0.03388544172048569,
        0.003965433686971664,
        -0.00696183368563652,
        0.03287236765027046,
        0.04222860559821129,
        0.03439740464091301,
        -0.007360693067312241,
        0.02324524149298668,
        0.01102045550942421,
        0.030039552599191666,
        -0.04221825674176216,
        -0.021948985755443573,
        0.011496629565954208,
        -0.008491486310958862,
        0.035224322229623795,
        -0.0008639097213745117,
        0.021077897399663925,
        -0.033576831221580505,
        -0.010862108319997787,
        0.03655049577355385,
        0.04223177954554558,
        -0.018087346106767654,
        0.03358198329806328,
        -0.03166331350803375,
        -0.001366008073091507,
        -0.01692802459001541,
        0.03803477808833122,
        0.0009416788816452026,
        -0.02449887990951538,
        -0.033524297177791595,
        0.02934430167078972,
        -0.02835913375020027,
        0.007200371474027634,
        -0.008661434054374695,
        -0.033432021737098694,
        0.025190193206071854,
        0.009095989167690277,
        -0.0023545101284980774,
        0.019166316837072372,
        -0.00246623158454895,
        -0.009234212338924408,
        -0.02750326320528984,
        -0.00161655992269516,
        -0.027153870090842247,
        0.015571556985378265,
        0.026113618165254593,
        -0.03410584107041359,
        -0.01723366044461727,
        0.04140489175915718,
        -0.0029701292514801025,
        -0.030690930783748627,
        -0.009433712810277939,
        0.0006763413548469543,
        0.03356633707880974,
        -0.0025740042328834534,
        -0.019720176234841347,
        0.023695368319749832,
        0.025404054671525955,
        0.01561054214835167,
        -0.028710052371025085,
        -0.0013092420995235443,
        0.02536725625395775,
        0.025230247527360916,
        0.021822337061166763,
        -0.02756880596280098,
        -0.0010779090225696564,
        0.025225739926099777,
        -0.007365554571151733,
        0.0159541517496109,
        0.033472996205091476,
        -0.0094728022813797,
        -0.041607826948165894,
        -0.018966984003782272,
        0.03719126805663109,
        -0.02688690461218357,
        0.02697860822081566,
        0.003962341696023941,
        -0.026246294379234314,
        0.03214333578944206,
        0.013947833329439163,
        -0.005970790982246399,
        0.03128008916974068,
        -0.0363527312874794,
        0.023323122411966324,
        -0.026163320988416672,
        0.019701674580574036,
        0.00013770908117294312,
        -0.010673951357603073,
        -0.02216567099094391,
        0.03946937993168831,
        0.033374641090631485,
        0.024973731487989426,
        -0.0401279553771019,
        0.024015944451093674,
        0.018974490463733673,
        0.016968093812465668,
        -0.03459068387746811,
        -0.008019056171178818,
        -0.04166088253259659,
        -0.035158589482307434,
        -0.03445093333721161,
        -0.0105849988758564,
        -0.025904543697834015,
        0.010359499603509903,
        0.00046617165207862854,
        0.02478254958987236,
        0.02338946983218193,
        0.0354645811021328,
        0.037620823830366135,
        -0.006246306002140045,
        -0.0008949227631092072,
        -0.014203621074557304,
        -0.005131501704454422,
        0.04159166291356087,
        0.00043968483805656433,
        0.033125441521406174,
        -0.03181494399905205,
        0.03478246554732323,
        0.026871997863054276,
        0.03705881908535957,
        -0.008006352931261063,
        -0.04174894466996193,
        0.03295527771115303,
        -0.010232288390398026,
        -0.006693791598081589,
        0.028890717774629593,
        0.008792281150817871,
        0.02897172048687935,
        0.025484178215265274,
        -0.02985093742609024,
        -0.024549143388867378,
        0.016872715204954147,
        -0.028531299903988838,
        0.012317288666963577,
        0.03224251791834831,
        0.013406552374362946,
        -6.703659892082214e-05,
        0.040006380528211594,
        0.011528648436069489,
        0.033206116408109665,
        0.026951264590024948,
        -0.009673092514276505,
        -0.03745554760098457,
        0.007411051541566849,
        -0.007324349135160446,
        0.02737398073077202,
        -0.014594348147511482,
        -0.0243076141923666,
        0.0262637697160244,
        0.03989345207810402,
        0.03164253011345863,
        -0.0210383553057909,
        -0.03225928172469139,
        0.01049206405878067,
        -0.0360882505774498,
        0.023569520562887192,
        0.033498670905828476,
        0.01853436604142189,
        -0.026748785749077797,
        -0.017063187435269356,
        -0.013051655143499374,
        0.0351097472012043,
        -0.006575539708137512,
        0.017228174954652786,
        0.016872942447662354,
        0.021975498646497726,
        -0.004852324724197388,
        0.015024956315755844,
        -0.023012427613139153,
        0.00011685863137245178,
        0.0017594024538993835,
        0.03664476051926613,
        0.042739640921354294,
        0.007675636559724808,
        0.01362387090921402,
        -0.041707299649715424,
        -0.009374890476465225,
        0.00614890456199646,
        0.01688235253095627,
        -0.028984859585762024,
        0.021427657455205917,
        0.004023950546979904,
        -0.011435046792030334,
        -0.03699789196252823,
        -0.032775912433862686,
        0.021597590297460556,
        0.04207086190581322,
        0.008535902947187424,
        0.011079832911491394,
        0.022411752492189407,
        -0.00519920140504837,
        -0.002858497202396393,
        -0.03128303214907646,
        0.00360686331987381,
        -0.024612847715616226,
        0.028823498636484146,
        -0.005609456449747086,
        0.007778536528348923,
        0.026793893426656723,
        0.025851238518953323,
        -0.008499663323163986,
        -0.033542241901159286,
        0.00662926584482193,
        0.039067674428224564,
        -0.024066533893346786,
        -0.015272675082087517,
        -0.005448494106531143,
        -0.033518072217702866,
        0.026183854788541794,
        -0.027039555832743645,
        0.009207390248775482,
        0.014345861971378326,
        0.014713890850543976,
        0.02046428993344307,
        0.03283163532614708,
        -0.020795270800590515,
        0.024580787867307663,
        0.017953339964151382,
        -0.03664390370249748,
        0.02727358415722847,
        -0.0019592754542827606,
        0.027720626443624496,
        0.021880190819501877
      ],
      [
        0.005572769790887833,
        0.018081936985254288,
        -0.018992962315678596,
        -0.022241342812776566,
        0.0012110546231269836,
        0.00037936121225357056,
        0.03167160227894783,
        0.010526634752750397,
        0.04112066701054573,
        0.03480258211493492,
        -0.02807747945189476,
        -0.03677881509065628,
        -0.016926227137446404,
        -0.019879013299942017,
        7.993727922439575e-05,
        0.035325076431035995,
        0.00409640371799469,
        -0.02014412172138691,
        0.036738160997629166,
        0.004858225584030151,
        -0.023194802924990654,
        0.01953861117362976,
        -0.03332917019724846,
        0.010693196207284927,
        0.04096071794629097,
        0.009151503443717957,
        -0.03819717839360237,
        -0.02815168723464012,
        0.035329196602106094,
        0.03770231828093529,
        -0.0043868981301784515,
        0.02281181886792183,
        -0.011313244700431824,
        -0.0228031724691391,
        0.03971758112311363,
        -0.0005355812609195709,
        0.00478634238243103,
        -0.04095898196101189,
        -0.040502388030290604,
        -0.003665205091238022,
        -0.0026466920971870422,
        0.0018361732363700867,
        0.003301583230495453,
        0.030683618038892746,
        -0.04194439947605133,
        0.024244125932455063,
        0.00826222077012062,
        -0.041186001151800156,
        0.02672124281525612,
        -0.030341964215040207,
        0.03803769126534462,
        -0.021274615079164505,
        0.03999460116028786,
        -0.028635919094085693,
        0.008100084960460663,
        0.006751716136932373,
        -0.012410597875714302,
        0.022448580712080002,
        -0.00940326601266861,
        -0.028986766934394836,
        -0.004113633185625076,
        0.034944240003824234,
        -0.020287128165364265,
        0.039908189326524734,
        0.021615032106637955,
        0.04171739146113396,
        0.004990383982658386,
        -0.014014260843396187,
        -0.006151124835014343,
        -0.029428493231534958,
        -0.021630696952342987,
        -0.03419545665383339,
        0.0013726651668548584,
        0.035795908421278,
        -0.02868475392460823,
        -0.0132046639919281,
        0.022520657628774643,
        0.020827386528253555,
        0.03867192938923836,
        0.027232039719820023,
        -0.018603866919875145,
        0.008936028927564621,
        0.03100239858031273,
        -0.03213849291205406,
        -0.01041937991976738,
        -0.004973690956830978,
        -0.04275412857532501,
        0.040234971791505814,
        0.030322182923555374,
        0.002960510551929474,
        -0.023319553583860397,
        0.010259237140417099,
        0.003579501062631607,
        -0.00022302940487861633,
        0.024953212589025497,
        -0.013184839859604836,
        0.013806279748678207,
        -0.03769814223051071,
        0.028265800327062607,
        0.018012743443250656,
        0.03090953454375267,
        -0.012481428682804108,
        0.03275882080197334,
        0.009010251611471176,
        0.005709372460842133,
        -0.03328131139278412,
        -0.028595324605703354,
        -0.004363987594842911,
        -0.030154351145029068,
        0.005797307938337326,
        0.04144938662648201,
        0.03896620497107506,
        0.04214010015130043,
        -0.004226822406053543,
        -0.03148923069238663,
        0.03870713338255882,
        0.012945398688316345,
        -0.041947025805711746,
        0.013510297983884811,
        -0.029603511095046997,
        -0.0020346641540527344,
        -0.0423990860581398,
        -0.014269575476646423,
        -0.015288136899471283,
        -0.021207572892308235,
        0.0015093833208084106,
        -0.024713315069675446,
        0.011022001504898071,
        -0.0015983954071998596,
        -0.04060579836368561,
        -0.04243948310613632,
        0.04272307828068733,
        0.010654129087924957,
        0.02584240958094597,
        -0.013828162103891373,
        -0.041294291615486145,
        0.03282694146037102,
        0.0018091946840286255,
        0.002587977796792984,
        -0.008499659597873688,
        -0.039962511509656906,
        -0.03877661004662514,
        0.009995520114898682,
        -0.03751803934574127,
        -0.018518520519137383,
        -0.013397136703133583,
        0.03583840653300285,
        0.005873695015907288,
        -0.008417375385761261,
        0.0028465166687965393,
        0.02313559129834175,
        -0.009628590196371078,
        -0.009526155889034271,
        0.03974423184990883,
        -0.020467232912778854,
        0.00852307677268982,
        -0.0328313410282135,
        -0.04074485972523689,
        -0.021810205653309822,
        0.004115689545869827,
        -0.02705533616244793,
        0.010230712592601776,
        -0.039512306451797485,
        0.011521831154823303,
        -0.00926106795668602,
        0.008102070540189743,
        0.026480522006750107,
        -0.01389843225479126,
        -0.015345863997936249,
        -0.03267867863178253,
        -0.00669160857796669,
        -0.018214795738458633,
        0.022502277046442032,
        -0.0231203343719244,
        0.04207893833518028,
        -0.020240824669599533,
        0.013261165469884872,
        -0.0017232000827789307,
        0.04270930215716362,
        0.031217370182275772,
        -0.0016907788813114166,
        -0.0023087672889232635,
        0.03235047683119774,
        0.03817811980843544,
        -0.003485891968011856,
        -0.015765681862831116,
        -0.03827466070652008,
        0.00781301036477089,
        0.027951311320066452,
        0.03800646588206291,
        0.02033970132470131,
        -0.022862663492560387,
        0.007049765437841415,
        -0.014531552791595459,
        -0.03155840188264847,
        0.025794174522161484,
        0.00342453271150589,
        -0.0008255429565906525,
        0.011217847466468811,
        0.018596194684505463,
        0.03978242352604866,
        -0.026304928585886955,
        -0.0008097290992736816,
        -0.013218643143773079,
        -0.02882182039320469,
        0.008721873164176941,
        0.028433125466108322,
        -0.006004262715578079,
        -0.03454611077904701,
        0.03227270022034645,
        0.006392061710357666,
        0.0010040029883384705,
        0.030940208584070206,
        0.032330553978681564,
        0.030571583658456802,
        0.018039651215076447,
        0.009630881249904633,
        -0.02419857494533062,
        -0.032705653458833694,
        -0.0009003914892673492,
        -0.03946729004383087,
        0.019442304968833923,
        0.0024714209139347076,
        -0.012866009026765823,
        -0.017463047057390213,
        0.027799028903245926,
        -0.00972767174243927,
        -0.004695292562246323,
        -0.021512480452656746,
        -0.006750315427780151,
        0.02980172261595726,
        0.01376773789525032,
        -0.03803762048482895,
        -0.015070432797074318,
        0.008997451514005661,
        -0.0007910169661045074,
        -0.012927275151014328,
        0.02684984728693962,
        0.02006560191512108,
        0.016655318439006805,
        -0.01613420620560646,
        -0.028900574892759323,
        -0.04024286940693855,
        -0.008068438619375229,
        0.02230307087302208,
        -0.00715438649058342,
        -0.0156266950070858,
        -0.01369018666446209,
        -0.03538179770112038,
        -0.02181573584675789,
        0.007903013378381729,
        0.03724716231226921,
        -0.006216015666723251,
        -0.020265623927116394,
        0.00835220143198967,
        -0.028570905327796936,
        -0.017277009785175323,
        0.02572820708155632,
        0.01794658973813057,
        0.035140495747327805,
        0.019699230790138245,
        0.032196540385484695,
        -0.029053784906864166,
        -0.03810426592826843,
        -0.04043227434158325,
        0.011588633060455322,
        -0.031336650252342224,
        0.025286901742219925,
        -0.04183243215084076,
        -0.025237003341317177,
        -0.03396563231945038,
        -0.010360505431890488,
        0.0136452317237854,
        0.009992148727178574,
        0.000512346625328064,
        -0.021012423560023308,
        -0.030814483761787415,
        0.032255593687295914,
        0.013642176985740662,
        -0.03318754583597183,
        0.015268787741661072,
        0.004279237240552902,
        0.020835626870393753,
        -0.02940315753221512,
        -0.02706179954111576,
        -0.017828354611992836,
        0.02149483934044838,
        -0.030247408896684647,
        -0.009829200804233551,
        -0.03233514353632927,
        0.018793459981679916,
        -0.020059581845998764,
        0.039833467453718185,
        -0.008557751774787903,
        -0.017757609486579895,
        0.03230498358607292,
        0.035319242626428604,
        0.03657746687531471,
        -0.012431005015969276,
        -0.02737610414624214,
        0.029039394110441208,
        -0.03182639926671982,
        0.005305729806423187,
        -0.03732960298657417,
        -0.03944016993045807,
        0.03385859355330467,
        0.0213942714035511,
        0.030513789504766464,
        -0.03721936419606209,
        -0.024564595893025398,
        0.014873817563056946,
        -0.03062458708882332,
        -0.031987354159355164,
        -0.018278149887919426,
        0.016408443450927734,
        0.03652689978480339,
        -0.035617388784885406,
        -0.02791203185915947,
        -0.0333453044295311,
        -0.028090743348002434,
        0.007808499038219452,
        -0.035181108862161636,
        0.0006415471434593201,
        -0.02494017593562603,
        0.01021604984998703,
        -0.008428890258073807,
        0.0182366743683815,
        -0.01094229519367218,
        0.016369864344596863,
        -0.021263819187879562,
        -0.008785486221313477,
        0.02290840819478035,
        -0.0010488852858543396,
        -0.014155354350805283,
        -0.0243972297757864,
        0.0203433595597744,
        0.015921179205179214,
        0.02597411349415779,
        0.035340841859579086,
        -0.006950456649065018,
        -0.030284540727734566,
        0.026942234486341476,
        -0.03403113782405853,
        -0.028621088713407516,
        0.03400171920657158,
        -0.04030536487698555,
        0.02966346964240074,
        -0.00411485880613327,
        -0.003716941922903061,
        0.009331271052360535,
        -0.0033924728631973267,
        0.036365967243909836,
        0.018486715853214264,
        -0.03692145645618439,
        0.006507206708192825,
        0.00794835016131401,
        0.030403178185224533,
        -0.03868744149804115,
        -0.033437587320804596,
        0.01969466358423233,
        -0.017676828429102898,
        -0.03754931688308716,
        0.0031343065202236176,
        0.0019478686153888702,
        0.003998834639787674,
        -0.04031816124916077,
        0.04004568234086037,
        0.04175247624516487,
        0.004684571176767349,
        0.026693757623434067,
        0.010712675750255585,
        -0.04168759658932686,
        -0.0309222973883152,
        0.023091565817594528,
        0.03251024708151817,
        -0.03631063178181648,
        -0.003746461123228073,
        0.016557615250349045,
        0.04080231860280037,
        0.0015356428921222687,
        0.011200971901416779,
        0.03288639709353447,
        0.004420977085828781,
        0.04239838197827339,
        -0.03962340205907822,
        -0.01969865709543228,
        -0.017749905586242676,
        0.007147002965211868,
        0.0042352937161922455,
        -0.027317190542817116,
        -0.03842776268720627,
        0.025414925068616867,
        -0.0001695789396762848,
        0.0284799225628376,
        -0.001670941710472107,
        0.02969464287161827,
        -0.008170191198587418,
        0.034450385719537735,
        0.00027300789952278137,
        -0.037964340299367905,
        -0.004985082894563675,
        -0.023882776498794556,
        0.026289891451597214,
        -0.040669795125722885,
        0.03261544182896614,
        -0.023678045719861984,
        0.013705085963010788,
        -0.008465446531772614,
        0.023467663675546646,
        -0.0036978162825107574,
        0.015488117933273315,
        -0.031928159296512604,
        -0.02597496658563614,
        0.001671764999628067,
        0.03305859491229057,
        0.04170304164290428,
        0.010973621159791946,
        0.02426185831427574,
        -0.038777850568294525,
        0.0373651422560215,
        0.02546357735991478,
        -0.03592507541179657,
        0.012146670371294022,
        0.013822376728057861,
        -0.04010351002216339,
        -0.004108138382434845,
        0.019060377031564713,
        -0.001079469919204712,
        -0.008645888417959213,
        -0.009896207600831985,
        0.037821341305971146,
        0.030614156275987625,
        -0.03883630037307739,
        0.027501937001943588,
        0.016630660742521286,
        0.006532873958349228,
        0.002628132700920105,
        -0.005523163825273514,
        -0.002916041761636734,
        0.019396312534809113,
        -0.01843821443617344,
        0.024731438606977463,
        -0.013417758047580719,
        0.02354254201054573,
        -0.035964708775281906,
        -0.03450145199894905,
        0.02355917915701866,
        0.034673962742090225,
        -0.0164631474763155,
        0.03362810239195824,
        0.027349043637514114,
        0.03827835991978645,
        0.019003991037607193,
        0.03058631345629692,
        0.013876751065254211,
        0.0036329366266727448,
        -0.009936299175024033,
        -0.01870567537844181,
        -0.010880779474973679,
        -0.0413801409304142,
        0.036096278578042984,
        0.017100200057029724,
        0.030714843422174454,
        0.041975196450948715,
        0.041170913726091385,
        -0.03379952535033226,
        0.020973768085241318,
        0.032562386244535446,
        0.03906162455677986,
        0.0032010041177272797,
        0.016143716871738434,
        0.025949660688638687,
        -0.014014873653650284,
        -0.02971586026251316,
        0.008985716849565506,
        0.0053684525191783905,
        0.014508947730064392,
        -0.03872866928577423,
        0.039251092821359634,
        0.024985458701848984,
        -0.0336148738861084,
        0.03843462094664574,
        -0.01861441694200039,
        0.03389497473835945,
        -0.00958903506398201,
        0.008356306701898575,
        -0.023124899715185165,
        0.015735380351543427,
        0.028026659041643143,
        -0.011041514575481415,
        0.022915739566087723,
        0.02777065709233284,
        -0.009865880012512207,
        -0.003543529659509659,
        -0.024248208850622177,
        0.02788519486784935,
        -0.026214981451630592,
        0.04042331501841545,
        -0.002091936767101288,
        -0.01592588983476162,
        0.02344808354973793,
        0.01975375786423683,
        -0.011894499883055687,
        -0.011485002934932709,
        -0.028950542211532593,
        0.009549427777528763,
        0.009571351110935211,
        0.003300279378890991,
        -0.042071159929037094,
        0.00923958420753479,
        0.00293857604265213,
        0.012970011681318283,
        0.04123194143176079,
        0.0359945185482502,
        0.039240580052137375,
        0.0020108595490455627,
        0.03461961820721626,
        0.011729732155799866,
        -0.040279876440763474,
        0.03601495549082756,
        0.03323599323630333,
        0.019918497651815414,
        0.03755980357527733,
        -0.005247596651315689,
        -0.019958756864070892,
        0.038079749792814255,
        -0.003772493451833725,
        0.017245110124349594,
        -0.0038987770676612854,
        -0.01184808649122715,
        0.024866659194231033,
        -0.025295600295066833,
        -0.03772254288196564,
        0.03182218596339226,
        -0.033447593450546265,
        -0.015081431716680527,
        -0.0051344409584999084,
        0.012416254729032516,
        0.02660936489701271,
        0.0013425908982753754,
        0.022555436939001083,
        0.030199099332094193,
        0.03165099397301674,
        -0.022541582584381104,
        -0.006183288991451263,
        0.03358134999871254
      ],
      [
        0.018885347992181778,
        -0.02810092270374298,
        -0.02279561199247837,
        0.030042972415685654,
        -6.668269634246826e-06,
        -0.03908229619264603,
        0.02625979110598564,
        0.034935113042593,
        -0.0008630380034446716,
        -0.021522903814911842,
        -0.006066329777240753,
        -0.030207514762878418,
        0.037852171808481216,
        0.03879084065556526,
        0.030430857092142105,
        0.011850278824567795,
        -0.02094983123242855,
        0.02144073322415352,
