{
  "backend": "torch",
  "state_size": 546,
  "option_size": 109,
  "hidden_size": 24,
  "architecture": "legacy_v1",
  "device_preference": "cpu",
  "state_dict": {
    "joint_bias": [
      0.514793872833252,
      0.5442790389060974,
      -0.5244012475013733,
      -0.660309374332428,
      0.7092500925064087,
      -0.5362370610237122,
      -0.5409578680992126,
      0.6452553868293762,
      0.6594119071960449,
      -0.5091260075569153,
      0.7025228142738342,
      0.3717958927154541,
      0.39742037653923035,
      0.5641818642616272,
      0.6831393241882324,
      0.60487961769104,
      0.6174450516700745,
      -0.6444562077522278,
      0.6541603207588196,
      0.5664061307907104,
      -0.4784643054008484,
      -0.5242506861686707,
      -0.4356091320514679,
      0.6190299391746521
    ],
    "state_linear.weight": [
      [
        0.2631825804710388,
        -0.6899077296257019,
        -0.30595895648002625,
        -0.722927987575531,
        0.05321453884243965,
        -0.5376431345939636,
        -0.5245178937911987,
        0.18223081529140472,
        -0.2891034781932831,
        -0.39810582995414734,
        -0.16326338052749634,
        -0.15823832154273987,
        0.7053447961807251,
        0.33785954117774963,
        -0.5099786520004272,
        -0.24766388535499573,
        0.14782314002513885,
        -0.5616575479507446,
        -0.24523217976093292,
        -0.6638612747192383,
        -0.14572107791900635,
        -0.8829652070999146,
        -0.08653892576694489,
        0.08924362063407898,
        -0.35111984610557556,
        -0.04941003769636154,
        -0.6828819513320923,
        -1.1899608373641968,
        -0.2234288603067398,
        -0.18612901866436005,
        -0.5933529734611511,
        -0.48205772042274475,
        -0.41900911927223206,
        -1.8132680654525757,
        0.4196278154850006,
        0.22760646045207977,
        0.6386778354644775,
        -0.5026637315750122,
        0.11239510774612427,
        -0.4016609191894531,
        -0.8990769982337952,
        0.1348695158958435,
        0.2882187068462372,
        -0.37166622281074524,
        0.042271364480257034,
        0.013041261583566666,
        0.029329191893339157,
        0.01727937161922455,
        -0.053536709398031235,
        -0.44508641958236694,
        -0.09627951681613922,
        -0.5664528608322144,
        -0.12727029621601105,
        -0.2637989819049835,
        -0.7071915864944458,
        0.04496869444847107,
        -0.3942362070083618,
        0.036923713982105255,
        -0.2765766978263855,
        -0.06389537453651428,
        0.1605680137872696,
        -0.04384802654385567,
        -0.42559975385665894,
        -0.10833679884672165,
        0.1653732806444168,
        -0.6624350547790527,
        -0.4986765384674072,
        -0.9302634596824646,
        -0.4597126841545105,
        -0.7051666378974915,
        -0.17542783915996552,
        0.8725841045379639,
        -0.6716796159744263,
        0.8244011402130127,
        -0.56533282995224,
        -0.20832374691963196,
        -0.32751864194869995,
        -0.019583696499466896,
        -0.5620014071464539,
        -0.607416033744812,
        -0.3625718355178833,
        -1.215765118598938,
        -0.03523695841431618,
        0.5555552244186401,
        0.427417516708374,
        0.12197396904230118,
        -0.11199334263801575,
        -0.5402820706367493,
        -0.03658691421151161,
        -0.16121479868888855,
        0.16445639729499817,
        0.26734957098960876,
        0.020473141223192215,
        -0.005075026303529739,
        -0.03375384584069252,
        0.012901641428470612,
        -0.07214851677417755,
        -0.6682960987091064,
        -0.20058751106262207,
        -0.3967301845550537,
        -0.11431071907281876,
        -0.47446173429489136,
        -0.6833314299583435,
        0.09888986498117447,
        -0.2533206045627594,
        -0.1606045514345169,
        -0.2541528642177582,
        -0.2810695171356201,
        0.13014332950115204,
        0.002302741166204214,
        -0.3878171741962433,
        -0.3244132995605469,
        0.3615451157093048,
        -0.2665567398071289,
        0.1217484325170517,
        -0.5456679463386536,
        -0.805198073387146,
        -0.8588964343070984,
        -0.18325351178646088,
        0.08979960530996323,
        -0.19039221107959747,
        -0.44577857851982117,
        -0.5641729831695557,
        -0.5898635983467102,
        0.02454129233956337,
        0.0355188325047493,
        -0.8219828605651855,
        0.15586361289024353,
        -0.28734204173088074,
        -1.0444365739822388,
        0.020519329234957695,
        0.6320554614067078,
        -0.24990279972553253,
        -0.06446003168821335,
        -0.05838438495993614,
        -0.4599003493785858,
        -0.5116769075393677,
        0.30018895864486694,
        0.030801353976130486,
        -0.2407006323337555,
        -0.020756885409355164,
        -0.015310999006032944,
        -0.02170223742723465,
        0.03689703717827797,
        -0.26101285219192505,
        -0.3978327810764313,
        -0.5335819125175476,
        -0.08476836234331131,
        0.5660062432289124,
        0.0005220696330070496,
        -0.2186708003282547,
        0.3431045114994049,
        -0.12964637577533722,
        -0.39624595642089844,
        -0.2922581434249878,
        0.25609371066093445,
        -0.04843512177467346,
        -0.24961374700069427,
        -0.025833144783973694,
        0.029844585806131363,
        0.022007260471582413,
        -0.03430987149477005,
        0.028343554586172104,
        -0.02925005368888378,
        -0.028074173256754875,
        -0.012409424409270287,
        -0.45837604999542236,
        0.288320928812027,
        -0.12752990424633026,
        0.15626564621925354,
        -0.18097864091396332,
        -0.4467712938785553,
        -0.12904410064220428,
        0.040332671254873276,
        -0.027691613882780075,
        -0.2040390521287918,
        0.3137635588645935,
        -0.7956439852714539,
        -0.09223051369190216,
        -0.41085079312324524,
        0.001102149486541748,
        0.036835916340351105,
        0.11996973305940628,
        -0.0011582672595977783,
        0.32824745774269104,
        -0.018524276092648506,
        0.029904615134000778,
        -0.5587478876113892,
        -0.036590296775102615,
        0.02121609076857567,
        0.027511324733495712,
        0.004370983690023422,
        -0.16713790595531464,
        -0.6890356540679932,
        -0.3899458348751068,
        -0.3065509498119354,
        -0.1957164704799652,
        -0.8369808197021484,
        -0.9422363042831421,
        -0.14857321977615356,
        -0.28588831424713135,
        -0.4909026622772217,
        -0.5424710512161255,
        0.022165460512042046,
        0.09220132976770401,
        -0.02131233550608158,
        -0.8589076399803162,
        -0.39351972937583923,
        -0.14021393656730652,
        -0.4994126558303833,
        0.11263589560985565,
        -0.8199314475059509,
        0.2330837845802307,
        -0.6601411700248718,
        -0.07799838483333588,
        0.567046582698822,
        -0.17733153700828552,
        0.3060815632343292,
        -0.46577325463294983,
        -0.13212303817272186,
        -0.40291666984558105,
        -0.6569463014602661,
        -0.7134481072425842,
        -0.5088408589363098,
        -0.40417200326919556,
        -0.6519473791122437,
        -0.14149406552314758,
        0.1833067685365677,
        0.9053182601928711,
        0.28102239966392517,
        0.5720103979110718,
        -0.3984747529029846,
        -0.39511045813560486,
        0.10085504502058029,
        0.2010139673948288,
        0.03816830366849899,
        -0.36857718229293823,
        0.18058517575263977,
        -0.9396507143974304,
        0.07020927220582962,
        -0.026148494333028793,
        0.18135350942611694,
        0.12342086434364319,
        0.7448322176933289,
        -0.4155392348766327,
        0.2136809527873993,
        -0.15522019565105438,
        -0.14581073820590973,
        -0.21414172649383545,
        0.2803547978401184,
        -0.3282942771911621,
        0.3999248445034027,
        -0.1498653143644333,
        -0.21393105387687683,
        0.01158349122852087,
        0.08414861559867859,
        0.1946965456008911,
        -0.6325559020042419,
        -1.1764451265335083,
        -0.668254017829895,
        0.05407804623246193,
        -0.6713775992393494,
        0.04974786564707756,
        0.5919410586357117,
        0.09030205756425858,
        -0.11935971677303314,
        0.11867822706699371,
        0.8890880346298218,
        -0.9420510530471802,
        -0.05615951493382454,
        -0.08369443565607071,
        -0.09173648804426193,
        -0.2475239634513855,
        0.3376624882221222,
        -0.043599728494882584,
        -0.047601182013750076,
        -0.47833698987960815,
        0.10308448225259781,
        0.08964569866657257,
        0.01712879166007042,
        -0.139275461435318,
        0.44699493050575256,
        -0.1525324434041977,
        -0.00990083534270525,
        0.028559718281030655,
        -0.026507828384637833,
        -0.009683821350336075,
        0.0038009360432624817,
        0.019389931112527847,
        0.2226260006427765,
        0.5549615621566772,
        0.3062657117843628,
        -0.11022679507732391,
        0.4099787175655365,
        0.43861186504364014,
        -0.17674289643764496,
        0.1626286506652832,
        0.16946278512477875,
        0.13764134049415588,
        0.5738989114761353,
        -0.07540766149759293,
        -0.043169811367988586,
        0.33361610770225525,
        0.3578847050666809,
        -0.3346462845802307,
        -0.5318995714187622,
        -0.7819579839706421,
        -0.6761389970779419,
        -0.5981438159942627,
        0.7719787955284119,
        -0.4002557098865509,
        0.013888501562178135,
        -0.2815631031990051,
        -0.37826934456825256,
        0.23337121307849884,
        0.055219825357198715,
        0.3121625781059265,
        0.41186726093292236,
        -0.33629393577575684,
        0.13023865222930908,
        0.2955450117588043,
        0.5407419800758362,
        -0.07458332180976868,
        0.6395509839057922,
        -0.5365822315216064,
        0.5158651471138,
        0.014891618862748146,
        -0.08701858669519424,
        0.19348789751529694,
        -0.23549878597259521,
        -0.47953033447265625,
        -0.08647885173559189,
        0.0306679867208004,
        -0.009433392435312271,
        0.018242090940475464,
        0.03262706473469734,
        -0.06649962067604065,
        0.296877384185791,
        0.4509258568286896,
        0.9297571182250977,
        -0.04509013146162033,
        0.8378382325172424,
        0.26188066601753235,
        0.3535170257091522,
        -0.5922541618347168,
        0.16071012616157532,
        0.309617817401886,
        0.15914413332939148,
        -0.19817841053009033,
        -0.19284482300281525,
        0.8799993991851807,
        0.48583486676216125,
        0.22433827817440033,
        -0.26041239500045776,
        -0.5464182496070862,
        -0.7673987746238708,
        0.07453373819589615,
        0.705049991607666,
        -0.01005810871720314,
        -0.03658099099993706,
        -1.1945970058441162,
        -0.04446198046207428,
        0.09085123240947723,
        0.1959885060787201,
        0.23800209164619446,
        -0.3253917098045349,
        -0.2466612160205841,
        0.41178151965141296,
        0.24348153173923492,
        0.657164990901947,
        -0.1618441939353943,
        0.34980466961860657,
        -0.7211388349533081,
        0.5211883187294006,
        -0.3873467743396759,
        0.0857853889465332,
        0.16482390463352203,
        0.010160691104829311,
        -0.33696067333221436,
        -0.012827451340854168,
        0.010956402868032455,
        0.04099153354763985,
        0.015689034014940262,
        -0.010873585939407349,
        0.03598086163401604,
        0.036176811903715134,
        -0.007644616067409515,
        0.039441321045160294,
        0.01574370265007019,
        -0.0031410828232765198,
        0.025927212089300156,
        0.017281580716371536,
        -0.028742590919137,
        -0.0408913753926754,
        -0.019955966621637344,
        -0.008962266147136688,
        0.033707644790410995,
        0.02372189238667488,
        0.0048993900418281555,
        0.017589177936315536,
        -0.006538968533277512,
        -0.030884474515914917,
        -0.020214280113577843,
        0.02849430963397026,
        0.025817375630140305,
        0.03422116860747337,
        -0.0412583127617836,
        -0.026400942355394363,
        0.027907345443964005,
        0.0358235128223896,
        0.03587549552321434,
        -0.004157885909080505,
        -0.01949119195342064,
        -0.008508812636137009,
        -0.028767120093107224,
        -0.03233232721686363,
        0.04113691672682762,
        -0.02356589026749134,
        -0.009149167686700821,
        0.018191490322351456,
        -0.014710672199726105,
        0.038556214421987534,
        0.004591718316078186,
        -0.03363313898444176,
        0.023935984820127487,
        0.01972712203860283,
        0.037586603313684464,
        -0.019320718944072723,
        -0.012062769383192062,
        0.022860895842313766,
        -0.00955682247877121,
        0.02071230486035347,
        -0.11151459068059921,
        0.05541883781552315,
        0.01884223334491253,
        0.1079171821475029,
        0.2702081799507141,
        0.03207160159945488,
        -0.620851993560791,
        0.0002686122606974095,
        -1.1444212198257446,
        0.11391817778348923,
        0.2494010180234909,
        -0.46510350704193115,
        -0.21114285290241241,
        -0.108224056661129,
        0.01269550621509552,
        -0.023991359397768974,
        -0.023563986644148827,
        -0.02066291682422161,
        0.03606836125254631,
        -0.21006257832050323,
        0.029959451407194138,
        0.015492841601371765,
        0.3026655316352844,
        -0.02067597210407257,
        0.033285532146692276,
        0.1443958580493927,
        -0.5087347030639648,
        0.4461332857608795,
        -0.007667457219213247,
        0.015052668750286102,
        -0.02874625474214554,
        -0.017101604491472244,
        -0.5494970083236694,
        0.25589630007743835,
        0.13034512102603912,
        -0.40056660771369934,
        -0.002056322991847992,
        0.16151252388954163,
        -0.8771392703056335,
        0.004807773977518082,
        0.14094382524490356,
        -0.11673756688833237,
        0.02535829320549965,
        0.3881198763847351,
        0.023574378341436386,
        -0.02348751202225685,
        0.012411434203386307,
        0.04003647342324257,
        0.9008254408836365,
        0.9399904012680054,
        1.7015538215637207,
        0.016764342784881592,
        0.11151876300573349,
        0.921058177947998,
        -0.13196663558483124,
        -0.2690185606479645,
        0.03833892196416855,
        0.4929450452327728,
        -0.3722839951515198,
        0.39108845591545105,
        0.02649042382836342,
        0.007404383271932602,
        0.5223929286003113,
        0.4361225962638855,
        0.006097445264458656,
        -0.6411982774734497,
        -0.9572295546531677,
        0.012097373604774475,
        -0.2314661145210266,
        -0.11660747230052948,
        -0.02666860818862915,
        -0.036984819918870926,
        0.005094405263662338,
        0.005884066224098206,
        1.4677188396453857,
        0.027581948786973953,
        0.11591553688049316,
        -0.3220425546169281,
        -0.2709166407585144,
        -0.03988155722618103,
        0.17068730294704437,
        -0.010545700788497925,
        1.050763726234436,
        0.7511850595474243,
        -0.4318625032901764,
        0.00295913964509964,
        -0.7450609803199768,
        0.00885141920298338,
        -0.2570575773715973,
        -0.5247593522071838,
        -0.1333886981010437,
        0.009875435382127762,
        -0.8849460482597351,
        0.008396591059863567,
        0.9275172352790833,
        -0.042173366993665695,
        -0.25188228487968445,
        0.016614461317658424,
        -1.532849669456482,
        -0.10042440891265869,
        -0.026599640026688576,
        -0.1350969821214676,
        0.43329793214797974,
        0.19419284164905548,
        -0.2845734655857086,
        0.2679557800292969,
        -0.03011375293135643,
        -0.04873574525117874,
        -0.18463732302188873,
        -0.0854492336511612,
        -0.058216504752635956,
        0.036054130643606186,
        0.9126630425453186,
        -0.13928306102752686
      ],
      [
        0.1262735277414322,
        -1.3695776462554932,
        -1.0687185525894165,
        -1.0312858819961548,
        0.26753029227256775,
        -1.2730661630630493,
        -0.8897185921669006,
        -0.10778626054525375,
        -0.6788865923881531,
        -0.6938308477401733,
        -0.5800667405128479,
        -0.5090264081954956,
        0.6681395769119263,
        0.28243663907051086,
        -0.46942785382270813,
        -0.9204832911491394,
        0.24866223335266113,
        -0.9577161073684692,
        -0.6922069191932678,
        -0.636572539806366,
        -0.4656345546245575,
        -1.3032035827636719,
        -0.49377718567848206,
        0.14853842556476593,
        0.013215909712016582,
        -0.6059880256652832,
        -1.1730616092681885,
        -1.1048582792282104,
        -1.378079891204834,
        0.06240828335285187,
        -0.7243031859397888,
        -1.1172765493392944,
        -0.44437772035598755,
        -1.5498569011688232,
        0.3947035074234009,
        -0.19168607890605927,
        0.9409119486808777,
        -1.1503353118896484,
        -0.41902631521224976,
        -0.5021204352378845,
        -0.854035496711731,
        0.09203758835792542,
        0.1711065173149109,
        -0.9834740161895752,
        -0.0405387282371521,
        -0.0008882023394107819,
        0.03744478151202202,
        0.023661267012357712,
        -0.021174196153879166,
        -0.4947064518928528,
        -0.742267370223999,
        -0.5995930433273315,
        0.22414033114910126,
        -0.27683842182159424,
        -0.7036188244819641,
        0.14936980605125427,
        -0.19158074259757996,
        -0.14354208111763,
        -0.1721268594264984,
        -0.08606013655662537,
        0.296390175819397,
        0.02813071943819523,
        -0.13829857110977173,
        -0.0959138423204422,
        0.31920042634010315,
        -1.479225516319275,
        -0.26951274275779724,
        -0.7057756185531616,
        -0.7096611261367798,
        -1.111796498298645,
        -0.6305877566337585,
        0.3450694680213928,
        0.570570707321167,
        -0.2773912847042084,
        -0.5393257141113281,
        -0.01636139675974846,
        -0.4035893380641937,
        0.18044444918632507,
        -0.8782115578651428,
        -1.3914059400558472,
        -0.0476231575012207,
        -1.408656120300293,
        0.06392490863800049,
        0.27175867557525635,
        1.7110329866409302,
        -0.1779596358537674,
        -0.32715368270874023,
        -0.4005601406097412,
        0.48359358310699463,
        -0.2527960538864136,
        1.2315094470977783,
        -0.4249056875705719,
        0.02228419855237007,
        -0.036989979445934296,
        0.01248672604560852,
        -0.016555845737457275,
        -0.029145119711756706,
        -0.9049739241600037,
        -0.7955197691917419,
        -0.48437970876693726,
        0.12687380611896515,
        -0.41120707988739014,
        -0.6406107544898987,
        0.2834731638431549,
        -0.23147334158420563,
        -0.08643922954797745,
        -0.39439404010772705,
        -0.020304877310991287,
        0.2336845099925995,
        -0.017299944534897804,
        -0.3530048727989197,
        -0.3113813102245331,
        0.4488047957420349,
        -0.8556923270225525,
        0.09351553022861481,
        -0.10182454437017441,
        -0.46320840716362,
        -1.461143136024475,
        -0.41413354873657227,
        -0.15492182970046997,
        0.35211026668548584,
        -0.8013322353363037,
        -0.7124682664871216,
        -0.519188642501831,
        -0.4159151613712311,
        0.44213390350341797,
        -0.9616965651512146,
        -1.4735050201416016,
        -0.2301943451166153,
        -0.8182111382484436,
        0.053346678614616394,
        0.4364930987358093,
        0.7132014632225037,
        -0.27546483278274536,
        -0.12473048269748688,
        -0.42554548382759094,
        0.12446603924036026,
        0.7119702100753784,
        0.7305769920349121,
        -0.5243102312088013,
        -0.020804794505238533,
        0.033185627311468124,
        0.022935394197702408,
        -0.00888492539525032,
        -0.504234790802002,
        -0.7479230761528015,
        -0.5325120687484741,
        -0.08338470011949539,
        0.27682530879974365,
        0.03846190497279167,
        0.08121691644191742,
        -0.2942769527435303,
        -0.22763600945472717,
        -0.6167254447937012,
        -0.16850873827934265,
        0.22820289433002472,
        -0.151403546333313,
        -0.539889395236969,
        0.027328554540872574,
        0.001134585589170456,
        0.03416570648550987,
        0.035544503480196,
        0.022749703377485275,
        -0.183216854929924,
        0.0023292824625968933,
        0.022854860872030258,
        -0.09435272961854935,
        0.4437353014945984,
        -0.022023318335413933,
        0.13679026067256927,
        -0.4201678931713104,
        -0.2677852213382721,
        -0.07885835319757462,
        0.0023626163601875305,
        0.01385071873664856,
        -0.3064592480659485,
        0.17100928723812103,
        -0.5774998664855957,
        -0.3156675100326538,
        -0.15323834121227264,
        -0.01573197916150093,
        -0.14356695115566254,
        -0.1275767683982849,
        0.029041748493909836,
        -0.38672783970832825,
        0.003063046606257558,
        0.03866462782025337,
        -0.6036837697029114,
        0.010437842458486557,
        -0.007969636470079422,
        -0.0008533596992492676,
        -0.021476631984114647,
        -0.09224671870470047,
        -1.1187918186187744,
        -0.4888400435447693,
        0.03417984023690224,
        -0.15030249953269958,
        -1.3073041439056396,
        -0.8353248238563538,
        0.010729402303695679,
        -0.4539666473865509,
        -0.252571165561676,
        -0.5483856201171875,
        0.020415475592017174,
        0.21516400575637817,
        0.09277471154928207,
        -1.126660704612732,
        -0.5870075225830078,
        0.29722830653190613,
        -1.3057483434677124,
        -0.3117603659629822,
        -0.3473464846611023,
        -0.07737860828638077,
        -1.2032402753829956,
        -0.5838690400123596,
        -0.1807505041360855,
        0.00472068740054965,
        -0.32865557074546814,
        -0.8563635349273682,
        -0.14673098921775818,
        -0.368750661611557,
        0.08465331792831421,
        -0.7090514302253723,
        -0.9549175500869751,
        -0.20530912280082703,
        -0.39432981610298157,
        -0.03186360374093056,
        -0.4786144196987152,
        1.6707834005355835,
        0.13299168646335602,
        0.3723776936531067,
        -0.33133357763290405,
        -0.2823488414287567,
        0.5138464570045471,
        0.38603031635284424,
        -0.2987234890460968,
        -0.161129429936409,
        0.3071063756942749,
        -0.6787711381912231,
        0.3757370710372925,
        -0.015959085896611214,
        0.16421307623386383,
        0.13862812519073486,
        0.013558652251958847,
        -0.05033368617296219,
        0.2633431851863861,
        -0.17366302013397217,
        -0.04571787267923355,
        -0.2908730208873749,
        0.3170880377292633,
        0.3238706588745117,
        -0.27291038632392883,
        0.09866276383399963,
        -0.2010856717824936,
        -0.0956881195306778,
        0.09986156225204468,
        -0.27337586879730225,
        -0.1934863179922104,
        -0.6837697625160217,
        -0.43895840644836426,
        -0.49566736817359924,
        -0.22690071165561676,
        0.12077279388904572,
        0.4577886164188385,
        0.049934953451156616,
        -0.6307762265205383,
        0.4135362505912781,
        0.41490060091018677,
        -0.4724366366863251,
        -0.20869149267673492,
        -0.553961992263794,
        0.08698516339063644,
        -0.1325080692768097,
        0.09870563447475433,
        -0.0075770653784275055,
        -0.25165656208992004,
        -0.3800533711910248,
        -0.37987467646598816,
        -0.2127740979194641,
        -0.16833791136741638,
        -0.005595828406512737,
        -0.4179898500442505,
        0.004052918404340744,
        0.01609167642891407,
        0.03864600136876106,
        0.0232265405356884,
        -0.03198842704296112,
        -0.009025715291500092,
        -0.07203849405050278,
        0.3230167329311371,
        0.8935911059379578,
        0.99151611328125,
        -0.2155485898256302,
        0.5857398509979248,
        0.5677533745765686,
        -0.49318766593933105,
        0.00034249629243277013,
        0.6617682576179504,
        0.6020901799201965,
        -0.07319556176662445,
        -0.23636038601398468,
        -0.18004761636257172,
        0.5930569171905518,
        0.2944626808166504,
        -0.944651186466217,
        -0.3108275830745697,
        -0.9632229804992676,
        -0.37429019808769226,
        0.08855701237916946,
        0.8005779385566711,
        -0.18611544370651245,
        0.2069888710975647,
        -1.8007667064666748,
        -0.4714711606502533,
        0.4924508035182953,
        0.2914958894252777,
        -0.3212217688560486,
        -0.31374576687812805,
        0.658832848072052,
        0.789413571357727,
        0.26574334502220154,
        1.2394917011260986,
        -0.08180750906467438,
        0.05698363110423088,
        -1.8115754127502441,
        -0.16831564903259277,
        0.1364026516675949,
        -0.02263312041759491,
        0.29021400213241577,
        -0.7696375250816345,
        -0.9361976981163025,
        0.6059214472770691,
        0.0182422436773777,
        -0.0033719539642333984,
        -0.015295188874006271,
        -0.012652819976210594,
        -0.054881490767002106,
        0.866647481918335,
        1.0961825847625732,
        1.8630354404449463,
        0.08890724927186966,
        0.8365756869316101,
        0.6791401505470276,
        0.14029043912887573,
        -0.372808039188385,
        0.5281548500061035,
        0.9012851119041443,
        -0.12242334336042404,
        -0.2717300355434418,
        -0.20255228877067566,
        1.0191173553466797,
        0.5461174249649048,
        -0.6331015825271606,
        -0.021431585773825645,
        -0.6685308814048767,
        -0.5596956014633179,
        0.42257094383239746,
        1.5928986072540283,
        -0.1348157525062561,
        -0.5046033263206482,
        -1.7119925022125244,
        0.14472153782844543,
        0.6786395907402039,
        0.28189605474472046,
        -0.24825239181518555,
        -0.34419119358062744,
        0.46130529046058655,
        0.23049239814281464,
        0.3709206283092499,
        1.5679621696472168,
        -0.19236372411251068,
        0.0891675278544426,
        -1.6798946857452393,
        -0.22041310369968414,
        -0.5187727212905884,
        0.27881690859794617,
        0.3356546461582184,
        -0.1907462328672409,
        -0.8157601952552795,
        0.7842665314674377,
        0.023838546127080917,
        -0.03488779813051224,
        0.030525129288434982,
        -0.011143434792757034,
        0.007936198264360428,
        -0.014852229505777359,
        -0.008810453116893768,
        -0.03709503263235092,
        -0.0028630197048187256,
        0.035275209695100784,
        -0.03653440624475479,
        0.025706786662340164,
        -0.03387076035141945,
        -0.03700116276741028,
        0.03274836018681526,
        0.0007654428482055664,
        0.04229157045483589,
        -0.02281145192682743,
        -0.009959757328033447,
        -0.01547214575111866,
        0.005756121128797531,
        0.009389296174049377,
        -0.03745428845286369,
        -0.026818612590432167,
        -0.0020454488694667816,
        -0.010730024427175522,
        0.04204045608639717,
        -0.002383589744567871,
        -0.007620181888341904,
        0.041232090443372726,
        0.01528741791844368,
        -0.03517703339457512,
        -0.03543027117848396,
        0.004265386611223221,
        -0.013635838404297829,
        0.005652241408824921,
        0.01319393515586853,
        0.017989754676818848,
        -0.03190681338310242,
        0.036043282598257065,
        -0.014977296814322472,
        0.01920202374458313,
        0.02740752324461937,
        0.01660538837313652,
        0.013912152498960495,
        -0.03559517860412598,
        -0.02866850048303604,
        -0.04090474173426628,
        -0.01211470551788807,
        -0.0019533932209014893,
        -0.03504432737827301,
        0.006204672157764435,
        0.2673901915550232,
        0.6018666625022888,
        0.7656044363975525,
        0.8044779896736145,
        -0.1462552696466446,
        -0.012393124401569366,
        0.23258119821548462,
        -0.08504992723464966,
        -0.8403199315071106,
        0.0679980218410492,
        0.9455767869949341,
        0.009274550713598728,
        -0.21014617383480072,
        0.2617117762565613,
        -0.00834491103887558,
        -0.009257566183805466,
        0.0376591719686985,
        -0.03848051652312279,
        -0.006477769464254379,
        -0.23467351496219635,
        0.029450219124555588,
        -0.030414516106247902,
        0.48219460248947144,
        -0.16200090944766998,
        0.17656148970127106,
        0.20006611943244934,
        0.18338119983673096,
        0.9557954668998718,
        0.06850050389766693,
        -0.04054087772965431,
        0.03454439714550972,
        -0.14638523757457733,
        -0.019809788092970848,
        0.6921722888946533,
        0.20625315606594086,
        0.156473308801651,
        0.022596042603254318,
        0.035898324102163315,
        -0.8007777333259583,
        0.03050968423485756,
        0.034184448421001434,
        -0.3427872657775879,
        0.013069458305835724,
        0.7504807114601135,
        2.7593225240707397e-05,
        -0.03510889783501625,
        -0.0076507143676280975,
        0.01541130244731903,
        0.7401643395423889,
        0.9847255349159241,
        1.8147282600402832,
        0.020123910158872604,
        0.17750480771064758,
        0.8376438617706299,
        -0.01600043475627899,
        -0.3796515166759491,
        0.3061712682247162,
        0.12836742401123047,
        0.41611406207084656,
        -0.46274739503860474,
        -0.008450362831354141,
        0.006850983947515488,
        0.6928018927574158,
        -0.1640257090330124,
        0.26200130581855774,
        0.6610754728317261,
        -0.7026640772819519,
        -0.01153532788157463,
        -0.32114696502685547,
        1.1513054370880127,
        0.006681118160486221,
        -0.020475788041949272,
        -0.007560864090919495,
        0.018056578934192657,
        1.8834421634674072,
        -0.002739854156970978,
        0.21587233245372772,
        -0.6261098980903625,
        -0.0015606166562065482,
        0.011705789715051651,
        0.41643866896629333,
        -0.03848796710371971,
        0.7206761240959167,
        0.7511369585990906,
        -1.9791882038116455,
        -0.00201202929019928,
        0.07931239157915115,
        -0.04829195514321327,
        0.0365876741707325,
        -0.9489064812660217,
        -0.42707568407058716,
        -0.015746386721730232,
        -0.340394526720047,
        -0.44857507944107056,
        0.8381702303886414,
        -0.005694963037967682,
        -0.14195245504379272,
        0.12004601955413818,
        -2.11740779876709,
        -0.03114217147231102,
        -0.2659400701522827,
        -0.10583565384149551,
        -0.06500408798456192,
        -0.26689013838768005,
        0.10755138844251633,
        0.1757708340883255,
        -0.04835774376988411,
        -0.004776348359882832,
        -0.10487807542085648,
        0.2632518410682678,
        -0.06088625267148018,
        -0.07994275540113449,
        0.7194334864616394,
        -0.2225283533334732
      ],
      [
        -0.21760518848896027,
        0.9606148600578308,
        0.5113810300827026,
        0.9973652958869934,
        -0.12057582288980484,
        0.7872700691223145,
        0.7764829993247986,
        -0.029994407668709755,
        0.5568999648094177,
        0.5880463719367981,
        0.3912053108215332,
        0.18509812653064728,
        -0.677484929561615,
        -0.3195589780807495,
        0.2785555422306061,
        0.5202551484107971,
        -0.396496444940567,
        0.18881690502166748,
        0.9792027473449707,
        0.3654992878437042,
        0.6308159232139587,
        1.1501529216766357,
        0.3398977816104889,
        0.3629966080188751,
        -0.06504954397678375,
        0.3342440724372864,
        0.6657387614250183,
        1.2859693765640259,
        0.7286038398742676,
        0.17671151459217072,
        0.8525333404541016,
        0.6367215514183044,
        0.44887134432792664,
        1.6175988912582397,
        -0.42239782214164734,
        -0.056502968072891235,
        -0.7899947166442871,
        0.9561710953712463,
        0.1999475061893463,
        0.5744314789772034,
        1.1018379926681519,
        -0.19777336716651917,
        -0.2816728353500366,
        0.6487283110618591,
        0.021387819200754166,
        0.04119562730193138,
        0.03761514648795128,
        0.02145017310976982,
        0.04155083745718002,
        0.5461102724075317,
        0.434884637594223,
        0.538335919380188,
        0.011097458191215992,
        0.4143221080303192,
        0.7327743172645569,
        -0.20653179287910461,
        0.16028708219528198,
        0.39177894592285156,
        0.17346180975437164,
        -0.005190173629671335,
        -0.24218541383743286,
        -0.022885790094733238,
        0.4097510278224945,
        0.005920310039073229,
        -0.5194116830825806,
        0.6166558861732483,
        1.0984129905700684,
        0.46146807074546814,
        0.7862844467163086,
        0.6307377815246582,
        0.3096189498901367,
        -0.4094074070453644,
        0.36865368485450745,
        -0.8741095662117004,
        0.7172206044197083,
        0.36945682764053345,
        0.5497781038284302,
        0.04846850782632828,
        0.883031964302063,
        0.3383897840976715,
        0.17919692397117615,
        1.3963429927825928,
        -0.06112236902117729,
        -0.3171999752521515,
        -0.9780777096748352,
        0.417606920003891,
        0.10135643929243088,
        0.9423006176948547,
        0.17582562565803528,
        0.2729393541812897,
        -0.6413679718971252,
        -0.4839330315589905,
        -0.02600453607738018,
        0.0367552675306797,
        -0.0160969290882349,
        -0.01871092990040779,
        0.05765770748257637,
        0.8188945651054382,
        0.4725417494773865,
        0.6579948663711548,
        0.11274068057537079,
        0.44896644353866577,
        0.8133137226104736,
        -0.2270612120628357,
        0.39412641525268555,
        0.291111558675766,
        0.5796924829483032,
        -0.21436695754528046,
        -0.2858627438545227,
        -0.020600445568561554,
        0.37572181224823,
        0.2603168189525604,
        -0.6234502196311951,
        0.17529360949993134,
        0.31190189719200134,
        0.10860712826251984,
        0.39687538146972656,
        1.017327070236206,
        0.5020430684089661,
        0.14547240734100342,
        -0.17753131687641144,
        0.2511999309062958,
        0.5843432545661926,
        0.6701215505599976,
        0.3469216823577881,
        0.08717162907123566,
        0.8230253458023071,
        0.06110254302620888,
        0.3139932155609131,
        1.0447824001312256,
        -0.0563872754573822,
        -0.8422060012817383,
        -0.39732587337493896,
        0.5065258145332336,
        0.24684949219226837,
        0.800580620765686,
        0.5988890528678894,
        -0.368964821100235,
        -0.4925693869590759,
        -0.07300344109535217,
        0.030741211026906967,
        -0.008938591927289963,
        0.0418054424226284,
        0.013911034911870956,
        0.22589358687400818,
        0.43485188484191895,
        0.5442091226577759,
        0.09699572622776031,
        -0.21467021107673645,
        -0.04230763763189316,
        0.220840722322464,
        -0.17794068157672882,
        0.3151540458202362,
        0.6768097281455994,
        -0.10741447657346725,
        -0.16618773341178894,
        -0.013254670426249504,
        0.19652366638183594,
        -0.026064487174153328,
        -0.01220129057765007,
        -0.005316242575645447,
        0.018960826098918915,
        0.0202813558280468,
        0.3389674723148346,
        -0.022780535742640495,
        0.02738432213664055,
        0.3714700937271118,
        -0.36131036281585693,
        -0.004208690021187067,
        0.23160502314567566,
        0.4749614894390106,
        0.23033003509044647,
        0.01634986512362957,
        -0.010848090052604675,
        -0.029265448451042175,
        0.37713170051574707,
        -0.20985941588878632,
        0.7829260230064392,
        0.12062891572713852,
        0.10568779706954956,
        -0.035453278571367264,
        0.039802856743335724,
        0.18760323524475098,
        0.009610023349523544,
        -0.18028412759304047,
        0.01169451605528593,
        -0.03666513413190842,
        0.979787290096283,
        -0.01762334816157818,
        0.03943386301398277,
        0.023998688906431198,
        0.015894483774900436,
        0.12873932719230652,
        1.1235578060150146,
        0.4939877390861511,
        0.1598779559135437,
        0.4836743175983429,
        1.333134412765503,
        0.9622350335121155,
        0.03313133120536804,
        0.7318049669265747,
        0.7229650020599365,
        0.7674050331115723,
        -0.02890036627650261,
        -0.1575445532798767,
        -0.01590905338525772,
        1.3419930934906006,
        0.3941248953342438,
        -0.5802072286605835,
        0.47799214720726013,
        0.22180168330669403,
        0.46022361516952515,
        0.30348265171051025,
        0.8294202089309692,
        0.636110782623291,
        -0.41642338037490845,
        0.01463688537478447,
        -0.14847643673419952,
        0.7953659892082214,
        0.4503512978553772,
        0.3561007082462311,
        0.00613161688670516,
        1.1277995109558105,
        0.3241165280342102,
        0.5209682583808899,
        0.7917546033859253,
        0.06172995641827583,
        -0.07316388189792633,
        -1.1778359413146973,
        0.07490693032741547,
        -0.1923549920320511,
        0.6962681412696838,
        0.10239366441965103,
        -0.24174228310585022,
        -0.2691839933395386,
        0.08641792833805084,
        0.25313660502433777,
        -0.39588358998298645,
        0.7976962924003601,
        -0.05752447620034218,
        0.002176924142986536,
        -0.15671156346797943,
        -0.2813281714916229,
        -0.27549272775650024,
        0.34666189551353455,
        -0.2625430226325989,
        0.31525421142578125,
        -0.10463853180408478,
        0.07830348610877991,
        -0.28473421931266785,
        -0.01845727488398552,
        -0.15728671848773956,
        0.2650018632411957,
        0.25558677315711975,
        -0.06451624631881714,
        -0.13730254769325256,
        0.5557049512863159,
        0.1586974859237671,
        1.2189252376556396,
        0.27472227811813354,
        0.15291906893253326,
        -0.07659342885017395,
        0.2893576920032501,
        -0.4061852693557739,
        0.40843465924263,
        0.12684597074985504,
        -0.33494409918785095,
        -0.7998067140579224,
        0.3519384562969208,
        -0.12205377966165543,
        0.48227277398109436,
        0.46054187417030334,
        0.14017297327518463,
        -0.1970020979642868,
        0.050965599715709686,
        -0.3011738061904907,
        0.2317948341369629,
        0.19010739028453827,
        0.04834660887718201,
        -0.099007248878479,
        -0.16840383410453796,
        0.10899731516838074,
        0.05936456471681595,
        0.25816643238067627,
        0.013263937085866928,
        -0.02953403629362583,
        0.011281032115221024,
        0.02014000341296196,
        0.033199068158864975,
        -0.24064229428768158,
        -0.7398196458816528,
        -0.502007007598877,
        0.29244664311408997,
        -0.5922783613204956,
        -0.4441203773021698,
        0.7359417080879211,
        -0.21069848537445068,
        -0.22675074636936188,
        -0.4616231620311737,
        -0.13641145825386047,
        0.17432937026023865,
        0.1271311342716217,
        -0.5111322999000549,
        -0.5138510465621948,
        0.31523850560188293,
        0.8127032518386841,
        0.7331584692001343,
        0.37940847873687744,
        0.005006397143006325,
        -0.9485986232757568,
        0.1907045841217041,
        -0.651846170425415,
        1.205881118774414,
        0.8204232454299927,
        -0.3301142454147339,
        -0.09565660357475281,
        0.3036845326423645,
        0.01238980796188116,
        -0.19007471203804016,
        -0.674278199672699,
        -0.03936532512307167,
        -0.3715214729309082,
        0.08783399313688278,
        -0.415189653635025,
        0.9287543892860413,
        -0.43703314661979675,
        -0.17848186194896698,
        0.10716578364372253,
        -0.6160237193107605,
        0.6755660176277161,
        0.6572596430778503,
        -0.04835490509867668,
        0.0014702565968036652,
        0.02241281047463417,
        0.018487710505723953,
        -0.0016146227717399597,
        0.1403546780347824,
        -0.6485882997512817,
        -0.9120951890945435,
        -1.3364670276641846,
        0.16329365968704224,
        -1.0969069004058838,
        -0.4709007441997528,
        0.03732578083872795,
        0.2501085698604584,
        -0.32115107774734497,
        -0.4541318416595459,
        -0.18316778540611267,
        0.27751263976097107,
        0.22553591430187225,
        -0.6470895409584045,
        -0.8716220855712891,
        0.4777061343193054,
        1.0804741382598877,
        0.5557096600532532,
        0.2101777195930481,
        -0.21746228635311127,
        -0.9684739112854004,
        0.3603517413139343,
        -0.17854565382003784,
        1.893855333328247,
        0.408355176448822,
        -0.47561532258987427,
        -0.45910170674324036,
        0.16225844621658325,
        0.08258283138275146,
        0.02135314978659153,
        -0.5225377082824707,
        -0.27282822132110596,
        -0.8990709781646729,
        0.2066521793603897,
        -0.39340949058532715,
        0.5182980895042419,
        -0.7922329306602478,
        -0.011995960958302021,
        -0.19203728437423706,
        -0.5997052192687988,
        0.597811758518219,
        0.7047884464263916,
        -0.6257240772247314,
        -0.020578857511281967,
        -0.012788515537977219,
        -0.016268329694867134,
        0.0018204860389232635,
        -0.042545683681964874,
        0.03407396748661995,
        -0.0022078603506088257,
        0.007006198167800903,
        0.007320787757635117,
        0.023934897035360336,
        0.017224926501512527,
        0.019068442285060883,
        0.03040611371397972,
        0.040884409099817276,
        -0.01840471662580967,
        0.03213658556342125,
        0.04008610174059868,
        -0.006127212196588516,
        -0.03021780401468277,
        0.008647792041301727,
        -0.01411791704595089,
        0.02158048376441002,
        0.030287977308034897,
        0.013047296553850174,
        -0.014235144481062889,
        0.012303594499826431,
        0.005746860057115555,
        -0.03853011131286621,
        0.03372873738408089,
        -0.038874994963407516,
        -0.0030270181596279144,
        -0.008569419384002686,
        0.011331666260957718,
        0.010532859712839127,
        -0.009075302630662918,
        -0.027165425941348076,
        0.029041718691587448,
        -0.042063649743795395,
        -0.01738724112510681,
        0.015028644353151321,
        -0.02452431246638298,
        0.026475798338651657,
        0.02359027788043022,
        -0.007547762244939804,
        0.039951954036951065,
        -0.017388135194778442,
        0.004545111209154129,
        0.021792713552713394,
        -0.041374485939741135,
        0.0019927285611629486,
        -0.03237799555063248,
        -0.033152054995298386,
        0.12517301738262177,
        0.048004042357206345,
        -0.007899372838437557,
        -0.34227579832077026,
        -0.044708989560604095,
        -0.005292821675539017,
        0.12473171204328537,
        -0.21477119624614716,
        1.0638688802719116,
        0.10762755572795868,
        -0.613919734954834,
        0.26411953568458557,
        -0.07465645670890808,
        0.1494607925415039,
        0.03647821024060249,
        0.016089700162410736,
        -0.04153924807906151,
        -0.03805208206176758,
        -0.023279424756765366,
        0.2491687536239624,
        0.041915591806173325,
        -0.021789206191897392,
        -0.6099675297737122,
        0.13667847216129303,
        -0.062462497502565384,
        -0.26752692461013794,
        0.3079018294811249,
        -0.39128410816192627,
        -0.21113386750221252,
        0.013693701475858688,
        -0.03348834812641144,
        0.01523278933018446,
        0.35185205936431885,
        -0.08987434953451157,
        0.05610426887869835,
        0.17130114138126373,
        -0.016151225194334984,
        -0.148562490940094,
        1.1228379011154175,
        -0.024191806092858315,
        0.04245135933160782,
        0.05303626507520676,
        -0.008796542882919312,
        -0.27633583545684814,
        -0.020440682768821716,
        0.008990619331598282,
        -0.039780884981155396,
        0.0013248920440673828,
        -0.9547995924949646,
        -1.124276041984558,
        -2.0167102813720703,
        0.015884090214967728,
        -0.20354731380939484,
        -1.044325590133667,
        0.18975630402565002,
        0.413525253534317,
        -0.4477151334285736,
        -0.5787782073020935,
        -0.03172895312309265,
        -0.4518645107746124,
        -0.03333988040685654,
        0.022001560777425766,
        -0.661541223526001,
        -0.6331755518913269,
        -0.5209633708000183,
        0.6469607353210449,
        0.6538283228874207,
        -0.028938505798578262,
        -0.04351907595992088,
        -0.6541807651519775,
        0.0018798895180225372,
        0.038179632276296616,
        -0.011422902345657349,
        0.02706800028681755,
        -1.9246279001235962,
        -0.0338662825524807,
        0.013149049133062363,
        0.1512020081281662,
        0.21250484883785248,
        -0.0003963746130466461,
        -0.22974403202533722,
        -0.03211590275168419,
        -1.056463360786438,
        -1.1344473361968994,
        0.9928574562072754,
        0.017710953950881958,
        0.4411020278930664,
        0.14380759000778198,
        -0.04387481510639191,
        0.9179292321205139,
        0.21294617652893066,
        -0.03694441542029381,
        0.7247453331947327,
        0.06590112298727036,
        -1.0100599527359009,
        -0.021953348070383072,
        0.2162853181362152,
        -0.0055010635405778885,
        1.2946751117706299,
        -0.2134455144405365,
        0.21128612756729126,
        -0.22524450719356537,
        -0.4660920798778534,
        -0.1468900889158249,
        0.2156544029712677,
        -0.2330445498228073,
        0.01101270318031311,
        0.002506613964214921,
        0.13599878549575806,
        0.18856965005397797,
        0.07908298820257187,
        0.07789171487092972,
        -0.9192797541618347,
        0.21652553975582123
      ],
      [
        0.718933641910553,
        0.470407634973526,
        0.5824910998344421,
        0.8034067153930664,
        0.44732528924942017,
        0.6341333985328674,
        0.2624552249908447,
        0.3603244125843048,
        -0.12458410859107971,
        0.36801767349243164,
        0.28849974274635315,
        0.5888071060180664,
        0.5795513987541199,
        0.7792544960975647,
        -0.011464242823421955,
        0.6187090277671814,
        0.6686227321624756,
        0.4486987888813019,
        -0.4102047383785248,
        -0.25460273027420044,
        -0.592824399471283,
        -0.4756286144256592,
        -0.8428935408592224,
        0.026534896343946457,
        1.1038408279418945,
        0.853976845741272,
        0.38425880670547485,
        -0.6510195732116699,
        0.26973575353622437,
        0.2781953513622284,
        0.21721051633358002,
        -0.37041592597961426,
        0.37935104966163635,
        -0.6624934077262878,
        0.7103232145309448,
        0.5970125198364258,
        0.8510467410087585,
        0.26906096935272217,
        -0.26600223779678345,
        0.34582051634788513,
        -0.23306550085544586,
        -0.003656807355582714,
        1.0123974084854126,
        0.20350703597068787,
        0.007083579897880554,
        -0.04140157997608185,
        0.013799093663692474,
        0.018841274082660675,
        -0.08024822175502777,
        -0.15275132656097412,
        0.11278221011161804,
        -0.018495380878448486,
        -0.4123933017253876,
        -0.1505262404680252,
        -0.49833738803863525,
        0.46402981877326965,
        -0.14643391966819763,
        -0.5650451183319092,
        -0.37333613634109497,
        0.01584102213382721,
        0.06895913928747177,
        -0.03981378674507141,
        -0.21595560014247894,
        0.14813295006752014,
        0.26181936264038086,
        0.39777669310569763,
        -1.141748070716858,
        0.34541064500808716,
        -1.2296109199523926,
        -0.9563462734222412,
        -0.9058117270469666,
        -0.6473380327224731,
        1.0875859260559082,
        1.1831700801849365,
        -0.4571123719215393,
        -1.277483344078064,
        -0.3998242914676666,
        -0.21459200978279114,
        0.377870112657547,
        0.6023666262626648,
        -0.28882676362991333,
        -0.8193751573562622,
        -0.053714290261268616,
        -0.5807577967643738,
        1.1475403308868408,
        -0.06970984488725662,
        -0.3378135561943054,
        0.04449918866157532,
        -0.7474939227104187,
        0.09193619340658188,
        0.5119674801826477,
        0.8135254979133606,
        -0.008364289999008179,
        -0.019697586074471474,
        0.006095193326473236,
        -0.008912086486816406,
        -0.13050700724124908,
        -0.1648726463317871,
        -0.14304329454898834,
        -0.016121797263622284,
        -0.08110888302326202,
        -0.18880462646484375,
        -0.30314698815345764,
        0.4587899148464203,
        -0.8669775128364563,
        0.011649101972579956,
        -0.46089574694633484,
        -0.13654878735542297,
        -0.1001947745680809,
        -0.11553562432527542,
        0.1287972778081894,
        -0.24633292853832245,
        -0.12483922392129898,
        0.8967763185501099,
        -0.9730138778686523,
        -0.5168787837028503,
        -0.38127198815345764,
        -0.5657636523246765,
        -0.7612389326095581,
        -0.023986028507351875,
        0.9259402751922607,
        1.5503406524658203,
        -0.7707594633102417,
        -0.6220284104347229,
        0.3648446798324585,
        -0.08947303146123886,
        0.18152958154678345,
        -0.08766713738441467,
        -0.09060417860746384,
        -1.2134841680526733,
        -0.13459770381450653,
        -0.49005070328712463,
        0.8151604533195496,
        0.02625543624162674,
        -0.8585296273231506,
        0.1734054684638977,
        -0.22824618220329285,
        0.359922856092453,
        0.5323426127433777,
        0.4413939118385315,
        0.020234961062669754,
        -0.0036612562835216522,
        -0.02997826598584652,
        0.02463594451546669,
        0.5763006806373596,
        0.7988455295562744,
        0.6630687713623047,
        0.03564181551337242,
        0.49951690435409546,
        -0.009536553174257278,
        0.12106174230575562,
        0.3334510326385498,
        0.8924363255500793,
        0.4937477707862854,
        0.37043297290802,
        -0.27989065647125244,
        0.029579592868685722,
        0.5604760050773621,
        0.038687918335199356,
        -0.024204635992646217,
        -0.005766537040472031,
        -0.016321035102009773,
        -0.002558387815952301,
        0.08408752083778381,
        -0.04046744108200073,
        -0.016804348677396774,
        0.23462329804897308,
        0.008515816181898117,
        0.07412642240524292,
        0.0879061371088028,
        0.5906694531440735,
        0.16121768951416016,
        -0.3198053240776062,
        -0.025723937898874283,
        -0.014415724202990532,
        0.276369571685791,
        0.4140886664390564,
        0.2225341796875,
        0.8425866961479187,
        -0.3635031282901764,
        0.024308178573846817,
        -0.01871713250875473,
        0.551300585269928,
        -0.006417922675609589,
        0.12974266707897186,
        -0.027270155027508736,
        0.005544900894165039,
        0.45657777786254883,
        0.03531378135085106,
        -0.022390613332390785,
        -0.003269381821155548,
        0.029869478195905685,
        -0.06182422116398811,
        0.224087655544281,
        0.14247101545333862,
        0.376483291387558,
        -0.06422208249568939,
        0.10555429756641388,
        -0.7183658480644226,
        -0.23436424136161804,
        -0.37796467542648315,
        -0.17883263528347015,
        -0.4441971182823181,
        0.3349002003669739,
        -0.15381351113319397,
        -0.09436297416687012,
        -0.2412673681974411,
        0.17632336914539337,
        -0.5228373408317566,
        0.4199031591415405,
        -1.0307602882385254,
        0.7301515936851501,
        -0.7159579396247864,
        -0.7973336577415466,
        -1.12042236328125,
        0.3458802103996277,
        0.9781437516212463,
        1.371279239654541,
        -0.19066071510314941,
        -0.8146238327026367,
        0.28404679894447327,
        0.26533862948417664,
        0.047858089208602905,
        -0.06548577547073364,
        -0.2581046521663666,
        -1.0845619440078735,
        -0.04798680171370506,
        -0.09277097135782242,
        0.8907747864723206,
        -0.11557278782129288,
        -0.3823099136352539,
        0.3772478997707367,
        -0.0074504888616502285,
        -0.09935092180967331,
        0.2252265214920044,
        0.9821637272834778,
        0.5026304125785828,
        -0.351087361574173,
        -0.5372044444084167,
        1.182923674583435,
        -0.06053071841597557,
        -0.17134444415569305,
        0.2969994843006134,
        -0.8019812107086182,
        -0.15563856065273285,
        -0.3141752779483795,
        -0.06870748102664948,
        0.48714199662208557,
        -0.027577603235840797,
        0.6715283989906311,
        -0.45272591710090637,
        0.018338976427912712,
        0.24923068284988403,
        0.19206936657428741,
        -0.7372041344642639,
        0.24156813323497772,
        0.037824224680662155,
        -0.3094733953475952,
        -1.1262226104736328,
        0.520902156829834,
        -0.21450036764144897,
        0.52481609582901,
        0.2743307054042816,
        0.40373292565345764,
        -0.6433742046356201,
        1.0311728715896606,
        0.43809086084365845,
        -0.7056302428245544,
        0.29077666997909546,
        -0.7727279663085938,
        0.008103436790406704,
        0.04604928940534592,
        0.1460789442062378,
        -0.6271253824234009,
        -0.04154106229543686,
        0.37046515941619873,
        1.6625224351882935,
        0.3318825364112854,
        -0.3858840763568878,
        -0.22345182299613953,
        -0.14040528237819672,
        -0.3096032738685608,
        -0.5567909479141235,
        0.3674158453941345,
        0.02564838156104088,
        -0.0010032877326011658,
        -0.02805936709046364,
        0.006518270820379257,
        0.08565369248390198,
        -0.08873534202575684,
        -0.3361418545246124,
        -0.7262470126152039,
        0.049904368817806244,
        -0.12131784856319427,
        0.1250690072774887,
        0.023559749126434326,
        0.09647715836763382,
        -0.017138930037617683,
        -0.4058622419834137,
        0.17116165161132812,
        0.09875491261482239,
        0.0951790064573288,
        -0.37325558066368103,
        -0.078238345682621,
        -0.12386451661586761,
        -0.4048983156681061,
        -0.2779335677623749,
        0.10504893958568573,
        0.7533590793609619,
        0.18726468086242676,
        0.5057633519172668,
        0.6475032567977905,
        0.052773576229810715,
        -0.9794741868972778,
        0.05615663900971413,
        0.44980549812316895,
        0.17958708107471466,
        -0.5015468597412109,
        0.16763782501220703,
        1.2946994304656982,
        0.22619882225990295,
        0.6322853565216064,
        0.07833205908536911,
        -0.5782750844955444,
        0.4444056749343872,
        0.5032064914703369,
        0.20453161001205444,
        0.19361740350723267,
        -0.9825370907783508,
        -0.6711845993995667,
        -0.5671457052230835,
        -0.21741683781147003,
        -0.022559475153684616,
        0.020424049347639084,
        -0.03628186881542206,
        -0.019382154569029808,
        0.10268869996070862,
        -0.16893507540225983,
        -0.558790922164917,
        -0.3977058529853821,
        0.19083264470100403,
        0.3424070477485657,
        0.25513309240341187,
        -0.11225627362728119,
        0.32198816537857056,
        0.33880454301834106,
        -0.3696576654911041,
        -0.15827932953834534,
        0.10355842858552933,
        0.06025351583957672,
        0.06496481597423553,
        0.23617035150527954,
        -0.45495137572288513,
        -0.8015952706336975,
        -0.26766645908355713,
        -0.15587849915027618,
        1.0539532899856567,
        0.31034111976623535,
        0.5898469090461731,
        0.4222032427787781,
        -0.4552854299545288,
        -0.74784255027771,
        -0.22199395298957825,
        -0.33340194821357727,
        -0.8963958621025085,
        0.6599195599555969,
        0.17723959684371948,
        1.1316879987716675,
        0.19431275129318237,
        0.09307227283716202,
        0.14397196471691132,
        -0.5544904470443726,
        0.9297037124633789,
        0.6644555926322937,
        0.34195443987846375,
        -0.06599340587854385,
        -1.815986156463623,
        -1.3104387521743774,
        -0.09791108220815659,
        -0.34507960081100464,
        0.0244445763528347,
        0.004818465560674667,
        -0.0034972578287124634,
        0.023057270795106888,
        -0.035370081663131714,
        0.022748608142137527,
        -0.02988370507955551,
        -0.03952481225132942,
        0.002499181777238846,
        0.022459056228399277,
        -0.01136947050690651,
        -0.006616756319999695,
        0.0009723268449306488,
        -0.030363913625478745,
        0.01328267902135849,
        0.02555098757147789,
        0.02611299231648445,
        -0.0050647929310798645,
        0.01402193307876587,
        -0.013047304004430771,
        -0.019354013726115227,
        0.005227360874414444,
        -0.0020515955984592438,
        0.01929868385195732,
        0.03668111935257912,
        -0.03427421301603317,
        -0.0005413293838500977,
        0.03018636628985405,
        0.023823332041502,
        0.035045746713876724,
        -0.027763046324253082,
        0.03109467402100563,
        0.014608144760131836,
        -0.005259986966848373,
        0.018111471086740494,
        -0.02970964089035988,
        -0.02083275280892849,
        -0.01855349726974964,
        -0.036292072385549545,
        -0.026439465582370758,
        0.022032860666513443,
        -0.02059987559914589,
        0.0072290487587451935,
        0.014088347554206848,
        0.005374342203140259,
        -0.01346452347934246,
        -0.01779685541987419,
        0.003905259072780609,
        -0.015678809955716133,
        0.018269773572683334,
        0.010176416486501694,
        -0.036210205405950546,
        0.18633908033370972,
        0.3145710527896881,
        -0.13836964964866638,
        -0.14081013202667236,
        0.3467443585395813,
        -0.021633753553032875,
        0.12805168330669403,
        -0.22435010969638824,
        0.4408864378929138,
        -0.8791818022727966,
        0.4169679582118988,
        0.6736482381820679,
        0.19040213525295258,
        0.1849357783794403,
        0.006579745560884476,
        0.04129967465996742,
        -0.025007564574480057,
        0.0068557485938072205,
        -0.0010265707969665527,
        0.10162368416786194,
        0.04225287213921547,
        -0.01996862329542637,
        0.16469494998455048,
        -0.04445594921708107,
        0.09111793339252472,
        -0.18726490437984467,
        0.4150438904762268,
        0.287662535905838,
        -0.04933899641036987,
        -0.010183021426200867,
        0.02440016344189644,
        -0.16124415397644043,
        -0.4587210714817047,
        0.3494049608707428,
        0.2611059546470642,
        0.299342542886734,
        -0.009019725024700165,
        -0.3019907474517822,
        -0.10613729059696198,
        0.001840539276599884,
        0.27746346592903137,
        -0.004078960977494717,
        0.018674291670322418,
        -0.02393464371562004,
        -0.0030506402254104614,
        -0.026770707219839096,
        -0.03942173719406128,
        0.004594136029481888,
        -0.12146945297718048,
        0.11510389298200607,
        -0.42320215702056885,
        -0.01247132383286953,
        0.6885242462158203,
        -0.10613593459129333,
        -0.9047459363937378,
        -0.2276136875152588,
        -0.643073320388794,
        -0.02769480273127556,
        0.1365976184606552,
        -0.24548718333244324,
        0.040053416043519974,
        -0.00026744231581687927,
        -0.23394739627838135,
        0.06317488849163055,
        0.7300518155097961,
        -0.25112175941467285,
        0.21171934902668,
        -0.031177029013633728,
        0.2555832862854004,
        0.29422858357429504,
        -0.02520562708377838,
        0.006084170192480087,
        -0.013054195791482925,
        -0.03346690535545349,
        0.7963781356811523,
        0.042340610176324844,
        0.3120788633823395,
        0.2130778729915619,
        -0.0789126604795456,
        -0.0035368427634239197,
        -0.47735050320625305,
        0.022302646189928055,
        -0.06636212021112442,
        0.014440230093896389,
        0.7406318187713623,
        0.004168670624494553,
        -0.8481300473213196,
        -0.004162788391113281,
        0.38255536556243896,
        -1.2589201927185059,
        0.2245764583349228,
        -0.011845273897051811,
        0.00984855554997921,
        0.29674971103668213,
        0.17576871812343597,
        0.040720630437135696,
        0.12110386788845062,
        -0.059034060686826706,
        1.1509361267089844,
        0.5261702537536621,
        0.09443531185388565,
        -0.4144035577774048,
        -0.45578697323799133,
        0.46086782217025757,
        0.03163907676935196,
        0.6990285515785217,
        -0.031124189496040344,
        -0.10062815248966217,
        -0.06800360232591629,
        0.19387945532798767,
        0.1046300008893013,
        0.07724443823099136,
        -0.1337473839521408,
        0.4198189079761505
      ],
      [
        -0.7988139390945435,
        -1.731378197669983,
        -1.7318289279937744,
        -2.0879900455474854,
        -0.680858314037323,
        -1.3875830173492432,
        -1.1566470861434937,
        -0.19750285148620605,
        0.04244491830468178,
        -1.009312391281128,
        -1.1435970067977905,
        -0.7247345447540283,
        -0.4439728558063507,
        -0.7656062245368958,
        -0.21389959752559662,
        -1.0564208030700684,
        0.871051549911499,
        -0.2253921627998352,
        -0.6519597768783569,
        -0.8605427145957947,
        -0.36052003502845764,
        -1.4469118118286133,
        -0.4348883032798767,
        -0.2947465479373932,
        -0.1251193732023239,
        0.02972453646361828,
        -1.273625135421753,
        -0.29215118288993835,
        -0.8122115731239319,
        0.043316300958395004,
        -0.5115740895271301,
        -0.4519626200199127,
        -0.650456428527832,
        -1.7305281162261963,
        -0.7226382493972778,
        -0.09822835773229599,
        0.8259149789810181,
        -1.1085776090621948,
        0.4977664351463318,
        -0.40675902366638184,
        -1.1180680990219116,
        -0.47049981355667114,
        0.14321929216384888,
        -0.5780938267707825,
        -0.005392678081989288,
        -0.018906785175204277,
        -0.03288693726062775,
        -0.01689177192747593,
        -0.010276136919856071,
        -0.7004745602607727,
        -0.9275142550468445,
        -0.8618069291114807,
        0.1828857958316803,
        -0.7014480829238892,
        -0.6808648705482483,
        0.29955214262008667,
        -0.09603887051343918,
        -0.09185851365327835,
        -0.3488576412200928,
        -0.5562503337860107,
        0.2793578803539276,
        0.13903971016407013,
        -0.13965854048728943,
        -0.6191961169242859,
        0.8475244045257568,
        -0.5190029740333557,
        -0.3387710452079773,
        -0.8497248291969299,
        -0.9088113307952881,
        -1.4528743028640747,
        -0.9017497301101685,
        0.44154492020606995,
        0.5652639269828796,
        -0.09241937100887299,
        -0.5863598585128784,
        0.30304837226867676,
        -1.027605414390564,
        -0.11093031615018845,
        -0.6284602284431458,
        -1.6267156600952148,
        0.054714590311050415,
        -0.7915270328521729,
        0.05895385146141052,
        -0.5414708256721497,
        0.7650916576385498,
        0.27929842472076416,
        0.14433054625988007,
        -0.5583595037460327,
        0.09519407153129578,
        -0.3280903995037079,
        0.485506147146225,
        -0.3303438723087311,
        -0.03734889626502991,
        -0.0012137927114963531,
        -0.009607188403606415,
        0.01713118702173233,
        0.029251404106616974,
        -0.9275906085968018,
        -0.9183211326599121,
        -0.5616485476493835,
        0.0920172706246376,
        -0.9017886519432068,
        -0.6322367191314697,
        -0.1156143993139267,
        0.2050168663263321,
        -0.217615008354187,
        -0.4713474214076996,
        -0.27943283319473267,
        0.2939218282699585,
        0.11105836182832718,
        -0.3361830413341522,
        -0.5842916965484619,
        0.7905159592628479,
        -0.32117682695388794,
        -0.17972247302532196,
        -0.7181360721588135,
        -0.5345855355262756,
        -1.6607506275177002,
        -0.1545778214931488,
        0.20669984817504883,
        0.5935667157173157,
        -0.5457948446273804,
        -0.44864487648010254,
        -0.3866918683052063,
        -0.6030064225196838,
        0.19284531474113464,
        -0.3869607448577881,
        -1.2578637599945068,
        -0.2163955271244049,
        -1.3618848323822021,
        0.1638084203004837,
        0.20326808094978333,
        0.6441699266433716,
        -0.5707971453666687,
        0.35246771574020386,
        -0.6757295727729797,
        -0.5496403574943542,
        -0.287662148475647,
        0.33148443698883057,
        -0.6027194261550903,
        0.003417186439037323,
        0.004377957433462143,
        -0.02799256145954132,
        0.034903060644865036,
        -1.132603645324707,
        -1.3491274118423462,
        -1.5266661643981934,
        0.13849057257175446,
        0.24353551864624023,
        0.02142789587378502,
        -0.30923351645469666,
        -0.34995630383491516,
        -0.23573485016822815,
        -1.0208345651626587,
        -0.24689216911792755,
        -0.30979713797569275,
        -0.16519132256507874,
        -1.128580927848816,
        -0.02123679593205452,
        -0.011158838868141174,
        -0.026804175227880478,
        -0.020688496530056,
        -0.01842765510082245,
        -0.2190200388431549,
        -0.01298345997929573,
        0.02567073330283165,
        -0.40890371799468994,
        0.42548611760139465,
        0.03576440364122391,
        0.047838252037763596,
        -1.3899332284927368,
        -0.30032026767730713,
        -0.1970665156841278,
        0.016769055277109146,
        0.005714643746614456,
        -0.07339581102132797,
        -0.07067412883043289,
        -0.6402721405029297,
        -0.8164424896240234,
        -0.41448017954826355,
        0.025503050535917282,
        -0.281423956155777,
        -0.12781386077404022,
        0.01804722100496292,
        -0.2028624713420868,
        -0.10900432616472244,
        0.012114856392145157,
        -0.6053724884986877,
        -0.03750269114971161,
        -0.0023905225098133087,
        -0.010038740932941437,
        -0.025889217853546143,
        0.16059593856334686,
        -0.8137032389640808,
        -0.0841657742857933,
        0.16623909771442413,
        -0.1493806689977646,
        -1.1150829792022705,
        -0.637191653251648,
        0.29236939549446106,
        -0.10265381634235382,
        -0.35931825637817383,
        0.19855031371116638,
        0.1166544109582901,
        0.22450433671474457,
        0.308304101228714,
        -0.9351115226745605,
        -0.5359258651733398,
        0.9410992860794067,
        -0.10007444024085999,
        -0.04825357347726822,
        -0.43887338042259216,
        -0.5560718774795532,
        -1.1491161584854126,
        -0.4501987099647522,
        0.5705075860023499,
        0.17196263372898102,
        -0.1464340090751648,
        -0.17243285477161407,
        0.2846854031085968,
        -0.5726197957992554,
        0.38525015115737915,
        -0.7502363920211792,
        -0.7703271508216858,
        -0.03437254950404167,
        -0.6997601985931396,
        0.1578538566827774,
        0.14745251834392548,
        0.8919217586517334,
        -0.39881572127342224,
        0.4593745768070221,
        -0.47960376739501953,
        -0.8320919275283813,
        0.4038139283657074,
        0.37223732471466064,
        0.18849898874759674,
        0.022727154195308685,
        0.406352162361145,
        -0.31989410519599915,
        0.20010067522525787,
        -0.043236587196588516,
        0.10810210555791855,
        0.015507223084568977,
        -0.06805387884378433,
        -0.22766689956188202,
        0.3377416431903839,
        -0.5323993563652039,
        0.029234331101179123,
        -0.14709903299808502,
        0.03774603083729744,
        0.052223533391952515,
        0.21332000195980072,
        -0.09016139805316925,
        -0.21514590084552765,
        0.205128476023674,
        0.006422994192689657,
        -0.004400270059704781,
        0.19066347181797028,
        -1.099332332611084,
        0.19597233831882477,
        0.06351463496685028,
        -0.29802194237709045,
        -0.2518293261528015,
        0.039590023458004,
        0.015046217478811741,
        0.1436920166015625,
        -0.1708981841802597,
        0.3923271596431732,
        -0.5704027414321899,
        -0.20284104347229004,
        0.02584725432097912,
        0.37367668747901917,
        0.029546473175287247,
        -0.09170360863208771,
        0.019764969125390053,
        0.12160325795412064,
        -0.2258894145488739,
        -0.4507860541343689,
        0.08161001652479172,
        0.23599903285503387,
        -0.2578659951686859,
        -0.9470847845077515,
        0.32600605487823486,
        0.3521905541419983,
        0.012993428856134415,
        0.02756907418370247,
        0.042390648275613785,
        0.02637365832924843,
        0.003530120011419058,
        0.48123839497566223,
        0.6398413181304932,
        0.6047884821891785,
        -0.15270733833312988,
        0.830510675907135,
        0.5683419704437256,
        -0.15385368466377258,
        0.20480218529701233,
        0.29850488901138306,
        0.6321056485176086,
        -0.07228568941354752,
        -0.2288130819797516,
        -0.11696742475032806,
        0.6512280106544495,
        0.5226740837097168,
        -0.6424963474273682,
        -0.23879362642765045,
        -0.8102730512619019,
        -0.3150746524333954,
        0.6842623949050903,
        1.2529758214950562,
        -0.008304023183882236,
        0.017661571502685547,
        -1.1501706838607788,
        0.011606985703110695,
        0.38911518454551697,
        0.047378163784742355,
        -0.6659965515136719,
        -0.3076966404914856,
        0.3844189941883087,
        0.39771994948387146,
        0.09223630279302597,
        0.6195783019065857,
        -0.09129013866186142,
        -0.09023542702198029,
        -1.2813246250152588,
        -0.5104672908782959,
        -0.023714860901236534,
        0.47266796231269836,
        0.6976689696311951,
        -0.3729424774646759,
        -0.44452589750289917,
        0.38637110590934753,
        0.030466970056295395,
        -0.01477518305182457,
        0.008244846016168594,
        0.005518987774848938,
        -0.09887608140707016,
        1.1472066640853882,
        1.2775965929031372,
        1.743894338607788,
        -0.03680815175175667,
        1.0474905967712402,
        0.768091082572937,
        -0.1463303565979004,
        -0.09244810789823532,
        0.619809091091156,
        1.043282151222229,
        -0.09619930386543274,
        -0.30473795533180237,
        -0.09395689517259598,
        0.34525132179260254,
        0.7336702942848206,
        -1.2870930433273315,
        -0.604616105556488,
        -0.5893593430519104,
        0.0022804385516792536,
        0.8286811709403992,
        1.5257388353347778,
        0.11065152287483215,
        -0.4501788020133972,
        -1.2682058811187744,
        0.01511065661907196,
        0.950088381767273,
        0.4247489869594574,
        -0.39837005734443665,
        -0.1967727690935135,
        0.30036669969558716,
        0.7939149737358093,
        0.269567608833313,
        1.6019920110702515,
        -0.13575002551078796,
        -0.06946749240159988,
        -0.9368569254875183,
        0.01621878892183304,
        -0.37297648191452026,
        0.8628056645393372,
        0.4792094826698303,
        -0.5321922898292542,
        -0.5793845057487488,
        0.8506715297698975,
        0.042382899671792984,
        0.02233075723052025,
        0.02793581411242485,
        0.001990754157304764,
        0.016950033605098724,
        -0.012055939063429832,
        0.024081427603960037,
        -0.007618695497512817,
        0.026146095246076584,
        -0.010489854961633682,
        -0.030241956934332848,
        -0.024631967768073082,
        0.02258724346756935,
        0.026162799447774887,
        -0.03828723356127739,
        0.03025452420115471,
        0.012528486549854279,
        0.029074091464281082,
        0.02454482391476631,
        0.022447403520345688,
        -0.018647216260433197,
        -0.029564686119556427,
        0.027476217597723007,
        0.013060476630926132,
        -0.004191610962152481,
        0.02299562469124794,
        -0.0036657042801380157,
        0.021691810339689255,
        -0.020664550364017487,
        0.025251302868127823,
        -0.039308756589889526,
        -0.028723934665322304,
        0.03004666045308113,
        0.003430694341659546,
        0.020650368183851242,
        -0.011911805719137192,
        -0.02090458944439888,
        -0.03031911328434944,
        -0.02447688765823841,
        0.030263643711805344,
        0.025143731385469437,
        -0.04127533361315727,
        -0.017421947792172432,
        0.039841022342443466,
        -0.008205275982618332,
        0.039628710597753525,
        -0.0038205645978450775,
        0.010265421122312546,
        -0.0165715329349041,
        0.032067809253931046,
        0.029645834118127823,
        -0.019528480246663094,
        0.11352603882551193,
        0.3504752814769745,
        0.4718165993690491,
        0.6235743165016174,
        -0.21426300704479218,
        -0.01665702648460865,
        -0.12337987124919891,
        -0.00044564646668732166,
        -0.4978177547454834,
        0.008475923910737038,
        0.35890159010887146,
        0.018762189894914627,
        0.13706782460212708,
        0.1409510225057602,
        0.0272737555205822,
        -0.04206077754497528,
        0.024587344378232956,
        -0.023991186171770096,
        -0.015318471938371658,
        -0.10734540224075317,
        0.018538866192102432,
        -0.041331399232149124,
        0.07866876572370529,
        -0.16007977724075317,
        -0.06436902284622192,
        0.15649095177650452,
        -0.322854608297348,
        0.7126920223236084,
        -0.030762607231736183,
        0.007781751453876495,
        -0.039992835372686386,
        0.07586637139320374,
        0.10613575577735901,
        0.5671668648719788,
        0.092257060110569,
        -0.027845125645399094,
        -0.03850412741303444,
        -0.14389953017234802,
        -0.41069334745407104,
        -0.016758866608142853,
        -0.1075260266661644,
        -0.1521414965391159,
        -0.02768344059586525,
        0.6453315615653992,
        0.024470839649438858,
        0.037674855440855026,
        -0.00222112238407135,
        -0.012516273185610771,
        0.40380024909973145,
        0.6224576234817505,
        1.580067753791809,
        0.03685849532485008,
        0.37377941608428955,
        0.46421051025390625,
        -0.345408171415329,
        -0.7298480868339539,
        0.27555912733078003,
        0.3047410249710083,
        -0.06365511566400528,
        -0.24970433115959167,
        0.03726589307188988,
        0.011942528188228607,
        0.7823286652565002,
        -0.42418918013572693,
        -0.5112650990486145,
        0.36594006419181824,
        -0.65475994348526,
        -0.030627332627773285,
        0.08312497287988663,
        0.9840317368507385,
        -0.04049655422568321,
        0.00032573193311691284,
        -0.035720791667699814,
        0.0366651825606823,
        1.8260418176651,
        0.006983764469623566,
        0.3193811774253845,
        -0.5318769216537476,
        0.06211084872484207,
        0.03237676993012428,
        -0.1507520079612732,
        -0.0033456720411777496,
        0.45585012435913086,
        0.6942861676216125,
        -1.5492805242538452,
        -0.008375082165002823,
        -0.20852698385715485,
        0.15471071004867554,
        0.12791471183300018,
        -1.129098653793335,
        -0.8199076056480408,
        0.03418100252747536,
        -0.3848080039024353,
        -0.527358889579773,
        0.6118221282958984,
        0.04259948804974556,
        -0.08951348066329956,
        -0.0686863586306572,
        -1.19844388961792,
        -0.9815390110015869,
        -0.053069405257701874,
        -0.04967981576919556,
        0.19622154533863068,
        0.24916942417621613,
        0.3448883593082428,
        -0.7419919967651367,
        0.021266493946313858,
        0.03301861882209778,
        0.13817152380943298,
        0.09044960886240005,
        -0.08644517511129379,
        -0.014721635729074478,
        0.4272560477256775,
        -0.3771347403526306
      ],
      [
        0.2907940447330475,
        2.487797975540161,
        2.5666518211364746,
        2.627762794494629,
        0.36731666326522827,
        1.5873305797576904,
        1.7281930446624756,
        0.11259482800960541,
        0.13570137321949005,
        1.6435834169387817,
        1.7228152751922607,
        0.8647528290748596,
        -0.42289331555366516,
        0.2035176008939743,
        0.870291531085968,
        0.9272474646568298,
        -1.3126486539840698,
        0.2919670641422272,
        0.7344850301742554,
        0.8681108355522156,
        0.9485174417495728,
        1.8592004776000977,
        1.2409799098968506,
        0.21019132435321808,
        -0.43280914425849915,
        0.7482437491416931,
        1.9293254613876343,
        1.0532243251800537,
        0.9560244679450989,
        -0.018046412616968155,
        0.8411998748779297,
        1.3919605016708374,
        0.7254158854484558,
        2.1044721603393555,
        0.01372466329485178,
        0.5875232219696045,
        -1.4063608646392822,
        1.0256798267364502,
        -0.5091360211372375,
        0.4512822926044464,
        1.38797926902771,
        0.19277715682983398,
        -0.8666012287139893,
        1.5233532190322876,
        0.00534464418888092,
        0.020035427063703537,
        0.018490638583898544,
        -0.015671906992793083,
        0.0904507040977478,
        1.0213735103607178,
        1.4272047281265259,
        1.5829585790634155,
        -0.14051875472068787,
        1.1826804876327515,
        1.362627387046814,
        -0.5601816773414612,
        0.018946334719657898,
        0.8824067115783691,
        0.9158370494842529,
        0.36378809809684753,
        -0.3915785849094391,
        -0.00045877500087954104,
        0.8232756853103638,
        0.5639514327049255,
        -1.1829957962036133,
        0.8994141817092896,
        0.5099585056304932,
        0.041006602346897125,
        1.1976799964904785,
        1.487084150314331,
        1.1217751502990723,
        -0.3961722254753113,
        -0.6836353540420532,
        -0.10850343853235245,
        0.9997494220733643,
        0.346911758184433,
        0.9157782793045044,
        0.026780547574162483,
        0.6226626038551331,
        1.5690416097640991,
        0.14399713277816772,
        1.3104302883148193,
        -0.036313071846961975,
        0.20304840803146362,
        -1.7721836566925049,
        0.49600183963775635,
        -0.5602661967277527,
        0.591354489326477,
        0.11741073429584503,
        0.03221196308732033,
        -1.1187655925750732,
        -0.1702432781457901,
        0.0365336649119854,
        0.03848994895815849,
        0.008153393864631653,
        -0.0370437353849411,
        0.04466557875275612,
        1.8279834985733032,
        2.001955986022949,
        1.384041428565979,
        -0.07600199431180954,
        1.3837497234344482,
        1.3940776586532593,
        -0.46128934621810913,
        -0.3467250466346741,
        1.2407630681991577,
        1.0142507553100586,
        0.35883063077926636,
        -0.5063694715499878,
        -0.04443956911563873,
        1.1702656745910645,
        0.7278203964233398,
        -1.8431496620178223,
        0.1400917023420334,
        0.2598186135292053,
        -0.20141761004924774,
        0.7918855547904968,
        1.8731601238250732,
        0.611595630645752,
        -0.08866388350725174,
        -0.8362239003181458,
        1.0131456851959229,
        1.6390767097473145,
        0.9373895525932312,
        0.36760222911834717,
        -0.3017519414424896,
        0.6230356097221375,
        1.6821759939193726,
        0.4204304814338684,
        0.9386356472969055,
        -0.1184014081954956,
        0.1430923044681549,
        -1.2105000019073486,
        0.4260919690132141,
        -0.5980916023254395,
        1.087900996208191,
        1.1414984464645386,
        -0.16853342950344086,
        -0.8466768264770508,
        0.883012592792511,
        0.008316494524478912,
        0.004127237945795059,
        0.04218020662665367,
        0.030972305685281754,
        0.4565097987651825,
        0.6835739612579346,
        0.7920852899551392,
        0.05561450123786926,
        -0.40188026428222656,
        -0.007855061441659927,
        -0.025581244379281998,
        0.5008562803268433,
        0.002971161622554064,
        1.0602915287017822,
        0.03324700519442558,
        0.1363549679517746,
        0.13039159774780273,
        0.4932262599468231,
        -0.014465214684605598,
        -0.011974183842539787,
        0.010978039354085922,
        0.04175447300076485,
        0.040459420531988144,
        0.2794688045978546,
        -0.0017977356910705566,
        0.025969248265028,
        0.24253205955028534,
        -0.3733609914779663,
        -0.009159083478152752,
        -0.1729126125574112,
        0.8711341619491577,
        0.39627721905708313,
        0.15557393431663513,
        0.006945431232452393,
        -0.030448850244283676,
        0.22842508554458618,
        -0.2049918919801712,
        0.6907241940498352,
        0.43303748965263367,
        0.2110067456960678,
        0.018473483622074127,
        0.2307259440422058,
        -0.04642139747738838,
        0.029442403465509415,
        0.11712580174207687,
        0.011646976694464684,
        0.009864568710327148,
        0.6809300780296326,
        -0.002680916339159012,
        -0.013393085449934006,
        -0.042347151786088943,
        -0.0047935545444488525,
        0.04809391498565674,
        1.9351743459701538,
        0.40951666235923767,
        0.43079081177711487,
        0.4150756895542145,
        2.494845390319824,
        1.0230530500411987,
        -0.34116634726524353,
        0.6569218635559082,
        1.0980104207992554,
        0.6721175312995911,
        -0.04432007670402527,
        -0.29440897703170776,
        -0.2840802073478699,
        1.9982596635818481,
        0.9831053018569946,
        -1.098327398300171,
        1.1097999811172485,
        0.6687343716621399,
        0.2122041881084442,
        1.132243275642395,
        1.926239252090454,
        1.061438798904419,
        -0.19251766800880432,
        -0.2595824897289276,
        0.4949242174625397,
        1.4517860412597656,
        0.7113181352615356,
        0.8015082478523254,
        0.09455691277980804,
        1.3960000276565552,
        0.9923496246337891,
        0.3282386362552643,
        0.9214959144592285,
        0.002571438904851675,
        0.3499663174152374,
        -1.5353416204452515,
        0.0904427096247673,
        -0.5904289484024048,
        0.6265416145324707,
        0.5309770703315735,
        -1.106371283531189,
        0.14367936551570892,
        0.2596534192562103,
        0.2948140799999237,
        -0.13776710629463196,
        0.611524760723114,
        -0.6919428706169128,
        -0.02724550850689411,
        -0.1930113434791565,
        -0.02670348435640335,
        0.29394277930259705,
        0.16727907955646515,
        -0.2546047270298004,
        0.1631699949502945,
        -0.20744329690933228,
        0.038829345256090164,
        0.07544372975826263,
        -0.239094540476799,
        0.1553022414445877,
        -0.011831275187432766,
        0.05805414170026779,
        -0.07909804582595825,
        -0.10709287971258163,
        0.3217264413833618,
        -0.25840961933135986,
        1.3403818607330322,
        -0.07040298730134964,
        0.24044527113437653,
        -0.0051825521513819695,
        0.017943955957889557,
        -0.4757935106754303,
        0.5502394437789917,
        0.3644646108150482,
        0.19869038462638855,
        -0.6540784239768982,
        0.3964616358280182,
        0.46738001704216003,
        0.27409714460372925,
        -0.027144962921738625,
        -0.09560558199882507,
        -0.0310943853110075,
        -0.095423124730587,
        0.28822651505470276,
        0.481701523065567,
        0.4094030261039734,
        -0.15727782249450684,
        -0.03158816322684288,
        0.365873783826828,
        1.1076298952102661,
        -0.0664549395442009,
        0.09091990441083908,
        0.025575947016477585,
        0.0339348129928112,
        -0.013803960755467415,
        -0.01957368664443493,
        -0.10859649628400803,
        -0.793133020401001,
        -1.3536791801452637,
        -1.5803126096725464,
        0.03328324854373932,
        -1.1647945642471313,
        -0.9966830015182495,
        0.9045607447624207,
        0.04794362559914589,
        -0.8670541644096375,
        -1.029097557067871,
        -0.22573769092559814,
        0.2179436832666397,
        -0.019738756120204926,
        -1.0201433897018433,
        -0.48205065727233887,
        1.0376617908477783,
        0.7019302248954773,
        0.7426813244819641,
        -0.15885241329669952,
        -0.5312287211418152,
        -1.1964788436889648,
        0.5049670338630676,
        -0.7501673698425293,
        1.927243709564209,
        0.26103654503822327,
        -0.4161093235015869,
        -1.155551552772522,
        -0.22308838367462158,
        0.24766238033771515,
        -0.47229549288749695,
        -1.052940845489502,
        -0.2038760930299759,
        -1.0490103960037231,
        -0.07687061280012131,
        -0.3026728928089142,
        2.3929214477539062,
        0.014299711212515831,
        0.2668027877807617,
        -0.5979873538017273,
        -0.8261811137199402,
        1.066933035850525,
        1.2985997200012207,
        -1.218389868736267,
        -0.02553413063287735,
        -0.022820819169282913,
        0.024278435856103897,
        0.02881650999188423,
        -0.06629500538110733,
        -1.8743106126785278,
        -1.8953555822372437,
        -2.98783802986145,
        -0.18445132672786713,
        -1.8266428709030151,
        -1.312691569328308,
        0.24892237782478333,
        0.4108693599700928,
        -1.144577145576477,
        -1.319116473197937,
        -0.12361957132816315,
        0.41432374715805054,
        0.0768619254231453,
        -1.4851329326629639,
        -0.8464488387107849,
        1.8365198373794556,
        0.7504914999008179,
        0.618633508682251,
        -0.8798090219497681,
        -0.8422620892524719,
        -1.673384666442871,
        0.32512202858924866,
        -0.5509302020072937,
        3.067572832107544,
        -0.338864803314209,
        -1.1460577249526978,
        -0.9193181395530701,
        -0.2360915094614029,
        0.0012930583907291293,
        -0.41033363342285156,
        -1.188651204109192,
        -0.7050107717514038,
        -2.2802224159240723,
        0.048734281212091446,
        -0.24146147072315216,
        2.0627808570861816,
        -0.805517852306366,
        0.9607875943183899,
        -1.0979692935943604,
        -1.078829288482666,
        1.3125767707824707,
        1.566055178642273,
        -1.950659990310669,
        -0.021234184503555298,
        -0.03267243131995201,
        0.03802168741822243,
        0.013076134026050568,
        0.0005464106798171997,
        0.035226453095674515,
        -0.02575279399752617,
        -0.021597204729914665,
        0.03134073689579964,
        0.01920655369758606,
        0.015523668378591537,
        -0.03091708943247795,
        0.030708815902471542,
        -0.027897339314222336,
        0.005443178117275238,
        0.006334178149700165,
        -0.03276112303137779,
        0.01771826297044754,
        0.0052965618669986725,
        0.03727841004729271,
        -0.010705020278692245,
        0.025376636534929276,
        -0.021067490801215172,
        0.022698942571878433,
        0.007567014545202255,
        0.04159913584589958,
        0.0253770612180233,
        -0.016144031658768654,
        0.03958640620112419,
        0.04036084935069084,
        0.005885526537895203,
        0.04154335334897041,
        0.008198317140340805,
        -0.00013451650738716125,
        0.016548283398151398,
        0.009540233761072159,
        -0.011234093457460403,
        -0.02412501908838749,
        -0.01344337873160839,
        -0.03560149297118187,
        0.008135270327329636,
        0.035658400505781174,
        0.030893448740243912,
        -0.005654674023389816,
        -0.02489917352795601,
        -0.014522358775138855,
        -0.03369053825736046,
        0.030563894659280777,
        0.04122145101428032,
        -0.03487994521856308,
        -0.0048865750432014465,
        0.013002414256334305,
        -0.9481207132339478,
        -1.3395235538482666,
        -1.5061721801757812,
        -0.8659629225730896,
        0.2572660446166992,
        -0.03776995837688446,
        -0.2695905566215515,
        -0.34987759590148926,
        0.44616496562957764,
        -0.4726487696170807,
        -0.9328535199165344,
        0.013449140824377537,
        -0.04719018563628197,
        -0.9529576897621155,
        -0.03699741140007973,
        -0.007761038839817047,
        0.03808566555380821,
        -0.012635815888643265,
        -0.019620154052972794,
        0.03130799159407616,
        -0.009205926209688187,
        -0.002843908965587616,
        -0.659116804599762,
        0.1977241486310959,
        -0.13538163900375366,
        -0.4546188712120056,
        -0.21086899936199188,
        -0.8982784152030945,
        -0.1981368511915207,
        -0.027430539950728416,
        -0.036530110985040665,
        -0.16296790540218353,
        -0.1413772851228714,
        -0.8860058784484863,
        -0.9278548955917358,
        0.09493556618690491,
        -0.0077935196459293365,
        0.13996250927448273,
        0.37746313214302063,
        0.02573653683066368,
        0.2918536067008972,
        0.23531383275985718,
        -0.04266273230314255,
        -1.0200376510620117,
        -0.003793109208345413,
        0.04004206880927086,
        -0.010602958500385284,
        0.023002702742815018,
        -1.0128824710845947,
        -1.64833402633667,
        -3.0821611881256104,
        -0.027444109320640564,
        -1.3811910152435303,
        -1.1507595777511597,
        0.19524386525154114,
        1.2665083408355713,
        -0.8524788022041321,
        -0.7513869404792786,
        -0.5063080191612244,
        -0.27660807967185974,
        -0.015079418197274208,
        0.0017864182591438293,
        -1.2156274318695068,
        -0.20270176231861115,
        0.16047830879688263,
        -0.4536522328853607,
        0.22966139018535614,
        0.002330455929040909,
        -0.1516282856464386,
        -1.4718879461288452,
        0.02400139346718788,
        -0.02414442040026188,
        -0.02077876217663288,
        0.013554226607084274,
        -3.932051658630371,
        -0.004876274615526199,
        -0.8997625112533569,
        0.34929972887039185,
        -0.4280877709388733,
        -0.017560193315148354,
        -0.26303941011428833,
        -0.0036759227514266968,
        -1.1468963623046875,
        -2.0608367919921875,
        1.799406886100769,
        0.031323399394750595,
        0.9346083998680115,
        -0.5607501864433289,
        -0.6929029226303101,
        1.9158638715744019,
        0.7632111310958862,
        -0.00122176855802536,
        0.8788775205612183,
        0.40566253662109375,
        -2.340589761734009,
        -0.02549961768090725,
        0.12748576700687408,
        -0.20188874006271362,
        2.6823039054870605,
        1.0188159942626953,
        0.27349212765693665,
        -0.24710296094417572,
        0.2256658971309662,
        0.16769355535507202,
        0.03982878476381302,
        0.2814023494720459,
        0.0718102753162384,
        0.06213958188891411,
        0.09463164210319519,
        -0.8902751207351685,
        -0.09515215456485748,
        -0.09266091883182526,
        -0.9619261622428894,
        0.2187180072069168
      ],
      [
        0.059632766991853714,
        1.8501461744308472,
        1.68511962890625,
        1.9632147550582886,
        0.12048251181840897,
        1.3968864679336548,
        1.1818714141845703,
        0.1125648096203804,
        -0.08629097789525986,
        1.0379400253295898,
        1.239890694618225,
        0.5756134986877441,
        -0.5632078051567078,
        -0.08734015375375748,
        0.6247342228889465,
        0.9175291061401367,
        -1.0880104303359985,
        0.4644676446914673,
        0.8373458981513977,
        0.7699333429336548,
        0.6687462329864502,
        1.568644642829895,
        0.8952369689941406,
        0.3193069398403168,
        -0.41091394424438477,
        0.598353922367096,
        1.471012830734253,
        0.9858698844909668,
        0.9075586199760437,
        -0.22458185255527496,
        0.7133498191833496,
        1.2309974431991577,
        0.5287710428237915,
        1.9039524793624878,
        -0.2285660058259964,
        0.3001173734664917,
        -0.8896905183792114,
        1.28376042842865,
        -0.7691689729690552,
        0.5534095764160156,
        1.5271875858306885,
        0.01848849095404148,
        -0.6338105797767639,
        1.1632362604141235,
        -0.03478255495429039,
        -0.015581352636218071,
        -0.01564902625977993,
        0.03148774430155754,
        0.08210968226194382,
        0.7531313300132751,
        1.0100771188735962,
        0.7912300825119019,
        -0.08272411674261093,
        1.082457423210144,
        0.8459320664405823,
        -0.4902620017528534,
        -0.27474626898765564,
        0.45245614647865295,
        0.5930566787719727,
        0.2960440218448639,
        -0.22714175283908844,
        -0.01667613536119461,
        0.1708889603614807,
        0.778685450553894,
        -1.0468884706497192,
        0.8846933245658875,
        0.5208668112754822,
        0.34576424956321716,
        0.8439268469810486,
        1.5261850357055664,
        1.1819915771484375,
        -0.25021103024482727,
        -0.7559399008750916,
        -0.16034577786922455,
        0.7778537273406982,
        -0.1626104861497879,
        1.114607334136963,
        0.1657794862985611,
        0.2600749731063843,
        1.3647618293762207,
        0.01734265312552452,
        0.994365394115448,
        0.06721881777048111,
        0.06630779802799225,
        -1.5745915174484253,
        0.2229403406381607,
        -0.7477704882621765,
        0.3707418143749237,
        -0.04813755676150322,
        -0.10952460020780563,
        -0.8236685991287231,
        -0.4558095932006836,
        -0.007898379117250443,
        -0.04013689607381821,
        0.03938665613532066,
        -0.014704566448926926,
        0.027650168165564537,
        1.1898823976516724,
        1.2742459774017334,
        1.0135891437530518,
        -0.031566157937049866,
        1.1140878200531006,
        0.9350751042366028,
        -0.5130048394203186,
        -0.4446840286254883,
        0.43615078926086426,
        0.8141452670097351,
        0.47507432103157043,
        -0.3256889879703522,
        -0.01681366004049778,
        0.5922181010246277,
        0.6972513198852539,
        -1.7728675603866577,
        0.36813706159591675,
        0.4101015627384186,
        -0.2989017963409424,
        0.638496458530426,
