{
  "backend": "torch",
  "state_size": 546,
  "option_size": 109,
  "hidden_size": 24,
  "architecture": "legacy_v1",
  "device_preference": "cpu",
  "state_dict": {
    "joint_bias": [
      0.5328193306922913,
      0.5255542397499084,
      -0.5211187601089478,
      -0.6437119841575623,
      0.6991617679595947,
      -0.5617784857749939,
      -0.5414772033691406,
      0.6629900336265564,
      0.6602938175201416,
      -0.5104659199714661,
      0.6976876258850098,
      0.33430224657058716,
      0.3960829973220825,
      0.5578032732009888,
      0.6607704758644104,
      0.574105441570282,
      0.6333884596824646,
      -0.6646057963371277,
      0.6552798748016357,
      0.5395177006721497,
      -0.4707475006580353,
      -0.49701863527297974,
      -0.43097594380378723,
      0.6116235256195068
    ],
    "state_linear.weight": [
      [
        0.2668797969818115,
        -0.689175009727478,
        -0.3061906397342682,
        -0.7397955656051636,
        0.051570188254117966,
        -0.5485245585441589,
        -0.5597120523452759,
        0.17518049478530884,
        -0.3519640862941742,
        -0.3968639671802521,
        -0.15307094156742096,
        -0.16395892202854156,
        0.708791971206665,
        0.33936020731925964,
        -0.533409059047699,
        -0.24397040903568268,
        0.1418822854757309,
        -0.5755215287208557,
        -0.2530413568019867,
        -0.6887950897216797,
        -0.1549820452928543,
        -0.8618959784507751,
        -0.07773419469594955,
        0.12701572477817535,
        -0.35111984610557556,
        -0.030883409082889557,
        -0.667943000793457,
        -1.1899608373641968,
        -0.2473749965429306,
        -0.21035049855709076,
        -0.6102309226989746,
        -0.47558751702308655,
        -0.43565574288368225,
        -1.8132680654525757,
        0.42373499274253845,
        0.21869125962257385,
        0.607566773891449,
        -0.5073320865631104,
        0.036040566861629486,
        -0.42492830753326416,
        -0.8794702887535095,
        0.09703149646520615,
        0.2758229076862335,
        -0.3703455328941345,
        0.042271364480257034,
        0.013041261583566666,
        0.029329191893339157,
        0.01727937161922455,
        -0.04918929934501648,
        -0.43614184856414795,
        -0.08267854899168015,
        -0.5511768460273743,
        -0.11715846508741379,
        -0.2736460566520691,
        -0.7072659134864807,
        0.04187442362308502,
        -0.43204644322395325,
        0.0647260844707489,
        -0.27978894114494324,
        -0.07326461374759674,
        0.16403737664222717,
        -0.03945314884185791,
        -0.43782272934913635,
        -0.11016619205474854,
        0.13452734053134918,
        -0.663537323474884,
        -0.5277364253997803,
        -0.9563590288162231,
        -0.4716639518737793,
        -0.6835174560546875,
        -0.1532701700925827,
        0.9093342423439026,
        -0.6716796159744263,
        0.8461966514587402,
        -0.5727565288543701,
        -0.20832374691963196,
        -0.3537704050540924,
        -0.02525428868830204,
        -0.5652430653572083,
        -0.5850014090538025,
        -0.36137840151786804,
        -1.194855809211731,
        -0.030348069965839386,
        0.532681405544281,
        0.4208484888076782,
        0.12967459857463837,
        -0.18029910326004028,
        -0.5499640107154846,
        -0.014914645813405514,
        -0.1929115504026413,
        0.1454518437385559,
        0.30114951729774475,
        0.020473141223192215,
        -0.005075026303529739,
        -0.03375384584069252,
        0.012901641428470612,
        -0.08052895963191986,
        -0.6958504915237427,
        -0.22111868858337402,
        -0.4098832607269287,
        -0.11993288993835449,
        -0.5033244490623474,
        -0.7248358726501465,
        0.08482545614242554,
        -0.33225783705711365,
        -0.21281440556049347,
        -0.2841114103794098,
        -0.3198741376399994,
        0.12977935373783112,
        -0.005858188029378653,
        -0.4304110109806061,
        -0.3416536748409271,
        0.3691125214099884,
        -0.270587682723999,
        0.06525803357362747,
        -0.5774924755096436,
        -0.805198073387146,
        -0.8431276082992554,
        -0.17277681827545166,
        0.10506580024957657,
        -0.19039221107959747,
        -0.4066767692565918,
        -0.5826780200004578,
        -0.5898635983467102,
        -0.021230006590485573,
        -0.004846067633479834,
        -0.8472605347633362,
        0.19238649308681488,
        -0.314570814371109,
        -1.0191044807434082,
        0.016123270615935326,
        0.618005096912384,
        -0.28278177976608276,
        -0.11876557767391205,
        -0.14783358573913574,
        -0.48587384819984436,
        -0.529717206954956,
        0.23240724205970764,
        0.0016932550352066755,
        -0.23665881156921387,
        -0.020756885409355164,
        -0.015310999006032944,
        -0.02170223742723465,
        0.03689703717827797,
        -0.24506396055221558,
        -0.39043769240379333,
        -0.5178483128547668,
        -0.10004018247127533,
        0.5596678256988525,
        0.0005220696330070496,
        -0.178591787815094,
        0.3385635018348694,
        -0.12964637577533722,
        -0.39624595642089844,
        -0.2950633466243744,
        0.2722814679145813,
        -0.04843512177467346,
        -0.23366492986679077,
        -0.025833144783973694,
        0.029844585806131363,
        0.022007260471582413,
        -0.03430987149477005,
        0.028343554586172104,
        -0.02925005368888378,
        -0.028074173256754875,
        -0.012409424409270287,
        -0.44541776180267334,
        0.288320928812027,
        -0.12752990424633026,
        0.15626564621925354,
        -0.20598241686820984,
        -0.4467712938785553,
        -0.12904410064220428,
        0.040332671254873276,
        -0.027691613882780075,
        -0.2040390521287918,
        0.33031773567199707,
        -0.7956439852714539,
        -0.0769655629992485,
        -0.3840305507183075,
        0.001102149486541748,
        0.036835916340351105,
        0.11996973305940628,
        -0.0011582672595977783,
        0.32824745774269104,
        -0.018524276092648506,
        0.029904615134000778,
        -0.5587478876113892,
        -0.036590296775102615,
        0.02121609076857567,
        0.027511324733495712,
        0.004370983690023422,
        -0.19477246701717377,
        -0.7267560958862305,
        -0.37906694412231445,
        -0.34301456809043884,
        -0.23955905437469482,
        -0.8754193782806396,
        -0.9705829620361328,
        -0.1592855304479599,
        -0.2844833731651306,
        -0.5286805033683777,
        -0.5638177990913391,
        -0.0005287646781653166,
        0.06257989257574081,
        -0.04591428115963936,
        -0.9065583944320679,
        -0.42542406916618347,
        -0.17622411251068115,
        -0.4652214050292969,
        0.08315280079841614,
        -0.8369132876396179,
        0.2172413021326065,
        -0.6421120166778564,
        -0.07013937830924988,
        0.571671724319458,
        -0.17733153700828552,
        0.33927565813064575,
        -0.4907304644584656,
        -0.13212303817272186,
        -0.4280886650085449,
        -0.6619454026222229,
        -0.7401286363601685,
        -0.48811671137809753,
        -0.4266527593135834,
        -0.6519473791122437,
        -0.17109398543834686,
        0.17548692226409912,
        0.8630401492118835,
        0.28777673840522766,
        0.5367380380630493,
        -0.418258935213089,
        -0.381457656621933,
        0.06191052123904228,
        0.16837981343269348,
        0.07934863120317459,
        -0.387716144323349,
        0.12802422046661377,
        -0.9585666060447693,
        0.07020927220582962,
        -0.02147620916366577,
        0.1915629357099533,
        0.15258793532848358,
        0.7157320380210876,
        -0.40681934356689453,
        0.22729668021202087,
        -0.17034916579723358,
        -0.1477588713169098,
        -0.23782320320606232,
        0.28222784399986267,
        -0.3002902865409851,
        0.41038867831230164,
        -0.1320626437664032,
        -0.20840959250926971,
        0.042471304535865784,
        0.07951269298791885,
        0.18445724248886108,
        -0.6264047622680664,
        -1.2255809307098389,
        -0.6779054403305054,
        0.018244557082653046,
        -0.6481605768203735,
        0.05831634998321533,
        0.5871753096580505,
        0.03484422713518143,
        -0.08363593369722366,
        0.17429539561271667,
        0.8688138127326965,
        -0.9580518007278442,
        -0.10452989488840103,
        -0.0685541182756424,
        -0.1513255089521408,
        -0.2564391791820526,
        0.3294607400894165,
        -0.03642270341515541,
        -0.0695633590221405,
        -0.4782090187072754,
        0.07298901677131653,
        0.06659617274999619,
        0.03449958190321922,
        -0.08046021312475204,
        0.433813214302063,
        -0.14793908596038818,
        -0.021190760657191277,
        0.028559718281030655,
        -0.026507828384637833,
        -0.009683821350336075,
        0.0038009360432624817,
        0.020883074030280113,
        0.22222021222114563,
        0.549031138420105,
        0.2694951593875885,
        -0.10616609454154968,
        0.39660248160362244,
        0.41084977984428406,
        -0.15273728966712952,
        0.12123386561870575,
        0.14992710947990417,
        0.07916828989982605,
        0.5747803449630737,
        -0.06881993263959885,
        -0.04158112406730652,
        0.31878864765167236,
        0.3667827546596527,
        -0.3301772177219391,
        -0.5642898082733154,
        -0.808204710483551,
        -0.6946788430213928,
        -0.6142783761024475,
        0.729552686214447,
        -0.43777644634246826,
        -0.0461246632039547,
        -0.32470887899398804,
        -0.4243679940700531,
        0.20714926719665527,
        0.051388442516326904,
        0.28611132502555847,
        0.41463449597358704,
        -0.33629393577575684,
        0.1771642416715622,
        0.2916256785392761,
        0.49104100465774536,
        -0.0718441978096962,
        0.6146575808525085,
        -0.5644932985305786,
        0.49959516525268555,
        -0.02394154481589794,
        -0.08701858669519424,
        0.1800718605518341,
        -0.17619098722934723,
        -0.5282331705093384,
        -0.12549307942390442,
        0.0306679867208004,
        -0.009433392435312271,
        0.018242090940475464,
        0.03262706473469734,
        -0.07266311347484589,
        0.2742563486099243,
        0.45071375370025635,
        0.8757918477058411,
        -0.05784660205245018,
        0.8309552669525146,
        0.2231791913509369,
        0.3354298174381256,
        -0.6248014569282532,
        0.1579069197177887,
        0.24720191955566406,
        0.13896264135837555,
        -0.19827714562416077,
        -0.19950762391090393,
        0.9136230945587158,
        0.4777286648750305,
        0.24565383791923523,
        -0.2599075734615326,
        -0.5743710398674011,
        -0.7543806433677673,
        0.09179037064313889,
        0.6819087862968445,
        -0.07977679371833801,
        -0.07876919955015182,
        -1.2322176694869995,
        -0.011922899633646011,
        0.06273676455020905,
        0.21211574971675873,
        0.17747166752815247,
        -0.3176637887954712,
        -0.2466612160205841,
        0.3949572443962097,
        0.22500599920749664,
        0.6459622979164124,
        -0.16514946520328522,
        0.3227876126766205,
        -0.7933890223503113,
        0.5033565759658813,
        -0.4202451705932617,
        0.0857853889465332,
        0.19991283118724823,
        0.038165852427482605,
        -0.36791279911994934,
        0.013006940484046936,
        0.010956402868032455,
        0.04099153354763985,
        0.015689034014940262,
        -0.010873585939407349,
        0.03598086163401604,
        0.036176811903715134,
        -0.007644616067409515,
        0.039441321045160294,
        0.01574370265007019,
        -0.0031410828232765198,
        0.025927212089300156,
        0.017281580716371536,
        -0.028742590919137,
        -0.0408913753926754,
        -0.019955966621637344,
        -0.008962266147136688,
        0.033707644790410995,
        0.02372189238667488,
        0.0048993900418281555,
        0.017589177936315536,
        -0.006538968533277512,
        -0.030884474515914917,
        -0.020214280113577843,
        0.02849430963397026,
        0.025817375630140305,
        0.03422116860747337,
        -0.0412583127617836,
        -0.026400942355394363,
        0.027907345443964005,
        0.0358235128223896,
        0.03587549552321434,
        -0.004157885909080505,
        -0.01949119195342064,
        -0.008508812636137009,
        -0.028767120093107224,
        -0.03233232721686363,
        0.04113691672682762,
        -0.02356589026749134,
        -0.009149167686700821,
        0.018191490322351456,
        -0.014710672199726105,
        0.038556214421987534,
        0.004591718316078186,
        -0.03363313898444176,
        0.023935984820127487,
        0.01972712203860283,
        0.037586603313684464,
        -0.019320718944072723,
        -0.012062769383192062,
        0.022860895842313766,
        -0.00955682247877121,
        0.02071230486035347,
        -0.17760485410690308,
        -0.009589776396751404,
        -0.02235870063304901,
        0.09105084836483002,
        0.2276596873998642,
        0.03207160159945488,
        -0.6248767971992493,
        -0.049193065613508224,
        -1.1900582313537598,
        0.07323376834392548,
        0.23164363205432892,
        -0.4691604971885681,
        -0.22765032947063446,
        -0.17431432008743286,
        0.01269550621509552,
        -0.023991359397768974,
        -0.023563986644148827,
        -0.02066291682422161,
        0.03606836125254631,
        -0.22524115443229675,
        0.029959451407194138,
        0.015492841601371765,
        0.3026655316352844,
        -0.048270583152770996,
        0.033285532146692276,
        0.1519535779953003,
        -0.5599541664123535,
        0.4559705853462219,
        -0.007667457219213247,
        0.015052668750286102,
        -0.02874625474214554,
        -0.017101604491472244,
        -0.598752498626709,
        0.23527488112449646,
        0.06521384418010712,
        -0.40056660771369934,
        -0.002056322991847992,
        0.16151252388954163,
        -0.8923180103302002,
        0.004807773977518082,
        0.14094382524490356,
        -0.11673756688833237,
        0.02535829320549965,
        0.3841266334056854,
        0.023574378341436386,
        -0.02348751202225685,
        0.012411434203386307,
        0.04003647342324257,
        0.887474775314331,
        0.9308450818061829,
        1.6835136413574219,
        0.016764342784881592,
        0.07883811742067337,
        0.9074721932411194,
        -0.12281359732151031,
        -0.2788708508014679,
        0.02457737922668457,
        0.49969083070755005,
        -0.4081065058708191,
        0.3738018572330475,
        0.02649042382836342,
        0.007404383271932602,
        0.526826798915863,
        0.4145880937576294,
        0.004800501279532909,
        -0.6441786885261536,
        -1.002966284751892,
        0.012097373604774475,
        -0.248426616191864,
        -0.10198080539703369,
        -0.02666860818862915,
        -0.036984819918870926,
        0.005094405263662338,
        0.005884066224098206,
        1.478054165840149,
        0.027581948786973953,
        0.11591553688049316,
        -0.2830824851989746,
        -0.2709166407585144,
        -0.03988155722618103,
        0.13455916941165924,
        -0.010545700788497925,
        1.0387349128723145,
        0.7173659205436707,
        -0.45155826210975647,
        0.00295913964509964,
        -0.7450609803199768,
        0.00885141920298338,
        -0.28996580839157104,
        -0.5219492316246033,
        -0.1489764004945755,
        0.009875435382127762,
        -0.8868642449378967,
        -0.010181221179664135,
        0.9270455837249756,
        -0.042173366993665695,
        -0.24658024311065674,
        0.01721874810755253,
        -1.4918612241744995,
        -0.13063259422779083,
        -0.07396971434354782,
        -0.11790493875741959,
        0.4733346700668335,
        0.16713038086891174,
        -0.27973154187202454,
        0.27165302634239197,
        -0.02576587162911892,
        -0.05708624795079231,
        -0.21227188408374786,
        -0.15202632546424866,
        -0.06437996029853821,
        0.03754734620451927,
        0.8993123769760132,
        -0.1407666802406311
      ],
      [
        0.11096746474504471,
        -1.3524881601333618,
        -1.0847854614257812,
        -1.0038115978240967,
        0.25798851251602173,
        -1.2379406690597534,
        -0.8572271466255188,
        -0.10681357979774475,
        -0.5887324213981628,
        -0.6885895133018494,
        -0.5699108242988586,
        -0.5243664383888245,
        0.6465169191360474,
        0.2623589038848877,
        -0.43699759244918823,
        -0.8993678689002991,
        0.2483430653810501,
        -0.9547795057296753,
        -0.6658497452735901,
        -0.6065923571586609,
        -0.45667558908462524,
        -1.3229506015777588,
        -0.47825852036476135,
        0.10215481370687485,
        0.013215909712016582,
        -0.6405338644981384,
        -1.1932038068771362,
        -1.1048582792282104,
        -1.355548620223999,
        0.08691851794719696,
        -0.7046336531639099,
        -1.1647181510925293,
        -0.4371607303619385,
        -1.5498569011688232,
        0.3773128390312195,
        -0.21393421292304993,
        0.9622709155082703,
        -1.1585296392440796,
        -0.3222205638885498,
        -0.4749346673488617,
        -0.876905083656311,
        0.10734440386295319,
        0.18622730672359467,
        -0.9948741793632507,
        -0.0405387282371521,
        -0.0008882023394107819,
        0.03744478151202202,
        0.023661267012357712,
        -0.03653532266616821,
        -0.49533265829086304,
        -0.7701363563537598,
        -0.605863094329834,
        0.2056218832731247,
        -0.24753180146217346,
        -0.6864787340164185,
        0.14497031271457672,
        -0.12318924814462662,
        -0.16146615147590637,
        -0.15681229531764984,
        -0.08532573282718658,
        0.27456188201904297,
        0.004645469598472118,
        -0.13041952252388,
        -0.06930077821016312,
        0.34068721532821655,
        -1.4775171279907227,
        -0.22912652790546417,
        -0.6804911494255066,
        -0.6987142562866211,
        -1.1389325857162476,
        -0.6406324505805969,
        0.28274261951446533,
        0.570570707321167,
        -0.30269473791122437,
        -0.5557259321212769,
        -0.01636139675974846,
        -0.37694770097732544,
        0.1909717321395874,
        -0.8813610672950745,
        -1.4615378379821777,
        -0.05250421538949013,
        -1.415142297744751,
        0.046654216945171356,
        0.24580395221710205,
        1.7349224090576172,
        -0.1263190507888794,
        -0.24861064553260803,
        -0.3894028067588806,
        0.4571174085140228,
        -0.20775756239891052,
        1.2591564655303955,
        -0.45210355520248413,
        0.02228419855237007,
        -0.036989979445934296,
        0.01248672604560852,
        -0.016555845737457275,
        -0.01795232482254505,
        -0.8938143849372864,
        -0.8233366012573242,
        -0.44427159428596497,
        0.1344292014837265,
        -0.38021183013916016,
        -0.6267526149749756,
        0.28776100277900696,
        -0.176847904920578,
        -0.10227587074041367,
        -0.37278375029563904,
        -0.017221640795469284,
        0.24285316467285156,
        -0.012947889044880867,
        -0.28769615292549133,
        -0.288338840007782,
        0.4645068347454071,
        -0.8289268612861633,
        0.14983242750167847,
        -0.07159747183322906,
        -0.46320840716362,
        -1.4865995645523071,
        -0.42013028264045715,
        -0.2090642899274826,
        0.35211026668548584,
        -0.8860548138618469,
        -0.7214052081108093,
        -0.519188642501831,
        -0.3976077139377594,
        0.48930323123931885,
        -0.9238353371620178,
        -1.5621460676193237,
        -0.22718939185142517,
        -0.8425961136817932,
        0.06555318087339401,
        0.3723278343677521,
        0.7378125190734863,
        -0.2696235179901123,
        -0.05923490598797798,
        -0.3956964313983917,
        0.10178573429584503,
        0.7503846287727356,
        0.779297411441803,
        -0.6096557378768921,
        -0.020804794505238533,
        0.033185627311468124,
        0.022935394197702408,
        -0.00888492539525032,
        -0.5354938507080078,
        -0.7595635056495667,
        -0.5643972158432007,
        -0.06443138420581818,
        0.28341707587242126,
        0.03846190497279167,
        0.037014808505773544,
        -0.3039347529411316,
        -0.22763600945472717,
        -0.6167254447937012,
        -0.1627143919467926,
        0.19619956612586975,
        -0.151403546333313,
        -0.5711484551429749,
        0.027328554540872574,
        0.001134585589170456,
        0.03416570648550987,
        0.035544503480196,
        0.022749703377485275,
        -0.183216854929924,
        0.0023292824625968933,
        0.022854860872030258,
        -0.10772910714149475,
        0.4437353014945984,
        -0.022023318335413933,
        0.13679026067256927,
        -0.4085448086261749,
        -0.2677852213382721,
        -0.07885835319757462,
        0.0023626163601875305,
        0.01385071873664856,
        -0.3064592480659485,
        0.13721460103988647,
        -0.5774998664855957,
        -0.3447703719139099,
        -0.18231302499771118,
        -0.01573197916150093,
        -0.14356695115566254,
        -0.1275767683982849,
        0.029041748493909836,
        -0.38672783970832825,
        0.003063046606257558,
        0.03866462782025337,
        -0.6036837697029114,
        0.010437842458486557,
        -0.007969636470079422,
        -0.0008533596992492676,
        -0.021476631984114647,
        -0.09002252668142319,
        -1.0828959941864014,
        -0.482616662979126,
        0.0835140198469162,
        -0.16709904372692108,
        -1.2638612985610962,
        -0.795650064945221,
        -0.009264292195439339,
        -0.4141823947429657,
        -0.26292529702186584,
        -0.4975200593471527,
        0.0676707923412323,
        0.19801217317581177,
        0.08047172427177429,
        -1.1170554161071777,
        -0.5233013033866882,
        0.34398794174194336,
        -1.329990029335022,
        -0.2695658206939697,
        -0.32623907923698425,
        -0.06158481165766716,
        -1.2080525159835815,
        -0.6007786393165588,
        -0.23132415115833282,
        0.00472068740054965,
        -0.33063390851020813,
        -0.8304809331893921,
        -0.14673098921775818,
        -0.33016160130500793,
        0.11443231999874115,
        -0.6755044460296631,
        -1.0104382038116455,
        -0.1889147311449051,
        -0.39432981610298157,
        -0.03763668239116669,
        -0.44036024808883667,
        1.7204641103744507,
        0.13140735030174255,
        0.4319712817668915,
        -0.30471596121788025,
        -0.2868939936161041,
        0.5118739604949951,
        0.45205748081207275,
        -0.33694183826446533,
        -0.09515827149152756,
        0.3602413535118103,
        -0.664414644241333,
        0.3757370710372925,
        -0.030310947448015213,
        0.1447973996400833,
        0.09826655685901642,
        0.03287985920906067,
        -0.07902100682258606,
        0.23241065442562103,
        -0.1999916285276413,
        -0.05863899737596512,
        -0.2945924401283264,
        0.3011678457260132,
        0.3074495494365692,
        -0.29114532470703125,
        0.07386776804924011,
        -0.21918891370296478,
        -0.12409709393978119,
        0.08223636448383331,
        -0.26688578724861145,
        -0.1855444312095642,
        -0.6770675182342529,
        -0.38735848665237427,
        -0.4986163079738617,
        -0.2870182394981384,
        0.10834505409002304,
        0.48829981684684753,
        0.07644659280776978,
        -0.6371815800666809,
        0.35596928000450134,
        0.41501110792160034,
        -0.4244298040866852,
        -0.17526084184646606,
        -0.5882561206817627,
        0.1567777842283249,
        -0.149257093667984,
        0.0910290852189064,
        -0.025651199743151665,
        -0.21602551639080048,
        -0.34557250142097473,
        -0.3579992949962616,
        -0.1973375827074051,
        -0.222824364900589,
        -0.08830208331346512,
        -0.40779349207878113,
        -0.02091853879392147,
        0.06419675052165985,
        0.03864600136876106,
        0.0232265405356884,
        -0.03198842704296112,
        -0.009025715291500092,
        -0.037569478154182434,
        0.35898157954216003,
        0.9277137517929077,
        1.0188673734664917,
        -0.17788797616958618,
        0.5809402465820312,
        0.591519296169281,
        -0.5242350101470947,
        0.03886625915765762,
        0.7139748334884644,
        0.6311150789260864,
        -0.020419582724571228,
        -0.20475223660469055,
        -0.14453904330730438,
        0.6035215854644775,
        0.27822345495224,
        -0.9760924577713013,
        -0.30242863297462463,
        -0.9162489771842957,
        -0.3492196500301361,
        0.08884812891483307,
        0.8155242800712585,
        -0.1670527458190918,
        0.29249903559684753,
        -1.7500368356704712,
        -0.4196961522102356,
        0.5710368156433105,
        0.29709532856941223,
        -0.25287947058677673,
        -0.3267781138420105,
        0.658832848072052,
        0.7351047992706299,
        0.2835012674331665,
        1.2822601795196533,
        -0.04776966944336891,
        0.07669087499380112,
        -1.7677910327911377,
        -0.14606954157352448,
        0.19187866151332855,
        -0.02263312041759491,
        0.27074122428894043,
        -0.8269416093826294,
        -0.9237825870513916,
        0.6429346203804016,
        0.0182422436773777,
        -0.0033719539642333984,
        -0.015295188874006271,
        -0.012652819976210594,
        -0.06575051695108414,
        0.867317795753479,
        1.088693380355835,
        1.8993157148361206,
        0.08717528730630875,
        0.843440592288971,
        0.6889815330505371,
        0.1486535668373108,
        -0.3887060582637787,
        0.5330339074134827,
        0.9462332129478455,
        -0.12342488765716553,
        -0.28639936447143555,
        -0.21367809176445007,
        0.9923479557037354,
        0.5656611323356628,
        -0.6364372968673706,
        0.02003396674990654,
        -0.6161019802093506,
        -0.5768300294876099,
        0.4244672954082489,
        1.5900999307632446,
        -0.11981483548879623,
        -0.47302550077438354,
        -1.6490027904510498,
        0.10903336852788925,
        0.7125558853149414,
        0.27374497056007385,
        -0.20221343636512756,
        -0.34445473551750183,
        0.46130529046058655,
        0.18008732795715332,
        0.37653130292892456,
        1.5804080963134766,
        -0.20415963232517242,
        0.08831845223903656,
        -1.5981613397598267,
        -0.2052149474620819,
        -0.5260903835296631,
        0.27881690859794617,
        0.2899501919746399,
        -0.2827010750770569,
        -0.7389257550239563,
        0.7343091368675232,
        0.023838546127080917,
        -0.03488779813051224,
        0.030525129288434982,
        -0.011143434792757034,
        0.007936198264360428,
        -0.014852229505777359,
        -0.008810453116893768,
        -0.03709503263235092,
        -0.0028630197048187256,
        0.035275209695100784,
        -0.03653440624475479,
        0.025706786662340164,
        -0.03387076035141945,
        -0.03700116276741028,
        0.03274836018681526,
        0.0007654428482055664,
        0.04229157045483589,
        -0.02281145192682743,
        -0.009959757328033447,
        -0.01547214575111866,
        0.005756121128797531,
        0.009389296174049377,
        -0.03745428845286369,
        -0.026818612590432167,
        -0.0020454488694667816,
        -0.010730024427175522,
        0.04204045608639717,
        -0.002383589744567871,
        -0.007620181888341904,
        0.041232090443372726,
        0.01528741791844368,
        -0.03517703339457512,
        -0.03543027117848396,
        0.004265386611223221,
        -0.013635838404297829,
        0.005652241408824921,
        0.01319393515586853,
        0.017989754676818848,
        -0.03190681338310242,
        0.036043282598257065,
        -0.014977296814322472,
        0.01920202374458313,
        0.02740752324461937,
        0.01660538837313652,
        0.013912152498960495,
        -0.03559517860412598,
        -0.02866850048303604,
        -0.04090474173426628,
        -0.01211470551788807,
        -0.0019533932209014893,
        -0.03504432737827301,
        0.006204672157764435,
        0.34702813625335693,
        0.6801695227622986,
        0.8222092390060425,
        0.8277150392532349,
        -0.10252229124307632,
        -0.012393124401569366,
        0.2334742695093155,
        -0.026852011680603027,
        -0.789450466632843,
        0.12343448400497437,
        0.9701781868934631,
        0.010180785320699215,
        -0.19294336438179016,
        0.341349720954895,
        -0.00834491103887558,
        -0.009257566183805466,
        0.0376591719686985,
        -0.03848051652312279,
        -0.006477769464254379,
        -0.21997413039207458,
        0.029450219124555588,
        -0.030414516106247902,
        0.48219460248947144,
        -0.13320867717266083,
        0.17656148970127106,
        0.19894789159297943,
        0.2428446114063263,
        0.9516047239303589,
        0.06850050389766693,
        -0.04054087772965431,
        0.03454439714550972,
        -0.14638523757457733,
        0.03517020121216774,
        0.7241515517234802,
        0.28615596890449524,
        0.156473308801651,
        0.022596042603254318,
        0.035898324102163315,
        -0.7860782742500305,
        0.03050968423485756,
        0.034184448421001434,
        -0.3427872657775879,
        0.013069458305835724,
        0.7610270380973816,
        2.7593225240707397e-05,
        -0.03510889783501625,
        -0.0076507143676280975,
        0.01541130244731903,
        0.7359500527381897,
        0.9794179797172546,
        1.813032627105713,
        0.020123910158872604,
        0.2239549160003662,
        0.8352111577987671,
        -0.05678403005003929,
        -0.3767208456993103,
        0.3158138394355774,
        0.08846311271190643,
        0.4545806050300598,
        -0.45089539885520935,
        -0.008450362831354141,
        0.006850983947515488,
        0.6535565257072449,
        -0.14539878070354462,
        0.26798543334007263,
        0.6403225660324097,
        -0.6577422618865967,
        -0.01153532788157463,
        -0.3535398542881012,
        1.1197798252105713,
        0.006681118160486221,
        -0.020475788041949272,
        -0.007560864090919495,
        0.018056578934192657,
        1.8372087478637695,
        -0.002739854156970978,
        0.21587233245372772,
        -0.6659712195396423,
        -0.0015606166562065482,
        0.011705789715051651,
        0.4387623071670532,
        -0.03848796710371971,
        0.7180429697036743,
        0.7977949976921082,
        -1.949597716331482,
        -0.00201202929019928,
        0.07931239157915115,
        -0.04829195514321327,
        0.08315233141183853,
        -0.9745641946792603,
        -0.41154611110687256,
        -0.015746386721730232,
        -0.35204634070396423,
        -0.4205820560455322,
        0.8197089433670044,
        -0.005694963037967682,
        -0.15808239579200745,
        0.11329548060894012,
        -2.1347086429595947,
        -0.013143040239810944,
        -0.28102415800094604,
        -0.12438731640577316,
        -0.07482346892356873,
        -0.234247624874115,
        0.09555249661207199,
        0.16046488285064697,
        -0.06372187286615372,
        0.0063261957839131355,
        -0.10265384614467621,
        0.3436509072780609,
        -0.07175526767969131,
        -0.04547388106584549,
        0.7152191996574402,
        -0.2332179844379425
      ],
      [
        -0.2189612090587616,
        0.9509264826774597,
        0.5032568573951721,
        1.018790602684021,
        -0.11007898300886154,
        0.7662177085876465,
        0.7842798829078674,
        -0.04226788133382797,
        0.566220223903656,
        0.5767596960067749,
        0.3911973834037781,
        0.1998520940542221,
        -0.6721776723861694,
        -0.3164386749267578,
        0.269968718290329,
        0.5153988003730774,
        -0.3796086609363556,
        0.21176378428936005,
        0.9462769627571106,
        0.3448692560195923,
        0.6395846605300903,
        1.1926672458648682,
        0.33928555250167847,
        0.39985138177871704,
        -0.06504954397678375,
        0.3270462453365326,
        0.6920619606971741,
        1.2859693765640259,
        0.7306233644485474,
        0.148234561085701,
        0.8374344110488892,
        0.6742019057273865,
        0.444558709859848,
        1.6175988912582397,
        -0.42103227972984314,
        -0.047193314880132675,
        -0.7917830944061279,
        0.9339197278022766,
        0.21667149662971497,
        0.5608983635902405,
        1.132498025894165,
        -0.21063369512557983,
        -0.2713502049446106,
        0.6516584157943726,
        0.021387819200754166,
        0.04119562730193138,
        0.03761514648795128,
        0.02145017310976982,
        0.03157452121376991,
        0.530310869216919,
        0.4168154299259186,
        0.5283212065696716,
        0.0020703827030956745,
        0.396892249584198,
        0.716828465461731,
        -0.2090919315814972,
        0.13533368706703186,
        0.3706091642379761,
        0.15415138006210327,
        -0.0002705072402022779,
        -0.2488943338394165,
        -0.03283049166202545,
        0.40658262372016907,
        -0.01537968311458826,
        -0.5220043063163757,
        0.6332944631576538,
        1.1100894212722778,
        0.4572368562221527,
        0.7984768152236938,
        0.6701372861862183,
        0.29302796721458435,
        -0.4109688401222229,
        0.36865368485450745,
        -0.9034482836723328,
        0.7002608180046082,
        0.36945682764053345,
        0.5846565961837769,
        0.0027288473211228848,
        0.8884761333465576,
        0.38286054134368896,
        0.1824655830860138,
        1.4010164737701416,
        -0.07198144495487213,
        -0.3140166997909546,
        -1.008023977279663,
        0.3971264660358429,
        0.04149419441819191,
        0.929985761642456,
        0.18156328797340393,
        0.2691088020801544,
        -0.6652179956436157,
        -0.5015873908996582,
        -0.02600453607738018,
        0.0367552675306797,
        -0.0160969290882349,
        -0.01871092990040779,
        0.0787392407655716,
        0.8514837622642517,
        0.515642523765564,
        0.6603084802627563,
        0.13295873999595642,
        0.4573143422603607,
        0.8491548299789429,
        -0.21528248488903046,
        0.4251481592655182,
        0.34827834367752075,
        0.6143094897270203,
        -0.1792103797197342,
        -0.26862335205078125,
        0.0035612103529274464,
        0.35827136039733887,
        0.26601746678352356,
        -0.6071884036064148,
        0.12782058119773865,
        0.32329049706459045,
        0.1103188768029213,
        0.39687538146972656,
        1.079969882965088,
        0.5110572576522827,
        0.18203140795230865,
        -0.17753131687641144,
        0.3028688132762909,
        0.6463032960891724,
        0.6701215505599976,
        0.34937843680381775,
        0.06855104863643646,
        0.8177483677864075,
        0.11450890451669693,
        0.3405013680458069,
        1.0694447755813599,
        -0.0380571112036705,
        -0.779555082321167,
        -0.3849914073944092,
        0.5273847579956055,
        0.2712061405181885,
        0.7900059819221497,
        0.6300128698348999,
        -0.3491867184638977,
        -0.49832844734191895,
        -0.011587693355977535,
        0.030741211026906967,
        -0.008938591927289963,
        0.0418054424226284,
        0.013911034911870956,
        0.24048291146755219,
        0.43845611810684204,
        0.5588797926902771,
        0.08662258833646774,
        -0.22057479619979858,
        -0.04230763763189316,
        0.22467757761478424,
        -0.1636911779642105,
        0.3151540458202362,
        0.6768097281455994,
        -0.13069917261600494,
        -0.14442692697048187,
        -0.013254670426249504,
        0.21111299097537994,
        -0.026064487174153328,
        -0.01220129057765007,
        -0.005316242575645447,
        0.018960826098918915,
        0.0202813558280468,
        0.3389674723148346,
        -0.022780535742640495,
        0.02738432213664055,
        0.3583541512489319,
        -0.36131036281585693,
        -0.004208690021187067,
        0.23160502314567566,
        0.47191885113716125,
        0.23033003509044647,
        0.01634986512362957,
        -0.010848090052604675,
        -0.029265448451042175,
        0.37713170051574707,
        -0.1847328543663025,
        0.7829260230064392,
        0.13188010454177856,
        0.11934791505336761,
        -0.035453278571367264,
        0.039802856743335724,
        0.18760323524475098,
        0.009610023349523544,
        -0.18028412759304047,
        0.01169451605528593,
        -0.03666513413190842,
        0.979787290096283,
        -0.01762334816157818,
        0.03943386301398277,
        0.023998688906431198,
        0.015894483774900436,
        0.15117742121219635,
        1.1096696853637695,
        0.479294091463089,
        0.17300033569335938,
        0.5197222232818604,
        1.3186731338500977,
        0.9429763555526733,
        0.04673287644982338,
        0.7508397698402405,
        0.7221720814704895,
        0.7504453659057617,
        -0.03576718270778656,
        -0.12228124588727951,
        0.01007087156176567,
        1.338040828704834,
        0.38181355595588684,
        -0.5982445478439331,
        0.4838390648365021,
        0.20548772811889648,
        0.4352382719516754,
        0.3187263011932373,
        0.857511579990387,
        0.6768662929534912,
        -0.34704071283340454,
        0.01463688537478447,
        -0.17871898412704468,
        0.773266077041626,
        0.4503512978553772,
        0.33932051062583923,
        0.0006006861804053187,
        1.1100126504898071,
        0.3953309655189514,
        0.5094585418701172,
        0.7917546033859253,
        0.09193100780248642,
        -0.09284794330596924,
        -1.159220814704895,
        0.08731779456138611,
        -0.18562737107276917,
        0.682013988494873,
        0.12456166744232178,
        -0.2322695404291153,
        -0.2743713855743408,
        0.09226663410663605,
        0.23590247333049774,
        -0.3865000307559967,
        0.7867513298988342,
        -0.05752447620034218,
        0.0020524354185909033,
        -0.16004163026809692,
        -0.2969092130661011,
        -0.2760232388973236,
        0.33495718240737915,
        -0.2566526532173157,
        0.3525486886501312,
        -0.10583719611167908,
        0.10110089927911758,
        -0.29539650678634644,
        -0.031396377831697464,
        -0.16239599883556366,
        0.2484150379896164,
        0.25656354427337646,
        -0.06985507905483246,
        -0.12346310913562775,
        0.5578484535217285,
        0.15977078676223755,
        1.235371470451355,
        0.29832035303115845,
        0.16707634925842285,
        -0.06413562595844269,
        0.2875291407108307,
        -0.42735767364501953,
        0.4037728011608124,
        0.14382974803447723,
        -0.35702449083328247,
        -0.788055956363678,
        0.3230352997779846,
        -0.10317853093147278,
        0.4741532802581787,
        0.4412948489189148,
        0.15483702719211578,
        -0.19156286120414734,
        0.048685625195503235,
        -0.32026156783103943,
        0.2234528511762619,
        0.20883144438266754,
        0.06742220371961594,
        -0.0856543481349945,
        -0.18498212099075317,
        0.08700767904520035,
        0.07671832293272018,
        0.2684984505176544,
        0.013263937085866928,
        -0.02953403629362583,
        0.011281032115221024,
        0.02014000341296196,
        0.034733857959508896,
        -0.2412431538105011,
        -0.73598313331604,
        -0.47746145725250244,
        0.291742205619812,
        -0.5657359957695007,
        -0.4212664067745209,
        0.7507652640342712,
        -0.1908920407295227,
        -0.23343944549560547,
        -0.4266768991947174,
        -0.14935404062271118,
        0.17544516921043396,
        0.12862339615821838,
        -0.5371878147125244,
        -0.4750641882419586,
        0.3881801664829254,
        0.831328272819519,
        0.7121464014053345,
        0.3694188594818115,
        0.02450912445783615,
        -0.9064939022064209,
        0.2154240906238556,
        -0.6144652962684631,
        1.197904109954834,
        0.8286245465278625,
        -0.364621639251709,
        -0.14595858752727509,
        0.2881457805633545,
        0.014304770156741142,
        -0.19007471203804016,
        -0.6243396997451782,
        -0.02987757697701454,
        -0.39184704422950745,
        0.08954455703496933,
        -0.37906819581985474,
        0.927632749080658,
        -0.415676474571228,
        -0.17014411091804504,
        0.10716578364372253,
        -0.6043121218681335,
        0.6871400475502014,
        0.702094316482544,
        -0.026238588616251945,
        0.0014702565968036652,
        0.02241281047463417,
        0.018487710505723953,
        -0.0016146227717399597,
        0.14133235812187195,
        -0.6514760255813599,
        -0.9164193272590637,
        -1.3498482704162598,
        0.16714443266391754,
        -1.0988820791244507,
        -0.440564900636673,
        0.06353674083948135,
        0.28569626808166504,
        -0.3122074007987976,
        -0.46496543288230896,
        -0.18694697320461273,
        0.2790648639202118,
        0.2269480675458908,
        -0.64040207862854,
        -0.8751457333564758,
        0.4745153784751892,
        1.0634630918502808,
        0.5330469608306885,
        0.24229103326797485,
        -0.22030659019947052,
        -0.9699561595916748,
        0.41372987627983093,
        -0.2047448754310608,
        1.8482099771499634,
        0.401404470205307,
        -0.4734485149383545,
        -0.48234254121780396,
        0.1629858762025833,
        0.0510595440864563,
        0.02135314978659153,
        -0.47548505663871765,
        -0.2638760507106781,
        -0.9200755953788757,
        0.2080126851797104,
        -0.3942039906978607,
        0.5203235745429993,
        -0.7983947992324829,
        0.027847696095705032,
        -0.19203728437423706,
        -0.5875160098075867,
        0.6582757234573364,
        0.6673218607902527,
        -0.6254664659500122,
        -0.020578857511281967,
        -0.012788515537977219,
        -0.016268329694867134,
        0.0018204860389232635,
        -0.042545683681964874,
        0.03407396748661995,
        -0.0022078603506088257,
        0.007006198167800903,
        0.007320787757635117,
        0.023934897035360336,
        0.017224926501512527,
        0.019068442285060883,
        0.03040611371397972,
        0.040884409099817276,
        -0.01840471662580967,
        0.03213658556342125,
        0.04008610174059868,
        -0.006127212196588516,
        -0.03021780401468277,
        0.008647792041301727,
        -0.01411791704595089,
        0.02158048376441002,
        0.030287977308034897,
        0.013047296553850174,
        -0.014235144481062889,
        0.012303594499826431,
        0.005746860057115555,
        -0.03853011131286621,
        0.03372873738408089,
        -0.038874994963407516,
        -0.0030270181596279144,
        -0.008569419384002686,
        0.011331666260957718,
        0.010532859712839127,
        -0.009075302630662918,
        -0.027165425941348076,
        0.029041718691587448,
        -0.042063649743795395,
        -0.01738724112510681,
        0.015028644353151321,
        -0.02452431246638298,
        0.026475798338651657,
        0.02359027788043022,
        -0.007547762244939804,
        0.039951954036951065,
        -0.017388135194778442,
        0.004545111209154129,
        0.021792713552713394,
        -0.041374485939741135,
        0.0019927285611629486,
        -0.03237799555063248,
        -0.033152054995298386,
        0.09795572608709335,
        0.02276500314474106,
        -0.021024314686655998,
        -0.3656640648841858,
        -0.054781921207904816,
        -0.005292821675539017,
        0.13301058113574982,
        -0.2408129721879959,
        1.0597999095916748,
        0.08662227541208267,
        -0.6384006142616272,
        0.27248767018318176,
        -0.05895815044641495,
        0.1222435012459755,
        0.03647821024060249,
        0.016089700162410736,
        -0.04153924807906151,
        -0.03805208206176758,
        -0.023279424756765366,
        0.2655784487724304,
        0.041915591806173325,
        -0.021789206191897392,
        -0.6099675297737122,
        0.10950392484664917,
        -0.062462497502565384,
        -0.2639789879322052,
        0.29380589723587036,
        -0.38859012722969055,
        -0.21113386750221252,
        0.013693701475858688,
        -0.03348834812641144,
        0.01523278933018446,
        0.3275567591190338,
        -0.10765869915485382,
        0.027008308097720146,
        0.17130114138126373,
        -0.016151225194334984,
        -0.148562490940094,
        1.1392470598220825,
        -0.024191806092858315,
        0.04245135933160782,
        0.05303626507520676,
        -0.008796542882919312,
        -0.2571241557598114,
        -0.020440682768821716,
        0.008990619331598282,
        -0.039780884981155396,
        0.0013248920440673828,
        -0.9427204132080078,
        -1.111491084098816,
        -2.0112481117248535,
        0.015884090214967728,
        -0.24535240232944489,
        -1.0324726104736328,
        0.19245374202728271,
        0.41612815856933594,
        -0.4314116835594177,
        -0.5848233103752136,
        -0.016451450064778328,
        -0.42841842770576477,
        -0.03333988040685654,
        0.022001560777425766,
        -0.6658450961112976,
        -0.6134556531906128,
        -0.4942648410797119,
        0.6585182547569275,
        0.6241381764411926,
        -0.028938505798578262,
        -0.04078776389360428,
        -0.5897170901298523,
        0.0018798895180225372,
        0.038179632276296616,
        -0.011422902345657349,
        0.02706800028681755,
        -1.9127007722854614,
        -0.0338662825524807,
        0.013149049133062363,
        0.1437595635652542,
        0.21250484883785248,
        -0.0003963746130466461,
        -0.21229799091815948,
        -0.03211590275168419,
        -1.0451759099960327,
        -1.1274346113204956,
        1.0197407007217407,
        0.017710953950881958,
        0.4411020278930664,
        0.14380759000778198,
        -0.0858878642320633,
        0.9128351211547852,
        0.22644466161727905,
        -0.03694441542029381,
        0.7325987815856934,
        0.07162673771381378,
        -0.9562662839889526,
        -0.021953348070383072,
        0.21856126189231873,
        0.000389060442103073,
        1.2827403545379639,
        -0.21764518320560455,
        0.2513437569141388,
        -0.20252645015716553,
        -0.45903921127319336,
        -0.15536917746067047,
        0.2171068638563156,
        -0.23440061509609222,
        0.0010326036717742682,
        0.023691577836871147,
        0.15843689441680908,
        0.1608673483133316,
        0.08006073534488678,
        0.07942656427621841,
        -0.9072005748748779,
        0.2196468561887741
      ],
      [
        0.6857799291610718,
        0.43551793694496155,
        0.5638831257820129,
        0.7554970383644104,
        0.42298340797424316,
        0.599827229976654,
        0.20352505147457123,
        0.3405369222164154,
        -0.209377259016037,
        0.35409387946128845,
        0.2614772915840149,
        0.5491992235183716,
        0.5656144022941589,
        0.7472509741783142,
        -0.03822719305753708,
        0.5808135867118835,
        0.6400684714317322,
        0.43107596039772034,
        -0.4350082576274872,
        -0.2827560007572174,
        -0.6019519567489624,
        -0.4552026689052582,
        -0.8373198509216309,
        0.043085552752017975,
        1.1038408279418945,
        0.8672078251838684,
        0.3678814172744751,
        -0.6510195732116699,
        0.24833422899246216,
        0.2540336549282074,
        0.1996164172887802,
        -0.35421887040138245,
        0.3224675953388214,
        -0.6624934077262878,
        0.6866251230239868,
        0.5745643377304077,
        0.8182540535926819,
        0.27734383940696716,
        -0.3500763773918152,
        0.31863558292388916,
        -0.20745106041431427,
        -0.026777615770697594,
        0.9639755487442017,
        0.18032854795455933,
        0.007083579897880554,
        -0.04140157997608185,
        0.013799093663692474,
        0.018841274082660675,
        -0.10406019538640976,
        -0.17890246212482452,
        0.1043483316898346,
        -0.04917648434638977,
        -0.42726489901542664,
        -0.1738014817237854,
        -0.5603256225585938,
        0.4459456205368042,
        -0.22951945662498474,
        -0.5599192380905151,
        -0.41628068685531616,
        -0.017570994794368744,
        0.05282872915267944,
        -0.060150034725666046,
        -0.2394874542951584,
        0.12335029244422913,
        0.20546101033687592,
        0.3910428583621979,
        -1.1901781558990479,
        0.3178386390209198,
        -1.2403934001922607,
        -0.9423776268959045,
        -0.9195864200592041,
        -0.6134458184242249,
        1.0875859260559082,
        1.2380495071411133,
        -0.4940677285194397,
        -1.277483344078064,
        -0.43198880553245544,
        -0.24086116254329681,
        0.36878740787506104,
        0.6600474715232849,
        -0.32880961894989014,
        -0.8103933334350586,
        -0.07418955862522125,
        -0.6090930700302124,
        1.1346968412399292,
        -0.08551511913537979,
        -0.4379850924015045,
        0.03305143490433693,
        -0.6984924077987671,
        0.058662135154008865,
        0.47816240787506104,
        0.8611533045768738,
        -0.008364289999008179,
        -0.019697586074471474,
        0.006095193326473236,
        -0.008912086486816406,
        -0.16137667000293732,
        -0.21516284346580505,
        -0.1559205800294876,
        -0.07729500532150269,
        -0.11151327937841415,
        -0.25117257237434387,
        -0.3616926670074463,
        0.4242486357688904,
        -0.9299980401992798,
        -0.025513669475913048,
        -0.5148657560348511,
        -0.15093174576759338,
        -0.11212892085313797,
        -0.14212191104888916,
        0.04926590248942375,
        -0.29089224338531494,
        -0.12521778047084808,
        0.8541166186332703,
        -1.0293124914169312,
        -0.5466817617416382,
        -0.38127198815345764,
        -0.5471184849739075,
        -0.7492069005966187,
        0.05403422191739082,
        0.9259402751922607,
        1.6333683729171753,
        -0.8099590539932251,
        -0.6220284104347229,
        0.3295452296733856,
        -0.14380104839801788,
        0.1497684270143509,
        -0.018124748021364212,
        -0.1485517919063568,
        -1.190315842628479,
        -0.15723009407520294,
        -0.4682694971561432,
        0.7995613813400269,
        -0.009842858649790287,
        -0.9274576902389526,
        0.14455682039260864,
        -0.19469812512397766,
        0.303268164396286,
        0.4687003195285797,
        0.507362961769104,
        0.020234961062669754,
        -0.0036612562835216522,
        -0.02997826598584652,
        0.02463594451546669,
        0.6002825498580933,
        0.796972393989563,
        0.681388795375824,
        0.013832014054059982,
        0.4929043650627136,
        -0.009536553174257278,
        0.1653011292219162,
        0.332030713558197,
        0.8924363255500793,
        0.4937477707862854,
        0.3609965443611145,
        -0.2578835189342499,
        0.029579592868685722,
        0.5844578742980957,
        0.038687918335199356,
        -0.024204635992646217,
        -0.005766537040472031,
        -0.016321035102009773,
        -0.002558387815952301,
        0.08408752083778381,
        -0.04046744108200073,
        -0.016804348677396774,
        0.24703948199748993,
        0.008515816181898117,
        0.07412642240524292,
        0.0879061371088028,
        0.5723546147346497,
        0.16121768951416016,
        -0.3198053240776062,
        -0.025723937898874283,
        -0.014415724202990532,
        0.276369571685791,
        0.4370501935482025,
        0.2225341796875,
        0.8584268689155579,
        -0.3326052129268646,
        0.024308178573846817,
        -0.01871713250875473,
        0.551300585269928,
        -0.006417922675609589,
        0.12974266707897186,
        -0.027270155027508736,
        0.005544900894165039,
        0.45657777786254883,
        0.03531378135085106,
        -0.022390613332390785,
        -0.003269381821155548,
        0.029869478195905685,
        -0.08749518543481827,
        0.19775810837745667,
        0.13598671555519104,
        0.3368500769138336,
        -0.09256604313850403,
        0.07441117614507675,
        -0.7423262000083923,
        -0.2370525747537613,
        -0.4164879322052002,
        -0.19919845461845398,
        -0.4881000518798828,
        0.3129386901855469,
        -0.17694047093391418,
        -0.11347924917936325,
        -0.2755246162414551,
        0.13099880516529083,
        -0.5748435854911804,
        0.4736799895763397,
        -1.066132664680481,
        0.7060943841934204,
        -0.7313952445983887,
        -0.7898406386375427,
        -1.1217737197875977,
        0.35891199111938477,
        0.9781437516212463,
        1.4266868829727173,
        -0.20344044268131256,
        -0.8146238327026367,
        0.2305315136909485,
        0.26821789145469666,
        0.01185358501970768,
        -0.021522503346204758,
        -0.2526822090148926,
        -1.0845619440078735,
        -0.07424755394458771,
        -0.1267237365245819,
        0.827246904373169,
        -0.10627090930938721,
        -0.4480942189693451,
        0.34777557849884033,
        0.012586446478962898,
        -0.13051699101924896,
        0.18203729391098022,
        1.0612032413482666,
        0.4722491204738617,
        -0.3981161415576935,
        -0.5607131719589233,
        1.182923674583435,
        -0.08190079033374786,
        -0.1859184205532074,
        0.3325444161891937,
        -0.8384308815002441,
        -0.16453947126865387,
        -0.3015308082103729,
        -0.0966978520154953,
        0.4730595052242279,
        -0.07213081419467926,
        0.686229944229126,
        -0.44953635334968567,
        0.026444781571626663,
        0.27211400866508484,
        0.18041254580020905,
        -0.7253406047821045,
        0.2154649943113327,
        0.02472969889640808,
        -0.33615440130233765,
        -1.2016618251800537,
        0.4590723514556885,
        -0.2179010957479477,
        0.562659502029419,
        0.25980550050735474,
        0.3685227930545807,
        -0.6896278262138367,
        1.0294609069824219,
        0.5007227659225464,
        -0.7327442765235901,
        0.24094155430793762,
        -0.8354933857917786,
        0.047489482909440994,
        0.02568574994802475,
        0.11914115399122238,
        -0.6522544622421265,
        -0.05756724625825882,
        0.350519061088562,
        1.663825273513794,
        0.3213060200214386,
        -0.43594634532928467,
        -0.18881283700466156,
        -0.06412563472986221,
        -0.3344570994377136,
        -0.5585265159606934,
        0.303083211183548,
        0.02564838156104088,
        -0.0010032877326011658,
        -0.02805936709046364,
        0.006518270820379257,
        0.022613339126110077,
        -0.15307915210723877,
        -0.3914467990398407,
        -0.7877147197723389,
        -0.015966910868883133,
        -0.15235377848148346,
        0.08795104920864105,
        0.01616605371236801,
        0.0365726500749588,
        -0.07607213407754898,
        -0.4699019193649292,
        0.10794144868850708,
        0.04324130341410637,
        0.03461842238903046,
        -0.36999794840812683,
        -0.10989076644182205,
        -0.1275956928730011,
        -0.41064661741256714,
        -0.3369936943054199,
        0.08798282593488693,
        0.7551016211509705,
        0.1275496482849121,
        0.48050203919410706,
        0.5707463622093201,
        -0.0012501683086156845,
        -1.0287193059921265,
        -0.02650550939142704,
        0.4405500292778015,
        0.105826735496521,
        -0.448901504278183,
        0.16763782501220703,
        1.3410471677780151,
        0.1731039136648178,
        0.5790067315101624,
        0.017801674082875252,
        -0.6460766196250916,
        0.3804500102996826,
        0.48215094208717346,
        0.1692543476819992,
        0.19361740350723267,
        -0.9891871809959412,
        -0.6642597913742065,
        -0.6099480390548706,
        -0.2568240761756897,
        -0.022559475153684616,
        0.020424049347639084,
        -0.03628186881542206,
        -0.019382154569029808,
        0.0769905298948288,
        -0.20766811072826385,
        -0.5762985348701477,
        -0.44711196422576904,
        0.15765979886054993,
        0.32878977060317993,
        0.2191566377878189,
        -0.1282072514295578,
        0.34581586718559265,
        0.3085594177246094,
        -0.4374105632305145,
        -0.20169417560100555,
        0.08589619398117065,
        0.03510865196585655,
        0.08971082419157028,
        0.21949200332164764,
        -0.4294731020927429,
        -0.8119253516197205,
        -0.2757638990879059,
        -0.12445595860481262,
        1.0534054040908813,
        0.32524168491363525,
        0.5389191508293152,
        0.3735511898994446,
        -0.4991510808467865,
        -0.7505410313606262,
        -0.2971305549144745,
        -0.31909072399139404,
        -0.962855339050293,
        0.6819018721580505,
        0.17723959684371948,
        1.1858127117156982,
        0.17257942259311676,
        0.07037881761789322,
        0.12033646553754807,
        -0.594450056552887,
        0.860806405544281,
        0.6482490301132202,
        0.35488075017929077,
        -0.06599340587854385,
        -1.8050737380981445,
        -1.2528496980667114,
        -0.1692953109741211,
        -0.34595417976379395,
        0.0244445763528347,
        0.004818465560674667,
        -0.0034972578287124634,
        0.023057270795106888,
        -0.035370081663131714,
        0.022748608142137527,
        -0.02988370507955551,
        -0.03952481225132942,
        0.002499181777238846,
        0.022459056228399277,
        -0.01136947050690651,
        -0.006616756319999695,
        0.0009723268449306488,
        -0.030363913625478745,
        0.01328267902135849,
        0.02555098757147789,
        0.02611299231648445,
        -0.0050647929310798645,
        0.01402193307876587,
        -0.013047304004430771,
        -0.019354013726115227,
        0.005227360874414444,
        -0.0020515955984592438,
        0.01929868385195732,
        0.03668111935257912,
        -0.03427421301603317,
        -0.0005413293838500977,
        0.03018636628985405,
        0.023823332041502,
        0.035045746713876724,
        -0.027763046324253082,
        0.03109467402100563,
        0.014608144760131836,
        -0.005259986966848373,
        0.018111471086740494,
        -0.02970964089035988,
        -0.02083275280892849,
        -0.01855349726974964,
        -0.036292072385549545,
        -0.026439465582370758,
        0.022032860666513443,
        -0.02059987559914589,
        0.0072290487587451935,
        0.014088347554206848,
        0.005374342203140259,
        -0.01346452347934246,
        -0.01779685541987419,
        0.003905259072780609,
        -0.015678809955716133,
        0.018269773572683334,
        0.010176416486501694,
        -0.036210205405950546,
        0.10546167939901352,
        0.2353329062461853,
        -0.19315075874328613,
        -0.16740642488002777,
        0.2989976108074188,
        -0.021633753553032875,
        0.1193414181470871,
        -0.28590112924575806,
        0.39908453822135925,
        -0.9278733730316162,
        0.38825663924217224,
        0.6648932099342346,
        0.17159129679203033,
        0.10405838489532471,
        0.006579745560884476,
        0.04129967465996742,
        -0.025007564574480057,
        0.0068557485938072205,
        -0.0010265707969665527,
        0.08639112859964371,
        0.04225287213921547,
        -0.01996862329542637,
        0.16469494998455048,
        -0.07661714404821396,
        0.09111793339252472,
        -0.17797225713729858,
        0.3567201495170593,
        0.29111248254776,
        -0.04933899641036987,
        -0.010183021426200867,
        0.02440016344189644,
        -0.16124415397644043,
        -0.5212891697883606,
        0.32628563046455383,
        0.1832156777381897,
        0.299342542886734,
        -0.009019725024700165,
        -0.3019907474517822,
        -0.1213698461651802,
        0.001840539276599884,
        0.27746346592903137,
        -0.004078960977494717,
        0.018674291670322418,
        -0.03541934862732887,
        -0.0030506402254104614,
        -0.026770707219839096,
        -0.03942173719406128,
        0.004594136029481888,
        -0.1418977826833725,
        0.09564796835184097,
        -0.42866384983062744,
        -0.01247132383286953,
        0.6458519101142883,
        -0.12729382514953613,
        -0.8883317112922668,
        -0.23885765671730042,
        -0.6844609379768372,
        -8.245673961937428e-05,
        0.09779577702283859,
        -0.2807431221008301,
        0.040053416043519974,
        -0.00026744231581687927,
        -0.20779132843017578,
        0.004627710673958063,
        0.6922264695167542,
        -0.2284904420375824,
        0.16546456515789032,
        -0.031177029013633728,
        0.29959332942962646,
        0.27677223086357117,
        -0.02520562708377838,
        0.006084170192480087,
        -0.013054195791482925,
        -0.03346690535545349,
        0.8278922438621521,
        0.042340610176324844,
        0.3120788633823395,
        0.2535248100757599,
        -0.0789126604795456,
        -0.0035368427634239197,
        -0.5230182409286499,
        0.022302646189928055,
        -0.08348087221384048,
        -0.024994198232889175,
        0.6818128228187561,
        0.004168670624494553,
        -0.8481300473213196,
        -0.004162788391113281,
        0.3397725522518158,
        -1.248444676399231,
        0.19688314199447632,
        -0.011845273897051811,
        0.02363092452287674,
        0.2469213306903839,
        0.18888451159000397,
        0.040720630437135696,
        0.09418275207281113,
        -0.08593100309371948,
        1.1691242456436157,
        0.5050773024559021,
        0.06991484761238098,
        -0.4094175100326538,
        -0.40527546405792236,
        0.42536914348602295,
        0.04283202812075615,
        0.6658753752708435,
        -0.054936133325099945,
        -0.13144557178020477,
        -0.09367459267377853,
        0.11201757937669754,
        0.07893192768096924,
        0.014204376377165318,
        -0.15417572855949402,
        0.39478981494903564
      ],
      [
        -0.7834336161613464,
        -1.7128140926361084,
        -1.7306064367294312,
        -2.048105478286743,
        -0.6621551513671875,
        -1.3534901142120361,
        -1.1192958354949951,
        -0.16462208330631256,
        0.11098668724298477,
        -1.0196746587753296,
        -1.1105504035949707,
        -0.7496791481971741,
        -0.42647939920425415,
        -0.7554418444633484,
        -0.20271936058998108,
        -1.010754942893982,
        0.898804783821106,
        -0.21533802151679993,
        -0.629517674446106,
        -0.8344132304191589,
        -0.3524214029312134,
        -1.4668192863464355,
        -0.4182222783565521,
        -0.3163486421108246,
        -0.1251193732023239,
        0.03166947886347771,
        -1.2995445728302002,
        -0.29215118288993835,
        -0.8024862408638,
        0.06715560704469681,
        -0.4942379295825958,
        -0.5088465809822083,
        -0.6215545535087585,
        -1.7305281162261963,
        -0.7050631642341614,
        -0.13690289855003357,
        0.8480318784713745,
        -1.1219546794891357,
        0.5655621290206909,
        -0.3798617422580719,
        -1.1481894254684448,
        -0.44494667649269104,
        0.19467133283615112,
        -0.5592796206474304,
        -0.005392678081989288,
        -0.018906785175204277,
        -0.03288693726062775,
        -0.01689177192747593,
        0.010477855801582336,
        -0.6824236512184143,
        -0.9409217834472656,
        -0.8530226945877075,
        0.2018948793411255,
        -0.6813573241233826,
        -0.6414064764976501,
        0.3154347240924835,
        -0.012277820147573948,
        -0.11597684025764465,
        -0.32270973920822144,
        -0.5355900526046753,
        0.3018990159034729,
        0.15734714269638062,
        -0.12662489712238312,
        -0.587758481502533,
        0.8770763874053955,
        -0.5188516974449158,
        -0.2875663936138153,
        -0.8137723207473755,
        -0.8973132967948914,
        -1.4842394590377808,
        -0.9179492592811584,
        0.3853253424167633,
        0.5652639269828796,
        -0.11853694915771484,
        -0.5846629738807678,
        0.30304837226867676,
        -1.0096080303192139,
        -0.09509490430355072,
        -0.6188440322875977,
        -1.677271842956543,
        0.08242958784103394,
        -0.823844313621521,
        0.07961241900920868,
        -0.5767006874084473,
        0.7883720993995667,
        0.29458490014076233,
        0.25671765208244324,
        -0.5472744703292847,
        0.02936609648168087,
        -0.29270467162132263,
        0.5228760838508606,
        -0.3566427528858185,
        -0.03734889626502991,
        -0.0012137927114963531,
        -0.009607188403606415,
        0.01713118702173233,
        0.03348828852176666,
        -0.9203956127166748,
        -0.9411637187004089,
        -0.5345314741134644,
        0.0911751240491867,
        -0.8549688458442688,
        -0.6095209121704102,
        -0.11373942345380783,
        0.23964715003967285,
        -0.20825131237506866,
        -0.4614417552947998,
        -0.2864249646663666,
        0.2975199520587921,
        0.11250252276659012,
        -0.2731216549873352,
        -0.5577644109725952,
        0.8093733191490173,
        -0.32052502036094666,
        -0.12303726375102997,
        -0.6852878928184509,
        -0.5345855355262756,
        -1.6806610822677612,
        -0.169927716255188,
        0.15282011032104492,
        0.5935667157173157,
        -0.6237159967422485,
        -0.450274258852005,
        -0.3866918683052063,
        -0.613726019859314,
        0.2282731682062149,
        -0.3535078465938568,
        -1.3316826820373535,
        -0.20903396606445312,
        -1.3851771354675293,
        0.16938938200473785,
        0.14624151587486267,
        0.6713010668754578,
        -0.5489031076431274,
        0.3945462107658386,
        -0.6478065252304077,
        -0.5866873860359192,
        -0.24467864632606506,
        0.3811855614185333,
        -0.6636127233505249,
        0.003417186439037323,
        0.004377957433462143,
        -0.02799256145954132,
        0.034903060644865036,
        -1.1661005020141602,
        -1.355374813079834,
        -1.5529404878616333,
        0.15665648877620697,
        0.2501488924026489,
        0.02142789587378502,
        -0.3520751893520355,
        -0.3612176477909088,
        -0.23573485016822815,
        -1.0208345651626587,
        -0.24065636098384857,
        -0.3446574807167053,
        -0.16519132256507874,
        -1.162077784538269,
        -0.02123679593205452,
        -0.011158838868141174,
        -0.026804175227880478,
        -0.020688496530056,
        -0.01842765510082245,
        -0.2190200388431549,
        -0.01298345997929573,
        0.02567073330283165,
        -0.4208715856075287,
        0.42548611760139465,
        0.03576440364122391,
        0.047838252037763596,
        -1.3802647590637207,
        -0.30032026767730713,
        -0.1970665156841278,
        0.016769055277109146,
        0.005714643746614456,
        -0.07339581102132797,
        -0.10537588596343994,
        -0.6402721405029297,
        -0.8401735424995422,
        -0.44552892446517944,
        0.025503050535917282,
        -0.281423956155777,
        -0.12781386077404022,
        0.01804722100496292,
        -0.2028624713420868,
        -0.10900432616472244,
        0.012114856392145157,
        -0.6053724884986877,
        -0.03750269114971161,
        -0.0023905225098133087,
        -0.010038740932941437,
        -0.025889217853546143,
        0.1859290599822998,
        -0.7934759855270386,
        -0.08785273134708405,
        0.19318923354148865,
        -0.1282571703195572,
        -1.0867059230804443,
        -0.6077059507369995,
        0.3033088445663452,
        -0.043765321373939514,
        -0.36285796761512756,
        0.22904977202415466,
        0.14398451149463654,
        0.24775773286819458,
        0.3265460431575775,
        -0.9064310193061829,
        -0.48003149032592773,
        1.0075678825378418,
        -0.1469929814338684,
        -0.004500821698457003,
        -0.4177097976207733,
        -0.5404556393623352,
        -1.1773524284362793,
        -0.46830642223358154,
        0.527309000492096,
        0.17196263372898102,
        -0.1954871118068695,
        -0.1460999846458435,
        0.2846854031085968,
        -0.5600947737693787,
        0.4031471014022827,
        -0.7130501866340637,
        -0.8283484578132629,
        -0.017744557932019234,
        -0.6997601985931396,
        0.18224693834781647,
        0.1505896896123886,
        0.9645620584487915,
        -0.3902212977409363,
        0.5438258051872253,
        -0.4465007185935974,
        -0.8537168502807617,
        0.4203728437423706,
        0.4409090280532837,
        0.11804521083831787,
        0.06344634294509888,
        0.47259804606437683,
        -0.29833856225013733,
        0.20010067522525787,
        -0.02676454558968544,
        0.1206541582942009,
        -0.015829410403966904,
        -0.03742864727973938,
        -0.22217407822608948,
        0.3277547061443329,
        -0.5070284605026245,
        0.03880596533417702,
        -0.12597425282001495,
        0.038786716759204865,
        0.05122455954551697,
        0.2028685063123703,
        -0.11902575194835663,
        -0.20049463212490082,
        0.1940087527036667,
        0.018925897777080536,
        0.01217880379408598,
        0.20393870770931244,
        -1.058495283126831,
        0.2536605894565582,
        0.09896697849035263,
        -0.3428439497947693,
        -0.24386632442474365,
        0.050306543707847595,
        0.042232394218444824,
        0.1462506204843521,
        -0.22852811217308044,
        0.40562254190444946,
        -0.503153920173645,
        -0.1813972145318985,
        -0.012685212306678295,
        0.4258185625076294,
        0.043703604489564896,
        -0.0467262901365757,
        0.03289198875427246,
        0.13728924095630646,
        -0.2292374074459076,
        -0.4376771152019501,
        0.11600593477487564,
        0.20112690329551697,
        -0.3515918254852295,
        -0.9158458113670349,
        0.3221999704837799,
        0.4165761470794678,
        0.012993428856134415,
        0.02756907418370247,
        0.042390648275613785,
        0.02637365832924843,
        0.028049133718013763,
        0.5082338452339172,
        0.6680160164833069,
        0.6515096426010132,
        -0.12818050384521484,
        0.8104404211044312,
        0.5937728881835938,
        -0.19648124277591705,
        0.23230981826782227,
        0.34527117013931274,
        0.6666861176490784,
        -0.03495870903134346,
        -0.2149047702550888,
        -0.09093112498521805,
        0.7279825210571289,
        0.4912300705909729,
        -0.6826290488243103,
        -0.178782120347023,
        -0.7636638879776001,
        -0.2967805862426758,
        0.7039449214935303,
        1.2585830688476562,
        0.018156081438064575,
        0.08955276012420654,
        -1.0946071147918701,
        0.0611036941409111,
        0.45666640996932983,
        0.05672729015350342,
        -0.6269463896751404,
        -0.34478822350502014,
        0.3844189941883087,
        0.35562863945961,
        0.09367016702890396,
        0.6690102219581604,
        -0.06876532733440399,
        -0.05112282559275627,
        -1.2493034601211548,
        -0.5100913047790527,
        0.011578243225812912,
        0.47266796231269836,
        0.7034284472465515,
        -0.420791357755661,
        -0.4578789174556732,
        0.4184972643852234,
        0.030466970056295395,
        -0.01477518305182457,
        0.008244846016168594,
        0.005518987774848938,
        -0.07408253103494644,
        1.165268898010254,
        1.2914186716079712,
        1.7747501134872437,
        -0.005369659513235092,
        1.0551490783691406,
        0.7961518168449402,
        -0.1314910352230072,
        -0.10625777393579483,
        0.6363012194633484,
        1.0852149724960327,
        -0.06789874285459518,
        -0.2834984064102173,
        -0.06891465932130814,
        0.2870196998119354,
        0.743179440498352,
        -1.3152307271957397,
        -0.5952160358428955,
        -0.5772947072982788,
        -0.030850932002067566,
        0.8306639790534973,
        1.514428734779358,
        0.14149191975593567,
        -0.40907710790634155,
        -1.22185480594635,
        0.024907279759645462,
        1.011860728263855,
        0.3976961374282837,
        -0.3403903543949127,
        -0.21679531037807465,
        0.30036669969558716,
        0.7621760368347168,
        0.2844191789627075,
        1.5871883630752563,
        -0.11071451008319855,
        -0.040099188685417175,
        -0.8619592785835266,
        0.028262078762054443,
        -0.3775850832462311,
        0.8628056645393372,
        0.47262123227119446,
        -0.6190822720527649,
        -0.5398242473602295,
        0.8391814231872559,
        0.042382899671792984,
        0.02233075723052025,
        0.02793581411242485,
        0.001990754157304764,
        0.016950033605098724,
        -0.012055939063429832,
        0.024081427603960037,
        -0.007618695497512817,
        0.026146095246076584,
        -0.010489854961633682,
        -0.030241956934332848,
        -0.024631967768073082,
        0.02258724346756935,
        0.026162799447774887,
        -0.03828723356127739,
        0.03025452420115471,
        0.012528486549854279,
        0.029074091464281082,
        0.02454482391476631,
        0.022447403520345688,
        -0.018647216260433197,
        -0.029564686119556427,
        0.027476217597723007,
        0.013060476630926132,
        -0.004191610962152481,
        0.02299562469124794,
        -0.0036657042801380157,
        0.021691810339689255,
        -0.020664550364017487,
        0.025251302868127823,
        -0.039308756589889526,
        -0.028723934665322304,
        0.03004666045308113,
        0.003430694341659546,
        0.020650368183851242,
        -0.011911805719137192,
        -0.02090458944439888,
        -0.03031911328434944,
        -0.02447688765823841,
        0.030263643711805344,
        0.025143731385469437,
        -0.04127533361315727,
        -0.017421947792172432,
        0.039841022342443466,
        -0.008205275982618332,
        0.039628710597753525,
        -0.0038205645978450775,
        0.010265421122312546,
        -0.0165715329349041,
        0.032067809253931046,
        0.029645834118127823,
        -0.019528480246663094,
        0.1982496827840805,
        0.4322475492954254,
        0.5318908095359802,
        0.6561811566352844,
        -0.17065855860710144,
        -0.01665702648460865,
        -0.1155208945274353,
        0.05848336219787598,
        -0.4694057106971741,
        0.06777961552143097,
        0.39316919445991516,
        0.026666205376386642,
        0.15352830290794373,
        0.22567468881607056,
        0.0272737555205822,
        -0.04206077754497528,
        0.024587344378232956,
        -0.023991186171770096,
        -0.015318471938371658,
        -0.09258199483156204,
        0.018538866192102432,
        -0.041331399232149124,
        0.07866876572370529,
        -0.13008838891983032,
        -0.06436902284622192,
        0.15858615934848785,
        -0.26995521783828735,
        0.7169682383537292,
        -0.030762607231736183,
        0.007781751453876495,
        -0.039992835372686386,
        0.07586637139320374,
        0.16652555763721466,
        0.5850915312767029,
        0.17650026082992554,
        -0.027845125645399094,
        -0.03850412741303444,
        -0.14389953017234802,
        -0.3959299325942993,
        -0.016758866608142853,
        -0.1075260266661644,
        -0.1521414965391159,
        -0.02768344059586525,
        0.6656033992767334,
        0.024470839649438858,
        0.037674855440855026,
        -0.00222112238407135,
        -0.012516273185610771,
        0.388705849647522,
        0.6081537008285522,
        1.5503549575805664,
        0.03685849532485008,
        0.42688247561454773,
        0.4548843502998352,
        -0.4025595486164093,
        -0.7400326728820801,
        0.3033333420753479,
        0.24584802985191345,
        -0.02225896157324314,
        -0.23993650078773499,
        0.03726589307188988,
        0.011942528188228607,
        0.7296995520591736,
        -0.39951783418655396,
        -0.5066495537757874,
        0.3623489737510681,
        -0.6089386343955994,
        -0.030627332627773285,
        0.08156080543994904,
        0.9629976749420166,
        -0.04049655422568321,
        0.00032573193311691284,
        -0.035720791667699814,
        0.0366651825606823,
        1.7908748388290405,
        0.006983764469623566,
        0.3193811774253845,
        -0.5737130045890808,
        0.06211084872484207,
        0.03237676993012428,
        -0.12375543266534805,
        -0.0033456720411777496,
        0.4411463737487793,
        0.7401381731033325,
        -1.5344653129577637,
        -0.008375082165002823,
        -0.20852698385715485,
        0.15471071004867554,
        0.18111944198608398,
        -1.181775450706482,
        -0.8185376524925232,
        0.03418100252747536,
        -0.38545963168144226,
        -0.5160461664199829,
        0.6056516170501709,
        0.04259948804974556,
        -0.0720277950167656,
        -0.048557452857494354,
        -1.235910177230835,
        -0.9698081016540527,
        -0.04768294095993042,
        -0.04665517434477806,
        0.16042549908161163,
        0.2829878628253937,
        0.3041808307170868,
        -0.7266122102737427,
        0.04202042147517204,
        0.037057068198919296,
        0.16350466012954712,
        0.1758972555398941,
        -0.061651721596717834,
        0.009797271341085434,
        0.412161648273468,
        -0.36184754967689514
      ],
      [
        0.25847384333610535,
        2.4631452560424805,
        2.5458199977874756,
        2.5972506999969482,
        0.35154590010643005,
        1.5541553497314453,
        1.6622835397720337,
        0.08009348064661026,
        0.009500321932137012,
        1.638482689857483,
        1.70478355884552,
        0.8928121328353882,
        -0.4496489465236664,
        0.1740969717502594,
        0.8547332882881165,
        0.8916351199150085,
        -1.3400126695632935,
        0.2876797318458557,
        0.6975589990615845,
        0.8378196954727173,
        0.9393789172172546,
        1.880100965499878,
        1.2233222723007202,
        0.24308361113071442,
        -0.43280914425849915,
        0.802245020866394,
        1.945736050605774,
        1.0532243251800537,
        0.9305570721626282,
        -0.04274742305278778,
        0.820956289768219,
        1.428812861442566,
        0.6773865222930908,
        2.1044721603393555,
        -0.016630344092845917,
        0.6137429475784302,
        -1.432943344116211,
        1.0030262470245361,
        -0.6391514539718628,
        0.4222334921360016,
        1.443532109260559,
        0.18199950456619263,
        -0.9124324917793274,
        1.5482639074325562,
        0.00534464418888092,
        0.020035427063703537,
        0.018490638583898544,
        -0.015671906992793083,
        0.07247014343738556,
        1.0061711072921753,
        1.4498372077941895,
        1.5528310537338257,
        -0.1402212232351303,
        1.136756420135498,
        1.291332483291626,
        -0.5472884178161621,
        -0.10497631132602692,
        0.9160386919975281,
        0.882929801940918,
        0.32977014780044556,
        -0.3996599316596985,
        -0.007676269859075546,
        0.7867557406425476,
        0.5254521369934082,
        -1.2002265453338623,
        0.8927398920059204,
        0.4554012715816498,
        0.0038359297905117273,
        1.185935378074646,
        1.5042579174041748,
        1.1129027605056763,
        -0.3339790105819702,
        -0.6836353540420532,
        -0.037613824009895325,
        0.9960931539535522,
        0.346911758184433,
        0.893997073173523,
        0.001032897736877203,
        0.6216941475868225,
        1.6211260557174683,
        0.11488614231348038,
        1.3360097408294678,
        -0.05002245679497719,
        0.22320270538330078,
        -1.8066362142562866,
        0.4326196312904358,
        -0.6937009692192078,
        0.579727828502655,
        0.18775275349617004,
        0.018039684742689133,
        -1.1830835342407227,
        -0.11396750807762146,
        0.0365336649119854,
        0.03848994895815849,
        0.008153393864631653,
        -0.0370437353849411,
        0.03786119073629379,
        1.8183507919311523,
        2.0218942165374756,
        1.3547601699829102,
        -0.06765462458133698,
        1.3283331394195557,
        1.3590327501296997,
        -0.488059937953949,
        -0.4382455050945282,
        1.2466610670089722,
        1.0004380941390991,
        0.37415561079978943,
        -0.512115478515625,
        -0.04413566738367081,
        1.0967252254486084,
        0.690510630607605,
        -1.8725965023040771,
        0.1266961544752121,
        0.19531285762786865,
        -0.23844502866268158,
        0.7918855547904968,
        1.8999089002609253,
        0.6196234822273254,
        -0.024513397365808487,
        -0.8362239003181458,
        1.1107780933380127,
        1.6561322212219238,
        0.9373895525932312,
        0.35166308283805847,
        -0.3574585020542145,
        0.5830231308937073,
        1.7663614749908447,
        0.3867422342300415,
        0.9631418585777283,
        -0.12267406284809113,
        0.20187970995903015,
        -1.2421585321426392,
        0.3630106449127197,
        -0.7106512784957886,
        1.0564862489700317,
        1.1973729133605957,
        -0.2155420333147049,
        -0.9087367653846741,
        0.9552515745162964,
        0.008316494524478912,
        0.004127237945795059,
        0.04218020662665367,
        0.030972305685281754,
        0.49769943952560425,
        0.7046615481376648,
        0.8287192583084106,
        0.03863219916820526,
        -0.40851885080337524,
        -0.007855061441659927,
        0.018960565328598022,
        0.4958297610282898,
        0.002971161622554064,
        1.0602915287017822,
        0.029443034902215004,
        0.15555128455162048,
        0.13039159774780273,
        0.5344159603118896,
        -0.014465214684605598,
        -0.011974183842539787,
        0.010978039354085922,
        0.04175447300076485,
        0.040459420531988144,
        0.2794688045978546,
        -0.0017977356910705566,
        0.025969248265028,
        0.25571581721305847,
        -0.3733609914779663,
        -0.009159083478152752,
        -0.1729126125574112,
        0.8660809397697449,
        0.39627721905708313,
        0.15557393431663513,
        0.006945431232452393,
        -0.030448850244283676,
        0.22842508554458618,
        -0.18616503477096558,
        0.6907241940498352,
        0.4695926010608673,
        0.2427368015050888,
        0.018473483622074127,
        0.2307259440422058,
        -0.04642139747738838,
        0.029442403465509415,
        0.11712580174207687,
        0.011646976694464684,
        0.009864568710327148,
        0.6809300780296326,
        -0.002680916339159012,
        -0.013393085449934006,
        -0.042347151786088943,
        -0.0047935545444488525,
        0.028796197846531868,
        1.8979952335357666,
        0.4374748766422272,
        0.41396021842956543,
        0.40567657351493835,
        2.440605640411377,
        0.9812815189361572,
        -0.306725412607193,
        0.592248797416687,
        1.0944631099700928,
        0.6213847994804382,
        -0.08616930991411209,
        -0.29754748940467834,
        -0.28602805733680725,
        1.970771074295044,
        0.915132462978363,
        -1.1683200597763062,
        1.194920539855957,
        0.6213854551315308,
        0.18908123672008514,
        1.1168683767318726,
        1.9485604763031006,
        1.051926851272583,
        -0.15877540409564972,
        -0.2595824897289276,
        0.5507710576057434,
        1.4285486936569214,
        0.7113181352615356,
        0.7702472805976868,
        0.0485701858997345,
        1.359258770942688,
        1.032686471939087,
        0.32635536789894104,
        0.9214959144592285,
        -0.013031123206019402,
        0.34049344062805176,
        -1.6273274421691895,
        0.06126270815730095,
        -0.6928586959838867,
        0.5946120619773865,
        0.5524846911430359,
        -1.1085841655731201,
        0.07223093509674072,
        0.3425149917602539,
        0.2511388957500458,
        -0.2233918309211731,
        0.5802466869354248,
        -0.6919428706169128,
        -0.04586102440953255,
        -0.19248005747795105,
        -0.01542843971401453,
        0.2592327892780304,
        0.17807389795780182,
        -0.21550646424293518,
        0.13586413860321045,
        -0.19898918271064758,
        -0.004449688829481602,
        0.045203741639852524,
        -0.18857847154140472,
        0.16507719457149506,
        -0.013814089819788933,
        0.026114869862794876,
        -0.06733837723731995,
        -0.08542424440383911,
        0.3116079568862915,
        -0.28761982917785645,
        1.2667890787124634,
        -0.14967244863510132,
        0.20891672372817993,
        0.04947686567902565,
        0.03144393861293793,
        -0.5107550024986267,
        0.4682251513004303,
        0.36612966656684875,
        0.2502468228340149,
        -0.6694846749305725,
        0.341360867023468,
        0.42094969749450684,
        0.32667484879493713,
        -0.054557304829359055,
        -0.13120856881141663,
        -0.0708518698811531,
        -0.10090760141611099,
        0.22401031851768494,
        0.45579394698143005,
        0.3669706881046295,
        -0.21942293643951416,
        0.027725815773010254,
        0.46168041229248047,
        1.0758205652236938,
        -0.0734795331954956,
        -0.003135344944894314,
        0.025575947016477585,
        0.0339348129928112,
        -0.013803960755467415,
        -0.01957368664443493,
        -0.15567582845687866,
        -0.8613138198852539,
        -1.3889752626419067,
        -1.6349691152572632,
        -0.021192822605371475,
        -1.1804560422897339,
        -1.0260409116744995,
        0.9415905475616455,
        0.0006894569378346205,
        -0.926214873790741,
        -1.0973093509674072,
        -0.2905452251434326,
        0.18259616196155548,
        -0.06579116731882095,
        -1.0846120119094849,
        -0.49653902649879456,
        1.0550928115844727,
        0.651080846786499,
        0.6753979325294495,
        -0.18442264199256897,
        -0.5446865558624268,
        -1.219961166381836,
        0.4740263521671295,
        -0.8730573058128357,
        1.8643430471420288,
        0.19920967519283295,
        -0.5112900733947754,
        -1.1663665771484375,
        -0.29525965452194214,
        0.28932684659957886,
        -0.47229549288749695,
        -1.0040323734283447,
        -0.21368107199668884,
        -1.1162182092666626,
        -0.12066919356584549,
        -0.3534371852874756,
        2.299802780151367,
        0.0065117510966956615,
        0.22197353839874268,
        -0.5979873538017273,
        -0.8581373691558838,
        1.1174745559692383,
        1.2142969369888306,
        -1.2636277675628662,
        -0.02553413063287735,
        -0.022820819169282913,
        0.024278435856103897,
        0.02881650999188423,
        -0.091110959649086,
        -1.917299747467041,
        -1.9008116722106934,
        -3.0505974292755127,
        -0.23598448932170868,
        -1.8382924795150757,
        -1.339401364326477,
        0.24431610107421875,
        0.3904277980327606,
        -1.166561245918274,
        -1.4329488277435303,
        -0.13184648752212524,
        0.39652591943740845,
        0.05145087465643883,
        -1.4604485034942627,
        -0.8664129376411438,
        1.869421362876892,
        0.7040440440177917,
        0.557744562625885,
        -0.843012273311615,
        -0.8319223523139954,
        -1.6583583354949951,
        0.28583240509033203,
        -0.6683171391487122,
        2.9999496936798096,
        -0.2948153018951416,
        -1.248595118522644,
        -0.9243500232696533,
        -0.3139452636241913,
        0.004394857678562403,
        -0.41033363342285156,
        -1.1271746158599854,
        -0.7326911091804504,
        -2.315263271331787,
        0.02579791471362114,
        -0.26031047105789185,
        1.9474635124206543,
        -0.8296443819999695,
        0.9298502206802368,
        -1.0979692935943604,
        -1.0695512294769287,
        1.400151252746582,
        1.434126615524292,
        -1.8998444080352783,
        -0.021234184503555298,
        -0.03267243131995201,
        0.03802168741822243,
        0.013076134026050568,
        0.0005464106798171997,
        0.035226453095674515,
        -0.02575279399752617,
        -0.021597204729914665,
        0.03134073689579964,
        0.01920655369758606,
        0.015523668378591537,
        -0.03091708943247795,
        0.030708815902471542,
        -0.027897339314222336,
        0.005443178117275238,
        0.006334178149700165,
        -0.03276112303137779,
        0.01771826297044754,
        0.0052965618669986725,
        0.03727841004729271,
        -0.010705020278692245,
        0.025376636534929276,
        -0.021067490801215172,
        0.022698942571878433,
        0.007567014545202255,
        0.04159913584589958,
        0.0253770612180233,
        -0.016144031658768654,
        0.03958640620112419,
        0.04036084935069084,
        0.005885526537895203,
        0.04154335334897041,
        0.008198317140340805,
        -0.00013451650738716125,
        0.016548283398151398,
        0.009540233761072159,
        -0.011234093457460403,
        -0.02412501908838749,
        -0.01344337873160839,
        -0.03560149297118187,
        0.008135270327329636,
        0.035658400505781174,
        0.030893448740243912,
        -0.005654674023389816,
        -0.02489917352795601,
        -0.014522358775138855,
        -0.03369053825736046,
        0.030563894659280777,
        0.04122145101428032,
        -0.03487994521856308,
        -0.0048865750432014465,
        0.013002414256334305,
        -1.0304867029190063,
        -1.419966220855713,
        -1.5560481548309326,
        -0.8893209099769592,
        0.19900259375572205,
        -0.03776995837688446,
        -0.28068599104881287,
        -0.415509968996048,
        0.39225536584854126,
        -0.5234134197235107,
        -0.9575675129890442,
        0.0023012275341898203,
        -0.06992160528898239,
        -1.0353237390518188,
        -0.03699741140007973,
        -0.007761038839817047,
        0.03808566555380821,
        -0.012635815888643265,
        -0.019620154052972794,
        0.014696679078042507,
        -0.009205926209688187,
        -0.002843908965587616,
        -0.659116804599762,
        0.15993893146514893,
        -0.13538163900375366,
        -0.44627735018730164,
        -0.273959219455719,
        -0.8852069973945618,
        -0.1981368511915207,
        -0.027430539950728416,
        -0.036530110985040665,
        -0.16296790540218353,
        -0.20768927037715912,
        -0.9102328419685364,
        -1.0060638189315796,
        0.09493556618690491,
        -0.0077935196459293365,
        0.13996250927448273,
        0.36085179448127747,
        0.02573653683066368,
        0.2918536067008972,
        0.23531383275985718,
        -0.04266273230314255,
        -1.0234075784683228,
        -0.003793109208345413,
        0.04004206880927086,
        -0.010602958500385284,
        0.023002702742815018,
        -1.0051089525222778,
        -1.6505862474441528,
        -3.0305275917053223,
        -0.027444109320640564,
        -1.4207550287246704,
        -1.1408933401107788,
        0.23905108869075775,
        1.2917038202285767,
        -0.8494659662246704,
        -0.702484130859375,
        -0.5917114615440369,
        -0.2910117506980896,
        -0.015079418197274208,
        0.0017864182591438293,
        -1.1730599403381348,
        -0.231930211186409,
        0.12489066272974014,
        -0.4600743353366852,
        0.18411917984485626,
        0.002330455929040909,
        -0.12105906754732132,
        -1.4909493923187256,
        0.02400139346718788,
        -0.02414442040026188,
        -0.02077876217663288,
        0.013554226607084274,
        -3.9260754585266113,
        -0.004876274615526199,
        -0.8997625112533569,
        0.357984721660614,
        -0.4280877709388733,
        -0.017560193315148354,
        -0.2683461010456085,
        -0.0036759227514266968,
        -1.1299755573272705,
        -2.0966975688934326,
        1.7341504096984863,
        0.031323399394750595,
        0.9346083998680115,
        -0.5607501864433289,
        -0.7323866486549377,
        1.9626264572143555,
        0.6896901726722717,
        -0.00122176855802536,
        0.8639483451843262,
        0.32044824957847595,
        -2.3637568950653076,
        -0.02549961768090725,
        0.09572134912014008,
        -0.23591841757297516,
        2.6669201850891113,
        1.022661805152893,
        0.26981720328330994,
        -0.2354547530412674,
        0.25414007902145386,
        0.1371202915906906,
        0.06945912539958954,
        0.24908220767974854,
        0.05382969602942467,
        0.05561138689517975,
        0.07533390074968338,
        -0.973015308380127,
        -0.11996808648109436,
        -0.1397402435541153,
        -0.9541541337966919,
        0.19806066155433655
      ],
      [
        0.05704581364989281,
        1.8214319944381714,
        1.6806130409240723,
        1.948169231414795,
        0.10536275804042816,
        1.394374966621399,
        1.1539510488510132,
        0.06904766708612442,
        -0.14740581810474396,
        1.0492258071899414,
        1.203392744064331,
        0.5241143107414246,
        -0.550371527671814,
        -0.0876486673951149,
        0.6339551210403442,
        0.8876345753669739,
        -1.133584976196289,
        0.4474503695964813,
        0.8070657253265381,
        0.7456778883934021,
        0.6599225401878357,
        1.5404819250106812,
        0.8503997921943665,
        0.341543972492218,
        -0.41091394424438477,
        0.6161604523658752,
        1.437548041343689,
        0.9858698844909668,
        0.88090980052948,
        -0.24031949043273926,
        0.6978625655174255,
        1.2085570096969604,
        0.4912087023258209,
        1.9039524793624878,
        -0.22195219993591309,
        0.23074334859848022,
        -0.9198044538497925,
        1.3174363374710083,
        -0.8230922222137451,
        0.5286606550216675,
        1.4980307817459106,
        -0.0025325841270387173,
        -0.6820964217185974,
        1.1397162675857544,
        -0.03478255495429039,
        -0.015581352636218071,
        -0.01564902625977993,
        0.03148774430155754,
        0.03973637521266937,
        0.696300208568573,
        0.9684459567070007,
        0.7343202233314514,
        -0.1261828988790512,
        1.044626235961914,
        0.7698727250099182,
        -0.5341594815254211,
        -0.340084433555603,
        0.4270936846733093,
        0.5262200832366943,
        0.2310553789138794,
        -0.25731682777404785,
        -0.05477801710367203,
        0.1543954610824585,
        0.7145882844924927,
        -1.078365683555603,
        0.8484315276145935,
        0.48309072852134705,
        0.31993749737739563,
        0.8324505686759949,
        1.5012288093566895,
        1.162299633026123,
        -0.27351266145706177,
        -0.7559399008750916,
        -0.157194584608078,
        0.7172794342041016,
        -0.1626104861497879,
        1.0508556365966797,
        0.1691959798336029,
        0.2633940875530243,
        1.3939666748046875,
        -0.046052876859903336,
        0.9841940999031067,
        0.03112565539777279,
        0.010507055558264256,
        -1.6249371767044067,
        0.2045019268989563,
        -0.794198215007782,
        0.3612903654575348,
        -0.0467773899435997,
        -0.16176611185073853,
        -0.8723607659339905,
        -0.4788537919521332,
        -0.007898379117250443,
        -0.04013689607381821,
        0.03938665613532066,
        -0.014704566448926926,
        0.012399107217788696,
        1.1621142625808716,
        1.2972655296325684,
        1.006332278251648,
        -0.04570581763982773,
        1.0670034885406494,
        0.9326633810997009,
        -0.5464391112327576,
        -0.4915849566459656,
        0.45490190386772156,
        0.7805026769638062,
        0.45015454292297363,
        -0.3425765037536621,
        -0.027484145015478134,
        0.503268837928772,
        0.6768941283226013,
        -1.7591661214828491,
        0.3234490752220154,
        0.37368467450141907,
        -0.31622010469436646,
        0.638496458530426,
