{
  "backend": "torch",
  "state_size": 546,
  "option_size": 109,
  "hidden_size": 24,
  "architecture": "legacy_v1",
  "device_preference": "cpu",
  "state_dict": {
    "joint_bias": [
      -0.007424530573189259,
      -0.05079462006688118,
      0.01966189220547676,
      -0.05730356276035309,
      0.06748371571302414,
      0.138452410697937,
      0.06693821400403976,
      0.07457052171230316,
      -0.016300441697239876,
      -0.12197749316692352,
      0.0004463093646336347,
      -0.025994788855314255,
      0.07229655236005783,
      -0.09383975714445114,
      -0.07116846740245819,
      -0.031102128326892853,
      -0.12203504890203476,
      -0.061168186366558075,
      0.014497761614620686,
      -0.04881305620074272,
      0.1225680410861969,
      0.0528104342520237,
      0.026635760441422462,
      0.02940438874065876
    ],
    "state_linear.weight": [
      [
        -0.04272476211190224,
        -0.04651994630694389,
        -0.03365904465317726,
        0.014199676923453808,
        0.06683754920959473,
        -0.027609245851635933,
        -0.014974568039178848,
        -0.006989620625972748,
        -0.04551752284169197,
        -0.01682749018073082,
        0.05414647236466408,
        -0.07978500425815582,
        0.030873149633407593,
        -0.03814055770635605,
        0.021290183067321777,
        0.012031925842165947,
        -0.009360577911138535,
        -0.023526346310973167,
        0.026817606762051582,
        -0.08427021652460098,
        -0.008819475769996643,
        -0.05672299489378929,
        -0.014151032082736492,
        -0.09856320917606354,
        0.035423483699560165,
        0.003158960258588195,
        -0.025166474282741547,
        -0.0697026401758194,
        0.15584474802017212,
        0.02265789359807968,
        -0.01582571491599083,
        -0.0115657988935709,
        -0.004502064548432827,
        0.017239047214388847,
        0.008028917014598846,
        -0.04476379230618477,
        -0.03744868189096451,
        -0.085628941655159,
        -0.01445076521486044,
        -0.027986034750938416,
        0.11494319885969162,
        -0.016481582075357437,
        0.05292511731386185,
        -0.038223687559366226,
        -0.00914125144481659,
        -0.000990603119134903,
        0.023961547762155533,
        0.04081321135163307,
        -0.034708406776189804,
        -0.015019647777080536,
        -0.08427917957305908,
        0.03170404210686684,
        0.0288610327988863,
        -0.10855607688426971,
        -0.030316416174173355,
        -0.0006459435680881143,
        -0.03145315870642662,
        -0.08292093873023987,
        0.02711648680269718,
        -0.031739577651023865,
        0.03387172892689705,
        -0.007803294342011213,
        -0.10416260361671448,
        -0.0973617359995842,
        -0.015394157730042934,
        -0.040904417634010315,
        -0.13189825415611267,
        -0.0233908724039793,
        -0.12117905169725418,
        -0.00128703354857862,
        0.06616897881031036,
        0.04620099067687988,
        -0.01499373558908701,
        -0.0663793757557869,
        -0.062175702303647995,
        0.062260858714580536,
        -0.08489479869604111,
        0.016280818730592728,
        -0.15798288583755493,
        -0.03209950402379036,
        -0.018038026988506317,
        0.03853042423725128,
        -0.028758911415934563,
        0.013043077662587166,
        -0.013134111650288105,
        -0.07309618592262268,
        -0.0868673250079155,
        -0.03964599594473839,
        -0.047364793717861176,
        -0.05106854438781738,
        0.0017466702265664935,
        -0.039910148829221725,
        -0.035159774124622345,
        0.012058883905410767,
        0.03161828592419624,
        0.00918559730052948,
        0.0036181272007524967,
        0.08460944890975952,
        0.05815848335623741,
        -0.030539846047759056,
        0.060485273599624634,
        -0.031497567892074585,
        0.07471220195293427,
        -0.004207667429000139,
        -0.00016928359400480986,
        -0.007831650786101818,
        0.00861151609569788,
        -0.0023115179501473904,
        -0.012667562812566757,
        0.010967393405735493,
        -0.11819150298833847,
        0.07236993312835693,
        0.05379204452037811,
        -0.09972424060106277,
        0.04731446132063866,
        0.017055891454219818,
        -0.008118048310279846,
        -0.12725450098514557,
        0.054332856088876724,
        0.058981236070394516,
        0.05137799680233002,
        0.05945611745119095,
        0.053721148520708084,
        0.0546916127204895,
        -0.023689785972237587,
        0.10610061138868332,
        -0.005171661265194416,
        0.06719178706407547,
        0.04031077399849892,
        0.006058523431420326,
        0.04722897708415985,
        0.06754055619239807,
        -0.044130176305770874,
        0.05282657593488693,
        0.021519968286156654,
        0.12433487921953201,
        0.051733411848545074,
        -0.03088689036667347,
        0.027630450204014778,
        0.045619264245033264,
        -0.04060935229063034,
        0.03452109172940254,
        0.025426466017961502,
        -0.0024885162711143494,
        -0.10476270318031311,
        -0.07628916203975677,
        -0.07984380424022675,
        -0.12948492169380188,
        0.012341005727648735,
        0.03173007443547249,
        -0.06414321810007095,
        -0.04542103782296181,
        -0.04048356041312218,
        0.05652928352355957,
        -0.10010650008916855,
        -0.09285672754049301,
        -0.03818134963512421,
        -0.1388244926929474,
        -0.027486857026815414,
        -0.009828828275203705,
        -0.04250087961554527,
        -0.007218815386295319,
        -0.0013071708381175995,
        -0.07518347352743149,
        0.02641407772898674,
        0.024666499346494675,
        -0.042392149567604065,
        -0.053484249860048294,
        0.05084950476884842,
        -0.03552550449967384,
        -0.04553927853703499,
        -0.0635896697640419,
        -0.05820569023489952,
        -0.029392877593636513,
        0.015394549816846848,
        0.027879970148205757,
        -0.08562356978654861,
        -0.06171100214123726,
        -0.07621660828590393,
        -0.06289911270141602,
        -0.0025173239409923553,
        0.011490519158542156,
        -0.043064434081315994,
        -0.0025862231850624084,
        0.07518260926008224,
        -0.014187447726726532,
        0.010231316089630127,
        -0.10435899347066879,
        -0.00017547607421875,
        -0.030707143247127533,
        -0.01843913272023201,
        -0.03704342246055603,
        0.047896165400743484,
        0.030067045241594315,
        -0.026048971340060234,
        0.02846740558743477,
        0.04767833277583122,
        0.018632963299751282,
        -0.0003427958581596613,
        -0.041256096214056015,
        0.0533677339553833,
        0.06806333363056183,
        -0.019816074520349503,
        -0.001394144375808537,
        0.00927426852285862,
        -0.00349119259044528,
        -0.017682867124676704,
        -0.03369688615202904,
        -0.09000571072101593,
        -0.048472266644239426,
        0.008768626488745213,
        -0.020594188943505287,
        0.019970988854765892,
        0.07434312254190445,
        0.01733839139342308,
        0.05760876089334488,
        -0.0009483862668275833,
        -0.12580102682113647,
        -0.02560240961611271,
        -0.009769648313522339,
        0.06902093440294266,
        -0.013880502432584763,
        0.007079119794070721,
        -0.03483874350786209,
        0.002932431176304817,
        -0.013886670581996441,
        -0.006696703843772411,
        -0.005185307003557682,
        -0.011265016160905361,
        -0.019119178876280785,
        0.09710961580276489,
        0.014390532858669758,
        -0.045439474284648895,
        -0.0001301312877330929,
        0.018512321636080742,
        -0.08076928555965424,
        0.013492608442902565,
        -0.10217513144016266,
        -0.01930927485227585,
        0.045490145683288574,
        -0.0032577253878116608,
        -0.010306734591722488,
        -0.031367480754852295,
        0.04119765758514404,
        0.026579292491078377,
        0.01709212362766266,
        0.004149702377617359,
        -0.03298330307006836,
        0.012580241076648235,
        -0.028023632243275642,
        -0.01495626661926508,
        -0.04083406552672386,
        0.001807968015782535,
        -0.007895675487816334,
        0.0155992666259408,
        -0.020177535712718964,
        0.037174761295318604,
        -0.013457207009196281,
        -0.008032450452446938,
        0.04024611413478851,
        0.026509258896112442,
        0.007526768371462822,
        -0.014222510159015656,
        0.05757291242480278,
        -0.06743887066841125,
        -0.11261086910963058,
        0.005694877821952105,
        0.08688673377037048,
        -0.06515539437532425,
        0.0761839896440506,
        -0.05740054324269295,
        -0.10074680298566818,
        0.024093935266137123,
        -0.03758614882826805,
        -0.0028054830618202686,
        -0.026331273838877678,
        -0.023845762014389038,
        0.04936691001057625,
        0.08610939979553223,
        0.03703765198588371,
        -0.06189858168363571,
        -0.005168957635760307,
        0.04835757985711098,
        -0.06074982509016991,
        0.032797399908304214,
        -0.04183034598827362,
        -0.03848983719944954,
        0.03344211354851723,
        -0.04612702876329422,
        0.02517780102789402,
        -0.03499186784029007,
        -0.03080802597105503,
        0.0737292543053627,
        -0.07396091520786285,
        -0.02928268536925316,
        -0.03175216168165207,
        0.0050099859945476055,
        0.05024118348956108,
        -0.01055588386952877,
        -0.022702496498823166,
        -0.053304363042116165,
        0.02077457681298256,
        -0.09433463215827942,
        -0.0006812855135649443,
        -0.014445517212152481,
        -0.05490229278802872,
        0.08201534301042557,
        0.062338996678590775,
        -0.02241118624806404,
        -0.095081627368927,
        -0.021654410287737846,
        -0.0414629764854908,
        0.096942238509655,
        -0.039266787469387054,
        -0.016700206324458122,
        -0.061883363872766495,
        0.04795627295970917,
        0.012870104052126408,
        -0.027960579842329025,
        -0.0416158102452755,
        -0.014413614757359028,
        -0.10116270184516907,
        0.030821725726127625,
        0.011406920850276947,
        -0.039684899151325226,
        -0.07273434102535248,
        0.028547823429107666,
        0.08512388169765472,
        0.12432511150836945,
        -0.010734054259955883,
        0.0018166571389883757,
        0.04751592129468918,
        -0.035294223576784134,
        0.03296763822436333,
        0.0026697926223278046,
        -0.005965117365121841,
        0.03753787279129028,
        0.037558384239673615,
        -0.015146458521485329,
        -0.08094923943281174,
        0.048874009400606155,
        -0.015421677380800247,
        -0.02416100539267063,
        0.04847213625907898,
        -0.035188332200050354,
        -0.015091798268258572,
        0.006846042349934578,
        0.09956109523773193,
        0.023692661896348,
        0.026902910321950912,
        -0.08499273657798767,
        0.008701144717633724,
        0.022454433143138885,
        -0.020532624796032906,
        -0.05285115912556648,
        -0.016227515414357185,
        -0.012886295095086098,
        -0.048353102058172226,
        0.08205702900886536,
        -0.0036448033060878515,
        -0.06801402568817139,
        0.08369942754507065,
        0.0037391555961221457,
        0.08135407418012619,
        0.10218274593353271,
        0.0837836042046547,
        -0.09786437451839447,
        -0.0025669459719210863,
        -0.0021993680857121944,
        0.07179930061101913,
        0.03712261840701103,
        0.10109184682369232,
        -0.022450093179941177,
        -0.08872202038764954,
        -0.07128549367189407,
        -0.06405865401029587,
        -0.021643545478582382,
        -0.11268546432256699,
        0.005377001594752073,
        0.037235986441373825,
        -0.007380552589893341,
        0.027934323996305466,
        -0.014018934220075607,
        0.009793303906917572,
        -0.02538246288895607,
        -0.002770092338323593,
        -0.029862400144338608,
        0.03868257626891136,
        0.0038721784949302673,
        0.0022465623915195465,
        0.008164938539266586,
        0.03283435478806496,
        -0.04086301103234291,
        0.036877620965242386,
        0.013324432075023651,
        0.03102775290608406,
        -0.03947095945477486,
        0.012204673141241074,
        0.017295941710472107,
        -0.04037667065858841,
        0.02158607915043831,
        -0.018537774682044983,
        0.0034714527428150177,
        0.013092771172523499,
        0.009523622691631317,
        0.025106269866228104,
        0.018780477344989777,
        -0.03996317461133003,
        0.03370688483119011,
        0.03848160430788994,
        -0.036576464772224426,
        -0.023018728941679,
        -0.027540281414985657,
        -0.0058551207184791565,
        -0.03973562270402908,
        0.009292233735322952,
        0.023677576333284378,
        -0.001515604555606842,
        -0.022380130365490913,
        0.040498752146959305,
        -0.0292511023581028,
        -0.02930162474513054,
        0.017519231885671616,
        -0.02496425062417984,
        0.016271155327558517,
        -0.018948959186673164,
        0.0138346366584301,
        0.012304313480854034,
        0.019954945892095566,
        -0.02651328220963478,
        -0.010675732046365738,
        0.04065055027604103,
        0.11197245866060257,
        0.01645376905798912,
        0.009392235428094864,
        -0.006334726698696613,
        0.015528985299170017,
        0.03294209763407707,
        0.08148004114627838,
        0.009595731273293495,
        0.0189200472086668,
        0.02991267666220665,
        0.04378628358244896,
        -0.0677957758307457,
        0.04247727245092392,
        0.04939709231257439,
        0.03916139528155327,
        -0.03379042446613312,
        -0.03974185138940811,
        0.03481690213084221,
        0.016217920929193497,
        0.010970030911266804,
        0.01302831619977951,
        0.039539288729429245,
        0.08392062783241272,
        0.07212690263986588,
        -0.040768399834632874,
        0.025376446545124054,
        -0.057272497564554214,
        -0.021423740312457085,
        -0.10916419327259064,
        0.013566859066486359,
        0.0361386202275753,
        0.059920452535152435,
        0.044822316616773605,
        -0.0326697900891304,
        0.03683874011039734,
        -0.07735926657915115,
        -0.016906214877963066,
        0.09348363429307938,
        0.03571179509162903,
        -0.004102155566215515,
        0.041634783148765564,
        0.018829980865120888,
        0.03867098316550255,
        0.04008740186691284,
        -0.03922351077198982,
        -0.028161805123090744,
        0.032935354858636856,
        -0.0026489943265914917,
        0.030198153108358383,
        0.06252618879079819,
        -0.0013948660343885422,
        -0.019459832459688187,
        -0.03914915397763252,
        0.022687984630465508,
        0.021371744573116302,
        -0.006044658366590738,
        -0.07160025089979172,
        -0.03875105828046799,
        0.05657874420285225,
        0.05579059571027756,
        -0.03139305114746094,
        -0.030885610729455948,
        -0.04529804363846779,
        0.049518413841724396,
        -0.046983398497104645,
        0.02440285123884678,
        0.0963018462061882,
        -0.040765829384326935,
        -0.09662158042192459,
        -0.029075490310788155,
        0.04219958558678627,
        0.04022038355469704,
        0.029403794556856155,
        -0.03625562787055969,
        -0.06434807181358337,
        -0.037899795919656754,
        0.05018835514783859,
        0.061933036893606186,
        0.05022793635725975,
        -0.03106679767370224,
        0.0810433030128479,
        0.02567801997065544,
        -0.027205457910895348,
        0.01469665952026844,
        0.03264369070529938,
        0.02637149766087532,
        -0.12211882323026657,
        -0.0037549741100519896,
        -0.019913896918296814,
        -0.0626411959528923,
        0.03203031048178673,
        0.01854398474097252,
        0.05800063535571098,
        0.005033362656831741,
        0.01768800988793373,
        -0.012621879577636719,
        0.008919705636799335,
        -0.02733089029788971,
        0.05395574867725372,
        0.04492492228746414,
        0.06227398291230202,
        0.013814060017466545,
        -0.03818156197667122,
        -0.10517097264528275,
        0.014450089074671268,
        -0.011593093164265156,
        -0.048222560435533524,
        -0.01699661836028099,
        -0.021987155079841614,
        0.03921898081898689,
        -0.031569451093673706,
        -0.01912224106490612,
        0.03773355856537819,
        0.007501155138015747
      ],
      [
        0.019483493641018867,
        0.023264721035957336,
        -0.08469371497631073,
        0.038636427372694016,
        0.013714322820305824,
        0.01499613281339407,
        -0.07692631334066391,
        0.07802131026983261,
        0.07410282641649246,
        -0.07934236526489258,
        -0.037007324397563934,
        0.023113558068871498,
        0.040957286953926086,
        0.011339169926941395,
        0.0032006094697862864,
        0.049272309988737106,
        0.03184564784169197,
        -0.02553662098944187,
        -0.08002161979675293,
        0.1262420266866684,
        -0.07988736033439636,
        -0.014786546118557453,
        -0.11172366887331009,
        0.17535428702831268,
        0.021862685680389404,
        -0.06416228413581848,
        -0.033878713846206665,
        0.021693004295229912,
        -0.07513057440519333,
        0.051660723984241486,
        0.015224453993141651,
        -0.07860978692770004,
        -0.0165738333016634,
        0.03215869888663292,
        0.008891880512237549,
        0.01312258094549179,
        0.04818353056907654,
        0.03961919993162155,
        0.03845527395606041,
        -0.11174660176038742,
        -0.1112455502152443,
        0.06073058024048805,
        -0.0741424560546875,
        0.04334714263677597,
        0.02426302805542946,
        -0.01964990608394146,
        -0.028569858521223068,
        0.03987633064389229,
        0.0036207428202033043,
        -0.038573119789361954,
        0.01620546728372574,
        0.04996218532323837,
        -0.0849994421005249,
        0.054718177765607834,
        -0.00418807053938508,
        -0.10438913106918335,
        -0.05212792009115219,
        -0.02942870371043682,
        -0.00044428673572838306,
        0.0720389261841774,
        -0.047609537839889526,
        0.009727062657475471,
        -0.016102902591228485,
        0.03334760293364525,
        0.03678329661488533,
        -0.09898703545331955,
        0.07396131008863449,
        0.013421855866909027,
        -0.03267701715230942,
        0.012107163667678833,
        -0.06006636843085289,
        0.08065527677536011,
        0.05349224805831909,
        -0.07663838565349579,
        0.01478109136223793,
        -0.030659860000014305,
        -0.04806861653923988,
        -0.1375407874584198,
        0.024320196360349655,
        -0.11092513799667358,
        0.0354081392288208,
        -0.08502550423145294,
        0.020010842010378838,
        0.06646782159805298,
        0.041864991188049316,
        0.04779820144176483,
        0.024132709950208664,
        0.0036348775029182434,
        -0.07358605414628983,
        0.010268084704875946,
        -0.004770867060869932,
        -0.04517129436135292,
        0.030239161103963852,
        0.0007278919219970703,
        -0.04138966277241707,
        -0.004136968404054642,
        0.0020783848594874144,
        0.00889054499566555,
        -0.07163504511117935,
        0.03494340181350708,
        0.038592513650655746,
        -0.02268677018582821,
        0.04148197919130325,
        0.08620128780603409,
        -0.006275783758610487,
        0.0065813385881483555,
        0.02837240882217884,
        -0.0004038885235786438,
        0.03734429180622101,
        -0.014938128180801868,
        0.027857154607772827,
        -0.07498626410961151,
        -0.027080819010734558,
        0.17634601891040802,
        0.06034356728196144,
        0.08922488987445831,
        -0.0434996671974659,
        -0.07214801758527756,
        -0.0056093111634254456,
        -0.07360050082206726,
        0.04198392480611801,
        -0.09228457510471344,
        0.031765710562467575,
        0.03703640401363373,
        0.004530814476311207,
        -0.010952072218060493,
        0.01597699150443077,
        -0.10092464089393616,
        0.011655740439891815,
        -0.09584206342697144,
        -0.025772839784622192,
        -0.04447440803050995,
        0.01904437318444252,
        0.0072180707938969135,
        -0.04604892060160637,
        -0.06488771736621857,
        -0.013463216833770275,
        -0.004919115453958511,
        0.06420891731977463,
        -0.02269737981259823,
        0.01945977658033371,
        0.010796841233968735,
        -0.033803753554821014,
        0.0009274184703826904,
        -0.011971269734203815,
        -0.032191675156354904,
        0.02823139727115631,
        -0.008840533904731274,
        0.04107688367366791,
        -0.04003480076789856,
        0.046308621764183044,
        0.07806464284658432,
        -0.05252314731478691,
        -0.035124972462654114,
        -0.019379127770662308,
        0.09577540308237076,
        -0.03929620981216431,
        -0.026676161214709282,
        0.005678132176399231,
        -0.033216334879398346,
        -0.013813577592372894,
        -0.035080768167972565,
        0.007489163428544998,
        -0.09290192276239395,
        -0.0388944186270237,
        0.03588804975152016,
        0.0235050730407238,
        -0.03284475579857826,
        -0.021760351955890656,
        0.029250632971525192,
        -0.06859104335308075,
        0.0775160863995552,
        0.03386446461081505,
        -0.025836562737822533,
        -0.02377381920814514,
        0.0438360720872879,
        0.09633265435695648,
        -0.05400535464286804,
        -0.01820475608110428,
        -0.010266553610563278,
        -0.012972915545105934,
        -0.014769082888960838,
        -0.03072921745479107,
        0.0215124674141407,
        -0.02057945542037487,
        -0.011050830595195293,
        0.026384156197309494,
        -0.05385467782616615,
        -0.035970717668533325,
        -0.010699082165956497,
        0.005440276116132736,
        -0.012536533176898956,
        -0.05603618174791336,
        -0.031220920383930206,
        -0.04677707329392433,
        0.014555899426341057,
        -0.03939760848879814,
        -0.01790264993906021,
        0.012396126985549927,
        0.01937921531498432,
        -0.008523132652044296,
        0.01904287561774254,
        -0.0567682683467865,
        -0.09137696772813797,
        0.026953257620334625,
        -0.05654609203338623,
        0.02676786668598652,
        -0.013740725815296173,
        -0.021906021982431412,
        0.020515726879239082,
        -0.013531767763197422,
        0.019042814150452614,
        -0.0006788936443626881,
        -0.009161400608718395,
        -0.06841766834259033,
        -0.1088242158293724,
        -0.1660774201154709,
        0.0788467600941658,
        -0.050325289368629456,
        -0.09041472524404526,
        0.06710580736398697,
        0.011815366335213184,
        -0.06412456929683685,
        -0.07493594288825989,
        -0.058342330157756805,
        -0.10887010395526886,
        -0.020876558497548103,
        -0.12491857260465622,
        -0.011971347033977509,
        0.11747349053621292,
        -0.06256051361560822,
        -0.1339186131954193,
        -0.032314732670784,
        0.04115736857056618,
        0.000688968866597861,
        0.024862470105290413,
        -0.012985629960894585,
        0.03540762886404991,
        -0.019720982760190964,
        -0.06505843251943588,
        -0.004143384750932455,
        0.011746246367692947,
        0.05337246507406235,
        0.043710242956876755,
        0.05470084771513939,
        -0.028410382568836212,
        -0.004529344849288464,
        0.03182683885097504,
        0.013159364461898804,
        -0.013713877648115158,
        0.024937625974416733,
        0.060857050120830536,
        0.04381098225712776,
        0.036132700741291046,
        -0.015919633209705353,
        0.04358266294002533,
        -0.005030137952417135,
        -0.01831243373453617,
        -0.02272634208202362,
        0.055713776499032974,
        -0.05163677781820297,
        0.029630742967128754,
        0.02558106556534767,
        -0.030765876173973083,
        0.04390638321638107,
        0.07510914653539658,
        0.017206285148859024,
        -0.01917843706905842,
        0.05025545880198479,
        -0.05539245530962944,
        0.04814985394477844,
        0.03955928236246109,
        0.06546736508607864,
        -0.04639604687690735,
        -0.0022354270331561565,
        0.0709029883146286,
        0.016460293903946877,
        -0.027141833677887917,
        0.006651787087321281,
        -0.035028282552957535,
        0.008580119349062443,
        0.020072361454367638,
        -0.05392661690711975,
        -0.03296414017677307,
        0.039498891681432724,
        0.00352298840880394,
        -0.036799658089876175,
        0.007827680557966232,
        -0.07504566013813019,
        -0.06769300997257233,
        -0.007536717690527439,
        -0.10934500396251678,
        -0.06464151293039322,
        -0.08021273463964462,
        -0.07832685858011246,
        -0.07935511320829391,
        -0.03867117688059807,
        0.028150081634521484,
        -0.11114561557769775,
        -0.12447597831487656,
        -0.05558145418763161,
        -0.025164568796753883,
        -0.024850253015756607,
        -0.11032591760158539,
        -0.03190411627292633,
        -0.05118861421942711,
        -0.12523384392261505,
        0.04158855974674225,
        -0.034602731466293335,
        0.04637813940644264,
        -0.022901786491274834,
        -0.015630021691322327,
        -0.06000099703669548,
        0.06870315223932266,
        -0.11470256000757217,
        -0.061836276203393936,
        0.07267172634601593,
        -0.05409263074398041,
        0.022697679698467255,
        0.042647942900657654,
        -0.10239138454198837,
        -0.0482654832303524,
        -0.08569762110710144,
        -0.17854881286621094,
        -0.087600477039814,
        -0.02109985053539276,
        -0.009800782427191734,
        -0.0673578530550003,
        -0.02172178216278553,
        -0.04168889671564102,
        -0.1278018057346344,
        0.05207245051860809,
        0.017651263624429703,
        -0.04145386815071106,
        -0.02357998490333557,
        -0.033747486770153046,
        0.03896521404385567,
        -0.014149139635264874,
        0.04350270330905914,
        0.015533950179815292,
        -0.01954752951860428,
        0.01585901342332363,
        -0.030075468122959137,
        0.027076389640569687,
        -0.008785293437540531,
        0.0815064087510109,
        -0.08313844352960587,
        0.0012992974370718002,
        0.0010151558090001345,
        -0.0007819500169716775,
        0.0025236657820641994,
        -0.042455580085515976,
        -0.10628992319107056,
        0.10842809081077576,
        -0.01273313071578741,
        -0.022103825584053993,
        0.03214917704463005,
        -0.06946198642253876,
        -0.017118146643042564,
        -0.019845319911837578,
        0.02375536412000656,
        0.15398737788200378,
        0.01958945021033287,
        0.06730956584215164,
        -0.05576033145189285,
        0.09919057786464691,
        0.006076329853385687,
        -0.08721958100795746,
        0.025375699624419212,
        -0.015832368284463882,
        -0.015410217456519604,
        0.017775947228074074,
        -0.05503350868821144,
        -0.04371710494160652,
        0.0028127843979746103,
        0.02600035071372986,
        -0.08841440826654434,
        0.07091180235147476,
        -0.02296104095876217,
        0.02505786158144474,
        0.03340500220656395,
        -0.016584374010562897,
        0.022174376994371414,
        -0.012204479426145554,
        0.036924224346876144,
        0.011211946606636047,
        -7.309764623641968e-05,
        -0.033308036625385284,
        0.0008477717638015747,
        -0.013484599068760872,
        0.018059153109788895,
        0.02825591340661049,
        0.038119424134492874,
        0.02876162901520729,
        0.010580223053693771,
        0.01672685518860817,
        0.015401903539896011,
        0.022407982498407364,
        0.018192745745182037,
        -0.001178506761789322,
        -0.012541282922029495,
        -0.013325177133083344,
        0.0033881254494190216,
        0.03708307817578316,
        -0.008539766073226929,
        0.018144387751817703,
        -0.038705434650182724,
        -0.03159185126423836,
        -0.010648831725120544,
        0.011607330292463303,
        -0.010300878435373306,
        0.002407841384410858,
        0.01947391778230667,
        -0.037291549146175385,
        -0.02537008561193943,
        0.026406180113554,
        -0.007001060992479324,
        -0.03206515684723854,
        -0.024658165872097015,
        -0.007528945803642273,
        -0.02636583335697651,
        -0.0034495368599891663,
        -0.00521928071975708,
        -0.042329199612140656,
        -0.009747829288244247,
        0.026077788323163986,
        -0.004281066358089447,
        -0.010717082768678665,
        0.03497328236699104,
        -0.02088879980146885,
        -0.01595027558505535,
        -0.024645375087857246,
        -0.019853675737977028,
        0.019674288108944893,
        -0.039312757551670074,
        0.13074852526187897,
        0.133675217628479,
        0.012457001954317093,
        -0.0702141672372818,
        -0.00503716291859746,
        -0.08084514737129211,
        0.02361292392015457,
        0.017569543793797493,
        0.036134738475084305,
        0.061387043446302414,
        0.026715345680713654,
        -0.024129167199134827,
        0.025898117572069168,
        0.030645180493593216,
        -0.014330888167023659,
        -0.03424226492643356,
        -0.09793223440647125,
        -0.010677877813577652,
        0.038557250052690506,
        -0.12551195919513702,
        0.014828067272901535,
        0.046208713203668594,
        -0.05991484969854355,
        0.03361700475215912,
        -0.0031058364547789097,
        0.10506927222013474,
        -0.029119983315467834,
        0.0005275197327136993,
        -0.08232049643993378,
        -0.0029568758327513933,
        -0.018442688509821892,
        0.014993619173765182,
        0.11976784467697144,
        -0.015121720731258392,
        -0.0910649299621582,
        -0.0549435131251812,
        0.04055437073111534,
        0.05958883836865425,
        -0.059888143092393875,
        0.015770353376865387,
        -0.04103671386837959,
        0.030729684978723526,
        -0.01498294435441494,
        0.013567112386226654,
        -0.015417307615280151,
        0.02321833372116089,
        0.0036324544344097376,
        0.02929314225912094,
        0.041792865842580795,
        0.04504990950226784,
        0.029483217746019363,
        0.01145754475146532,
        -0.044665440917015076,
        0.0397409088909626,
        0.13111554086208344,
        0.007258906494826078,
        -0.021872131153941154,
        0.03750414028763771,
        0.00848877802491188,
        0.03953089565038681,
        -0.036588579416275024,
        0.03395790606737137,
        -0.04488522186875343,
        0.01629732921719551,
        0.029280323535203934,
        0.028254911303520203,
        0.06618800014257431,
        0.015708230435848236,
        -0.03800979629158974,
        -0.034390371292829514,
        -0.03538796678185463,
        0.1401333510875702,
        0.02503177896142006,
        -0.07729129493236542,
        -0.12209565937519073,
        -0.057119209319353104,
        0.015583738684654236,
        0.002338264137506485,
        -0.00938933715224266,
        0.070675328373909,
        -0.06237032264471054,
        0.046569544821977615,
        0.002271004021167755,
        0.1208852007985115,
        -0.126185804605484,
        0.10935396701097488,
        -0.006072751246392727,
        0.010035929270088673,
        -0.03198544308543205,
        0.049292199313640594,
        -0.04159806668758392,
        0.05509249493479729,
        -0.011043380945920944,
        0.03360936418175697,
        -0.019450413063168526,
        0.016891242936253548,
        -0.06772077083587646,
        0.03882548213005066,
        -0.08440487831830978,
        -0.10666608810424805,
        -0.05665764585137367,
        0.0036068062763661146,
        0.03739084303379059,
        -0.012775560840964317,
        0.011155834421515465,
        0.011791118420660496,
        -0.002136880299076438,
        0.01489356067031622,
        -0.04587278515100479,
        0.0016060636844485998,
        -0.03691742569208145
      ],
      [
        0.02805539406836033,
        0.048667438328266144,
        -0.034836649894714355,
        0.13442325592041016,
        0.06894652545452118,
        0.02966425195336342,
        0.07321861386299133,
        -0.12652911245822906,
        0.07880750298500061,
        -0.022173434495925903,
        0.032865770161151886,
        0.0267389714717865,
        0.03249169513583183,
        0.07977768778800964,
        -0.07166330516338348,
        0.05363995209336281,
        -0.10023100674152374,
        -0.019840283319354057,
        0.06210217997431755,
        0.1406533122062683,
        -0.006499086041003466,
        0.012824764475226402,
        0.030930418521165848,
        0.1464611440896988,
        0.008646475151181221,
        -0.12030388414859772,
        -0.04846242815256119,
        0.07353223115205765,
        0.050489798188209534,
        0.005052946042269468,
        -0.014475172385573387,
        -0.04242648929357529,
        -0.0033294749446213245,
        -0.07007113099098206,
        0.06007731333374977,
        0.051188018172979355,
        0.060199085623025894,
        0.04583816975355148,
        0.1526883989572525,
        0.01781170442700386,
        -0.10492580384016037,
        -0.051195524632930756,
        -0.02352185733616352,
        0.05706292763352394,
        0.03385671600699425,
        -0.0020679794251918793,
        -0.033298514783382416,
        0.026709597557783127,
        -0.0204754751175642,
        0.03925001621246338,
        0.02083061821758747,
        -0.0274234376847744,
        -0.06915627419948578,
        0.11334210634231567,
        -0.02019846811890602,
        0.10151541978120804,
        0.033785268664360046,
        0.07311579585075378,
        -0.061762575060129166,
        -0.008443511091172695,
        -0.05113758146762848,
        0.007795663084834814,
        -0.038223233073949814,
        0.17620468139648438,
        -0.029393717646598816,
        0.012327045202255249,
        0.04772745072841644,
        0.09060350805521011,
        -0.05430111289024353,
        0.20737287402153015,
        -9.530852548778057e-05,
        -0.006406498607248068,
        0.02009102702140808,
        0.08013174682855606,
        -0.020355697721242905,
        0.030154472216963768,
        -0.03654709458351135,
        0.019842656329274178,
        0.08753287047147751,
        -0.048890821635723114,
        0.027110852301120758,
        0.00032276962883770466,
        -0.03699127212166786,
        -0.0269112940877676,
        0.06733597069978714,
        0.13517826795578003,
        0.07027648389339447,
        0.21056585013866425,
        -0.011325357481837273,
        0.08645673096179962,
        0.0718928873538971,
        0.11139776557683945,
        0.0031358636915683746,
        -0.004483580589294434,
        0.02642589434981346,
        0.02965627983212471,
        -0.030303070321679115,
        -0.02932392805814743,
        -0.013628643937408924,
        -0.007658201269805431,
        -0.005868577864021063,
        0.0079074427485466,
        -0.014534678310155869,
        0.05485589802265167,
        -0.032138895243406296,
        -0.010227158665657043,
        -0.005231196526437998,
        0.008298560976982117,
        0.012536514550447464,
        -0.009518686681985855,
        0.14441397786140442,
        -0.15269161760807037,
        -0.05886450782418251,
        0.12286132574081421,
        -0.0812743753194809,
        0.13629212975502014,
        -0.1044735237956047,
        -0.05885088071227074,
        0.0543520450592041,
        -0.036540091037750244,
        -0.07915602624416351,
        -0.011415710672736168,
        -0.059735141694545746,
        0.03359675034880638,
        -0.11565566807985306,
        0.0019921462517231703,
        -0.06424392759799957,
        -0.15458418428897858,
        0.006236450280994177,
        -0.06227103993296623,
        0.02021905966103077,
        0.08240459859371185,
        -0.037700776010751724,
        0.05640522390604019,
        -0.006423749029636383,
        -0.13561657071113586,
        0.004132470116019249,
        0.011370480991899967,
        -0.042889371514320374,
        -0.03209208324551582,
        0.03126554563641548,
        0.026646297425031662,
        -0.012182291597127914,
        0.0007635429501533508,
        0.1434740126132965,
        0.0498594306409359,
        0.008158381097018719,
        0.13683322072029114,
        0.11470477283000946,
        6.263703107833862e-05,
        0.1417388617992401,
        -0.051316406577825546,
        0.007620129734277725,
        -0.07619020342826843,
        0.1369633823633194,
        0.08043545484542847,
        0.004875928163528442,
        0.12124137580394745,
        0.0014440491795539856,
        0.0017929524183273315,
        -0.0016006864607334137,
        0.012391574680805206,
        -0.020374692976474762,
        0.06033148616552353,
        -0.03352057933807373,
        -0.015649205073714256,
        0.053821396082639694,
        0.0424153208732605,
        -0.010466594249010086,
        -0.012983415275812149,
        -0.03277842327952385,
        0.06498966366052628,
        0.11211667954921722,
        0.011155527085065842,
        0.010669350624084473,
        0.0384007953107357,
        0.09477749466896057,
        -0.045843858271837234,
        0.10644853115081787,
        0.12813834846019745,
        0.006614398211240768,
        0.07044724375009537,
        0.022968482226133347,
        0.032215263694524765,
        0.01001114770770073,
        -0.02730763517320156,
        -0.010587029159069061,
        0.006925058085471392,
        -0.03821507841348648,
        0.0262998528778553,
        -0.03190652281045914,
        0.03031027689576149,
        -0.006049035582691431,
        -0.046851854771375656,
        -0.019180070608854294,
        -0.0005442837136797607,
        -0.05865946039557457,
        -0.09522922337055206,
        -0.02986101433634758,
        0.05040714517235756,
        0.03710567578673363,
        -0.012516896240413189,
        -0.05451631173491478,
        -0.051233358681201935,
        0.010161654092371464,
        0.035725612193346024,
        -0.07770956307649612,
        -0.030727054923772812,
        0.037565916776657104,
        0.01983063854277134,
        -0.032952528446912766,
        0.14417338371276855,
        -0.09255096316337585,
        -0.020078524947166443,
        -0.03324468061327934,
        -0.08191841840744019,
        -0.0977955013513565,
        0.11071651428937912,
        -0.04991040378808975,
        -0.023257659748196602,
        -0.09858375042676926,
        -0.0020903563126921654,
        0.0033911424688994884,
        -0.07733523100614548,
        0.013238747604191303,
        0.0842517837882042,
        -0.043762218207120895,
        -0.08157679438591003,
        0.01772768795490265,
        0.10939421504735947,
        0.04961281642317772,
        -0.027941998094320297,
        -0.05538352206349373,
        -0.05945416912436485,
        -0.004556476138532162,
        0.08059533685445786,
        0.06135161221027374,
        -0.044247377663850784,
        0.030506465584039688,
        -0.06505746394395828,
        0.017413737252354622,
        0.08190629631280899,
        0.08643937110900879,
        -0.059778615832328796,
        0.03865718096494675,
        0.0310358963906765,
        0.0010322686284780502,
        0.11068002134561539,
        -0.0022004705388098955,
        -0.024365635588765144,
        0.05347571521997452,
        0.10818777978420258,
        0.06423842161893845,
        0.07263743132352829,
        0.01920175366103649,
        0.03485732898116112,
        0.007576291449368,
        0.07177548855543137,
        -0.02778465300798416,
        0.04706229269504547,
        -0.02584260329604149,
        0.028064075857400894,
        0.006193540990352631,
        0.01739802025258541,
        0.006002571899443865,
        0.09851118922233582,
        0.06404270976781845,
        -0.015313871204853058,
        0.08909448236227036,
        0.026176627725362778,
        0.06202726438641548,
        0.03377881646156311,
        0.02256493642926216,
        -0.027115847915410995,
        0.06931156665086746,
        0.019801657646894455,
        0.13491052389144897,
        -0.03044378198683262,
        0.06160761043429375,
        -0.03659551590681076,
        0.06780116260051727,
        -0.05044906958937645,
        0.013607223518192768,
        0.06929823011159897,
        0.03864840045571327,
        -0.02491936646401882,
        0.007625129073858261,
        -0.01004355400800705,
        -0.039792515337467194,
        0.00801030546426773,
        0.07537750154733658,
        0.025001956149935722,
        -0.012182993814349174,
        -0.0003255578631069511,
        0.009795628488063812,
        -0.11099017411470413,
        -0.022610649466514587,
        -0.009797935374081135,
        0.0060952273197472095,
        0.029176877811551094,
        -0.013390631414949894,
        0.00029088271548971534,
        -0.1144617348909378,
        0.04202385991811752,
        -0.0017626031767576933,
        -0.07142391800880432,
        -0.030095983296632767,
        -0.03525710850954056,
        0.025447186082601547,
        0.039732977747917175,
        0.01835479773581028,
        0.07841018587350845,
        -0.062163252383470535,
        0.08351755142211914,
        -0.03979407995939255,
        0.032414522022008896,
        -0.07218492031097412,
        -0.05546325072646141,
        -0.03193321079015732,
        0.022933363914489746,
        0.04289134591817856,
        0.11733783036470413,
        -0.045696698129177094,
        -0.024253137409687042,
        -0.06675153225660324,
        0.03408151865005493,
        -0.006211662665009499,
        -0.09052243083715439,
        -0.04448220878839493,
        -0.012156027369201183,
        0.0033945306204259396,
        0.10481002926826477,
        -0.011727094650268555,
        -0.008668947964906693,
        -0.021524857729673386,
        -0.01234217919409275,
        0.051889292895793915,
        0.03411862999200821,
        0.05863986909389496,
        0.08514047414064407,
        0.06817808002233505,
        0.059875790029764175,
        0.02752000279724598,
        0.018030809238553047,
        0.0354120209813118,
        0.10108808428049088,
        -0.015959013253450394,
        0.03238295018672943,
        0.02675705775618553,
        0.04088311642408371,
        0.025566117838025093,
        0.049446314573287964,
        -0.13919730484485626,
        0.008655090816318989,
        -0.011113020591437817,
        0.04624887928366661,
        0.0814817026257515,
        0.08557000011205673,
        -0.01861615478992462,
        0.12121289223432541,
        0.006540356669574976,
        0.027070775628089905,
        0.05295861139893532,
        0.0933244526386261,
        -0.06857331842184067,
        -0.008077500388026237,
        0.10849308967590332,
        0.13813568651676178,
        0.0638979971408844,
        0.047782305628061295,
        0.056112099438905716,
        -0.010764745064079762,
        -0.01235947199165821,
        0.07589008659124374,
        0.027643155306577682,
        0.03478733077645302,
        -0.08388229459524155,
        0.12091384828090668,
        0.015046317130327225,
        0.09314881265163422,
        0.0004918314516544342,
        -0.037350356578826904,
        0.04222187027335167,
        0.02818603441119194,
        0.010401271283626556,
        -0.019943416118621826,
        -0.005463283509016037,
        -0.005169682204723358,
        0.02514610067009926,
        -0.005049370229244232,
        0.031168591231107712,
        -0.02127774804830551,
        0.010007873177528381,
        0.0016050785779953003,
        -0.042777638882398605,
        -0.027524206787347794,
        -0.03350168466567993,
        0.02576412633061409,
        0.012614909559488297,
        -0.017892543226480484,
        -0.03901579603552818,
        0.0393819622695446,
        -0.0009222812950611115,
        -0.008989416062831879,
        -0.011812899261713028,
        -0.0327257364988327,
        -0.03539495915174484,
        0.01158514991402626,
        -0.015364004299044609,
        0.002230435609817505,
        -0.02635732851922512,
        -0.03702875226736069,
        0.009567402303218842,
        -0.036623384803533554,
        0.030156094580888748,
        -0.02512487769126892,
        0.01749119907617569,
        -0.006704781204462051,
        0.013274885714054108,
        0.004054740071296692,
        0.02577066794037819,
        -0.04029996693134308,
        -0.00969674438238144,
        -0.017459696158766747,
        0.026831824332475662,
        -0.027089016512036324,
        -0.0008877664804458618,
        -0.023693952709436417,
        -0.04198063537478447,
        0.009758666157722473,
        -0.027897700667381287,
        -0.031227413564920425,
        -0.025314604863524437,
        0.06108932942152023,
        0.04452935978770256,
        0.14536266028881073,
        0.031900763511657715,
        0.0026579685509204865,
        -0.1693432331085205,
        0.06267739832401276,
        -0.195866197347641,
        -0.041403722018003464,
        0.0653277263045311,
        0.028915446251630783,
        -0.0030003490392118692,
        -0.026044921949505806,
        0.028718482702970505,
        -0.03183843195438385,
        -0.022139422595500946,
        -0.005553796887397766,
        0.04006945714354515,
        -0.11391667276620865,
        0.029272284358739853,
        -0.014274785295128822,
        -0.1350274384021759,
        0.004849173128604889,
        0.04968656226992607,
        -0.09430921077728271,
        0.10685107856988907,
        0.021395618095993996,
        0.0485713854432106,
        -0.019780024886131287,
        0.02686898037791252,
        -0.1080177053809166,
        -0.09298019111156464,
        -0.0020921817049384117,
        -0.08460425585508347,
        0.03847656026482582,
        -0.005247302353382111,
        -0.05424829199910164,
        -0.21618491411209106,
        0.04099095240235329,
        -0.015166129916906357,
        -0.04376291483640671,
        0.001298326998949051,
        -0.1400996446609497,
        0.038427624851465225,
        -0.01080690324306488,
        -0.020461879670619965,
        -0.031535252928733826,
        0.07292700558900833,
        0.09213467687368393,
        0.0721983015537262,
        0.03345950320363045,
        0.12906166911125183,
        0.02757677063345909,
        -0.0008316595340147614,
        -0.023020856082439423,
        0.04695608839392662,
        0.14779943227767944,
        -0.04576854780316353,
        0.0057274820283055305,
        -0.012001365423202515,
        0.003969863057136536,
        0.1303747594356537,
        -0.009471815079450607,
        0.035782117396593094,
        0.051101233810186386,
        -0.18754811584949493,
        -0.017379462718963623,
        0.2687905430793762,
        0.012189979664981365,
        0.01710936799645424,
        -0.029883205890655518,
        0.0202021561563015,
        -0.026353858411312103,
        0.10487908869981766,
        0.03185649588704109,
        0.07080038636922836,
        0.0718701109290123,
        -0.049715686589479446,
        -0.013484517112374306,
        -0.09323738515377045,
        -0.012071942910552025,
        0.05244269594550133,
        0.025479331612586975,
        -0.10408303141593933,
        -0.01562364399433136,
        0.17524173855781555,
        0.016970302909612656,
        0.10673899203538895,
        -0.07676234096288681,
        0.008781428448855877,
        0.019980717450380325,
        0.016987396404147148,
        -0.008162777870893478,
        0.07394721359014511,
        0.016171850264072418,
        -0.01636761613190174,
        0.01755983754992485,
        -0.13771368563175201,
        -0.021011993288993835,
        -0.03219258040189743,
        0.06691745668649673,
        -0.037336308509111404,
        -0.14594367146492004,
        -0.00770983612164855,
        0.039913393557071686,
        0.017025714740157127,
        -0.015446425415575504,
        -0.032090749591588974,
        -0.015908783301711082,
        0.021649209782481194,
        -0.034627534449100494,
        0.06622423976659775,
        -0.002549080178141594
      ],
      [
        0.04166503623127937,
        0.07618632912635803,
        0.07960650324821472,
        0.04266199842095375,
        0.016931094229221344,
        0.02245030179619789,
        0.04030320420861244,
        0.09345030039548874,
        0.08699307590723038,
        -0.11286850273609161,
        0.05409675091505051,
        0.05745953693985939,
        0.004149789456278086,
        0.050896406173706055,
        0.03417260944843292,
        0.08544205129146576,
        0.17151157557964325,
        0.06293541193008423,
        -0.01676919125020504,
        -0.0007687705801799893,
        -0.07106109708547592,
        -0.05987751856446266,
        0.07538310438394547,
        -0.07985198497772217,
        0.04874219000339508,
        0.06226850301027298,
        -0.0024310369044542313,
        -0.015910834074020386,
        0.04403046518564224,
        0.0003691782185342163,
        0.0391857884824276,
        0.04754018783569336,
        -0.0020278161391615868,
        0.007658627815544605,
        0.050686877220869064,
        -0.012049886398017406,
        0.010812046937644482,
        -0.05633991211652756,
        0.07886067032814026,
        0.011904614046216011,
        0.09291538596153259,
        0.056568119674921036,
        0.08464756608009338,
        0.013401627540588379,
        0.02360835298895836,
        -0.01927117258310318,
        0.02135958895087242,
        -0.014993168413639069,
        0.002147642895579338,
        -0.02540532872080803,
        -0.0026189435739070177,
        0.010695959441363811,
        -0.022794637829065323,
        -0.10561385750770569,
        0.04487783834338188,
        -0.09805703908205032,
        -0.06867267191410065,
        -0.014325144700706005,
        -0.0011246019275858998,
        0.03507712855935097,
        -0.011262575164437294,
        0.006246450822800398,
        -0.05316125974059105,
        -0.07095955312252045,
        -0.042925842106342316,
        -0.05571352690458298,
        0.06315239518880844,
        -0.05838542431592941,
        0.08173633366823196,
        -0.13722360134124756,
        -0.005955573637038469,
        -0.046946361660957336,
        -0.02530321665108204,
        -0.17185315489768982,
        -0.0008107566391117871,
        -0.1067991778254509,
        -0.017394185066223145,
        -0.1497308760881424,
        -0.07727564871311188,
        0.040879879146814346,
        0.021627286449074745,
        0.035615965723991394,
        -0.04755463823676109,
        0.09317319095134735,
        -0.005273553542792797,
        0.044932957738637924,
        -0.047359004616737366,
        -0.14025554060935974,
        0.0008480159449391067,
        -0.047883156687021255,
        -0.02718898095190525,
        -0.12190835922956467,
        0.02483561262488365,
        0.03915682062506676,
        0.03195393458008766,
        -0.020353728905320168,
        0.03162446245551109,
        0.017110494896769524,
        -0.048079293221235275,
        -0.06045748293399811,
        0.024081338196992874,
        -0.02644699066877365,
        0.03497495874762535,
        0.03775060921907425,
        0.052944738417863846,
        0.04910604655742645,
        -0.025024158880114555,
        0.0002470712352078408,
        -0.0007009393884800375,
        0.034619610756635666,
        -0.1313515454530716,
        0.0034418038558214903,
        0.06821577996015549,
        -0.07889320701360703,
        0.017464160919189453,
        -0.08397385478019714,
        -0.0023091924376785755,
        -0.05583580210804939,
        0.10606338083744049,
        -0.07551397383213043,
        0.06260546296834946,
        -0.05984526127576828,
        0.014255945570766926,
        0.04122978076338768,
        0.06457829475402832,
        -0.02790767513215542,
        -0.0753219872713089,
        0.13632874190807343,
        0.05150159075856209,
        -0.05910972133278847,
        -0.0028047452215105295,
        -0.0038197473622858524,
        -0.0015344060957431793,
        -0.10150168091058731,
        0.01547688152641058,
        0.06845924258232117,
        -0.010136369615793228,
        -0.02118925005197525,
        0.034577950835227966,
        -0.05211314931511879,
        0.015544865280389786,
        -0.031086213886737823,
        -0.03294893726706505,
        -0.016685539856553078,
        -0.05134698376059532,
        -0.06768228113651276,
        -0.026776103302836418,
        -0.1178491935133934,
        -0.0960313230752945,
        -0.0031494535505771637,
        -0.14450488984584808,
        -0.03463384136557579,
        -0.012142118997871876,
        0.06490141153335571,
        -0.1476571261882782,
        -0.06714031100273132,
        -0.0037275217473506927,
        -0.11464513093233109,
        0.007779818028211594,
        -0.0030245333909988403,
        0.010782860219478607,
        0.011643722653388977,
        0.024686094373464584,
        -0.08702051639556885,
        -0.011860379949212074,
        0.024869810789823532,
        -0.0187782384455204,
        -0.11088564246892929,
        0.0040839058347046375,
        0.0003823977895081043,
        0.037718627601861954,
        -0.026772422716021538,
        -0.051621727645397186,
        -0.03528137132525444,
        0.04023764654994011,
        0.046330586075782776,
        -0.06933626532554626,
        -0.026258394122123718,
        -0.10098442435264587,
        0.05061089247465134,
        0.02305503562092781,
        -0.025788092985749245,
        -0.009758450090885162,
        -0.002824697643518448,
        0.048872943967580795,
        0.04050100967288017,
        -0.037099555134773254,
        -0.0700133889913559,
        0.00939200446009636,
        -0.03672055900096893,
        0.039208028465509415,
        -0.012377457693219185,
        -0.08437014371156693,
        -0.07072943449020386,
        -0.052851542830467224,
        -0.052930817008018494,
        -0.09055723249912262,
        -0.026169994845986366,
        -0.05312436819076538,
        0.0127871697768569,
        0.022060932591557503,
        -0.02814236469566822,
        -0.09456999599933624,
        -0.07317809760570526,
        -0.05215149372816086,
        -0.04646684229373932,
        -0.09092995524406433,
        0.02786046825349331,
        0.0038655144162476063,
        0.01223230641335249,
        -0.0547994039952755,
        -0.08697925508022308,
        0.09705328196287155,
        0.05227909982204437,
        -0.10746371001005173,
        -0.10281605273485184,
        -0.16450752317905426,
        -0.020264631137251854,
        -0.08136486262083054,
        -0.004895232152193785,
        0.10024276375770569,
        0.013938387855887413,
        -0.03815824165940285,
        -0.009771380573511124,
        -0.02786981500685215,
        -0.16515296697616577,
        -0.09382113814353943,
        -0.021403776481747627,
        -0.06531224399805069,
        -0.10493595153093338,
        -0.013981145806610584,
        -0.015135060995817184,
        -0.07728461921215057,
        0.0610828660428524,
        -0.006693173199892044,
        -0.10487730801105499,
        -0.046404819935560226,
        0.016737492755055428,
        -0.0357879139482975,
        -0.12152452766895294,
        -0.059639837592840195,
        -0.01261566299945116,
        -0.05250536650419235,
        0.019352734088897705,
        0.008409619331359863,
        -0.018760671839118004,
        -0.03888865187764168,
        -0.014456542208790779,
        -0.0046446966007351875,
        0.051848359405994415,
        -0.06954213231801987,
        -0.08911748230457306,
        0.05894918739795685,
        0.010901270434260368,
        0.011009850539267063,
        -0.04278123378753662,
        -0.08784615993499756,
        -0.08929339796304703,
        0.08231168985366821,
        -0.051998645067214966,
        -0.030444232746958733,
        0.005821161437779665,
        -0.09034541994333267,
        -0.10343395918607712,
        0.030980544164776802,
        -0.01468510553240776,
        -0.025332992896437645,
        0.0005551915965043008,
        -0.05681013688445091,
        -0.006922667380422354,
        -0.031085209921002388,
        -0.08365940302610397,
        0.059708159416913986,
        -0.05085047334432602,
        0.014748938381671906,
        -0.005698896013200283,
        -0.17277300357818604,
        0.11676045507192612,
        -0.0373738557100296,
        0.0022223989944905043,
        -0.03197178989648819,
        0.1076299250125885,
        -0.03639351949095726,
        -0.04888638108968735,
        -0.0018665902316570282,
        -0.025215299800038338,
        0.0338672511279583,
        0.03588664159178734,
        -0.09089421480894089,
        -0.04147341474890709,
        -0.029539713636040688,
        -0.10163640230894089,
        -0.052709512412548065,
        -0.04304857179522514,
        -0.07942762225866318,
        -0.021394088864326477,
        -0.005962397903203964,
        0.025847341865301132,
        -0.08982311934232712,
        -0.12013036012649536,
        -0.1259434074163437,
        -0.09716231375932693,
        0.027832986786961555,
        -0.058469850569963455,
        -0.06724075227975845,
        -0.0011176987318322062,
        -0.020982958376407623,
        -0.04826367273926735,
        -0.06811410933732986,
        -0.058872293680906296,
        -0.01710893213748932,
        -0.006039746571332216,
        0.04216763749718666,
        -0.010367712937295437,
        -0.037584636360406876,
        -0.03709525242447853,
        0.07692950963973999,
        0.04351232945919037,
        -0.11226273328065872,
        -0.0927475243806839,
        -0.06793666630983353,
        -0.027687838301062584,
        -0.0632370114326477,
        -0.10829772055149078,
        -0.09650678932666779,
        -0.014179403893649578,
        -0.03225002437829971,
        0.19866842031478882,
        -0.09280665218830109,
        0.03238232806324959,
        -0.07723311334848404,
        -0.0758078470826149,
        -0.03654330596327782,
        0.02401074394583702,
        0.0132673941552639,
        0.01886802166700363,
        -0.011572033166885376,
        -0.07326596230268478,
        -0.06789937615394592,
        0.04997573792934418,
        0.012106207199394703,
        0.011164519004523754,
        -0.06006010249257088,
        0.05561641603708267,
        -0.014298087917268276,
        -0.0485413484275341,
        0.042138680815696716,
        -0.07097313553094864,
        -0.012255873531103134,
        0.008642738685011864,
        0.0020692392718046904,
        -0.002546275733038783,
        0.05100439861416817,
        0.13818863034248352,
        0.03663356974720955,
        -0.020127367228269577,
        -0.12093138694763184,
        -0.05989845469594002,
        0.024395674467086792,
        -0.024160360917448997,
        0.013837632723152637,
        0.0427372045814991,
        -0.03992396593093872,
        -0.014762531965970993,
        -0.055729806423187256,
        0.15025694668293,
        -0.11083884537220001,
        -0.08269508183002472,
        0.012928452342748642,
        0.0029468408320099115,
        0.0036296045873314142,
        -0.012063785456120968,
        -0.05465110391378403,
        0.02204596996307373,
        -0.052949387580156326,
        0.05433572083711624,
        -0.0832415223121643,
        -0.057043448090553284,
        0.06093233451247215,
        -0.008262328803539276,
        -0.003548089414834976,
        0.03997344896197319,
        -0.0019695349037647247,
        0.029691267758607864,
        -0.008242294192314148,
        -0.014640096575021744,
        -0.030353479087352753,
        0.03821266070008278,
        -0.0017288103699684143,
        -0.024554647505283356,
        0.018033798784017563,
        0.01793399080634117,
        -0.004021897912025452,
        -0.04267280921339989,
        -0.040192216634750366,
        0.039356064051389694,
        0.025510068982839584,
        0.033276211470365524,
        -0.03680611401796341,
        -0.028172798454761505,
        -0.03414914757013321,
        0.024940434843301773,
        -0.03308337181806564,
        -0.03713851794600487,
        0.03068036213517189,
        0.0032998286187648773,
        -0.021550707519054413,
        0.0013476498425006866,
        0.0397232361137867,
        0.004806309938430786,
        0.029742781072854996,
        -0.013473089784383774,
        0.01048228144645691,
        0.02725825086236,
        0.03156162425875664,
        -0.0006751939654350281,
        0.03902878239750862,
        0.03732677921652794,
        -0.021811751648783684,
        0.009394124150276184,
        0.02659151330590248,
        0.02443544939160347,
        -0.04097119718790054,
        0.024363387376070023,
        0.01624641939997673,
        0.006333202123641968,
        -0.02092994935810566,
        0.00012636184692382812,
        0.008198186755180359,
        0.017137739807367325,
        -0.03538607060909271,
        -0.04153288155794144,
        0.02073635905981064,
        0.037466756999492645,
        -0.008703067898750305,
        -0.10176565498113632,
        0.01368928886950016,
        0.009584322571754456,
        0.0033612316474318504,
        -0.026652412489056587,
        0.11856555193662643,
        -0.03670936077833176,
        -0.1021382212638855,
        -0.04317029193043709,
        0.03358594328165054,
        0.04169560596346855,
        0.010012879967689514,
        -0.011359993368387222,
        -0.007089491933584213,
        -0.007905635982751846,
        -0.014985373243689537,
        0.16469168663024902,
        0.03676822409033775,
        -0.029535241425037384,
        0.0026611676439642906,
        -0.008712062612175941,
        0.01232017483562231,
        0.08656058460474014,
        -0.10597359389066696,
        0.08733183145523071,
        0.08043336868286133,
        0.03372689709067345,
        0.03018079325556755,
        0.11774710565805435,
        0.027622271329164505,
        0.0323345884680748,
        -0.020527493208646774,
        0.01646367646753788,
        -0.035066794604063034,
        0.008663725107908249,
        0.18043626844882965,
        0.03850888833403587,
        -0.0077553363516926765,
        -0.025975994765758514,
        0.011003520339727402,
        0.20441481471061707,
        0.01595722883939743,
        -5.340576171875e-05,
        0.02895354852080345,
        -0.03933783620595932,
        -0.0693296417593956,
        -0.13169734179973602,
        -0.1279953569173813,
        0.024789389222860336,
        0.061651721596717834,
        -0.07740461081266403,
        -0.08327621221542358,
        -0.052217740565538406,
        -0.16779868304729462,
        -0.11698108911514282,
        0.030800949782133102,
        -0.06644991040229797,
        0.0400334931910038,
        0.004841659218072891,
        -0.09264214336872101,
        -0.06005644425749779,
        0.04916718974709511,
        -0.05166875198483467,
        -0.017385363578796387,
        -0.03680092841386795,
        -0.2028432935476303,
        -0.004752275533974171,
        -0.032286208122968674,
        0.027730245143175125,
        -0.002416621893644333,
        -0.032912012189626694,
        -0.010451878421008587,
        0.040358249098062515,
        0.03854534775018692,
        -0.10993216186761856,
        -0.008183268830180168,
        0.003850772976875305,
        0.012380542233586311,
        0.008102074265480042,
        -0.08415503799915314,
        -0.10555919259786606,
        0.030090561136603355,
        -0.028244487941265106,
        -0.1551864743232727,
        -0.04186616465449333,
        0.08211593329906464,
        -0.043896958231925964,
        -0.09180860966444016,
        -0.009507887065410614,
        -0.01864302158355713,
        -0.10794700682163239,
        -0.031221993267536163,
        0.010150760412216187,
        0.029584696516394615,
        -0.047360923141241074,
        0.018065372481942177,
        -0.001688741729594767,
        0.02165166847407818,
        0.013086588121950626,
        -0.04395289719104767,
        -0.025451352819800377,
        -0.056669920682907104,
        0.028261324390769005,
        -0.008628478273749352,
        0.00380406784825027,
        -0.10064422339200974,
        -0.010002531111240387,
        -0.011555767618119717,
        -0.08581018447875977,
        -0.13005125522613525,
        -0.04426765814423561
      ],
      [
        0.012455873191356659,
        0.036334265023469925,
        0.081412173807621,
        -0.011762989684939384,
        0.01373281516134739,
        0.039464548230171204,
        0.01761585660278797,
        0.031701214611530304,
        -0.0013815824640914798,
        0.0042935628443956375,
        0.0037437519058585167,
        0.056039344519376755,
        0.0037314966320991516,
        0.06141908839344978,
        0.09148401767015457,
        0.02993696741759777,
        -0.030541250482201576,
        -0.013975478708744049,
        0.04414336755871773,
        0.06621932238340378,
        0.01649175025522709,
        0.012607148848474026,
        0.016415884718298912,
        0.08709313720464706,
        0.0573408380150795,
        0.04796390235424042,
        0.05017966404557228,
        0.1474142074584961,
        -0.007535899057984352,
        -0.037698253989219666,
        0.029111016541719437,
        -0.03791419044137001,
        -0.029952719807624817,
        -0.06710533797740936,
        0.050036072731018066,
        0.08671464025974274,
        0.057857781648635864,
        0.014108787290751934,
        -0.004345781169831753,
        0.04776631295681,
        -0.10532543808221817,
        0.0458296462893486,
        -0.019936945289373398,
        0.0789962187409401,
        0.040072184056043625,
        0.02439161017537117,
        0.01509145274758339,
        -0.04267027601599693,
        0.026984481140971184,
        -0.0037108813412487507,
        -0.03188589587807655,
        0.00659358873963356,
        -0.03805844485759735,
        -0.03173208236694336,
        -0.042397189885377884,
        0.030729787424206734,
        -0.012911318801343441,
        -0.03277472406625748,
        -0.046439651399850845,
        -0.06431903690099716,
        4.370871465653181e-06,
        -0.03817691281437874,
        -0.007487662602216005,
        -0.03883381932973862,
        0.017743216827511787,
        -0.04594440013170242,
        0.0627552792429924,
        0.1113213449716568,
        -0.03338887542486191,
        0.04129774495959282,
        -0.042400166392326355,
        -0.005903410259634256,
        0.00687970407307148,
        -0.003520345315337181,
        -0.07181346416473389,
        0.06721783429384232,
        0.04484356567263603,
        -0.1259920299053192,
        0.14174328744411469,
        -0.0855162963271141,
        -0.03238524869084358,
        -0.013379866257309914,
        0.009888958185911179,
        0.019346553832292557,
        -0.0050527253188192844,
        0.07942373305559158,
        -0.045501068234443665,
        0.1438833773136139,
        -0.11503422260284424,
        0.05366511270403862,
        0.033324144780635834,
        0.02345176227390766,
        0.014662221074104309,
        -0.017561836168169975,
        0.019631218165159225,
        0.014603383839130402,
        -0.023883717134594917,
        0.007274871692061424,
        0.009284921921789646,
        -0.01880480721592903,
        -0.013528174720704556,
        -0.04104235768318176,
        0.007896779105067253,
        0.05014801025390625,
        -0.04038923233747482,
        -0.05248038470745087,
        -0.01859431341290474,
        0.0038346201181411743,
        0.06033201888203621,
        0.003212067298591137,
        0.06148580461740494,
        -0.062009748071432114,
        -0.07977796345949173,
        0.07502562552690506,
        -0.03406767174601555,
        0.09772974997758865,
        -0.10658390074968338,
        -0.007791517302393913,
        -0.025134926661849022,
        0.03825369477272034,
        -0.017058169469237328,
        0.03740937262773514,
        -0.019890589639544487,
        0.07533421367406845,
        -0.0918736383318901,
        0.006488253828138113,
        0.13005372881889343,
        -0.10355505347251892,
        -0.04376204311847687,
        -0.038444194942712784,
        0.045630957931280136,
        -0.007861454039812088,
        0.10618351399898529,
        -0.0014012553729116917,
        -0.02613292634487152,
        -0.12337476015090942,
        -0.005712484009563923,
        -0.02731427736580372,
        -0.004941227845847607,
        0.09837136417627335,
        0.023142192512750626,
        -0.02259434387087822,
        0.032678473740816116,
        0.009429968893527985,
        0.05392956733703613,
        0.03143584728240967,
        -0.054932188242673874,
        0.02060081996023655,
        -0.016774440184235573,
        0.007222432643175125,
        0.05884435400366783,
        0.020131345838308334,
        0.07695019990205765,
        -0.10303579270839691,
        -0.01197065133601427,
        0.1370638757944107,
        -0.004647448658943176,
        0.06892713159322739,
        -0.026918483898043633,
        -0.03487291932106018,
        0.03130574896931648,
        -0.004049085080623627,
        0.0386323519051075,
        0.07764029502868652,
        -0.0393080972135067,
        0.016374357044696808,
        -0.004635282792150974,
        0.06124164164066315,
        -0.02348879538476467,
        0.047954145818948746,
        0.0038802912458777428,
        -0.0028360490687191486,
        0.06075898930430412,
        -0.012623827904462814,
        0.014170479029417038,
        0.03760090097784996,
        0.0881558358669281,
        -0.015880271792411804,
        0.02511366456747055,
        0.10396644473075867,
        0.022709522396326065,
        0.020305272191762924,
        0.09267015755176544,
        -0.026173647493124008,
        -0.017915669828653336,
        -0.01566675305366516,
        -0.03674924001097679,
        0.09374428540468216,
        -0.026948628947138786,
        -0.006314754486083984,
        0.008669525384902954,
        -0.003936462104320526,
        -0.0008759335032664239,
        -0.03067387267947197,
        0.042510613799095154,
        0.043602898716926575,
        0.05297538638114929,
        0.008530753664672375,
        -0.007105010095983744,
        -0.01812455616891384,
        0.0034750497434288263,
        -0.06406562775373459,
        -0.004504615906625986,
        0.03718486428260803,
        -0.017716078087687492,
        -0.01191032212227583,
        -0.009533070959150791,
        -0.047124363481998444,
        0.03411220386624336,
        0.025657322257757187,
        -0.048678409308195114,
        0.08319451659917831,
        0.019309671595692635,
        -0.10472866147756577,
        0.07019559293985367,
        -0.045523159205913544,
        0.03263361006975174,
        0.08633140474557877,
        -0.013422945514321327,
        -0.0403796061873436,
        -0.10479036718606949,
        0.13132432103157043,
        -0.026375966146588326,
        -0.06575345993041992,
        0.019459491595625877,
        -0.048935189843177795,
        -0.017134424299001694,
        -0.05073818564414978,
        -0.009297034703195095,
        0.09634490311145782,
        0.0282677561044693,
        -0.006986771244555712,
        0.09711688756942749,
        -0.12137086689472198,
        0.021787259727716446,
        0.08465899527072906,
        0.04911027476191521,
        0.05253133550286293,
        -0.0379251129925251,
        -0.0025249102618545294,
        0.01942887157201767,
        0.04994240030646324,
        -0.001510485541075468,
        -0.02406785637140274,
        -0.04042033851146698,
        0.031797636300325394,
        -0.03208170086145401,
        0.039658259600400925,
        0.010433899238705635,
        0.0019521983340382576,
        -0.0017740445910021663,
        0.026995927095413208,
        -0.0233518797904253,
        0.03743897005915642,
        0.02325783111155033,
        0.007059640251100063,
        -0.07126549631357193,
        0.13053202629089355,
        0.045907750725746155,
        0.08097787946462631,
        -0.013578035868704319,
        0.05039976164698601,
        0.024757713079452515,
        0.03084377571940422,
        0.02593125030398369,
        0.06516104936599731,
        0.09154407680034637,
        -0.10933710634708405,
        0.06931497156620026,
        0.0058172158896923065,
        -0.01171516440808773,
        0.01679994910955429,
        -0.01700419932603836,
        -0.013653108850121498,
        0.04124915599822998,
        0.017403630539774895,
        0.07865308970212936,
        -0.09370099008083344,
        0.004931810311973095,
        -0.015260983258485794,
        0.08211201429367065,
        -0.08993448317050934,
        0.06143796071410179,
        0.041196342557668686,
        -0.011256273835897446,
        0.00897715613245964,
        0.006509985774755478,
        -0.008580170571804047,
        0.027072694152593613,
        0.01300877146422863,
        0.03296560421586037,
        0.05244039371609688,
        0.07437184453010559,
        0.008825825527310371,
        0.09034007787704468,
        -0.08106482028961182,
        0.07443193346261978,
        0.02780633047223091,
        0.07049639523029327,
        0.061535000801086426,
        0.07289933413267136,
        0.10275853425264359,
        -0.0648345872759819,
        0.008748505264520645,
        0.03410235419869423,
        0.028790974989533424,
        -0.1284201592206955,
        0.05743258446455002,
        0.08217912167310715,
        0.04185008630156517,
        -0.016800694167613983,
        0.003238295204937458,
        0.10666415095329285,
        0.0942390114068985,
        -0.010542357340455055,
        0.030242357403039932,
        0.030073491856455803,
        -0.04485302045941353,
        0.0806708037853241,
        0.0013440957991406322,
        0.02472451701760292,
        0.0527699738740921,
        0.020367421209812164,
        0.061301976442337036,
        -0.015834171324968338,
        0.006386283319443464,
        0.084206223487854,
        -0.16545875370502472,
        0.0260509941726923,
        -0.07358922064304352,
        0.013841620646417141,
        0.08621115982532501,
        -0.011741822585463524,
        -0.01670193299651146,
        -0.039573609828948975,
        0.017483118921518326,
        -0.008731493726372719,
        0.005668421275913715,
        -0.040498293936252594,
        0.04244913160800934,
        -0.06369705498218536,
        -0.05435652658343315,
        0.01711626537144184,
        -0.07346533238887787,
        -0.04460073262453079,
        -0.03195909038186073,
        -0.04335755482316017,
        -0.02597787044942379,
        -0.025570975616574287,
        -0.03910453990101814,
        0.019734838977456093,
        -0.09319140017032623,
        -0.11810056120157242,
        0.08818195015192032,
        -0.052077215164899826,
        0.0320843867957592,
        0.12942488491535187,
        0.0013594540068879724,
        -0.07885460555553436,
        0.006430750247091055,
        -0.02143724076449871,
        -0.032594967633485794,
        -0.0768837183713913,
        0.141999751329422,
        0.01434533204883337,
        0.08042845129966736,
        0.12233883887529373,
        -0.03046753816306591,
        0.017327407374978065,
        -0.051640868186950684,
        -0.03648691624403,
        -0.07448357343673706,
        0.02918289415538311,
        -0.001719007850624621,
        0.03663310408592224,
        -0.0137275829911232,
        -0.05299510806798935,
        -0.030851546674966812,
        -0.024827009066939354,
        -0.03843952715396881,
        0.01819188892841339,
        0.017709296196699142,
        -0.02543664164841175,
        -0.034358225762844086,
        -0.03583250194787979,
        -0.04266252741217613,
        -0.0328993983566761,
        0.0374857597053051,
        0.021178793162107468,
        -0.001585930585861206,
        0.03837953135371208,
        -0.00015567615628242493,
        -0.0004081353545188904,
        -0.018363382667303085,
        0.0383291058242321,
        -0.0362737774848938,
        -0.017220625653862953,
        0.03600927069783211,
        -0.03421609103679657,
        -0.016500450670719147,
        -0.008935622870922089,
        -0.03304266929626465,
        -0.021033156663179398,
        0.025654945522546768,
        -0.010293275117874146,
        0.0263139046728611,
        0.020070020109415054,
        -0.03621309995651245,
        -0.033749423921108246,
        -0.001743663102388382,
        -0.012811671942472458,
        -0.004575129598379135,
        0.029761727899312973,
        0.037355389446020126,
        -0.04231445863842964,
        0.017456859350204468,
        0.005745586007833481,
        0.007207028567790985,
        0.0426604337990284,
        -0.008444055914878845,
        -0.04242149740457535,
        -0.03750854358077049,
        -0.02936120145022869,
        0.0027628131210803986,
        -0.031966377049684525,
        -0.006841965019702911,
        -0.03726940602064133,
        -0.01467507891356945,
        0.01177486777305603,
        -0.030924087390303612,
        0.03942590579390526,
        -0.008223224431276321,
        0.018910495564341545,
        0.06265951693058014,
        0.04856322705745697,
        0.08672063797712326,
        -0.07354374974966049,
        -0.002403814345598221,
        -0.09618044644594193,
        -0.018322840332984924,
        -0.07675152271986008,
        -0.028659850358963013,
        0.07088609039783478,
        0.027986280620098114,
        -0.01046749483793974,
        -0.009852969087660313,
        -0.0041285790503025055,
        0.0022865086793899536,
        -0.009337600320577621,
        0.02212165668606758,
        -0.01847519725561142,
        -0.10522212833166122,
        -0.026703059673309326,
        -0.026426319032907486,
        -0.08298347145318985,
        0.005708673503249884,
        0.07906616479158401,
        -0.026339096948504448,
        0.08287364989519119,
        0.11908270418643951,
        0.06405198574066162,
        -0.03589492291212082,
        0.024758312851190567,
        0.03280740603804588,
        0.0025402260944247246,
        0.031031234189867973,
        -0.024773886427283287,
        0.011433995328843594,
        0.0035623200237751007,
        -0.07459346950054169,
        -0.1301673799753189,
        0.04014492407441139,
        -0.05253089964389801,
        0.02772889845073223,
        0.02481083944439888,
        -0.04806533455848694,
        -0.031613364815711975,
        -0.03583922237157822,
        0.002993859350681305,
        0.023997601121664047,
        -0.003818170167505741,
        0.022836940363049507,
        0.022233739495277405,
        0.0009544529020786285,
        -0.07560852915048599,
        0.017966387793421745,
        -0.050687991082668304,
        -0.005362441297620535,
        0.0572611466050148,
        0.1177358329296112,
        -0.07398855686187744,
        0.004501862917095423,
        0.037504035979509354,
        0.035061877220869064,
        0.11998715996742249,
        -0.007035763934254646,
        0.04438728466629982,
        0.04004770517349243,
        -0.06635583937168121,
        -0.0124614667147398,
        0.20008151233196259,
        -0.006918149534612894,
        0.01650061085820198,
        0.034522708505392075,
        0.02802523598074913,
        0.0038897059857845306,
        0.05916786193847656,
        -0.019914841279387474,
        -0.0822286456823349,
        -0.01760287396609783,
        0.1239963099360466,
        -0.0249132439494133,
        -0.09910867363214493,
        0.03434984013438225,
        0.06444137543439865,
        0.011618190445005894,
        -0.05235952138900757,
        -0.009768638759851456,
        0.17199714481830597,
        -0.018933584913611412,
        -0.02247857302427292,
        0.04271673783659935,
        0.04060925170779228,
        -0.01817379519343376,
        -0.009466327726840973,
        0.053805846720933914,
        0.02598320133984089,
        -0.003802470862865448,
        0.013386301696300507,
        0.024882230907678604,
        -0.013515451923012733,
        -0.004711703397333622,
        0.014884521253407001,
        0.08405906707048416,
        0.00942273996770382,
        -0.0063892244361341,
        -0.06704381853342056,
        0.053504135459661484,
        0.009733790531754494,
        0.017429862171411514,
        0.025405388325452805,
        -0.00676774512976408,
        0.004407774657011032,
        0.062361542135477066,
        0.0019517773762345314,
        0.030019564554095268
      ],
      [
        -0.017550000920891762,
        0.007601600140333176,
        -0.0014879873488098383,
        -0.03528086468577385,
        0.027304597198963165,
        -0.03261275961995125,
        -0.05237448960542679,
        0.01782798394560814,
        0.054143764078617096,
        -0.010757441632449627,
        -0.053536757826805115,
        0.009361096657812595,
        0.024792149662971497,
        -0.020191246643662453,
        -0.006509796250611544,
        0.010428637266159058,
        -0.0987415462732315,
        -0.058070108294487,
        0.03833433985710144,
        0.08638321608304977,
        0.01440622191876173,
        0.021684767678380013,
        -0.015596266835927963,
        0.1700957715511322,
        -0.035409849137067795,
        0.03621005639433861,
        -0.010358762927353382,
        0.07136158645153046,
        -0.05521087720990181,
        -0.0477948822081089,
        0.04479068145155907,
        -0.08866250514984131,
        -0.003170176176354289,
        -0.03283071890473366,
        -0.024570807814598083,
        0.032485056668519974,
        0.06029919162392616,
        0.05868249014019966,
        0.0021829763427376747,
        0.05882851779460907,
        -0.08359067887067795,
        -0.05093388259410858,
        -0.10980341583490372,
        0.06611476838588715,
        0.02614457532763481,
        -0.005391605198383331,
        0.025302786380052567,
        0.02550211176276207,
        -0.04244067519903183,
        0.007106633856892586,
        0.024301469326019287,
        -0.023240458220243454,
        -0.08355741947889328,
        0.024980632588267326,
        -0.10268326103687286,
        -0.00267483270727098,
        -0.015977954491972923,
        0.002650585025548935,
        -0.03835524246096611,
        -0.02831234596669674,
        0.015712127089500427,
        0.0022556595504283905,
        0.06771532446146011,
        0.042723026126623154,
        0.017582952976226807,
        0.02552376128733158,
        0.08829433470964432,
        0.188506081700325,
        -0.04690873622894287,
        -0.0035476263146847486,
        -0.035670891404151917,
        0.019494174048304558,
        0.07256825268268585,
        0.10487104952335358,
        0.026226749643683434,
        -0.04949256405234337,
        0.018587401136755943,
        -0.18416401743888855,
        0.13077667355537415,
        -0.16475826501846313,
        -0.05542858690023422,
        -0.07970608025789261,
        -6.204450619406998e-05,
        -0.05167003720998764,
        0.036163780838251114,
        0.04833398759365082,
        0.006337130442261696,
        0.1552656888961792,
        -0.06827362626791,
        -0.004852219484746456,
        0.016892660409212112,
        0.05089426040649414,
        -0.035829026252031326,
        -0.024762801826000214,
        -0.03795390948653221,
        0.006364878267049789,
        -0.0036865766160190105,
        0.0013354221591725945,
        -0.01327945664525032,
        0.05410902202129364,
        -0.01888084039092064,
        0.02503926493227482,
        -0.0350169837474823,
        -0.0210136566311121,
        -0.012287340126931667,
        -0.029598573222756386,
        0.026366133242845535,
        -0.03178885579109192,
        0.055049337446689606,
        -0.030571360141038895,
        0.0500001460313797,
        -0.062030959874391556,
        -0.056532178074121475,
        0.101350337266922,
        -0.012148532085120678,
        0.07618268579244614,
        -0.021241459995508194,
        0.050925612449645996,
        0.0043523539789021015,
        -0.021636324003338814,
        0.002612156793475151,
        0.05770355463027954,
        0.03507186844944954,
        -0.058431416749954224,
        -0.12251188606023788,
        0.012966479174792767,
        0.10628513991832733,
        -0.1901625394821167,
        0.0035263989120721817,
        -0.15913450717926025,
        0.02645733952522278,
        -0.02603742480278015,
        0.06524182856082916,
        0.06286121904850006,
        -0.0018975567072629929,
        -0.11174407601356506,
        0.09066934138536453,
        -0.020884817466139793,
        0.0060883997939527035,
        0.04329714924097061,
        0.03361948952078819,
        -0.010176774114370346,
        -0.03269616886973381,
        -0.02444261498749256,
        0.05912226438522339,
        0.00824497640132904,
        0.03757021203637123,
        -0.0006542356568388641,
        -0.030753543600440025,
        0.006131455302238464,
        0.08425713330507278,
        -0.02243506908416748,
        0.006441987119615078,
        -0.13216683268547058,
        0.057553648948669434,
        0.1461901068687439,
        0.011279914528131485,
        0.034936606884002686,
        -0.011710349470376968,
        -0.0411706306040287,
        0.03376225754618645,
        -0.031428154557943344,
        0.0014932118356227875,
        -0.009819486178457737,
        -0.009064707905054092,
        -0.011547509580850601,
        0.07538118213415146,
        0.05472323298454285,
        -0.05609164386987686,
        0.03087424673140049,
        0.05724508687853813,
        0.030505919829010963,
        0.07239337265491486,
        -0.03646025434136391,
        -0.020275194197893143,
        0.057881250977516174,
        0.12013869732618332,
        -0.040716562420129776,
        0.0009509880328550935,
        0.09960656613111496,
        -0.014729641377925873,
        -0.01744803600013256,
        0.10074333101511002,
        0.0336756594479084,
        -0.02039719745516777,
        -0.0021127997897565365,
        -0.003640230745077133,
        0.05356987938284874,
        -0.032843321561813354,
        0.042238373309373856,
        0.0007122866809368134,
        0.01832074671983719,
        -0.010412569157779217,
        0.021341804414987564,
        0.008984476327896118,
        0.016807131469249725,
        -0.012922416441142559,
        0.007325832732021809,
        0.03016754798591137,
        0.057425253093242645,
        -0.010542160831391811,
        -0.06702668219804764,
        0.03780365735292435,
        0.06219111382961273,
        -0.019153695553541183,
        0.029478134587407112,
        -0.008184021338820457,
        0.04585612937808037,
        0.05637689307332039,
        0.03617030009627342,
        0.019725890830159187,
        0.1875033974647522,
        0.0751548707485199,
        -0.0544729046523571,
        -0.027046585455536842,
        -0.08457931131124496,
        -0.020639093592762947,
        0.06284424662590027,
        0.054958801716566086,
        -0.03955208510160446,
        -0.0802600234746933,
        -0.017153620719909668,
        0.026235492900013924,
        -0.07067211717367172,
        -0.026209136471152306,
        -0.04808353632688522,
        -0.01754031702876091,
        -0.019194340333342552,
        0.08683474361896515,
        0.08722370862960815,
        0.002319460501894355,
        -0.08398347347974777,
        0.05783557891845703,
        -0.03062927909195423,
        0.07270996272563934,
        0.16018860042095184,
        0.07931861281394958,
        0.10467229038476944,
        0.06005466729402542,
        -0.04080298915505409,
        0.03628433123230934,
        0.04533519968390465,
        0.03453691303730011,
        -0.028622834011912346,
        0.005835825577378273,
        0.06501021236181259,
        0.013605752028524876,
        0.06334520131349564,
        -0.003123124362900853,
        -0.0011549423215910792,
        0.05702653527259827,
        0.09499609470367432,
        0.02713148668408394,
        0.029955539852380753,
        0.05289270728826523,
        0.02358916960656643,
        -0.014514405280351639,
        -0.03281695023179054,
        0.008917010389268398,
        0.06996437162160873,
        -0.004050196148455143,
        0.13239111006259918,
        0.04375510662794113,
        0.005949708633124828,
        0.022087810561060905,
        0.09700053185224533,
        0.05130663514137268,
        -0.06433826684951782,
        0.09983047097921371,
        0.0021152272820472717,
        0.04294179752469063,
        0.020253581926226616,
        0.03783091530203819,
        -0.0007395957945846021,
        0.038659777492284775,
        0.06911946088075638,
        0.06944112479686737,
        -0.07676554471254349,
        0.0452471524477005,
        -0.07375098019838333,
        0.07618235796689987,
        -0.05236399173736572,
        -0.011069989763200283,
        0.05973893031477928,
        -0.03245970979332924,
        0.018380898982286453,
        -0.03870323300361633,
        0.03528841957449913,
        0.026326963678002357,
        0.02809303067624569,
        0.056977637112140656,
        0.12544550001621246,
        -0.02624071203172207,
        -0.0077915736474096775,
        0.038492146879434586,
        -0.10071336477994919,
        -0.005960848182439804,
        0.028950488194823265,
        -0.021729284897446632,
        0.050990547984838486,
        0.028833117336034775,
        0.03415754809975624,
        -0.033446721732616425,
        -0.0011402209056541324,
        -0.059851206839084625,
        0.018425188958644867,
        -0.07314976304769516,
        0.05067407712340355,
        0.0586562342941761,
        0.12433981895446777,
        -0.021799080073833466,
        0.012829728424549103,
        0.009175351820886135,
        0.07707983255386353,
        -0.023605279624462128,
        0.06296851485967636,
        0.019300363957881927,
        -0.10731266438961029,
        0.09865677356719971,
        0.02117346227169037,
        -0.0009325565188191831,
        0.0872330367565155,
        0.018737217411398888,
        0.007741197478026152,
        -0.06727302074432373,
        0.028483921661973,
        -0.07797888666391373,
        -0.14717398583889008,
        -0.08277779072523117,
        -0.07068829983472824,
        -0.0775071457028389,
        0.03930287808179855,
        -0.015283633023500443,
        0.029645871371030807,
        -0.04086786508560181,
        0.009419824928045273,
        -0.0008051807526499033,
        0.04300869628787041,
        0.035986293107271194,
        0.04193272441625595,
        -0.05972094088792801,
        0.003472612239420414,
        0.029849234968423843,
        -0.014487098902463913,
        0.03648127615451813,
        0.07192514091730118,
        -0.03408723697066307,
        -0.03142397850751877,
        0.008053463883697987,
        0.029727859422564507,
        0.07270750403404236,
        -0.021951163187623024,
        -0.12367289513349533,
        0.09537963569164276,
        0.045825645327568054,
        -0.0015364460414275527,
        0.09422574937343597,
        -0.037508849054574966,
        -0.053976356983184814,
        -0.019709821790456772,
        -0.0008827403653413057,
        0.06265199184417725,
        0.018942654132843018,
        0.14273792505264282,
        -0.00232749804854393,
        0.028642162680625916,
        0.14942249655723572,
        -0.0781867653131485,
        0.023578520864248276,
        0.06380938738584518,
        -0.014515159651637077,
        -0.022450556978583336,
        -0.008559582754969597,
        0.08970845490694046,
        0.02007022500038147,
        -0.05912508815526962,
        -0.14388763904571533,
        0.01880573481321335,
        0.010323893278837204,
        -0.0010807549115270376,
        -0.03331343084573746,
        0.02078573778271675,
        0.029328782111406326,
        0.03607605770230293,
        0.025474365800619125,
        0.027125123888254166,
        -0.021885041147470474,
        0.012825608253479004,
        0.00400857999920845,
        0.03505246713757515,
        0.04067421332001686,
        0.03930876776576042,
        0.03760533407330513,
        0.03004917874932289,
        0.011395290493965149,
        0.0007671266794204712,
        0.006006155163049698,
        -0.04110429808497429,
        -0.002414703369140625,
        0.013185426592826843,
        -0.03561478108167648,
        0.02468639239668846,
        0.0024624578654766083,
        0.04175613448023796,
        0.028271887451410294,
        -0.02068968117237091,
        -0.038968589156866074,
        0.018207944929599762,
        0.008503135293722153,
        -0.008193835616111755,
        0.030592847615480423,
        -0.02163017727434635,
        -0.002392370253801346,
        0.030600208789110184,
        -0.02362617664039135,
        -0.03959883749485016,
        0.019998345524072647,
        0.032684724777936935,
        -0.03852236643433571,
        0.026499290019273758,
        -0.027422472834587097,
        0.03246435895562172,
        0.007560107856988907,
        -0.0033424869179725647,
        -0.0007469877600669861,
        -0.02967667393386364,
        -0.021910468116402626,
        -0.011037115007638931,
        -0.023311248049139977,
        -0.020229509100317955,
        -0.006949093192815781,
        -0.03400373458862305,
        -0.038848742842674255,
        0.0004920227802358568,
        0.013367973268032074,
        -0.005848401226103306,
        -0.03428402170538902,
        -0.00867798924446106,
        -0.15338733792304993,
        0.004359163343906403,
        -0.030066492035984993,
        0.015795355662703514,
        -0.02712896093726158,
        0.10793475806713104,
        0.011925234459340572,
        -0.009865581057965755,
        -0.003672022372484207,
        0.005494575947523117,
        0.0035063624382019043,
        0.024130862206220627,
        -0.016341116279363632,
        -0.08016457408666611,
        0.015289589762687683,
        0.023338627070188522,
        -0.05837318301200867,
        -0.057121358811855316,
        0.0637744665145874,
        -0.004737902898341417,
        0.09474998712539673,
        0.06680633872747421,
        0.07107625901699066,
        0.019701171666383743,
        -0.007556866854429245,
        -0.03672868013381958,
        0.0026391404680907726,
        0.006856926716864109,
        -0.06466958671808243,
        0.08175317943096161,
        -0.013763049617409706,
        -0.13961593806743622,
        -0.09822625666856766,
        -0.03410514444112778,
        -0.03650086745619774,
        0.052972014993429184,
        -0.01346544362604618,
        -0.1001676470041275,
        -0.028180211782455444,
        -0.003968827426433563,
        0.00803280621767044,
        -0.005215127021074295,
        0.005920884199440479,
        -0.00022227817680686712,
        0.10175047069787979,
        -0.012761475518345833,
        0.021821454167366028,
        0.011297567747533321,
        -0.01948661357164383,
        -0.05811046063899994,
        0.11616670340299606,
        0.11080477386713028,
        -0.12011442333459854,
        -0.03864602372050285,
        0.013546876609325409,
        0.013087339699268341,
        0.12503866851329803,
        -0.05002935603260994,
        -0.03346005454659462,
        -0.04607238620519638,
        -0.10147098451852798,
        -0.006165262311697006,
        0.15999513864517212,
        0.1283557265996933,
        0.028735291212797165,
        -0.00873793289065361,
        0.011386200785636902,
        -0.005594097077846527,
        0.1478268951177597,
        -0.013286195695400238,
        -0.1402910351753235,
        -0.08162972331047058,
        0.08616410195827484,
        -0.024021776393055916,
        -0.06829933822154999,
        0.004848148673772812,
        0.008024405688047409,
        -0.03532114997506142,
        -0.023831013590097427,
        0.010894183069467545,
        0.15454404056072235,
        -0.107364721596241,
        0.024987060576677322,
        0.034184012562036514,
        -0.05277169123291969,
        0.0024765990674495697,
        -0.08604734390974045,
        -0.003568879794329405,
        -0.014294149354100227,
        0.009963005781173706,
        0.00809590332210064,
        0.043956950306892395,
        -0.053814370185136795,
        -0.0411984883248806,
        -0.009159162640571594,
        0.06114545464515686,
        -0.013040688820183277,
        0.025169234722852707,
        -0.012771312147378922,
        0.05357574671506882,
        -0.03594968095421791,
        0.01035378873348236,
        0.008068954572081566,
        -0.021390652284026146,
        -0.029149964451789856,
        0.005316102411597967,
        0.04495038464665413,
        -0.024099215865135193
      ],
      [
        0.03988523408770561,
        -0.03809840604662895,
        -0.0397685170173645,
        0.001068975543603301,
        -0.0509110651910305,
        0.008321497589349747,
        -0.012734458781778812,
        0.002814153442159295,
        -0.01592317409813404,
        -0.006334931589663029,
        0.00044481345685198903,
        -0.058230526745319366,
        0.029429204761981964,
        -0.005369013175368309,
        0.026489727199077606,
        0.004643015563488007,
        -0.08113709837198257,
        -0.08173276484012604,
        -0.014185815118253231,
        0.12610438466072083,
        -0.023336069658398628,
        0.06856182962656021,
        -0.007114442065358162,
        0.11137527972459793,
        0.022446870803833008,
        0.04582081735134125,
        -0.010380306281149387,
        0.07847658544778824,
        -0.03628949820995331,
