{
  "backend": "torch",
  "state_size": 546,
  "option_size": 109,
  "hidden_size": 24,
  "architecture": "legacy_v1",
  "device_preference": "cpu",
  "state_dict": {
    "joint_bias": [
      0.0,
      0.0,
      0.0,
      0.0,
      0.0,
      0.0,
      0.0,
      0.0,
      0.0,
      0.0,
      0.0,
      0.0,
      0.0,
      0.0,
      0.0,
      0.0,
      0.0,
      0.0,
      0.0,
      0.0,
      0.0,
      0.0,
      0.0,
      0.0
    ],
    "state_linear.weight": [
      [
        -0.04196232557296753,
        -0.03934403881430626,
        0.017501220107078552,
        0.03670760616660118,
        0.028087925165891647,
        -0.020856061950325966,
        -0.019986892119050026,
        -0.03528035804629326,
        -0.03593164309859276,
        0.012627243995666504,
        0.02885252609848976,
        -0.0317232683300972,
        0.017294134944677353,
        -0.0376448929309845,
        0.005887679755687714,
        0.03208116814494133,
        -0.029669858515262604,
        0.00561726838350296,
        -0.006203118711709976,
        0.02175033465027809,
        0.02218719944357872,
        0.012489408254623413,
        -0.02491702511906624,
        0.002024538815021515,
        0.024303946644067764,
        0.02777513489127159,
        -0.008982274681329727,
        0.01012440025806427,
        0.04045497998595238,
        0.01736772432923317,
        -0.03847859054803848,
        -0.013533595949411392,
        -0.009826216846704483,
        -0.008997902274131775,
        0.002649214118719101,
        0.009498652070760727,
        -0.007995128631591797,
        0.019412551075220108,
        0.00913538783788681,
        0.023696962743997574,
        0.014034856110811234,
        -0.0035922452807426453,
        0.04067711904644966,
        0.036040667444467545,
        -0.00914125144481659,
        -0.000990603119134903,
        0.023961547762155533,
        0.04081321135163307,
        -0.013291286304593086,
        0.026898536831140518,
        -0.026110509410500526,
        0.029827479273080826,
        0.029908929020166397,
        -0.01917349547147751,
        -0.014042066410183907,
        0.021970238536596298,
        0.0006260126829147339,
        0.005061354488134384,
        0.041874680668115616,
        -0.018755825236439705,
        0.03697105869650841,
        0.006094321608543396,
        -0.01832590065896511,
        -0.0394316129386425,
        -0.012119490653276443,
        -0.02409711852669716,
        -0.02519170567393303,
        0.02637554332613945,
        -0.039814867079257965,
        0.00976671651005745,
        0.03245765343308449,
        0.029147882014513016,
        -0.022567203268408775,
        -0.04234568402171135,
        -0.006108008325099945,
        -0.030591223388910294,
        -0.0231312308460474,
        -0.02540203183889389,
        0.0029902271926403046,
        -0.005199894309043884,
        0.006207391619682312,
        -0.027908476069569588,
        -0.012567494064569473,
        0.01646541804075241,
        0.007362727075815201,
        -0.03971203789114952,
        -0.040247950702905655,
        0.01833023875951767,
        -0.03094686195254326,
        0.012498579919338226,
        0.040824536234140396,
        0.009300176054239273,
        -0.035159774124622345,
        0.012058883905410767,
        0.03161828592419624,
        0.00918559730052948,
        -0.009798455983400345,
        0.04268152639269829,
        0.029536385089159012,
        -0.028510622680187225,
        0.03658078983426094,
        -0.025609109550714493,
        0.03670987859368324,
        -0.016967592760920525,
        -0.03798418492078781,
        -0.0308515764772892,
        -0.023671694099903107,
        -0.03750750795006752,
        -0.010691579431295395,
        -0.004555735737085342,
        -0.030060438439249992,
        0.03823905810713768,
        0.016438860446214676,
        -0.012431498616933823,
        -0.0058826543390750885,
        -0.013647502288222313,
        0.020258959382772446,
        -0.023640919476747513,
        -0.0063198767602443695,
        0.037249717861413956,
        -0.025162529200315475,
        0.03385966643691063,
        0.03420301154255867,
        0.008684713393449783,
        -0.03522507846355438,
        0.04262659326195717,
        0.037443388253450394,
        -0.006882607936859131,
        0.006251402199268341,
        0.010339353233575821,
        0.04105034098029137,
        0.023870933800935745,
        0.008743081241846085,
        0.03836239501833916,
        -0.012263935059309006,
        0.018824398517608643,
        0.005003672093153,
        -0.028860237449407578,
        0.021211493760347366,
        -0.010959163308143616,
        -0.04060935229063034,
        0.03452109172940254,
        0.025426466017961502,
        -0.0024885162711143494,
        0.013019036501646042,
        0.03865553066134453,
        0.008327972143888474,
        0.004597023129463196,
        0.0204290933907032,
        0.03173007443547249,
        -0.001437600702047348,
        0.001701008528470993,
        -0.002919178456068039,
        0.01540934294462204,
        -0.005171433091163635,
        0.014109835028648376,
        -0.03818134963512421,
        -0.02104278840124607,
        -0.027486857026815414,
        -0.009828828275203705,
        -0.04250087961554527,
        -0.007218815386295319,
        -0.0013071708381175995,
        -0.03813231736421585,
        0.02641407772898674,
        0.024666499346494675,
        -0.01949433982372284,
        0.022679392248392105,
        0.018584199249744415,
        0.021651756018400192,
        0.03558146581053734,
        0.03310543671250343,
        -0.03485451266169548,
        -0.029392877593636513,
        0.015394549816846848,
        0.029696445912122726,
        -0.01212637685239315,
        0.011808089911937714,
        0.009267698973417282,
        0.004368748515844345,
        -0.0025173239409923553,
        0.0072395652532577515,
        0.006385058164596558,
        -0.0025862231850624084,
        0.016893718391656876,
        -0.004452314227819443,
        0.010231316089630127,
        -0.023412618786096573,
        -0.00017547607421875,
        -0.030707143247127533,
        -0.01843913272023201,
        -0.03704342246055603,
        0.03731260076165199,
        0.00665225088596344,
        -0.03233904391527176,
        0.028957951813936234,
        0.029361922293901443,
        0.02937259152531624,
        -0.0219724141061306,
        -0.020752575248479843,
        -0.02731240913271904,
        0.015008464455604553,
        0.0013321153819561005,
        0.03987543657422066,
        0.012471448630094528,
        -0.01852361671626568,
        -0.0212031751871109,
        -0.009859040379524231,
        -0.033453866839408875,
        -0.03796302154660225,
        0.022455234080553055,
        -0.03298676013946533,
        -0.012144193053245544,
        0.035206954926252365,
        0.03011034056544304,
        -0.04161588475108147,
        0.0018425621092319489,
        -0.031613197177648544,
        -0.033625971525907516,
        -0.023231396451592445,
        -0.025089029222726822,
        0.023306842893362045,
        0.0017682351171970367,
        -0.02064630202949047,
        -0.03415144607424736,
        0.02926694229245186,
        -0.011440668255090714,
        0.037459585815668106,
        0.020827095955610275,
        0.02055654302239418,
        0.0013794824481010437,
        -0.009557001292705536,
        0.028045568615198135,
        -0.004094809293746948,
        0.032885100692510605,
        -0.02978495880961418,
        0.010076120495796204,
        -0.011978346854448318,
        -0.008425712585449219,
        0.04236961528658867,
        0.0013725683093070984,
        -0.005805112421512604,
        -0.00607624277472496,
        -0.026555323973298073,
        0.01692580059170723,
        0.02437799796462059,
        -0.00996030867099762,
        -0.02246112935245037,
        -0.030581694096326828,
        -0.004916250705718994,
        -0.03373640775680542,
        0.01657905802130699,
        -0.004819139838218689,
        -0.003819592297077179,
        0.029777761548757553,
        -0.0187007375061512,
        0.030248049646615982,
        -0.01697986200451851,
        -0.02227918803691864,
        0.024650204926729202,
        0.03055313602089882,
        0.02283017709851265,
        -0.04149646684527397,
        -0.02989489957690239,
        -0.04142599552869797,
        -0.02456388622522354,
        0.035661812871694565,
        0.03383777663111687,
        -0.027295920997858047,
        0.013988420367240906,
        -0.0123665239661932,
        -0.003741919994354248,
        0.026386212557554245,
        -0.03665712848305702,
        1.2479722499847412e-05,
        0.016217485070228577,
        0.0019254982471466064,
        -0.0024396181106567383,
        0.0010486915707588196,
        -0.0062224045395851135,
        -0.033575721085071564,
        -0.01518762856721878,
        0.0239776112139225,
        -0.025761492550373077,
        0.032797399908304214,
        -0.04183034598827362,
        -0.03848983719944954,
        0.03344211354851723,
        -0.04101195186376572,
        0.020359162241220474,
        0.01743553951382637,
        0.0079047791659832,
        0.039645854383707047,
        -0.03705791383981705,
        -0.03469284251332283,
        -0.030725952237844467,
        -0.036559756845235825,
        0.03919890895485878,
        -0.017451206222176552,
        0.015148106962442398,
        -0.03909391164779663,
        0.02257184311747551,
        -0.04173300042748451,
        0.019149787724018097,
        0.003764718770980835,
        0.011449180543422699,
        0.03679586574435234,
        0.005343098193407059,
        0.030312571674585342,
        -0.01758267730474472,
        -0.039690546691417694,
        -0.03824787959456444,
        0.04154110327363014,
        -0.02184956893324852,
        0.028693336993455887,
        -0.003972172737121582,
        0.023763906210660934,
        -0.02174573950469494,
        0.03172989562153816,
        -0.036531876772642136,
        -0.02559986524283886,
        0.011055845767259598,
        0.03883160278201103,
        0.006359074264764786,
        -0.00442349910736084,
        0.0013156682252883911,
        -0.029326070100069046,
        0.0023660659790039062,
        0.04170145466923714,
        -0.026721058413386345,
        0.030240345746278763,
        0.030288394540548325,
        -0.035294223576784134,
        0.03296763822436333,
        0.0026697926223278046,
        -0.005965117365121841,
        0.028464701026678085,
        0.02833625301718712,
        -0.04029214754700661,
        -0.029634080827236176,
        0.03219753876328468,
        0.023927543312311172,
        -0.010088227689266205,
        0.030526380985975266,
        -0.0017565414309501648,
        -0.020397165790200233,
        0.007804892957210541,
        0.03807038441300392,
        0.013298682868480682,
        0.015094328671693802,
        -0.01284201629459858,
        0.019235502928495407,
        -0.009583521634340286,
        -0.03769150376319885,
        -0.01354619674384594,
        0.031138721853494644,
        -0.007263742387294769,
        0.018461599946022034,
        0.030150901526212692,
        -0.015620512887835503,
        -0.02130730077624321,
        0.007615931332111359,
        -0.016709396615624428,
        0.037119608372449875,
        0.004096444696187973,
        0.014212455600500107,
        -0.04260032996535301,
        0.005731113255023956,
        -0.005026586353778839,
        -0.01995854265987873,
        0.02882535383105278,
        -0.03284560889005661,
        0.014556977897882462,
        -0.02142202854156494,
        -0.03506317734718323,
        -0.03655732423067093,
        -0.028914589434862137,
        -0.03188372030854225,
        0.009356517344713211,
        0.009616050869226456,
        -0.007380552589893341,
        0.027934323996305466,
        -0.014018934220075607,
        0.009793303906917572,
        -0.02538246288895607,
        -0.002770092338323593,
        -0.029862400144338608,
        0.03868257626891136,
        0.0038721784949302673,
        0.0022465623915195465,
        0.008164938539266586,
        0.03283435478806496,
        -0.04086301103234291,
        0.036877620965242386,
        0.013324432075023651,
        0.03102775290608406,
        -0.03947095945477486,
        0.012204673141241074,
        0.017295941710472107,
        -0.04037667065858841,
        0.02158607915043831,
        -0.018537774682044983,
        0.0034714527428150177,
        0.013092771172523499,
        0.009523622691631317,
        0.025106269866228104,
        0.018780477344989777,
        -0.03996317461133003,
        0.03370688483119011,
        0.03848160430788994,
        -0.036576464772224426,
        -0.023018728941679,
        -0.027540281414985657,
        -0.0058551207184791565,
        -0.03973562270402908,
        0.009292233735322952,
        0.023677576333284378,
        -0.001515604555606842,
        -0.022380130365490913,
        0.040498752146959305,
        -0.0292511023581028,
        -0.02930162474513054,
        0.017519231885671616,
        -0.02496425062417984,
        0.016271155327558517,
        -0.018948959186673164,
        0.0138346366584301,
        0.012304313480854034,
        0.019954945892095566,
        -0.02651328220963478,
        -0.010675732046365738,
        0.04065055027604103,
        0.038511160761117935,
        -0.0008966103196144104,
        -0.004037175327539444,
        0.026331614702939987,
        -0.02147158607840538,
        0.03294209763407707,
        -0.02250530943274498,
        -0.019212640821933746,
        0.009688489139080048,
        -0.041424836963415146,
        0.03646687790751457,
        -0.042695388197898865,
        0.03104478493332863,
        -0.02406425215303898,
        0.03916139528155327,
        -0.03379042446613312,
        -0.03974185138940811,
        0.03481690213084221,
        0.016217920929193497,
        -0.012585911899805069,
        0.01302831619977951,
        0.039539288729429245,
        0.017538640648126602,
        0.03996195271611214,
        0.020105499774217606,
        0.018122099339962006,
        -0.02265266701579094,
        -0.029029488563537598,
        -0.03932127356529236,
        0.013566859066486359,
        0.0361386202275753,
        -0.012710198760032654,
        -0.026794256642460823,
        -0.016746163368225098,
        -0.03293595463037491,
        -0.007989741861820221,
        -0.016906214877963066,
        0.0264163576066494,
        -0.02932944893836975,
        -0.004102155566215515,
        0.034595418721437454,
        -0.0009841620922088623,
        0.03867098316550255,
        -0.011298991739749908,
        -0.03922351077198982,
        -0.028161805123090744,
        0.032935354858636856,
        -0.0026489943265914917,
        0.0043220482766628265,
        0.03405343368649483,
        0.022359546273946762,
        -0.019459832459688187,
        -0.02845996804535389,
        -0.007312845438718796,
        -0.03793461620807648,
        0.009345855563879013,
        -0.039303138852119446,
        0.0269414521753788,
        -0.038674332201480865,
        0.01898939162492752,
        -0.03139305114746094,
        -0.030885610729455948,
        0.007910653948783875,
        -6.007775664329529e-05,
        -0.03167366981506348,
        -0.0015265531837940216,
        -0.041308559477329254,
        -0.040765829384326935,
        -0.03221981227397919,
        -0.02097770757973194,
        0.04219958558678627,
        0.04022038355469704,
        0.029403794556856155,
        -0.03625562787055969,
        0.004036083817481995,
        -0.037899795919656754,
        0.013883933424949646,
        0.038732852786779404,
        0.009288601577281952,
        -0.03106679767370224,
        0.0074144452810287476,
        0.02567801997065544,
        -0.03983507677912712,
        -0.025957589969038963,
        0.007232114672660828,
        0.02637149766087532,
        -0.02629331313073635,
        -0.03905392065644264,
        -0.0016503632068634033,
        -0.030350010842084885,
        -0.015112098306417465,
        0.01854398474097252,
        -0.012527406215667725,
        -0.011966684833168983,
        -0.010233566164970398,
        -0.012621879577636719,
        -0.011074837297201157,
        -0.03662579506635666,
        -0.006875965744256973,
        0.006436243653297424,
        0.03519221767783165,
        0.02184658870100975,
        0.009210728108882904,
        -0.030662881210446358,
        -0.0024171434342861176,
        -0.010830502957105637,
        -0.02681097574532032,
        -0.029513807967305183,
        -0.0325707271695137,
        -0.03449464589357376,
        -0.040640730410814285,
        -0.014010649174451828,
        0.01185746118426323,
        0.011021960526704788
      ],
      [
        0.003879450261592865,
        0.019712161272764206,
        -0.03867936506867409,
        -0.028477471321821213,
        0.01903773471713066,
        0.007055960595607758,
        -0.038938749581575394,
        0.021701913326978683,
        0.009503141045570374,
        0.004778560250997543,
        -0.01895492896437645,
        0.009408857673406601,
        0.011368300765752792,
        -0.004950050264596939,
        0.03156053647398949,
        0.02015964314341545,
        0.02267906442284584,
        0.008640654385089874,
        -0.009502820670604706,
        0.0201568566262722,
        -0.027665048837661743,
        -0.04081214591860771,
        -0.026907213032245636,
        0.025042738765478134,
        -0.0038161948323249817,
        -0.008714675903320312,
        -0.0019884854555130005,
        0.015567950904369354,
        -0.03624313697218895,
        0.00018669292330741882,
        -0.018927812576293945,
        -0.03457876667380333,
        -0.02591690979897976,
        0.03238118067383766,
        -0.0030855312943458557,
        0.01961582526564598,
        0.029236678034067154,
        0.041380856186151505,
        -0.02953391894698143,
        -0.018651215359568596,
        -0.015476150438189507,
        -0.0325193889439106,
        -0.036650869995355606,
        0.01611243188381195,
        0.02426302805542946,
        -0.01964990608394146,
        -0.028569858521223068,
        0.03987633064389229,
        0.015457861125469208,
        -0.02451203763484955,
        0.005396626889705658,
        0.02610587701201439,
        -0.03389385715126991,
        0.024600554257631302,
        -0.002989530563354492,
        -0.01412878930568695,
        -0.037613239139318466,
        0.006065975874662399,
        0.008849427103996277,
        0.017665889114141464,
        -0.029922550544142723,
        0.026430178433656693,
        -0.019252367317676544,
        -0.0067033953964710236,
        0.006244275718927383,
        -0.041484348475933075,
        -0.02164568565785885,
        0.01001877710223198,
        -0.013996390625834465,
        -0.023693732917308807,
        0.02219265326857567,
        0.015379469841718674,
        0.038979705423116684,
        -0.040386736392974854,
        0.014431621879339218,
        0.016331497579813004,
        -0.02579263225197792,
        -0.0221144650131464,
        -0.003291413187980652,
        -0.006559636443853378,
        0.037756625562906265,
        -0.03598875179886818,
        0.0367087759077549,
        0.011473458260297775,
        -0.003127891570329666,
        -0.034154586493968964,
        0.017304498702287674,
        0.028850305825471878,
        -0.025737758725881577,
        0.027207601815462112,
        -0.030567826703190804,
        -0.006347693502902985,
        0.030239161103963852,
        0.0007278919219970703,
        -0.04138966277241707,
        -0.004136968404054642,
        -0.0043786801397800446,
        0.0146009661257267,
        -0.018372811377048492,
        0.006605260074138641,
        0.01715138927102089,
        0.005576781928539276,
        0.04251139983534813,
        0.01641322672367096,
        0.019202418625354767,
        0.033191028982400894,
        -0.013041339814662933,
        0.03180592134594917,
        0.022348079830408096,
        -0.023660806939005852,
        -0.028119195252656937,
        -0.007247898727655411,
        -0.004294309765100479,
        0.03470280393958092,
        0.0274399034678936,
        0.030808355659246445,
        -0.011039357632398605,
        -0.011404115706682205,
        -0.04201289266347885,
        0.000695742666721344,
        0.031557563692331314,
        -0.005247119814157486,
        0.024554211646318436,
        0.007885701954364777,
        0.00882917270064354,
        -0.020371615886688232,
        0.014201249927282333,
        -0.016529550775885582,
        0.01024317741394043,
        -0.03221641480922699,
        -0.034136466681957245,
        -0.036712758243083954,
        0.004849802702665329,
        0.009958986192941666,
        -0.03587787225842476,
        -0.019766198471188545,
        -0.029977617785334587,
        -0.0065712518990039825,
        0.005949001759290695,
        0.007593568414449692,
        0.01945977658033371,
        0.010796841233968735,
        -0.033803753554821014,
        0.0009274184703826904,
        0.01126013696193695,
        -0.0012425817549228668,
        0.02479412779211998,
        -0.0331670343875885,
        0.021357472985982895,
        -0.04003480076789856,
        0.02054314687848091,
        0.011102158576250076,
        -0.005271457135677338,
        0.003381635993719101,
        -0.01804884895682335,
        0.024531472474336624,
        -0.03929620981216431,
        -0.003444775938987732,
        0.005678132176399231,
        -0.033216334879398346,
        -0.013813577592372894,
        -0.035080768167972565,
        0.007489163428544998,
        -0.04266800358891487,
        -0.0388944186270237,
        0.03588804975152016,
        0.01999570056796074,
        -0.03892228379845619,
        0.012311339378356934,
        0.02573910728096962,
        -0.03636836260557175,
        0.025870803743600845,
        -0.012357411906123161,
        -0.025836562737822533,
        -0.02377381920814514,
        -0.003998409956693649,
        0.03650006279349327,
        -0.04167339205741882,
        0.015527941286563873,
        -0.040647637099027634,
        -0.012972915545105934,
        0.014090530574321747,
        0.007341090589761734,
        0.0215124674141407,
        -0.012828992679715157,
        -0.0027001984417438507,
        0.026384156197309494,
        -0.03914579749107361,
        -0.035970717668533325,
        -0.010699082165956497,
        0.005440276116132736,
        -0.012536533176898956,
        -0.029498962685465813,
        0.0406879223883152,
        0.030946288257837296,
        0.005433972924947739,
        -0.010070674121379852,
        0.022379707545042038,
        0.04131680354475975,
        -0.031069118529558182,
        0.04098794236779213,
        0.04279526695609093,
        -0.02750149928033352,
        -0.02195560745894909,
        0.013867992907762527,
        -0.034298308193683624,
        0.020457979291677475,
        0.032398853451013565,
        -0.023770196363329887,
        -0.029624350368976593,
        0.0299907885491848,
        0.025775928050279617,
        -0.020488321781158447,
        0.034332189708948135,
        -0.022059636190533638,
        -0.012201372534036636,
        -0.03819083794951439,
        0.01968047022819519,
        -0.008089825510978699,
        -0.009705320000648499,
        0.03992385044693947,
        -0.011842973530292511,
        0.0034046173095703125,
        3.7364661693573e-05,
        -0.040218330919742584,
        -0.03535592928528786,
        -0.009402867406606674,
        0.007672004401683807,
        -0.0023141540586948395,
        0.0037876740097999573,
        -0.0261541698127985,
        -0.035296451300382614,
        0.001378379762172699,
        0.024299349635839462,
        0.012279190123081207,
        0.020536411553621292,
        0.020942840725183487,
        -0.00629812479019165,
        0.009922202676534653,
        0.03511655703186989,
        -0.016102556139230728,
        0.008506674319505692,
        0.03978778049349785,
        0.02338704839348793,
        0.029787730425596237,
        -0.030164875090122223,
        -0.03911355137825012,
        -0.0325605571269989,
        0.029630620032548904,
        0.015859849750995636,
        0.0007706470787525177,
        -0.00024785101413726807,
        -0.0027051791548728943,
        0.017133720219135284,
        -0.02179076336324215,
        0.041628967970609665,
        -0.011609382927417755,
        -0.011244695633649826,
        -0.00808241218328476,
        0.01728041097521782,
        0.014607846736907959,
        -0.021276263520121574,
        0.0279998816549778,
        -0.018001500517129898,
        0.008850689977407455,
        -0.008651260286569595,
        0.0017855092883110046,
        0.0330292247235775,
        0.005533173680305481,
        0.037413399666547775,
        0.035520490258932114,
        0.03940028324723244,
        0.007766548544168472,
        0.027255933731794357,
        -0.00811539962887764,
        0.027013901621103287,
        -0.02853112667798996,
        0.028733309358358383,
        -0.04046666994690895,
        -0.012492509558796883,
        -0.03714422881603241,
        -0.009842067956924438,
        -0.021077362820506096,
        -0.03935903683304787,
        0.039498891681432724,
        0.00352298840880394,
        -0.036799658089876175,
        0.007827680557966232,
        -0.00895838811993599,
        0.004743549972772598,
        0.005670666694641113,
        -0.029521506279706955,
        0.014204632490873337,
        0.017142657190561295,
        -0.013388881459832191,
        -0.022074436768889427,
        -0.035871949046850204,
        0.04167709872126579,
        -0.033733613789081573,
        0.032428640872240067,
        0.0009123049676418304,
        0.0354105569422245,
        0.00511392205953598,
        -0.00953643023967743,
        -0.001979086548089981,
        -0.03327953815460205,
        -0.022185949608683586,
        0.005418170243501663,
        -0.018145041540265083,
        0.020248282700777054,
        -0.003665126860141754,
        0.0377231203019619,
        -0.0014303550124168396,
        0.014762036502361298,
        -0.033205509185791016,
        -0.012238088995218277,
        0.03609431907534599,
        -0.023779839277267456,
        -0.007741667330265045,
        -0.004104249179363251,
        -0.016505977138876915,
        -0.021777605637907982,
        -0.024222996085882187,
        -0.021228929981589317,
        0.03585037961602211,
        -0.01263624057173729,
        -0.023617487400770187,
        -0.0021921321749687195,
        0.039842572063207626,
        -0.0312674306333065,
        -0.024366671219468117,
        -0.014555228874087334,
        0.017651263624429703,
        -0.04145386815071106,
        -0.02357998490333557,
        -0.033747486770153046,
        0.03376215323805809,
        -0.004157651215791702,
        0.00883757695555687,
        0.027842599898576736,
        -0.00846654549241066,
        0.022995691746473312,
        -0.008859526365995407,
        -0.0012436285614967346,
        0.018443718552589417,
        0.039410460740327835,
        -0.031739741563797,
        0.005613427609205246,
        -0.01659955084323883,
        -0.0075101181864738464,
        -0.032605286687612534,
        0.004868175834417343,
        -0.023327533155679703,
        0.027794118970632553,
        0.02151140198111534,
        0.00518900528550148,
        0.03150715306401253,
        0.004737246781587601,
        0.03423595800995827,
        -0.041245296597480774,
        0.018423669040203094,
        0.042175304144620895,
        0.019503090530633926,
        0.025183264166116714,
        -0.0063971951603889465,
        -0.0048664771020412445,
        -0.03199353441596031,
        -0.02249010279774666,
        0.02992481365799904,
        -0.02348967082798481,
        -0.02582324855029583,
        0.013080183416604996,
        0.0029480494558811188,
        -0.033066634088754654,
        0.028376150876283646,
        0.013861730694770813,
        0.040427204221487045,
        0.029963437467813492,
        -0.003505222499370575,
        -0.014901863411068916,
        0.03340500220656395,
        -0.016584374010562897,
        0.022174376994371414,
        -0.012204479426145554,
        0.036924224346876144,
        0.011211946606636047,
        -7.309764623641968e-05,
        -0.033308036625385284,
        0.0008477717638015747,
        -0.013484599068760872,
        0.018059153109788895,
        0.02825591340661049,
        0.038119424134492874,
        0.02876162901520729,
        0.010580223053693771,
        0.01672685518860817,
        0.015401903539896011,
        0.022407982498407364,
        0.018192745745182037,
        -0.001178506761789322,
        -0.012541282922029495,
        -0.013325177133083344,
        0.0033881254494190216,
        0.03708307817578316,
        -0.008539766073226929,
        0.018144387751817703,
        -0.038705434650182724,
        -0.03159185126423836,
        -0.010648831725120544,
        0.011607330292463303,
        -0.010300878435373306,
        0.002407841384410858,
        0.01947391778230667,
        -0.037291549146175385,
        -0.02537008561193943,
        0.026406180113554,
        -0.007001060992479324,
        -0.03206515684723854,
        -0.024658165872097015,
        -0.007528945803642273,
        -0.02636583335697651,
        -0.0034495368599891663,
        -0.00521928071975708,
        -0.042329199612140656,
        -0.009747829288244247,
        0.026077788323163986,
        -0.004281066358089447,
        -0.010717082768678665,
        0.03497328236699104,
        -0.02088879980146885,
        -0.01595027558505535,
        -0.024645375087857246,
        -0.024902397766709328,
        -0.007921844720840454,
        -0.02721865102648735,
        0.03719492629170418,
        0.04202556982636452,
        0.012457001954317093,
        0.03253980353474617,
        0.038259197026491165,
        -0.011254660785198212,
        -0.003736525774002075,
        0.0022853612899780273,
        -0.029128778725862503,
        0.029711011797189713,
        0.02166663482785225,
        -0.024129167199134827,
        0.025898117572069168,
        0.030645180493593216,
        -0.014330888167023659,
        -0.03424226492643356,
        -0.02616928517818451,
        -0.010677877813577652,
        0.038557250052690506,
        0.016712218523025513,
        -0.01895114779472351,
        0.008880015462636948,
        0.0038757622241973877,
        0.006411045789718628,
        -0.0054683685302734375,
        -0.004711441695690155,
        -0.029119983315467834,
        0.0005275197327136993,
        -0.013241942971944809,
        0.030372966080904007,
        0.01750490814447403,
        0.015024431049823761,
        0.02136171981692314,
        -0.015121720731258392,
        -0.029201248660683632,
        0.025994595140218735,
        0.04055437073111534,
        -0.02132406085729599,
        -0.03809557855129242,
        0.015770353376865387,
        0.02061482146382332,
        0.030729684978723526,
        -0.01498294435441494,
        0.013567112386226654,
        -0.015417307615280151,
        -0.011133059859275818,
        -0.02286684140563011,
        -0.03323913738131523,
        0.041792865842580795,
        -0.01670396700501442,
        0.003950327634811401,
        0.00416337326169014,
        0.03462095186114311,
        0.014329850673675537,
        0.03995271399617195,
        0.006712600588798523,
        -0.01939755119383335,
        0.03750414028763771,
        0.00848877802491188,
        -0.037502892315387726,
        -0.039569444954395294,
        0.01544373482465744,
        -0.0007132403552532196,
        0.04221706464886665,
        0.029280323535203934,
        0.006060827523469925,
        -0.033914368599653244,
        0.015708230435848236,
        -0.03800979629158974,
        -0.034390371292829514,
        -0.03538796678185463,
        -0.005782581865787506,
        0.02503177896142006,
        -0.014689384028315544,
        -0.02203282155096531,
        0.027805965393781662,
        0.015583738684654236,
        0.026159804314374924,
        -0.00938933715224266,
        0.03695213422179222,
        0.013760678470134735,
        -0.027474790811538696,
        0.002271004021167755,
        0.008092280477285385,
        -0.04072778299450874,
        0.026493612676858902,
        0.025788825005292892,
        0.015539485961198807,
        -0.03198544308543205,
        0.013584993779659271,
        -0.0051965415477752686,
        -0.03189370781183243,
        -0.011043380945920944,
        0.03637348487973213,
        -0.03634285554289818,
        0.03670447692275047,
        -0.03007095865905285,
        0.01882738247513771,
        -0.021306613460183144,
        -0.02732257731258869,
        -0.03391077741980553,
        0.021489862352609634,
        0.02178702875971794,
        -0.0009385980665683746,
        0.005666948854923248,
        0.038328345865011215,
        -0.007185086607933044,
        0.009690601378679276,
        0.020213287323713303,
        -0.0327453687787056,
        -0.03214637562632561
      ],
      [
        -0.0230496097356081,
        0.016024574637413025,
        -0.01745765469968319,
        0.02497301623225212,
        0.027625028043985367,
        -0.014418059960007668,
        0.015122607350349426,
        -0.03604612872004509,
        -0.0047469362616539,
        -0.018723608925938606,
        -0.016374710947275162,
        0.005316738039255142,
        0.003095615655183792,
        0.028678882867097855,
        -0.035030633211135864,
        0.012671366333961487,
        0.005643792450428009,
        0.028885256499052048,
        0.0002705492079257965,
        0.01022564247250557,
        -0.005308900028467178,
        -0.030278928577899933,
        0.012766189873218536,
        0.015942081809043884,
        0.024664293974637985,
        -0.012333234772086143,
        -0.042507246136665344,
        -0.014801431447267532,
        -0.037812527269124985,
        -0.01798708364367485,
        -0.023273440077900887,
        0.009888313710689545,
        -0.024940181523561478,
        -0.03055146522819996,
        0.013119682669639587,
        0.016309749335050583,
        0.011478852480649948,
        0.00977008044719696,
        0.03949007764458656,
        -0.015164732933044434,
        0.014980588108301163,
        0.006430916488170624,
        -0.006266232579946518,
        0.038448695093393326,
        0.03385671600699425,
        -0.0020679794251918793,
        -0.033298514783382416,
        0.026709597557783127,
        -0.025040170177817345,
        -0.008707631379365921,
        -0.019033918157219887,
        0.011891558766365051,
        -0.03406424820423126,
        -0.0040280818939208984,
        -0.0038485340774059296,
        0.04054666683077812,
        -0.03446633741259575,
        0.019372358918190002,
        -0.03433026000857353,
        -0.03656686469912529,
        -0.027512401342391968,
        0.016637492924928665,
        -0.014609092846512794,
        0.03451642766594887,
        -0.03650360926985741,
        0.02400168403983116,
        0.042018141597509384,
        -0.019956497475504875,
        -0.02652282640337944,
        -0.006726067513227463,
        0.02961147204041481,
        0.014980077743530273,
        0.007675088942050934,
        -0.004326626658439636,
        0.012127794325351715,
        -0.009311813861131668,
        -0.02510717511177063,
        0.014683566987514496,
        -0.0040613822638988495,
        0.017162304371595383,
        0.014128502458333969,
        0.016701437532901764,
        -0.03136551007628441,
        -0.02614789456129074,
        -0.019904455170035362,
        0.023839306086301804,
        0.03355235233902931,
        0.02075711265206337,
        0.01382419839501381,
        -0.01671014539897442,
        -0.00485968217253685,
        0.004841312766075134,
        0.0031358636915683746,
        -0.004483580589294434,
        0.02642589434981346,
        0.02965627983212471,
        -0.036211416125297546,
        -0.001436568796634674,
        0.015782777220010757,
        -0.0022293515503406525,
        -0.0038057714700698853,
        0.0425630621612072,
        -0.019248735159635544,
        0.03238476440310478,
        -0.020129887387156487,
        0.040492039173841476,
        -0.007443316280841827,
        0.006484106183052063,
        -0.003589387983083725,
        -0.016736358404159546,
        0.0012043416500091553,
        -0.03484091907739639,
        0.018589366227388382,
        -0.03975428640842438,
        0.010477419942617416,
        0.03887464478611946,
        0.005943674594163895,
        -0.011392496526241302,
        0.0415908508002758,
        -0.03567275404930115,
        -0.042538270354270935,
        0.034545909613370895,
        -0.039846014231443405,
        0.002432815730571747,
        -0.007944360375404358,
        -0.030295616015791893,
        -0.03981073573231697,
        -0.0014374926686286926,
        0.01793348789215088,
        -0.012484846636652946,
        0.012792285531759262,
        0.027835387736558914,
        0.01357043907046318,
        0.0035918839275836945,
        -0.012807723134756088,
        -0.02526862919330597,
        -0.01398969255387783,
        -0.030466552823781967,
        0.029577668756246567,
        -0.019254500046372414,
        0.03126554563641548,
        0.026646297425031662,
        -0.012182291597127914,
        0.0007635429501533508,
        0.03815088048577309,
        -0.013287510722875595,
        0.015304386615753174,
        -0.031880006194114685,
        0.013121023774147034,
        6.263703107833862e-05,
        -0.017672697082161903,
        -0.03327947482466698,
        0.018269598484039307,
        -0.02099173702299595,
        -0.013210108503699303,
        -0.01723361387848854,
        0.004875928163528442,
        0.015918206423521042,
        0.0014440491795539856,
        0.0017929524183273315,
        -0.0016006864607334137,
        0.012391574680805206,
        -0.020374692976474762,
        0.04108688607811928,
        -0.03352057933807373,
        -0.015649205073714256,
        -0.01519024558365345,
        -0.02012496441602707,
        0.02420875057578087,
        -0.01879793405532837,
        -0.025183189660310745,
        -0.007582467049360275,
        0.01113291084766388,
        0.011155527085065842,
        0.010669350624084473,
        0.0028046630322933197,
        -0.01984252966940403,
        0.014352146536111832,
        0.02058911696076393,
        0.024072248488664627,
        0.006614398211240768,
        0.03716466203331947,
        -0.018083229660987854,
        0.032215263694524765,
        0.021135393530130386,
        -0.020627643913030624,
        -0.010587029159069061,
        -0.011869782581925392,
        -0.03821507841348648,
        0.0262998528778553,
        -0.03190652281045914,
        0.03031027689576149,
        0.002513233572244644,
        0.004176285117864609,
        -0.006268233060836792,
        -0.013869665563106537,
        -0.03454087674617767,
        0.0012556612491607666,
        -0.02315276488661766,
        0.03938710317015648,
        0.02241623029112816,
        0.00870121642947197,
        -0.024581002071499825,
        -0.008530247956514359,
        0.005223054438829422,
        0.029704291373491287,
        0.007140401750802994,
        0.03284509852528572,
        0.03041207417845726,
        0.016702786087989807,
        0.019171658903360367,
        0.02499266341328621,
        -0.030384987592697144,
        0.041202228516340256,
        -0.036774083971977234,
        -0.019779561087489128,
        -0.025232667103409767,
        0.041950877755880356,
        -0.02986595779657364,
        -0.036902107298374176,
        0.014076191931962967,
        -0.03513931483030319,
        0.013730909675359726,
        0.03862806037068367,
        0.017018023878335953,
        0.026363614946603775,
        -0.036762431263923645,
        -0.0243765227496624,
        0.020811516791582108,
        0.0030973777174949646,
        0.01846901699900627,
        -0.03921891376376152,
        0.010356593877077103,
        -0.002550877630710602,
        0.015512518584728241,
        -0.020644648000597954,
        -0.009534846991300583,
        -0.022578559815883636,
        0.012184251099824905,
        -0.0270906500518322,
        -0.03016563504934311,
        0.035352010279893875,
        0.029281724244356155,
        -0.02588016167283058,
        0.026540976017713547,
        0.0011887326836585999,
        -0.004694040864706039,
        0.012527517974376678,
        -0.028451789170503616,
        -0.024937594309449196,
        0.02484605833888054,
        0.019091811031103134,
        -0.01190190389752388,
        0.0122358538210392,
        -0.010059591382741928,
        0.017392262816429138,
        -0.028792118653655052,
        0.023085754364728928,
        0.005839202553033829,
        -0.03963728994131088,
        -0.008311465382575989,
        0.020053420215845108,
        -0.03984140604734421,
        0.03934680297970772,
        0.016803577542304993,
        0.008341629058122635,
        -0.020768778398633003,
        0.034783732146024704,
        0.029354479163885117,
        -0.027203315868973732,
        0.01240658387541771,
        0.004392076283693314,
        -0.03960704803466797,
        -0.006865508854389191,
        0.03613821789622307,
        -0.04273580387234688,
        0.005058560520410538,
        0.008513715118169785,
        0.037603605538606644,
        -0.004016675055027008,
        0.039549004286527634,
        0.018503665924072266,
        -0.02840222790837288,
        0.03368695452809334,
        0.03864840045571327,
        -0.02491936646401882,
        0.007625129073858261,
        -0.01004355400800705,
        -0.026929553598165512,
        0.0049432553350925446,
        0.020678799599409103,
        -0.028315048664808273,
        0.019273895770311356,
        0.009411871433258057,
        -0.01612088643014431,
        -0.025570888072252274,
        -0.0017474964261054993,
        -0.01685221865773201,
        0.03419921174645424,
        -0.01289735920727253,
        0.005997773259878159,
        0.011698808521032333,
        -0.014487488195300102,
        -0.001857563853263855,
        0.02729007974267006,
        -0.006726190447807312,
        0.0027009211480617523,
        -0.01856427825987339,
        0.033020030707120895,
        -0.007630586624145508,
        0.03204070404171944,
        0.012120138853788376,
        -0.010456707328557968,
        -0.030872637405991554,
        -0.04235626757144928,
        -0.0065741389989852905,
        -0.0312594473361969,
        -0.03563374653458595,
        -0.03152232617139816,
        0.002826690673828125,
        0.04002438113093376,
        0.0265619195997715,
        -0.02937163971364498,
        -0.010270282626152039,
        -0.0305992029607296,
        -0.04182438179850578,
        0.0036990679800510406,
        -0.025573857128620148,
        0.03425297513604164,
        -0.005466621369123459,
        0.03753473982214928,
        0.04011894389986992,
        -0.011727094650268555,
        -0.008668947964906693,
        -0.021524857729673386,
        -0.01234217919409275,
        0.007979858666658401,
        -0.028028864413499832,
        -0.013308478519320488,
        0.007913988083600998,
        0.0290406234562397,
        0.016394663602113724,
        -0.03579425439238548,
        -0.019795456901192665,
        -0.0008421055972576141,
        0.006345707923173904,
        -0.03640742227435112,
        -0.019333168864250183,
        0.002211693674325943,
        -0.002245727926492691,
        0.012832868844270706,
        0.016222607344388962,
        -0.009835280478000641,
        0.004420161247253418,
        -0.019865890964865685,
        0.040928203612565994,
        0.03309665992856026,
        0.03256382420659065,
        -0.011031653732061386,
        0.04004821553826332,
        -0.009571611881256104,
        0.006687965244054794,
        0.02162480726838112,
        -0.042393144220113754,
        -0.007575709372758865,
        0.01449941098690033,
        -0.007638011127710342,
        0.0149264857172966,
        0.005115125328302383,
        0.03552348539233208,
        0.016273126006126404,
        -0.0019358843564987183,
        -0.01893170177936554,
        0.024529393762350082,
        -0.005775608122348785,
        0.03350994363427162,
        -0.025900589302182198,
        0.011400721967220306,
        0.03425820544362068,
        0.029963213950395584,
        0.0004918314516544342,
        -0.037350356578826904,
        0.04222187027335167,
        0.02818603441119194,
        0.010401271283626556,
        -0.019943416118621826,
        -0.005463283509016037,
        -0.005169682204723358,
        0.02514610067009926,
        -0.005049370229244232,
        0.031168591231107712,
        -0.02127774804830551,
        0.010007873177528381,
        0.0016050785779953003,
        -0.042777638882398605,
        -0.027524206787347794,
        -0.03350168466567993,
        0.02576412633061409,
        0.012614909559488297,
        -0.017892543226480484,
        -0.03901579603552818,
        0.0393819622695446,
        -0.0009222812950611115,
        -0.008989416062831879,
        -0.011812899261713028,
        -0.0327257364988327,
        -0.03539495915174484,
        0.01158514991402626,
        -0.015364004299044609,
        0.002230435609817505,
        -0.02635732851922512,
        -0.03702875226736069,
        0.009567402303218842,
        -0.036623384803533554,
        0.030156094580888748,
        -0.02512487769126892,
        0.01749119907617569,
        -0.006704781204462051,
        0.013274885714054108,
        0.004054740071296692,
        0.02577066794037819,
        -0.04029996693134308,
        -0.00969674438238144,
        -0.017459696158766747,
        0.026831824332475662,
        -0.027089016512036324,
        -0.0008877664804458618,
        -0.023693952709436417,
        -0.04198063537478447,
        0.009758666157722473,
        -0.027897700667381287,
        -0.031227413564920425,
        0.032245758920907974,
        0.029357846826314926,
        0.027502257376909256,
        -0.012125866487622261,
        0.004763931035995483,
        0.0026579685509204865,
        0.010545101016759872,
        0.030032094568014145,
        -0.0362359844148159,
        -0.029018357396125793,
        0.02170618250966072,
        0.017677150666713715,
        0.03420492634177208,
        0.03151542320847511,
        0.028718482702970505,
        -0.03183843195438385,
        -0.022139422595500946,
        -0.005553796887397766,
        0.04006945714354515,
        0.018518026918172836,
        0.029272284358739853,
        -0.014274785295128822,
        -0.00633438304066658,
        -0.03421740606427193,
        0.009404256939888,
        -0.02297411859035492,
        0.039769332855939865,
        -0.008776456117630005,
        -0.0353805348277092,
        -0.019780024886131287,
        0.02686898037791252,
        -0.04153367131948471,
        -0.01349683292210102,
        0.008842196315526962,
        -0.01604698784649372,
        -0.013420788571238518,
        -0.005247302353382111,
        0.02250182256102562,
        -0.03131747990846634,
        0.04099095240235329,
        -0.03003469482064247,
        -0.03558153659105301,
        0.001298326998949051,
        -0.025766031816601753,
        0.038427624851465225,
        -0.01080690324306488,
        -0.020461879670619965,
        -0.031535252928733826,
        0.017008572816848755,
        0.0036982595920562744,
        -0.03416013345122337,
        0.03345950320363045,
        0.009533334523439407,
        -0.04215558245778084,
        0.0005876831710338593,
        0.03138944134116173,
        -0.037354979664087296,
        0.009041596204042435,
        -0.007300354540348053,
        0.04094622656702995,
        -0.012001365423202515,
        0.003969863057136536,
        -0.00987674668431282,
        -0.00526794046163559,
        -0.009448718279600143,
        0.03244205191731453,
        -0.03886845335364342,
        -0.017379462718963623,
        0.031619418412446976,
        -0.008717935532331467,
        0.01710936799645424,
        -0.029883205890655518,
        0.0202021561563015,
        -0.026353858411312103,
        -0.02285291813313961,
        0.03185649588704109,
        0.025189977139234543,
        0.027411576360464096,
        -0.004246842116117477,
        -0.013484517112374306,
        -0.04032113403081894,
        -0.012071942910552025,
        -0.017985006794333458,
        0.026427622884511948,
        -0.024546723812818527,
        -0.01562364399433136,
        0.027614016085863113,
        -0.025689421221613884,
        0.009387016296386719,
        -0.03495205193758011,
        0.0019445903599262238,
        0.019980717450380325,
        0.018796630203723907,
        -0.0008421503007411957,
        -0.02481490932404995,
        0.016171850264072418,
        0.0022385381162166595,
        -0.027976736426353455,
        0.04260452464222908,
        0.028956692665815353,
        -0.008907392621040344,
        -0.03366084769368172,
        0.008894827216863632,
        -0.021796273067593575,
        -0.029370006173849106,
        -0.011190738528966904,
        0.012461002916097641,
        -0.022143946960568428,
        -0.023528464138507843,
        0.04166112467646599,
        -0.022259673103690147,
        -0.021765096113085747,
        0.01030578464269638,
        -0.030218718573451042
      ],
      [
        0.001109544187784195,
        0.013515781611204147,
        0.02767769619822502,
        0.038810085505247116,
        0.005040265619754791,
        -0.02226945385336876,
        -0.012983812019228935,
        0.0017701387405395508,
        0.027673516422510147,
        -0.023396221920847893,
        -0.027906307950615883,
        0.018821414560079575,
        -0.036130666732788086,
        0.01960783079266548,
        0.00974699854850769,
        0.0192008875310421,
        0.019413888454437256,
        -0.0035739243030548096,
        -0.004736639559268951,
        0.02007218822836876,
        -0.03319907933473587,
        0.00598406046628952,
        -0.022799892351031303,
        4.7832727432250977e-05,
        -0.013325365260243416,
        -0.010333843529224396,
        0.0085664764046669,
        0.0338725708425045,
        -0.016114186495542526,
        0.034713681787252426,
        0.03695959225296974,
        0.03233996406197548,
        -0.029880154877901077,
        -0.042199503630399704,
        0.019360553473234177,
        -0.014920944347977638,
        -0.0035267025232315063,
        -0.004452597349882126,
        0.042103011161088943,
        0.03741906210780144,
        0.029377374798059464,
        -0.013401558622717857,
        0.008382368832826614,
        -0.024432925507426262,
        0.02360835298895836,
        -0.01927117258310318,
        0.02135958895087242,
        -0.014993168413639069,
        0.02855578437447548,
        0.00971895456314087,
        -0.001649215817451477,
        0.013965919613838196,
        -0.02032972127199173,
        0.008219823241233826,
        0.004509009420871735,
        -0.013511577621102333,
        0.017247986048460007,
        0.02289748564362526,
        0.018114406615495682,
        -0.03348424285650253,
        0.021103981882333755,
        0.021354172378778458,
        0.034966859966516495,
        0.01204654574394226,
        0.002852894365787506,
        -0.02285933680832386,
        0.026586446911096573,
        0.005247686058282852,
        -0.0007840320467948914,
        -0.01073434203863144,
        -0.018920818343758583,
        -0.0025529861450195312,
        -0.042306117713451385,
        -0.011029336601495743,
        -0.024659210816025734,
        -0.028272349387407303,
        0.037713054567575455,
        0.009732451289892197,
        -0.03840606287121773,
        -0.024385755881667137,
        0.0111604705452919,
        0.005583047866821289,
        -0.011605460196733475,
        0.029670175164937973,
        -0.015147335827350616,
        0.032471779733896255,
        0.028294172137975693,
        0.01097867265343666,
        0.016943592578172684,
        0.008588150143623352,
        0.02869848534464836,
        -0.008310627192258835,
        0.02483561262488365,
        0.03915682062506676,
        0.03195393458008766,
        -0.020353728905320168,
        0.011294391006231308,
        -0.004033863544464111,
        0.0014831200242042542,
        0.01374068483710289,
        -0.04213312640786171,
        -0.016033126041293144,
        0.005120832473039627,
        -0.021095748990774155,
        0.015989474952220917,
        0.04150570556521416,
        -0.04165676236152649,
        0.005820628255605698,
        -0.021504797041416168,
        0.008080240339040756,
        -0.032997794449329376,
        -0.01886672154068947,
        -0.00705275684595108,
        0.04251770302653313,
        0.03840845450758934,
        -0.04196074604988098,
        0.005889367312192917,
        -0.007611185312271118,
        -0.03575906157493591,
        -0.018570847809314728,
        0.005179412662982941,
        0.03857208415865898,
        -0.004204142838716507,
        0.029872659593820572,
        -0.04021188244223595,
        0.01940719410777092,
        -0.029723376035690308,
        0.036390628665685654,
        0.01103312149643898,
        -0.004691898822784424,
        -0.02076612412929535,
        0.008893724530935287,
        -0.010928649455308914,
        -0.04187595099210739,
        -0.03208952769637108,
        0.030491318553686142,
        -0.04102285951375961,
        0.01555388793349266,
        0.005360230803489685,
        0.0012165941298007965,
        0.015544865280389786,
        -0.031086213886737823,
        -0.03294893726706505,
        -0.016685539856553078,
        0.031103115528821945,
        -0.0187631007283926,
        -0.037864066660404205,
        0.021150533109903336,
        -0.02803082950413227,
        -0.0031494535505771637,
        -0.03540797531604767,
        0.022307995706796646,
        0.007286541163921356,
        -0.02209903672337532,
        -0.007323715835809708,
        -0.016942813992500305,
        -0.0037275217473506927,
        -0.0321950800716877,
        0.007779818028211594,
        -0.0030245333909988403,
        0.010782860219478607,
        0.011643722653388977,
        0.024686094373464584,
        -0.014970939606428146,
        -0.011860379949212074,
        0.024869810789823532,
        0.03452565148472786,
        -0.042489971965551376,
        -0.026528215035796165,
        0.013043180108070374,
        0.014771979302167892,
        0.017970610409975052,
        -0.026374347507953644,
        -0.03528137132525444,
        0.04023764654994011,
        -0.022454002872109413,
        0.017288509756326675,
        0.027171295136213303,
        -0.005012303590774536,
        0.03788379952311516,
        0.02305503562092781,
        0.03609936311841011,
        0.0070197321474552155,
        -0.002824697643518448,
        0.02625880017876625,
        0.033089395612478256,
        -0.037099555134773254,
        -0.026865359395742416,
        0.00939200446009636,
        -0.03672055900096893,
        0.039208028465509415,
        -0.012377457693219185,
        -0.019541408866643906,
        -0.018920574337244034,
        0.020941879600286484,
        -0.018104324117302895,
        -0.023303305730223656,
        -0.03173624724149704,
        -0.025971287861466408,
        -0.012634582817554474,
        0.030322004109621048,
        -0.007757827639579773,
        -0.008432693779468536,
        -0.041503675282001495,
        -0.002447221428155899,
        0.025539357215166092,
        -0.034604109823703766,
        0.01058192178606987,
        0.005660850554704666,
        0.0375584252178669,
        -0.016942298039793968,
        0.013842426240444183,
        -0.007155559957027435,
        -0.03406289964914322,
        -0.03486358001828194,
        -0.002630002796649933,
        -0.03693775832653046,
        0.01864747703075409,
        -0.003461826592683792,
        -0.018854156136512756,
        0.03975192829966545,
        0.016811836510896683,
        -0.018613355234265327,
        -0.03853704780340195,
        -0.02943907305598259,
        -0.039625462144613266,
        -0.03387966752052307,
        0.017285779118537903,
        -0.032330967485904694,
        -0.004457678645849228,
        0.0034485571086406708,
        0.009787160903215408,
        0.021803375333547592,
        0.024924609810113907,
        0.01836181804537773,
        -0.036011889576911926,
        -0.027760714292526245,
        0.037672009319067,
        0.02870992198586464,
        -0.0013846196234226227,
        -0.03560297563672066,
        0.018932528793811798,
        -0.020736560225486755,
        0.01278141513466835,
        0.03378721699118614,
        -0.0011230744421482086,
        -0.027892839163541794,
        0.0025700516998767853,
        -0.0008146390318870544,
        0.014305267482995987,
        0.005180187523365021,
        -0.028988458216190338,
        0.03159560635685921,
        0.03938138857483864,
        0.038192760199308395,
        -0.03011343441903591,
        -0.03894617408514023,
        0.001318313181400299,
        0.011832613497972488,
        0.026802334934473038,
        -0.03968316689133644,
        -0.029704468324780464,
        0.03708116337656975,
        -0.03060631826519966,
        -0.04017043486237526,
        -0.03399989753961563,
        0.03987216576933861,
        0.0036773011088371277,
        -0.04018022119998932,
        -0.0060842037200927734,
        0.0011549554765224457,
        0.007082570344209671,
        0.03640605881810188,
        -0.03356600180268288,
        0.028796207159757614,
        -0.002718210220336914,
        0.04176655784249306,
        0.029960062354803085,
        0.002965625375509262,
        -0.006703775376081467,
        0.03800487890839577,
        0.025409523397684097,
        0.005443781614303589,
        -0.008163157850503922,
        -0.0018665902316570282,
        -0.025215299800038338,
        0.0338672511279583,
        0.03588664159178734,
        -0.007450692355632782,
        0.03815725818276405,
        0.022079911082983017,
        -0.007691316306591034,
        0.020784717053174973,
        6.745010614395142e-05,
        -0.015552649274468422,
        -0.03319219499826431,
        -0.010226473212242126,
        -0.013141868636012077,
        -0.01195690967142582,
        0.00771457701921463,
        -0.03621864318847656,
        -0.010277889668941498,
        0.0064985379576683044,
        0.008691392838954926,
        0.02451617643237114,
        -0.026826947927474976,
        0.015892155468463898,
        -0.03137169033288956,
        0.0003711283206939697,
        -0.008224893361330032,
        0.00795796886086464,
        0.030011627823114395,
        0.02743404731154442,
        -0.008502908051013947,
        0.004354711621999741,
        0.006133414804935455,
        0.03364025428891182,
        0.03130333498120308,
        -0.026024989783763885,
        0.013738051056861877,
        -0.01700584962964058,
        -0.013282699510455132,
        0.019827555865049362,
        -0.04217012971639633,
        0.011532392352819443,
        -0.03069894015789032,
        -0.02479488030076027,
        0.02958698198199272,
        -0.032549116760492325,
        0.034670475870370865,
        -0.017634611576795578,
        -0.015521565452218056,
        -0.03654330596327782,
        0.02401074394583702,
        0.0132673941552639,
        0.01886802166700363,
        -0.0018316693603992462,
        -0.024433379992842674,
        0.006635427474975586,
        0.04027454927563667,
        0.009891033172607422,
        0.03124159201979637,
        -0.026569068431854248,
        0.01738370582461357,
        0.021525759249925613,
        0.01030215248465538,
        0.019349712878465652,
        0.005944937467575073,
        -0.024783611297607422,
        0.018784496933221817,
        -0.011170607060194016,
        0.0243600495159626,
        -0.04026579484343529,
        0.031631458550691605,
        0.03669734671711922,
        0.01948731020092964,
        -0.013894051313400269,
        -0.009127177298069,
        -0.025299901142716408,
        -0.021623335778713226,
        -0.013988181948661804,
        0.038761984556913376,
        0.023150090128183365,
        0.02737775817513466,
        0.023166712373495102,
        0.03748075291514397,
        -0.04187360405921936,
        0.02760062739253044,
        0.02777571603655815,
        -0.006436135619878769,
        0.004145052284002304,
        0.0308663509786129,
        0.005943320691585541,
        0.02048596367239952,
        -0.010843981057405472,
        0.020887505263090134,
        -0.012846117839217186,
        0.03186442330479622,
        0.03565206751227379,
        0.03740433230996132,
        -0.003548089414834976,
        0.03997344896197319,
        -0.0019695349037647247,
        0.029691267758607864,
        -0.008242294192314148,
        -0.014640096575021744,
        -0.030353479087352753,
        0.03821266070008278,
        -0.0017288103699684143,
        -0.024554647505283356,
        0.018033798784017563,
        0.01793399080634117,
        -0.004021897912025452,
        -0.04267280921339989,
        -0.040192216634750366,
        0.039356064051389694,
        0.025510068982839584,
        0.033276211470365524,
        -0.03680611401796341,
        -0.028172798454761505,
        -0.03414914757013321,
        0.024940434843301773,
        -0.03308337181806564,
        -0.03713851794600487,
        0.03068036213517189,
        0.0032998286187648773,
        -0.021550707519054413,
        0.0013476498425006866,
        0.0397232361137867,
        0.004806309938430786,
        0.029742781072854996,
        -0.013473089784383774,
        0.01048228144645691,
        0.02725825086236,
        0.03156162425875664,
        -0.0006751939654350281,
        0.03902878239750862,
        0.03732677921652794,
        -0.021811751648783684,
        0.009394124150276184,
        0.02659151330590248,
        0.02443544939160347,
        -0.04097119718790054,
        0.024363387376070023,
        0.01624641939997673,
        0.006333202123641968,
        -0.02092994935810566,
        0.00012636184692382812,
        0.008198186755180359,
        0.017137739807367325,
        -0.03538607060909271,
        -0.04153288155794144,
        -0.0048914626240730286,
        0.03374747559428215,
        -0.020291948691010475,
        -0.028294984251260757,
        0.023605037480592728,
        0.009584322571754456,
        -0.012466618791222572,
        0.021393094211816788,
        -0.007242262363433838,
        -0.041775014251470566,
        -0.03202194720506668,
        -0.030037354677915573,
        -0.007478643208742142,
        0.01606777310371399,
        0.010012879967689514,
        -0.011359993368387222,
        -0.007089491933584213,
        -0.007905635982751846,
        -0.014985373243689537,
        0.020084772258996964,
        0.03676822409033775,
        -0.029535241425037384,
        0.02506938949227333,
        0.00719698891043663,
        0.003468859940767288,
        0.016103699803352356,
        -0.013103131204843521,
        0.04077353700995445,
        0.03312024846673012,
        0.03372689709067345,
        0.03018079325556755,
        -0.0329604372382164,
        0.025539550930261612,
        -0.025963783264160156,
        -0.023249629884958267,
        0.01836002990603447,
        -0.035066794604063034,
        -0.0312562957406044,
        0.039977479726076126,
        0.03850888833403587,
        -0.031489379703998566,
        0.015812840312719345,
        0.011003520339727402,
        -0.01602352038025856,
        0.01595722883939743,
        -5.340576171875e-05,
        0.02895354852080345,
        -0.03933783620595932,
        0.03257888928055763,
        -0.0067133791744709015,
        0.004934735596179962,
        0.024789389222860336,
        -0.023999910801649094,
        0.0409245602786541,
        -0.03401501104235649,
        -0.030639255419373512,
        -0.04027961194515228,
        0.031155120581388474,
        -0.007811609655618668,
        -0.032942887395620346,
        0.0400334931910038,
        0.004841659218072891,
        0.02416808530688286,
        0.0005117766559123993,
        -0.02018570527434349,
        0.025297660380601883,
        -0.016959158703684807,
        -0.03680092841386795,
        0.014321677386760712,
        0.03048178181052208,
        -0.032286208122968674,
        0.027730245143175125,
        -0.002416621893644333,
        -0.032912012189626694,
        0.013720419257879257,
        0.040358249098062515,
        -0.028389886021614075,
        -0.03160131722688675,
        0.006909545511007309,
        0.003850772976875305,
        0.0416841097176075,
        0.008102074265480042,
        0.036240529268980026,
        0.011217750608921051,
        -0.025548186153173447,
        -0.028244487941265106,
        -0.004421386867761612,
        -0.0414566732943058,
        0.019069023430347443,
        -0.005009762942790985,
        -0.021475963294506073,
        -0.009507887065410614,
        -0.03507062792778015,
        -0.023691711947321892,
        0.04152326658368111,
        0.010150760412216187,
        0.015904176980257034,
        -0.03440442681312561,
        -0.035869013518095016,
        -0.0024048015475273132,
        0.009446870535612106,
        0.03445180132985115,
        0.03309652581810951,
        0.021230008453130722,
        -0.028541401028633118,
        -0.01229291781783104,
        0.017779551446437836,
        -0.015215255320072174,
        -0.03581548482179642,
        -0.03564009815454483,
        -0.00181623175740242,
        -0.0023681260645389557,
        -0.028142817318439484,
        -0.04044438153505325
      ],
      [
        -0.01761583797633648,
        -0.0070270635187625885,
        0.023311827331781387,
        -0.006324145942926407,
        0.03454473242163658,
        -0.0267037283629179,
        0.04078430309891701,
        -0.005212351679801941,
        -0.02344803512096405,
        -0.022661656141281128,
        0.027351725846529007,
        -0.025808345526456833,
        -0.01514415256679058,
        0.036747854202985764,
        0.040619391947984695,
        -0.01591031439602375,
        0.012862499803304672,
        -0.012069018557667732,
        -0.010753098875284195,
        -0.03668252006173134,
        -0.004715286195278168,
        -0.02481282316148281,
        0.03383846953511238,
        0.03467393293976784,
        0.03422312065958977,
        -0.03930702805519104,
        -0.023654572665691376,
        0.03668201342225075,
        -0.0014300234615802765,
        -0.024525562301278114,
        -0.00038247182965278625,
        0.026809070259332657,
        -0.03785835951566696,
        -0.020044853910803795,
        0.027738038450479507,
        0.02032800391316414,
        0.0009142011404037476,
        -0.04161922633647919,
        -0.03813561797142029,
        0.02751265838742256,
        -0.026301249861717224,
        0.029667850583791733,
        -0.03578009456396103,
        -0.019385501742362976,
        0.040072184056043625,
        0.02439161017537117,
        0.01509145274758339,
        -0.04267027601599693,
        0.03710104897618294,
        0.03364389017224312,
        -0.018915237858891487,
        0.03673027828335762,
        0.008278276771306992,
        -0.023986248299479485,
        0.0009429194033145905,
        0.01168358325958252,
        0.0036786384880542755,
        -0.01641872711479664,
        -0.01582070253789425,
        -0.028861822560429573,
        -0.00872853770852089,
        -0.028249410912394524,
        -0.012131096795201302,
        -0.0313076414167881,
        0.005852639675140381,
        -0.03987932205200195,
        0.02260759100317955,
        0.018696386367082596,
        -0.019679924473166466,
        0.028517011553049088,
        -0.01809757947921753,
        -0.01639329083263874,
        -0.0021845921874046326,
        -0.02885662391781807,
        -0.013214001432061195,
        0.03598957136273384,
        -0.015633847564458847,
        0.024566609412431717,
        0.03650717809796333,
        0.04253720864653587,
        -0.004866514354944229,
        0.018002264201641083,
        0.016581762582063675,
        0.04137289151549339,
        -0.025260383263230324,
        -0.013333145529031754,
        -0.03577616810798645,
        -0.003986630588769913,
        -0.029282130300998688,
        -0.03146502003073692,
        0.02416267618536949,
        -0.005748044699430466,
        0.014662221074104309,
        -0.017561836168169975,
        0.019631218165159225,
        0.014603383839130402,
        -0.04022623226046562,
        0.010559577494859695,
        0.0031506791710853577,
        -0.02854040637612343,
        -0.018116477876901627,
        -0.00734296441078186,
        0.003308672457933426,
        0.032320525497198105,
        -0.029021015390753746,
        -0.013135083019733429,
        -0.02157529816031456,
        -0.0342988595366478,
        0.029932785779237747,
        -0.015427259728312492,
        -0.012872222810983658,
        0.011765550822019577,
        0.016189109534025192,
        -0.03407977148890495,
        -0.037441402673721313,
        -0.03367221727967262,
        -0.02686229906976223,
        -0.030327118933200836,
        -0.03886999562382698,
        0.017709694802761078,
        0.03651631250977516,
        0.022010769695043564,
        -0.03367753326892853,
        0.03984636440873146,
        0.02613769844174385,
        0.024659808725118637,
        -0.0018040165305137634,
        0.0010135620832443237,
        -0.0360909141600132,
        0.015610456466674805,
        0.02674684301018715,
        -0.03341243043541908,
        0.03512190654873848,
        0.007065936923027039,
        -0.03224416822195053,
        -0.011330913752317429,
        -0.019563952460885048,
        -0.03270990774035454,
        0.01861780881881714,
        0.03932592645287514,
        0.023142192512750626,
        -0.02259434387087822,
        0.032678473740816116,
        0.009429968893527985,
        -0.015099620446562767,
        -0.008390594273805618,
        -0.042361557483673096,
        -0.0001932382583618164,
        -0.009860031306743622,
        0.007222432643175125,
        -0.00824066624045372,
        0.017390139400959015,
        0.03038511797785759,
        -0.013098126277327538,
        -0.028904564678668976,
        0.03544938936829567,
        -0.004647448658943176,
        -0.00010206922888755798,
        -0.026918483898043633,
        -0.03487291932106018,
        0.03130574896931648,
        -0.004049085080623627,
        0.0386323519051075,
        0.01081499457359314,
        -0.0393080972135067,
        0.016374357044696808,
        -0.027472149580717087,
        0.027819719165563583,
        0.011124998331069946,
        0.03807559981942177,
        0.03870405629277229,
        -0.022911012172698975,
        -0.03859914839267731,
        -0.012623827904462814,
        0.014170479029417038,
        0.020743679255247116,
        0.019183281809091568,
        0.020735759288072586,
        -0.003083888441324234,
        0.03503847494721413,
        0.022709522396326065,
        0.025787945836782455,
        0.004565387964248657,
        -0.026173647493124008,
        -0.00773157924413681,
        -0.006487462669610977,
        -0.03674924001097679,
        0.021318089216947556,
        -0.026948628947138786,
        -0.006314754486083984,
        0.008669525384902954,
        -0.003936462104320526,
        -0.01710960827767849,
        -0.03732576221227646,
        0.0356140173971653,
        0.025444429367780685,
        0.03976665809750557,
        0.03615989163517952,
        -0.030882254242897034,
        0.0006898045539855957,
        0.01732248067855835,
        -0.039497654885053635,
        -0.04193314537405968,
        0.037026580423116684,
        -0.038752030581235886,
        -0.027084272354841232,
        -0.040956150740385056,
        -0.016124146059155464,
        0.03615947440266609,
        -0.006757419556379318,
        -0.033945195376873016,
        -0.04128594323992729,
        -0.00805215910077095,
        0.012507520616054535,
        0.015033174306154251,
        -0.001509208232164383,
        0.04272744432091713,
        -0.022235773503780365,
        -0.02945319563150406,
        0.04164237156510353,
        -0.01275455392897129,
        0.029769908636808395,
        -0.03293822705745697,
        0.00932055339217186,
        0.027337629348039627,
        -0.008068282157182693,
        -0.03319038078188896,
        -0.027105286717414856,
        -0.018431173637509346,
        -0.021593250334262848,
        0.018468458205461502,
        -0.029671847820281982,
        0.020448904484510422,
        -0.02900255285203457,
        -0.002821594476699829,
        -0.03618932515382767,
        0.022945310920476913,
        -0.016093142330646515,
        -0.01078440248966217,
        0.012123879045248032,
        -0.012056244537234306,
        0.01181582361459732,
        -0.03743172809481621,
        -0.002138432115316391,
        -0.034056004136800766,
        -0.007983434945344925,
        -0.004077579826116562,
        -0.017029812559485435,
        -0.01299496553838253,
        -0.006848528981208801,
        -0.03536156192421913,
        -0.02605578862130642,
        -0.0328047014772892,
        0.011018261313438416,
        -0.026108523830771446,
        -0.014136957004666328,
        -0.013282408937811852,
        0.009985879063606262,
        0.012314580380916595,
        0.010078951716423035,
        -0.014526451006531715,
        0.003210078924894333,
        -0.01291068084537983,
        -0.006185229867696762,
        -0.005905166268348694,
        -0.03228089213371277,
        0.018491465598344803,
        -0.03726240247488022,
        0.023624513298273087,
        -0.01661256141960621,
        -0.024993080645799637,
        0.019143439829349518,
        -0.018884846940636635,
        0.01565365120768547,
        0.014309387654066086,
        -0.040985818952322006,
        -0.006254132837057114,
        -0.024699265137314796,
        0.01331571489572525,
        -0.02710997499525547,
        0.03889508172869682,
        -0.04053867608308792,
        0.009308066219091415,
        0.03443816676735878,
        -0.011256273835897446,
        0.00897715613245964,
        0.006509985774755478,
        -0.008580170571804047,
        -0.03098895028233528,
        -0.03153790533542633,
        -0.018131516873836517,
        -0.03501274436712265,
        0.031153548508882523,
        -0.0073865242302417755,
        0.018572170287370682,
        -0.03585226461291313,
        0.023169633001089096,
        0.027135517448186874,
        0.020755115896463394,
        0.004327408969402313,
        0.012968383729457855,
        0.041088949888944626,
        -0.01722857356071472,
        -0.034840602427721024,
        0.008820902556180954,
        -0.010109756141901016,
        -0.023901749402284622,
        -0.007551353424787521,
        0.012870687991380692,
        -0.029336443170905113,
        -0.037853822112083435,
        -0.025645866990089417,
        0.036786239594221115,
        0.01645730808377266,
        -0.020247390493750572,
        -0.015536084771156311,
        0.028160598129034042,
        -0.012205274775624275,
        0.029479045420885086,
        -0.03048267588019371,
        -0.005935195833444595,
        -0.025362178683280945,
        -0.04196169227361679,
        0.037333812564611435,
        -0.01120004802942276,
        -0.00893070176243782,
        0.04221213236451149,
        -0.029345432296395302,
        0.00010027363896369934,
        -0.024085037410259247,
        0.0030559860169887543,
        -0.0080711729824543,
        -0.011741822585463524,
        -0.01670193299651146,
        -0.039573609828948975,
        0.017483118921518326,
        0.02614724263548851,
        0.030226465314626694,
        -0.02976774424314499,
        0.00671926885843277,
        -0.024142246693372726,
        -0.03530493751168251,
        0.028108220547437668,
        -0.022676929831504822,
        -0.030093297362327576,
        -0.013272726908326149,
        -0.011089634150266647,
        0.029593918472528458,
        0.009495273232460022,
        -0.005032967776060104,
        -0.0070187002420425415,
        -0.04201875254511833,
        -0.03360666334629059,
        0.039741840213537216,
        -0.033271774649620056,
        0.03568147495388985,
        0.028396088629961014,
        -0.00011654943227767944,
        0.017612021416425705,
        0.029811616986989975,
        -0.010108206421136856,
        0.00010609626770019531,
        -0.03319501876831055,
        0.03866561874747276,
        0.03389638289809227,
        0.0044409483671188354,
        -0.0050965845584869385,
        -0.010134909301996231,
        0.03183632716536522,
        -0.04120213910937309,
        -0.0008531250059604645,
        -0.0006512515246868134,
        0.03371680900454521,
        -0.024622708559036255,
        0.03840507194399834,
        0.04197915270924568,
        0.014352522790431976,
        -0.020940132439136505,
        -0.011051073670387268,
        -0.008693881332874298,
        0.01819188892841339,
        0.017709296196699142,
        -0.02543664164841175,
        -0.034358225762844086,
        -0.03583250194787979,
        -0.04266252741217613,
        -0.0328993983566761,
        0.0374857597053051,
        0.021178793162107468,
        -0.001585930585861206,
        0.03837953135371208,
        -0.00015567615628242493,
        -0.0004081353545188904,
        -0.018363382667303085,
        0.0383291058242321,
        -0.0362737774848938,
        -0.017220625653862953,
        0.03600927069783211,
        -0.03421609103679657,
        -0.016500450670719147,
        -0.008935622870922089,
        -0.03304266929626465,
        -0.021033156663179398,
        0.025654945522546768,
        -0.010293275117874146,
        0.0263139046728611,
        0.020070020109415054,
        -0.03621309995651245,
        -0.033749423921108246,
        -0.001743663102388382,
        -0.012811671942472458,
        -0.004575129598379135,
        0.029761727899312973,
        0.037355389446020126,
        -0.04231445863842964,
        0.017456859350204468,
        0.005745586007833481,
        0.007207028567790985,
        0.0426604337990284,
        -0.008444055914878845,
        -0.04242149740457535,
        -0.03750854358077049,
        -0.02936120145022869,
        0.0027628131210803986,
        -0.031966377049684525,
        -0.006841965019702911,
        -0.03726940602064133,
        -0.01467507891356945,
        0.01177486777305603,
        -0.030924087390303612,
        0.03942590579390526,
        -0.008223224431276321,
        0.03991936519742012,
        0.019390899688005447,
        -0.010453656315803528,
        -0.025812698528170586,
        -0.04274708777666092,
        -0.002403814345598221,
        -0.018979962915182114,
        -0.034839317202568054,
        -0.01481531374156475,
        -0.03569991886615753,
        0.03134055808186531,
        0.02392282709479332,
        0.018428675830364227,
        0.011155873537063599,
        -0.0041285790503025055,
        0.0022865086793899536,
        -0.009337600320577621,
        0.02212165668606758,
        -0.01847519725561142,
        0.0010780282318592072,
        -0.026703059673309326,
        -0.026426319032907486,
        -0.04107298702001572,
        -0.028897570446133614,
        -0.005233488976955414,
        0.03865477070212364,
        0.02656436339020729,
        0.02522571012377739,
        0.0009725205600261688,
        -0.03589492291212082,
        0.024758312851190567,
        0.03796418383717537,
        0.03749911114573479,
        -0.021270064637064934,
        -0.01750125363469124,
        0.021570738404989243,
        0.0035623200237751007,
        0.0054358504712581635,
        -0.019732145592570305,
        0.04014492407441139,
        0.008200298994779587,
        0.025354910641908646,
        0.02481083944439888,
        0.026799838989973068,
        -0.031613364815711975,
        -0.03583922237157822,
        0.002993859350681305,
        0.023997601121664047,
        -0.03675372526049614,
        -0.0283155906945467,
        -0.02430051751434803,
        0.0009544529020786285,
        -0.029646432027220726,
        -0.026743246242403984,
        -0.004696879535913467,
        0.01764429360628128,
        -0.011703290045261383,
        -0.03593062609434128,
        0.011702146381139755,
        0.042605627328157425,
        0.037504035979509354,
        0.035061877220869064,
        0.007271725684404373,
        0.004335284233093262,
        0.03512806072831154,
        0.026359934359788895,
        0.0006766095757484436,
        -0.0124614667147398,
        0.006184488534927368,
        -0.0424930714070797,
        0.01650061085820198,
        0.034522708505392075,
        0.02802523598074913,
        0.0038897059857845306,
        0.011706892400979996,
        -0.019914841279387474,
        -0.015491623431444168,
        -0.01710401102900505,
        0.012816879898309708,
        -0.0249132439494133,
        -0.026178060099482536,
        0.03434984013438225,
        0.013841461390256882,
        0.042216528207063675,
        -0.0031350739300251007,
        -0.009768638759851456,
        0.018353410065174103,
        0.002661135047674179,
        0.011230874806642532,
        -0.017458589747548103,
        0.00715617835521698,
        -0.01817379519343376,
        0.03745080158114433,
        0.004297375679016113,
        0.02738792821764946,
        -0.003802470862865448,
        0.02824997529387474,
        0.025119315832853317,
        0.033475760370492935,
        0.022877249866724014,
        0.013188179582357407,
        0.016108158975839615,
        0.0007420927286148071,
        -0.006404280662536621,
        -0.03090681880712509,
        0.02343345806002617,
        0.019849900156259537,
        0.00024260208010673523,
        0.009171716868877411,
        0.014252923429012299,
        0.03928576037287712,
        0.004302140325307846,
        -0.03098376840353012,
        0.012682240456342697
      ],
      [
        -0.030343005433678627,
        0.023815985769033432,
        0.012470122426748276,
        -0.03529704362154007,
        0.03696940466761589,
        -0.021863268688321114,
        -0.002332031726837158,
        0.0033449307084083557,
        0.042643796652555466,
        0.038130808621644974,
        -0.020541833713650703,
        -0.011350728571414948,
        -0.0010529235005378723,
        -0.03682701289653778,
        0.020339686423540115,
        0.02026890590786934,
        -0.020207256078720093,
        -0.0032693855464458466,
        0.038748983293771744,
        -0.03918342664837837,
        0.00042983144521713257,
        -0.03146272152662277,
        -0.0240250863134861,
        0.030651625245809555,
        -0.016767723485827446,
        0.0353412963449955,
        -0.01439816877245903,
        -0.022675292566418648,
        -0.012712812051177025,
        -0.042230527848005295,
        -0.006619371473789215,
        -0.015131546184420586,
        0.01608007401227951,
        0.03394697234034538,
        -0.03847711533308029,
        -0.01989961788058281,
        0.042115066200494766,
        -0.012346714735031128,
        -0.030249997973442078,
        -0.013907406479120255,
        0.02423567697405815,
        -0.03193764388561249,
        -0.04036112129688263,
        0.006348777562379837,
        0.02614457532763481,
        -0.005391605198383331,
        0.025302786380052567,
        0.02550211176276207,
        -0.040913645178079605,
        0.023346874862909317,
        0.015625212341547012,
        0.022146251052618027,
        -0.03956905007362366,
        -0.003918163478374481,
        -0.04250669851899147,
        -0.014592466875910759,
        -0.010307010263204575,
        -0.009614408016204834,
        -0.024892287328839302,
        0.0035469941794872284,
        0.008806496858596802,
        0.007055960595607758,
        0.0032657645642757416,
        0.040535230189561844,
        -0.03605365380644798,
        -0.0013826526701450348,
        0.02315642312169075,
        0.04240443930029869,
        0.021348994225263596,
        0.014543216675519943,
        0.015095841139554977,
        0.0010363683104515076,
        0.03336970880627632,
        0.03506666049361229,
        0.02716727927327156,
        -0.03122485801577568,
        -0.004349861294031143,
        -0.036089714616537094,
        0.002484522759914398,
        0.004315964877605438,
        -0.023044640198349953,
        0.003202088177204132,
        -0.00061069056391716,
        -0.021968897432088852,
        0.035663705319166183,
        -0.004372246563434601,
        -0.014448272064328194,
        0.0049475133419036865,
        -0.04170465096831322,
        -0.04084067419171333,
        -0.010599810630083084,
        -0.018771415576338768,
        -0.035829026252031326,
        -0.024762801826000214,
        -0.03795390948653221,
        0.006364878267049789,
        -0.008437015116214752,
        0.011357951909303665,
        0.0170961432158947,
        0.02099999412894249,
        -0.017002345994114876,
        0.01841934770345688,
        -0.009037088602781296,
        -0.040388405323028564,
        0.02397700771689415,
        0.02559034153819084,
        -0.012584386393427849,
        -0.02353718690574169,
        0.03603691980242729,
        -0.03379608690738678,
        -0.036923058331012726,
        -0.03059478849172592,
        -0.00979451835155487,
        -0.031657926738262177,
        -0.02262197621166706,
        -0.02170628309249878,
        0.01746124029159546,
        0.007688466459512711,
        0.020541366189718246,
        -0.04169818013906479,
        0.025138352066278458,
        0.019390664994716644,
        0.03281543776392937,
        -0.02966572716832161,
        0.02562999352812767,
        -0.0038278959691524506,
        -0.005863174796104431,
        -0.005681589245796204,
        0.03551355376839638,
        -0.03150220587849617,
        0.01581888645887375,
        0.013267185539007187,
        -0.016259580850601196,
        0.04126385226845741,
        0.020052630454301834,
        0.03582538291811943,
        0.007090568542480469,
        -0.004236359149217606,
        -0.011892449110746384,
        0.016928840428590775,
        0.03361948952078819,
        -0.010176774114370346,
        -0.03269616886973381,
        -0.02444261498749256,
        -0.0042996518313884735,
        -0.04238760843873024,
        0.02280154451727867,
        -0.033317554742097855,
        -0.03914434835314751,
        0.006131455302238464,
        -0.01460348628461361,
        -0.032953664660453796,
        0.014244593679904938,
        -0.02643357776105404,
        0.01742016151547432,
        -0.02862504869699478,
        0.011279914528131485,
        -0.02848527766764164,
        -0.011710349470376968,
        -0.0411706306040287,
        0.03376225754618645,
        -0.031428154557943344,
        0.0014932118356227875,
        -0.04012458771467209,
        -0.009064707905054092,
        -0.011547509580850601,
        0.01805826649069786,
        0.03098958358168602,
        -0.020060943439602852,
        0.020913224667310715,
        0.04185980185866356,
        -0.01919437199831009,
        -0.03752472251653671,
        -0.03646025434136391,
        -0.020275194197893143,
        0.00044493377208709717,
        0.035163458436727524,
        0.005825523287057877,
        -0.005850635468959808,
        -0.027809686958789825,
        -0.014729641377925873,
        0.007420085370540619,
        0.03602760657668114,
        0.0336756594479084,
        -0.030165309086441994,
        0.008028056472539902,
        -0.003640230745077133,
        -0.011881578713655472,
        -0.032843321561813354,
        0.042238373309373856,
        0.0007122866809368134,
        0.01832074671983719,
        -0.022843902930617332,
        0.02468927577137947,
        0.02142508700489998,
        -0.008229244500398636,
        0.0032080337405204773,
        0.011826913803815842,
        0.027938906103372574,
        0.035293545573949814,
        -0.0033061429858207703,
        -0.0352158397436142,
        0.009805552661418915,
        0.03195873275399208,
        -0.03876751288771629,
        0.01890484243631363,
        -0.009111467748880386,
        0.02739366516470909,
        0.020954888314008713,
        0.01245073601603508,
        -0.039311040192842484,
        0.012991700321435928,
        0.02882366254925728,
        0.0303020142018795,
        -0.014428840950131416,
        -0.016944659873843193,
        0.008369546383619308,
        -0.004850748926401138,
        0.017093539237976074,
        0.030805807560682297,
        0.033323902636766434,
        -0.0326501801609993,
        0.009937301278114319,
        0.007510252296924591,
        -0.027959957718849182,
        0.02050657942891121,
        -0.029144778847694397,
        0.012706898152828217,
        0.017457131296396255,
        -0.025703726336359978,
        -0.01743764616549015,
        -0.03396071493625641,
        0.026178952306509018,
        0.024721097201108932,
        -0.006452132016420364,
        0.0389472059905529,
        -0.005766782909631729,
        0.025084424763917923,
        0.03461999073624611,
        0.022013720124959946,
        0.005520183593034744,
        0.013592932373285294,
        -0.008916758000850677,
        0.0038529112935066223,
        0.0026806406676769257,
        0.035142410546541214,
        0.014791622757911682,
        0.014783523976802826,
        -0.02651195041835308,
        0.0072577521204948425,
        0.035143446177244186,
        0.011256683617830276,
        0.019963432103395462,
        -0.0044185929000377655,
        0.029570337384939194,
        -0.0023826323449611664,
        0.03018464520573616,
        -0.04087155684828758,
        -0.0042424388229846954,
        -0.0014201216399669647,
        0.023565132170915604,
        -0.002925693988800049,
        0.021344061940908432,
        -0.02126951329410076,
        0.024410512298345566,
        -0.03243532031774521,
        -0.016060462221503258,
        0.022741001099348068,
        0.01920256018638611,
        -0.0068519227206707,
        0.03132772073149681,
        0.0243694968521595,
        0.018421564251184464,
        0.03296589478850365,
        0.01648048684000969,
        -0.0013344697654247284,
        -0.017597481608390808,
        -0.026652302592992783,
        0.029903274029493332,
        -0.037315547466278076,
        0.03252371773123741,
        -0.02511897124350071,
        -0.014963293448090553,
        0.03658381476998329,
        -0.03245970979332924,
        0.018380898982286453,
        -0.03870323300361633,
        0.03528841957449913,
        0.0211060531437397,
        0.03960331156849861,
        0.003737933933734894,
        0.03607836738228798,
        -0.006086919456720352,
        0.03539096191525459,
        0.026846688240766525,
        -0.030964400619268417,
        0.03108235076069832,
        0.019936654716730118,
        -0.011613938957452774,
        0.04160170629620552,
        0.011235840618610382,
        0.023196402937173843,
        -0.008207965642213821,
        0.0406244657933712,
        0.005565822124481201,
        -0.03146931529045105,
        0.025234904140233994,
        0.027635831385850906,
        0.040101226419210434,
        0.036800336092710495,
        0.032355014234781265,
        -0.0045230574905872345,
        0.03756795451045036,
        0.015560857951641083,
        -0.01266147755086422,
        -0.023029370233416557,
        0.03192417696118355,
        -0.03327729180455208,
        -0.004850819706916809,
        -0.030913956463336945,
        0.016937099397182465,
        -0.0013328753411769867,
        0.00648917630314827,
        0.016751468181610107,
        -0.011418778449296951,
        -0.04096556827425957,
        -0.03587188199162483,
        -0.010190501809120178,
        -0.019276855513453484,
        -0.029880791902542114,
        -0.017669610679149628,
        -0.027064472436904907,
        -0.015283633023500443,
        0.029645871371030807,
        -0.04086786508560181,
        0.009419824928045273,
        0.007384404540061951,
        0.039071183651685715,
        -0.015145724639296532,
        -0.007699199020862579,
        -0.03407976031303406,
        0.002864886075258255,
        0.0019395016133785248,
        0.01441977545619011,
        0.04096728935837746,
        0.008432425558567047,
        -0.018732598051428795,
        -0.003779299557209015,
        0.02306448295712471,
        0.03736017271876335,
        0.016037173569202423,
        0.017285406589508057,
        0.01360056921839714,
        0.0036406144499778748,
        0.025676358491182327,
        0.015734080225229263,
        0.030010271817445755,
        -0.04250073432922363,
        -0.029403872787952423,
        -0.009666871279478073,
        -0.03676268830895424,
        0.02756565436720848,
        0.03826973959803581,
        -0.024413790553808212,
        -0.03288276493549347,
        -0.012820115312933922,
        0.013079602271318436,
        0.009979736059904099,
        0.013856910169124603,
        0.031106960028409958,
        -0.004504501819610596,
        0.032289426773786545,
        -0.03504686802625656,
        -0.01915818080306053,
        0.021337460726499557,
        0.0013720057904720306,
        -0.020541727542877197,
        0.008777223527431488,
        -0.010890331119298935,
        -0.0025689229369163513,
        -0.03331343084573746,
        0.02078573778271675,
        0.029328782111406326,
        0.03607605770230293,
        0.025474365800619125,
        0.027125123888254166,
        -0.021885041147470474,
        0.012825608253479004,
        0.00400857999920845,
        0.03505246713757515,
        0.04067421332001686,
        0.03930876776576042,
        0.03760533407330513,
        0.03004917874932289,
        0.011395290493965149,
        0.0007671266794204712,
        0.006006155163049698,
        -0.04110429808497429,
        -0.002414703369140625,
        0.013185426592826843,
        -0.03561478108167648,
        0.02468639239668846,
        0.0024624578654766083,
        0.04175613448023796,
        0.028271887451410294,
        -0.02068968117237091,
        -0.038968589156866074,
        0.018207944929599762,
        0.008503135293722153,
        -0.008193835616111755,
        0.030592847615480423,
        -0.02163017727434635,
        -0.002392370253801346,
        0.030600208789110184,
        -0.02362617664039135,
        -0.03959883749485016,
        0.019998345524072647,
        0.032684724777936935,
        -0.03852236643433571,
        0.026499290019273758,
        -0.027422472834587097,
        0.03246435895562172,
        0.007560107856988907,
        -0.0033424869179725647,
        -0.0007469877600669861,
        -0.02967667393386364,
        -0.021910468116402626,
        -0.011037115007638931,
        -0.023311248049139977,
        -0.020229509100317955,
        -0.006949093192815781,
        -0.03400373458862305,
        -0.007021330296993256,
        -0.028528759256005287,
        -0.020970702171325684,
        -0.0111989825963974,
        -0.005182329565286636,
        -0.00867798924446106,
        -0.018162479624152184,
        -0.026737602427601814,
        0.02882983162999153,
        -0.03340475633740425,
        0.0182223878800869,
        0.012051671743392944,
        0.02189788594841957,
        0.021961819380521774,
        -0.003672022372484207,
        0.005494575947523117,
        0.0035063624382019043,
        0.024130862206220627,
        -0.016341116279363632,
        -0.005008373409509659,
        0.015289589762687683,
        0.023338627070188522,
        0.02037527784705162,
        0.000991538166999817,
        -0.03139016032218933,
        0.03532039746642113,
        0.009205512702465057,
        0.029596764594316483,
        -0.036882586777210236,
        0.019701171666383743,
        -0.007556866854429245,
        -0.015256252139806747,
        0.03722980245947838,
        -0.022409729659557343,
        -0.02694082260131836,
        -0.02534469962120056,
        -0.013763049617409706,
        0.004353448748588562,
        0.01592114567756653,
        -0.03410514444112778,
        -0.034397393465042114,
        -0.03329255059361458,
        -0.01346544362604618,
        -0.017930500209331512,
        -0.028180211782455444,
        -0.003968827426433563,
        0.00803280621767044,
        -0.005215127021074295,
        -0.02268758788704872,
        -0.03317701816558838,
        0.024436254054307938,
        -0.012761475518345833,
        0.01482781395316124,
        -0.017145732417702675,
        -0.0020971670746803284,
        -0.019415851682424545,
        0.03559264913201332,
        -0.02277241460978985,
        -0.012314992025494576,
        -0.02714930847287178,
        0.013546876609325409,
        0.013087339699268341,
        0.004853744059801102,
        -0.022638142108917236,
        -0.03767644986510277,
        -0.016323015093803406,
        0.02733587846159935,
        -0.006165262311697006,
        0.033977244049310684,
        0.02985406294465065,
        0.028735291212797165,
        -0.00873793289065361,
        0.011386200785636902,
        -0.005594097077846527,
        0.02932525798678398,
        -0.013286195695400238,
        -0.03903008997440338,
        -0.0028057992458343506,
        0.029804322868585587,
        -0.024021776393055916,
        0.010211300104856491,
        0.004848148673772812,
        -0.04003269597887993,
        0.016147829592227936,
        -0.01798696629703045,
        0.010894183069467545,
        -0.024613704532384872,
        -0.009393040090799332,
        -0.040027353912591934,
        -0.011328484863042831,
        -0.023757651448249817,
        0.0024765990674495697,
        -0.03857112303376198,
        0.010846052318811417,
        -0.031187988817691803,
        0.009963005781173706,
        0.014200229197740555,
        0.03652818128466606,
        0.003160342574119568,
        -0.021900184452533722,
        -0.022318445146083832,
        0.03848709538578987,
        -0.03788026422262192,
        -0.010070692747831345,
        0.0031293965876102448,
        0.04078296199440956,
        -0.03442263975739479,
        0.005248013883829117,
        -0.004362389445304871,
        0.010452892631292343,
        -0.020960498601198196,
        9.519606828689575e-05,
        0.01634194329380989,
        -0.03511577099561691
      ],
      [
        0.03672963008284569,
        -0.018613064661622047,
        -0.017558066174387932,
        -0.009410470724105835,
        -0.04175321385264397,
        0.00938471034169197,
        0.04058760777115822,
        -0.01710706204175949,
        -0.006491620093584061,
        -0.013645598664879799,
        0.024987798184156418,
        -0.033839091658592224,
        0.013521924614906311,
        -0.0110020712018013,
        0.02390468493103981,
        0.00941883772611618,
        -0.03833770751953125,
        -0.042443521320819855,
