{
  "backend": "torch",
  "state_size": 546,
  "option_size": 109,
  "hidden_size": 24,
  "architecture": "legacy_v1",
  "device_preference": "auto",
  "state_dict": {
    "joint_bias": [
      0.0,
      0.0,
      0.0,
      0.0,
      0.0,
      0.0,
      0.0,
      0.0,
      0.0,
      0.0,
      0.0,
      0.0,
      0.0,
      0.0,
      0.0,
      0.0,
      0.0,
      0.0,
      0.0,
      0.0,
      0.0,
      0.0,
      0.0,
      0.0
    ],
    "state_linear.weight": [
      [
        -0.03804808109998703,
        0.02810235694050789,
        0.03714660927653313,
        0.01799342781305313,
        0.04105553403496742,
        0.0071643441915512085,
        -0.01030578464269638,
        0.020160827785730362,
        -0.014090359210968018,
        0.016529016196727753,
        0.0011567063629627228,
        0.025906939059495926,
        -0.012262081727385521,
        0.0014107339084148407,
        -0.02105400711297989,
        0.029170412570238113,
        -0.03870626538991928,
        0.030877742916345596,
        0.026747088879346848,
        0.035659488290548325,
        -0.034655407071113586,
        0.011064920574426651,
        0.0201270692050457,
        0.023446332663297653,
        -0.041629258543252945,
        -0.030217718333005905,
        -0.007532741874456406,
        0.004072919487953186,
        -0.007715851068496704,
        -0.028985578566789627,
        -0.023490319028496742,
        -0.029868680983781815,
        -0.03723215311765671,
        -0.029335513710975647,
        -0.04082018509507179,
        0.019673936069011688,
        0.03830072656273842,
        -0.013372223824262619,
        -0.034797824919223785,
        0.04015686735510826,
        0.01906101405620575,
        -0.026885123923420906,
        0.016353052109479904,
        -0.013400044292211533,
        0.008522439748048782,
        -0.011907117441296577,
        0.032580722123384476,
        -0.035030558705329895,
        -0.02458805777132511,
        0.04159926250576973,
        0.0021857358515262604,
        0.040936630219221115,
        -0.027839776128530502,
        -0.024291936308145523,
        -0.04071125015616417,
        0.01748882234096527,
        -0.01692461594939232,
        0.03712726756930351,
        -0.010781411081552505,
        0.03508581593632698,
        0.03173535689711571,
        0.02661013975739479,
        0.03320867195725441,
        0.02619355544447899,
        0.03769611194729805,
        -0.010795995593070984,
        0.0030561499297618866,
        0.007701847702264786,
        0.03130519762635231,
        0.008035104721784592,
        -0.00520077720284462,
        -0.00999072939157486,
        0.004673466086387634,
        -0.01090293750166893,
        0.03786763921380043,
        -0.03359374403953552,
        -0.013559522107243538,
        0.03560424968600273,
        -0.033098191022872925,
        -0.0005095191299915314,
        0.01516084372997284,
        -0.01822815276682377,
        0.00568997859954834,
        -0.0061589814722537994,
        0.03671961650252342,
        0.031139496713876724,
        0.0044390298426151276,
        -0.024303384125232697,
        0.03095192089676857,
        -0.04104117676615715,
        0.001379597932100296,
        -0.012114506214857101,
        0.001389235258102417,
        -0.00133620947599411,
        0.03645550087094307,
        -0.030299514532089233,
        0.015580680221319199,
        0.008856397122144699,
        0.017683181911706924,
        -0.006109796464443207,
        0.00028661638498306274,
        -0.022455818951129913,
        -0.015642419457435608,
        -0.03950517997145653,
        -0.005058594048023224,
        0.03330399468541145,
        -0.027140110731124878,
        0.028915617614984512,
        -0.0031307078897953033,
        0.028527114540338516,
        -0.015514984726905823,
        0.024584587663412094,
        -0.012802937999367714,
        0.009875692427158356,
        0.023497026413679123,
        -0.011971980333328247,
        0.031779516488313675,
        0.04260937497019768,
        0.03719324991106987,
        -0.041982416063547134,
        0.027286093682050705,
        0.001460399478673935,
        -0.006886020302772522,
        -0.011211521923542023,
        -0.013559656217694283,
        0.005061894655227661,
        -0.021521445363759995,
        0.030705992132425308,
        0.01897040754556656,
        0.028056304901838303,
        0.03913720324635506,
        0.00010465458035469055,
        0.03671609237790108,
        0.005958989262580872,
        -0.011776978150010109,
        -0.007606822997331619,
        0.026117835193872452,
        -0.0012065023183822632,
        0.003704540431499481,
        0.03297226503491402,
        -0.0019060298800468445,
        -0.014077935367822647,
        0.012352649122476578,
        0.03391614183783531,
        -0.0273885615170002,
        0.0010115765035152435,
        -0.018557410687208176,
        0.030807014554739,
        0.0181870236992836,
        0.021652724593877792,
        0.006358768790960312,
        -0.002702135592699051,
        -0.011399518698453903,
        0.01155874878168106,
        -0.010927706956863403,
        0.039109211415052414,
        0.033342693001031876,
        0.025365691632032394,
        0.03608400747179985,
        -0.010793562978506088,
        -0.0322515107691288,
        -0.01721356064081192,
        0.0010266117751598358,
        -0.0035601556301116943,
        -0.027154210954904556,
        -0.01691333018243313,
        0.00448564812541008,
        0.007043924182653427,
        -0.03336741775274277,
        -0.02575327269732952,
        0.010095406323671341,
        -0.03177209198474884,
        0.034675825387239456,
        0.007609568536281586,
        0.018990997225046158,
        0.03000747784972191,
        -0.04138150066137314,
        0.005404368042945862,
        -0.011799976229667664,
        0.03911058232188225,
        0.039527181535959244,
        0.03524578735232353,
        0.006666630506515503,
        -0.025124898180365562,
        0.02377164736390114,
        -0.03199625015258789,
        0.037240054458379745,
        -0.03215540200471878,
        -0.028449643403291702,
        0.024191755801439285,
        -0.010376259684562683,
        0.027673576027154922,
        0.03715043142437935,
        -0.04130931198596954,
        -0.019522685557603836,
        -0.007840242236852646,
        -0.028220131993293762,
        0.013322420418262482,
        -0.019459139555692673,
        0.035117242485284805,
        -0.03593146428465843,
        -0.016087429597973824,
        -0.006530940532684326,
        0.030997734516859055,
        0.03293908014893532,
        0.039543043822050095,
        0.003597777336835861,
        0.03219151869416237,
        0.016397789120674133,
        -0.037298716604709625,
        0.03836638107895851,
        -0.007427684962749481,
        0.023919951170682907,
        0.031414974480867386,
        -0.014252683147788048,
        -0.026682913303375244,
        -0.03880015388131142,
        0.012256976217031479,
        0.01907212659716606,
        -0.003669336438179016,
        0.016995340585708618,
        -0.034580156207084656,
        0.016287460923194885,
        -0.02029949426651001,
        0.01305035874247551,
        0.030559156090021133,
        -0.016092678532004356,
        -0.03850473463535309,
        0.03621922805905342,
        0.006702754646539688,
        -0.014747144654393196,
        0.028375405818223953,
        -0.009856007993221283,
        0.007759250700473785,
        0.021106112748384476,
        0.04028819873929024,
        -0.014131523668766022,
        -0.008472416549921036,
        -0.03322606533765793,
        -0.014574982225894928,
        0.006527736783027649,
        -0.025027364492416382,
        -0.007117312401533127,
        0.01873099058866501,
        0.03673533722758293,
        -0.008516959846019745,
        0.03498678281903267,
        -0.040239110589027405,
        0.03120541200041771,
        -0.02245156280696392,
        -0.038179442286491394,
        0.022734876722097397,
        -0.005143735557794571,
        -0.014028275385499,
        -0.038259778171777725,
        0.021049316972494125,
        0.020409565418958664,
        0.04181508347392082,
        -0.008372042328119278,
        0.00985974445939064,
        -0.04145210236310959,
        -0.04195051267743111,
        0.02835971489548683,
        0.022432450205087662,
        0.02229495719075203,
        -0.015068810433149338,
        -0.015229528769850731,
        -0.04189329594373703,
        -0.02359738200902939,
        -0.036094799637794495,
        0.011566933244466782,
        -0.03514406085014343,
        -0.024154072627425194,
        -0.03142431750893593,
        0.036809954792261124,
        -0.03070341981947422,
        -0.016910504549741745,
        0.039565559476614,
        0.012727223336696625,
        -0.03265766054391861,
        0.02186540886759758,
        -0.0018680505454540253,
        -0.02271624468266964,
        -0.04229509457945824,
        0.0014418438076972961,
        0.025732818990945816,
        0.0033645108342170715,
        -0.039766158908605576,
        -0.017458314076066017,
        -0.03459618613123894,
        -0.008363950997591019,
        -0.0238697100430727,
        -0.03453942388296127,
        0.03144444152712822,
        0.004342187196016312,
        0.03642510250210762,
        -0.024628320708870888,
        0.017962686717510223,
        -0.04044997692108154,
        0.029713433235883713,
        0.013843901455402374,
        -0.023612121120095253,
        -0.011524267494678497,
        0.004540499299764633,
        0.003472663462162018,
        -0.018371567130088806,
        0.034142907708883286,
        0.0060867369174957275,
        -0.025220045819878578,
        -0.00363805890083313,
        0.02510089799761772,
        -0.0027958936989307404,
        0.004671130329370499,
        -0.03449777513742447,
        0.00632963702082634,
        0.0004105120897293091,
        -0.03726339712738991,
        0.014529261738061905,
        -0.027852863073349,
        -0.040158916264772415,
        0.036821600049734116,
        -0.007054220885038376,
        -0.029599037021398544,
        -0.002392701804637909,
        0.010919477790594101,
        0.04081195965409279,
        0.031281959265470505,
        0.03192324563860893,
        0.011046063154935837,
        0.012157294899225235,
        -0.040015123784542084,
        0.006423376500606537,
        0.006087440997362137,
        0.016582537442445755,
        -0.039060503244400024,
        -0.03555845841765404,
        0.04147081449627876,
        0.028776947408914566,
        0.01748579740524292,
        0.006205838173627853,
        0.033092107623815536,
        0.015697389841079712,
        -0.0068266429007053375,
        0.04214763268828392,
        0.025400985032320023,
        0.02767227217555046,
        -0.016422532498836517,
        0.03893957659602165,
        -0.02714928425848484,
        0.03791600093245506,
        -0.016661373898386955,
        -0.01746038906276226,
        -0.012859536334872246,
        0.026454921811819077,
        -0.007730718702077866,
        0.031941983848810196,
        0.020377587527036667,
        -0.04273751378059387,
        0.007306002080440521,
        -0.020590677857398987,
        -0.027713065966963768,
        0.019531164318323135,
        -0.009323786944150925,
        -0.03727787733078003,
        -0.001714661717414856,
        0.033394332975149155,
        0.028525497764348984,
        0.018954984843730927,
        -0.02617625892162323,
        -0.02274780347943306,
        -0.013497205451130867,
        -0.007179617881774902,
        0.03610536828637123,
        0.003865949809551239,
        -0.03152305260300636,
        -0.0039218999445438385,
        -0.009766150265932083,
        -0.019290482625365257,
        -0.026425369083881378,
        0.03635017201304436,
        -0.0349024198949337,
        0.015234310179948807,
        -0.016277814283967018,
        -0.02454843372106552,
        -0.006152365356683731,
        0.04087558761239052,
        0.017332255840301514,
        -0.0356997549533844,
        -0.03704914078116417,
        -0.035628195852041245,
        0.03896408900618553,
        0.040203969925642014,
        -0.038843490183353424,
        -0.023328272625803947,
        -0.01660507172346115,
        0.04020212963223457,
        0.013550501316785812,
        -0.03377652168273926,
        -0.019418707117438316,
        -0.038623470813035965,
        0.00014093518257141113,
        0.04212457314133644,
        0.032236646860837936,
        -0.004815232008695602,
        -0.030023818835616112,
        -0.021105483174324036,
        0.02139841392636299,
        0.04002561792731285,
        0.027555976063013077,
        0.0064578428864479065,
        -0.020037420094013214,
        -0.021068602800369263,
        -0.031573206186294556,
        0.023194853216409683,
        0.03691354766488075,
        -0.00865020602941513,
        -0.005401439964771271,
        -0.028581056743860245,
        -0.02792157605290413,
        -0.03899326175451279,
        0.005784511566162109,
        -0.0038460493087768555,
        -0.01468491367995739,
        8.698925375938416e-05,
        0.0221460722386837,
        0.03999653086066246,
        -0.0073745399713516235,
        -0.034134238958358765,
        0.016556549817323685,
        -0.013551875948905945,
        -0.010191235691308975,
        0.025217030197381973,
        0.02652447298169136,
        0.009640056639909744,
        -0.021807609125971794,
        -0.0017209462821483612,
        -0.029797865077853203,
        0.005310233682394028,
        0.005234289914369583,
        -0.04102543741464615,
        -0.032672084867954254,
        0.04042470082640648,
        -0.0017206445336341858,
        0.007553312927484512,
        -0.025411950424313545,
        0.0343167819082737,
        0.02809656783938408,
        0.0036113038659095764,
        -0.010609369724988937,
        -0.0026642009615898132,
        -0.014453282579779625,
        0.02047981694340706,
        -0.023070745170116425,
        0.001037105917930603,
        0.03112408146262169,
        -0.04076552018523216,
        0.0037532225251197815,
        0.008124276995658875,
        -0.023244278505444527,
        -0.04251079261302948,
        0.018085092306137085,
        -0.005951784551143646,
        -0.02830605022609234,
        -0.04220611974596977,
        -0.0009477287530899048,
        -0.005456216633319855,
        -0.03682088851928711,
        0.00034102052450180054,
        -0.037499845027923584,
        -0.0228248443454504,
        -0.0050878338515758514,
        -0.017499780282378197,
        0.015647433698177338,
        -0.0012004226446151733,
        -0.00320439413189888,
        0.030521053820848465,
        -0.013100003823637962,
        -0.01971806026995182,
        -0.003951676189899445,
        -0.008221164345741272,
        -0.029550928622484207,
        0.041877273470163345,
        0.0357479490339756,
        -0.035807203501462936,
        0.019835252314805984,
        -0.04272600635886192,
        0.004676513373851776,
        -0.03039972111582756,
        0.016939282417297363,
        -0.005299367010593414,
        0.004729900509119034,
        -0.012366676703095436,
        -0.020450416952371597,
        0.0008701831102371216,
        0.033812496811151505,
        0.021663393825292587,
        0.0022792257368564606,
        0.03182987496256828,
        -0.002919357270002365,
        -0.007244568318128586,
        0.04156286641955376,
        -0.027652278542518616,
        0.04232629016041756,
        0.03823283687233925,
        -0.01444086991250515,
        0.03992772474884987,
        0.01588458940386772,
        0.034285832196474075,
        0.0036335401237010956,
        0.01267513632774353,
        0.036854032427072525,
        -0.01605270616710186,
        0.022051449865102768,
        -0.03837810456752777,
        -0.03745434433221817,
        0.03504961356520653,
        0.03396512195467949,
        -0.007633563131093979,
        0.03375491872429848,
        0.006607595831155777,
        -0.017259102314710617,
        0.03067244216799736,
        -0.0031170323491096497,
        0.024816494435071945,
        0.034186024218797684,
        -0.010453835129737854,
        0.022495891898870468,
        -0.038064729422330856,
        -0.037492722272872925,
        0.025833722203969955,
        0.023264173418283463,
        -0.03628097102046013,
        -0.024494605138897896,
        -0.0427616685628891,
        -0.0077383555471897125,
        -0.03492947667837143,
        -0.01774694211781025,
        -0.033554159104824066,
        0.014800723642110825,
        0.006454866379499435,
        0.025528300553560257,
        -0.012907542288303375,
        0.035538602620363235,
        0.03644327446818352,
        -0.03263213112950325,
        -0.01279502920806408
      ],
      [
        -0.034183599054813385,
        0.03717358782887459,
        -0.0015562400221824646,
        0.028969082981348038,
        -0.008352253586053848,
        0.017149880528450012,
        -0.019463296979665756,
        -0.027706168591976166,
        -0.004033736884593964,
        -0.009300809353590012,
        0.027126628905534744,
        0.02371644601225853,
        -0.00824294239282608,
        0.012469355016946793,
        0.019035562872886658,
        0.005262847989797592,
        -0.0267647597938776,
        0.02625945582985878,
        0.02650165930390358,
        -0.000940859317779541,
        -0.03403732180595398,
        -0.02459491416811943,
        0.016760554164648056,
        -0.007636379450559616,
        0.0044488683342933655,
        0.019178353250026703,
        -0.010731164366006851,
        0.017115894705057144,
        0.04197869077324867,
        -0.007269993424415588,
        0.0008036531507968903,
        0.007013086229562759,
        -0.006256330758333206,
        0.014637060463428497,
        -0.019237082451581955,
        0.02216881886124611,
        -0.02872685343027115,
        0.03358534350991249,
        0.042059171944856644,
        -0.04040372371673584,
        0.0058561451733112335,
        -0.018494445830583572,
        0.02817857638001442,
        0.01962319388985634,
        -0.04135223105549812,
        0.01626676693558693,
        -0.023058822378516197,
        -0.006700500845909119,
        0.025730352848768234,
        0.020115520805120468,
        -0.027371207252144814,
        0.007797934114933014,
        -0.003862522542476654,
        -0.039929598569869995,
        -0.03534255549311638,
        0.014454510062932968,
        -0.0031283050775527954,
        0.008966419845819473,
        -0.0048086270689964294,
        -0.01173807866871357,
        -0.04114620387554169,
        -0.02037949301302433,
        0.00808248296380043,
        0.03771587088704109,
        -0.0010407939553260803,
        0.01550467312335968,
        0.005725525319576263,
        0.01614464446902275,
        -0.0032873377203941345,
        -0.022659625858068466,
        0.026776034384965897,
        0.01597512885928154,
        0.0011418834328651428,
        -0.04179597645998001,
        0.014620531350374222,
        -0.03924766927957535,
        -0.0265452079474926,
        0.0026251859962940216,
        0.04190244898200035,
        0.024841170758008957,
        -0.004201933741569519,
        0.03684334084391594,
        -0.03428252413868904,
        -0.040691617876291275,
        0.036891426891088486,
        -0.005224842578172684,
        -0.039662156254053116,
        0.02284609153866768,
        -0.018902059644460678,
        -0.021835004910826683,
        -0.03849262371659279,
        0.04253722354769707,
        -0.019684741273522377,
        -0.019604695960879326,
        -0.0422196164727211,
        -0.019472923129796982,
        -0.0031169168651103973,
        -0.03486493229866028,
        -0.04024863988161087,
        -0.007187679409980774,
        -0.006098095327615738,
        -0.010464098304510117,
        0.03607073798775673,
        -0.02580532617866993,
        -0.023213842883706093,
        -0.0359048992395401,
        0.015653051435947418,
        0.03548913076519966,
        0.010766517370939255,
        -0.011203315109014511,
        0.018892642110586166,
        0.04112529382109642,
        -0.03355346620082855,
        -0.02178497239947319,
        -0.024566171690821648,
        -0.0354715920984745,
        -0.01563623547554016,
        -0.00983630120754242,
        0.011745892465114594,
        -0.015231320634484291,
        -0.02471073903143406,
        -0.0008094087243080139,
        0.04271918907761574,
        -0.030092909932136536,
        -0.004940737038850784,
        0.03102203831076622,
        -0.029896046966314316,
        -0.012351039797067642,
        0.0051146335899829865,
        -0.02926272340118885,
        0.016424085944890976,
        0.031955283135175705,
        -0.024363042786717415,
        -0.00741523876786232,
        -0.010367978364229202,
        0.011530142277479172,
        -0.022205188870429993,
        -0.007133547216653824,
        0.01844365894794464,
        -0.036383021622896194,
        0.006497938185930252,
        0.011962458491325378,
        0.04064358398318291,
        -0.01033526286482811,
        0.016487494111061096,
        0.033318329602479935,
        -0.03877829760313034,
        -0.023713864386081696,
        -0.029362108558416367,
        -0.0012915730476379395,
        0.03689059987664223,
        -0.03539128601551056,
        0.020400147885084152,
        -0.025161024183034897,
        0.0421457402408123,
        -0.03999529406428337,
        -0.012722836807370186,
        0.034302618354558945,
        0.03690383955836296,
        -0.03413594141602516,
        -0.022341204807162285,
        0.0024029389023780823,
        -0.015537217259407043,
        -0.034420717507600784,
        0.023140843957662582,
        0.03388236090540886,
        -0.013613054528832436,
        -0.0002974756062030792,
        0.030860375612974167,
        -0.0007737278938293457,
        0.013355668634176254,
        -0.008724268525838852,
        0.009909063577651978,
        -0.007865402847528458,
        0.02210957184433937,
        -0.03337675333023071,
        0.00286661833524704,
        -0.016702238470315933,
        -0.012029537931084633,
        -0.01919340156018734,
        -0.018212081864476204,
        -0.027935627847909927,
        0.038665685802698135,
        -0.03866088390350342,
        -0.021135732531547546,
        -0.03567250818014145,
        -0.0045594386756420135,
        -0.0336097851395607,
        -0.03531951829791069,
        0.005613904446363449,
        0.024577554315328598,
        0.005003452301025391,
        0.011641249060630798,
        0.03907809779047966,
        0.02006642147898674,
        -0.0029599443078041077,
        0.015924714505672455,
        -0.029141711071133614,
        -0.002386435866355896,
        -0.01214977353811264,
        -0.01824287138879299,
        0.012504730373620987,
        -0.01671145111322403,
        0.010817091912031174,
        -0.0071349069476127625,
        -0.03497108072042465,
        0.006127655506134033,
        0.003765903413295746,
        0.016641192138195038,
        -0.04200638830661774,
        0.02838733419775963,
        0.0023313723504543304,
        -0.03696446120738983,
        0.03885824605822563,
        -0.009246546775102615,
        -0.0034217610955238342,
        0.030822787433862686,
        -0.027890697121620178,
        0.0075620561838150024,
        -0.04036800190806389,
        0.01752961426973343,
        0.00613778829574585,
        -0.013637721538543701,
        -0.010487765073776245,
        0.015318747609853745,
        0.03074096515774727,
        -0.027173098176717758,
        0.024806242436170578,
        -0.01552167721092701,
        0.035711731761693954,
        -0.042647719383239746,
        0.0037929899990558624,
        0.005333155393600464,
        0.00041294097900390625,
        0.015504986047744751,
        -0.015172543004155159,
        0.02650243416428566,
        0.019987676292657852,
        0.020894784480333328,
        0.024193067103624344,
        -0.0412297248840332,
        0.02375149354338646,
        0.034756068140268326,
        -0.025838574394583702,
        -0.04107766970992088,
        0.02039163187146187,
        -0.018400371074676514,
        -0.03694924712181091,
        -0.017779812216758728,
        -0.005746416747570038,
        0.029153231531381607,
        -0.006225083023309708,
        0.03697272762656212,
        -0.031143683940172195,
        0.013361986726522446,
        0.007272597402334213,
        -0.015929868444800377,
        -0.021385999396443367,
        -0.0003291815519332886,
        0.027051713317632675,
        0.03918590024113655,
        0.032934609800577164,
        0.03363797441124916,
        0.01631716638803482,
        0.011814538389444351,
        -0.0011036694049835205,
        0.020959775894880295,
        -0.024017173796892166,
        -0.031368955969810486,
        -0.034398116171360016,
        -0.03218269348144531,
        -0.024917978793382645,
        -0.03092369996011257,
        0.01483447477221489,
        -0.03531264886260033,
        -0.007516156882047653,
        -0.0149247907102108,
        0.006365202367305756,
        0.02271721139550209,
        -0.005650930106639862,
        -0.019308358430862427,
        -0.01278097927570343,
        -0.034852735698223114,
        -0.018369076773524284,
        0.005852416157722473,
        -0.003812730312347412,
        -0.012017644941806793,
        0.025477591902017593,
        -0.0361178033053875,
        -0.013587092980742455,
        0.006483275443315506,
        0.039113301783800125,
        -0.01824532076716423,
        -0.033904243260622025,
        0.020911645144224167,
        -0.00430433452129364,
        -0.039403535425662994,
        -0.012378299608826637,
        0.015573211014270782,
        0.023207101970911026,
        0.02603427693247795,
        -0.019452808424830437,
        0.03268849477171898,
        -0.013049012050032616,
        -0.00296064093708992,
        0.013952706009149551,
        -0.008091580122709274,
        -0.030958116054534912,
        0.016039952635765076,
        -0.026664571836590767,
        0.009370815008878708,
        -0.016154352575540543,
        0.009576458483934402,
        -0.03742101043462753,
        -0.03297588229179382,
        0.0325777493417263,
        -0.04146741330623627,
        0.026998717337846756,
        -0.014288665726780891,
        0.03763778135180473,
        0.024771492928266525,
        -0.008970644325017929,
        -0.008956201374530792,
        -0.005910702049732208,
        -0.007501378655433655,
        -0.03456292673945427,
        -0.04038437083363533,
        0.027351398020982742,
        -0.028934195637702942,
        -0.032006751745939255,
        -0.01897354982793331,
        0.008127164095640182,
        0.003007255494594574,
        -0.038510873913764954,
        -0.01242770440876484,
        0.024132024496793747,
        -0.0104241743683815,
        -0.029157571494579315,
        -0.021302158012986183,
        0.009530387818813324,
        -0.03431134670972824,
        0.014684561640024185,
        0.0035750269889831543,
        0.03193724527955055,
        0.04207146540284157,
        -0.014400260522961617,
        0.040606800466775894,
        0.02806893363595009,
        -0.034555964171886444,
        -0.018513301387429237,
        0.03620817884802818,
        -0.0050900839269161224,
        0.025810811668634415,
        -0.03164944052696228,
        -0.02216382883489132,
        -0.00694255530834198,
        -0.03637152537703514,
        0.025867674499750137,
        0.019855592399835587,
        -0.037537042051553726,
        -0.03645339608192444,
        -0.028728608042001724,
        0.032578546553850174,
        -0.01778290793299675,
        0.009739618748426437,
        -0.002816341817378998,
        -0.012353459373116493,
        -0.03692590072751045,
        -0.01936202310025692,
        -0.016426844522356987,
        -0.028508158400654793,
        -0.030964605510234833,
        -0.020107343792915344,
        0.034228336066007614,
        -0.03494391590356827,
        -0.0011560991406440735,
        -0.019228456541895866,
        0.02358362451195717,
        -0.03709506615996361,
        0.014745883643627167,
        -0.03076266124844551,
        0.03925193473696709,
        -0.027594543993473053,
        -0.007759898900985718,
        -0.01777019537985325,
        -0.004909384995698929,
        0.0253012515604496,
        -0.027389638125896454,
        -0.0063642412424087524,
        0.03559187427163124,
        -0.03712591156363487,
        -0.009922005236148834,
        -0.014792075380682945,
        -0.034053124487400055,
        0.03208671137690544,
        0.0037644468247890472,
        0.021262291818857193,
        -0.01457848772406578,
        -0.032619770616292953,
        -0.015521964058279991,
        -0.018201883882284164,
        -0.004179719835519791,
        -0.006172608584165573,
        0.003140062093734741,
        -0.02153920941054821,
        0.02657625451683998,
        -0.008253201842308044,
        0.034923847764730453,
        0.022059496492147446,
        -0.037641480565071106,
        -0.026034172624349594,
        0.030940581113100052,
        -0.011200111359357834,
        0.0259866826236248,
        0.03982144221663475,
        0.018751002848148346,
        -0.003306351602077484,
        0.021537255495786667,
        0.02437315508723259,
        0.041457194834947586,
        0.01067432388663292,
        0.02551378682255745,
        0.034911010414361954,
        0.04050583764910698,
        0.018325716257095337,
        0.029421452432870865,
        -0.030445901677012444,
        8.888542652130127e-06,
        0.000630497932434082,
        -0.03565335273742676,
        0.008507557213306427,
        -0.0035527795553207397,
        0.022507887333631516,
        -0.022624582052230835,
        -0.007724687457084656,
        -0.0030592158436775208,
        -0.021197691559791565,
        0.04106643423438072,
        -0.0008221939206123352,
        -0.012310350313782692,
        -0.007461242377758026,
        0.03641847148537636,
        -0.034192003309726715,
        -0.02391466684639454,
        -0.004780396819114685,
        -0.025026017799973488,
        -0.017542056739330292,
        0.009935092180967331,
        0.03377396985888481,
        0.019243765622377396,
        0.017585691064596176,
        0.010693971067667007,
        -0.04067695513367653,
        0.03038281574845314,
        -0.03585764393210411,
        0.03618762269616127,
        0.03449001535773277,
        0.04114716127514839,
        -0.03719097375869751,
        0.014291930943727493,
        -0.023341890424489975,
        0.03555934503674507,
        -0.024269023910164833,
        -0.008472081273794174,
        -0.0013868100941181183,
        -0.04081084951758385,
        0.027638878673315048,
        -0.0038192197680473328,
        0.02167433872818947,
        -0.001907944679260254,
        -0.016157541424036026,
        0.022921208292245865,
        0.015587851405143738,
        -0.03445235639810562,
        0.012160684913396835,
        -0.008926879614591599,
        0.038570839911699295,
        -0.025745589286088943,
        -0.04219627380371094,
        0.021949585527181625,
        -0.031312838196754456,
        -0.007670894265174866,
        -0.014997534453868866,
        0.001825433224439621,
        0.031489048153162,
        -0.005718614906072617,
        0.005292307585477829,
        -0.015605207532644272,
        -0.03830040618777275,
        0.01448160782456398,
        0.01470118761062622,
        0.0010874606668949127,
        -0.027435366064310074,
        -0.01887841336429119,
        -0.014088112860918045,
        -0.04195842891931534,
        0.0006313100457191467,
        -0.03734800964593887,
        -0.01086103543639183,
        -0.02348751202225685,
        -0.03817782551050186,
        0.03665156289935112,
        -0.0416828878223896,
        -0.021304363384842873,
        0.04170093312859535,
        -0.039186831563711166,
        0.02819710597395897,
        -0.026455678045749664,
        0.03208056464791298,
        0.033666323870420456,
        -0.026494814082980156,
        -0.002238258719444275,
        0.0402059368789196,
        0.030002649873495102,
        -0.029238807037472725,
        -0.029995983466506004,
        -0.012191204354166985,
        -0.025700869038701057,
        0.02815398946404457,
        0.03789786621928215,
        -0.016895841807127,
        -0.0327015221118927,
        -0.03900084272027016,
        -0.03795132786035538,
        0.036231834441423416,
        -0.007776618003845215,
        -0.02292972430586815,
        0.02778058871626854,
        -0.033567991107702255,
        -0.03981570154428482,
        0.04162434861063957,
        0.025604482740163803,
        -0.008391711860895157,
        0.01618916541337967,
        -0.03787072375416756,
        -0.014969665557146072,
        0.024238552898168564,
        0.03578397259116173,
        -0.02319490537047386,
        0.02476576343178749,
        0.03360326215624809,
        0.03835512325167656,
        0.029110129922628403,
        0.011098019778728485,
        0.010984376072883606,
        -0.025081554427742958
      ],
      [
        0.014306552708148956,
        0.01764567196369171,
        0.01349664106965065,
        0.005814719945192337,
        -0.03485982492566109,
        0.002921026200056076,
        -0.000401277095079422,
        0.02894873544573784,
        -0.017167052254080772,
        -0.010042201727628708,
        -0.031878504902124405,
        0.04116104170680046,
        -0.0285017266869545,
        0.0017297863960266113,
        0.002952326089143753,
        0.004055175930261612,
        -0.007893957197666168,
        0.0343056358397007,
        -0.036817364394664764,
        0.0367778055369854,
        0.008253198117017746,
        0.011097311973571777,
        0.0036146119236946106,
        -0.03877954185009003,
        -0.036978937685489655,
        0.025277849286794662,
        -0.03642856702208519,
        -0.006485503166913986,
        -0.017008446156978607,
        -0.01564018987119198,
        0.034336697310209274,
        -0.013676576316356659,
        0.0014116279780864716,
        0.04244663193821907,
        -0.02074240706861019,
        -0.04176273196935654,
        -0.03748834505677223,
        -0.033343974500894547,
        -0.008749790489673615,
        -0.01982136443257332,
        0.02028796449303627,
        -0.025220533832907677,
        -0.022743023931980133,
        -0.02290024235844612,
        -0.026786502450704575,
        -0.034221578389406204,
        0.03949863836169243,
        0.022872719913721085,
        0.02129758521914482,
        0.03788250312209129,
        -0.004843898117542267,
        -0.017977695912122726,
        -0.04209037497639656,
        -0.03803226724267006,
        -0.04244312644004822,
        -0.025016723200678825,
        0.00047822296619415283,
        -0.04233012720942497,
        -0.005853146314620972,
        -0.0127046387642622,
        -0.04110273718833923,
        0.00793597474694252,
        0.032352712005376816,
        0.011928275227546692,
        0.018350176513195038,
        -0.022291284054517746,
        -0.02533796988427639,
        0.03949451074004173,
        0.02628229930996895,
        -0.026791589334607124,
        -0.006970144808292389,
        -0.01945926621556282,
        -0.02124110236763954,
        0.0008736550807952881,
        0.01931433379650116,
        -0.016688214614987373,
        -0.014211269095540047,
        -0.011659078299999237,
        -0.006086919456720352,
        -0.008018158376216888,
        0.03575902059674263,
        -0.02026280201971531,
        0.03419330343604088,
        0.02905477210879326,
        0.01581684499979019,
        0.015430063009262085,
        -0.021589022129774094,
        -0.02535896934568882,
        0.021565701812505722,
        -0.032319359481334686,
        -0.031276803463697433,
        0.013253290206193924,
        0.005287919193506241,
        0.040149178355932236,
        -0.02363293617963791,
        -0.024587074294686317,
        -0.028658811002969742,
        -0.007071487605571747,
        0.007022138684988022,
        -0.02252865582704544,
        -0.01736646704375744,
        0.038234893232584,
        0.018709447234869003,
        -0.015880299732089043,
        -0.033868689090013504,
        -0.011566493660211563,
        -0.016115183010697365,
        -0.02849089354276657,
        0.027448434382677078,
        0.017192061990499496,
        -0.0005284175276756287,
        -0.0057839564979076385,
        -0.020323053002357483,
        -0.010593734681606293,
        -0.014670878648757935,
        0.019807349890470505,
        0.024267736822366714,
        -0.03393777459859848,
        0.007226455956697464,
        0.014508120715618134,
        -0.01009541004896164,
        -0.01219395361840725,
        0.01156311109662056,
        0.03478841856122017,
        -0.03940419852733612,
        -0.036178603768348694,
        -0.0305048618465662,
        -0.000552348792552948,
        -0.0060348063707351685,
        -0.018305683508515358,
        0.01383352279663086,
        -0.017824094742536545,
        -0.02864929661154747,
        0.030032556504011154,
        -0.011372655630111694,
        -0.03940421715378761,
        -0.033919475972652435,
        -0.01892157830297947,
        -0.03866894915699959,
        0.010502923280000687,
        0.027925696223974228,
        -0.03272370249032974,
        -0.02213037759065628,
        0.022549856454133987,
        0.039480578154325485,
        0.022343244403600693,
        -0.004006955772638321,
        0.03956745192408562,
        -0.029262376949191093,
        -0.03777096047997475,
        0.03886209800839424,
        -0.041894856840372086,
        0.03416897729039192,
        -0.020570622757077217,
        0.03410189971327782,
        -0.008787605911493301,
        -0.0332319438457489,
        0.021824155002832413,
        0.018498212099075317,
        0.014917261898517609,
        -0.0202576145529747,
        0.0341862253844738,
        -0.011075150221586227,
        -0.015006182715296745,
        -0.009159225970506668,
        0.015981271862983704,
        0.040448401123285294,
        -0.030864495784044266,
        -0.03463725745677948,
        0.03193836286664009,
        -0.04045023396611214,
        -0.02287334017455578,
        -0.016833774745464325,
        0.0346602164208889,
        -0.035283636301755905,
        -0.02986486628651619,
        -0.008936513215303421,
        -0.030354075133800507,
        -0.013731734827160835,
        -0.023971090093255043,
        -0.02388021908700466,
        0.020866815000772476,
        0.018053166568279266,
        0.04209442809224129,
        0.0385189913213253,
        -0.03773775324225426,
        0.010587677359580994,
        0.009928878396749496,
        0.00284707173705101,
        0.018535152077674866,
        0.002207450568675995,
        0.01720249280333519,
        0.022690575569868088,
        0.033115070313215256,
        -0.023315636441111565,
        -0.02319392003118992,
        0.04096493497490883,
        -0.027011476457118988,
        -0.007068809121847153,
        0.013246860355138779,
        -0.02120622619986534,
        -0.002805318683385849,
        0.03419468179345131,
        -0.038251690566539764,
        0.026100266724824905,
        -0.025307675823569298,
        0.0034289807081222534,
        -0.001648779958486557,
        0.01824936643242836,
        0.004977710545063019,
        -0.014856239780783653,
        -0.023758243769407272,
        0.0007832348346710205,
        -0.026959357783198357,
        -0.006963055580854416,
        -0.007449254393577576,
        -0.0167374350130558,
        0.009970098733901978,
        -0.021911010146141052,
        0.002260606735944748,
        -0.0007590018212795258,
        -0.03292552009224892,
        0.034793805330991745,
        0.022090043872594833,
        -0.008895933628082275,
        -0.0409822016954422,
        -0.04064701125025749,
        -0.025673896074295044,
        0.03783267363905907,
        -0.008595969527959824,
        0.01151706650853157,
        -0.006521869450807571,
        -0.03459624573588371,
        -0.017327837646007538,
        -0.031244643032550812,
        0.005057193338871002,
        -0.013420281931757927,
        0.02674008533358574,
        -0.02656983956694603,
        -0.007932841777801514,
        0.013954423367977142,
        -0.021326877176761627,
        0.02950182929635048,
        0.030554521828889847,
        0.03481277450919151,
        0.007995955646038055,
        0.0367463119328022,
        0.038199421018362045,
        -0.027861958369612694,
        0.028860967606306076,
        -0.03605790436267853,
        0.032162364572286606,
        -0.0061400942504405975,
        -0.02847939543426037,
        0.02383704110980034,
        -0.003712467849254608,
        0.02623334899544716,
        -0.02803991548717022,
        -0.03732267767190933,
        0.03631911799311638,
        0.007969997823238373,
        -0.011602858081459999,
        0.02411898598074913,
        0.01265757903456688,
        -0.0022477619349956512,
        0.005043752491474152,
        -0.00657881423830986,
        -0.014879047870635986,
        0.0101630799472332,
        0.011824853718280792,
        0.01736602932214737,
        0.02494986727833748,
        -0.0023975111544132233,
        0.02293993905186653,
        0.010412808507680893,
        -0.03789813071489334,
        -0.018892943859100342,
        0.0005089640617370605,
        0.005747806280851364,
        0.040502745658159256,
        0.041410114616155624,
        0.027049634605646133,
        -0.022189918905496597,
        0.03727306053042412,
        -0.038428883999586105,
        -0.03794540464878082,
        0.0379035510122776,
        0.02619675174355507,
        -0.01013088971376419,
        0.0033394917845726013,
        0.028942067176103592,
        0.03203147277235985,
        0.008316554129123688,
        -0.0088111013174057,
        -0.02385181374847889,
        -0.0018369592726230621,
        -0.00016021355986595154,
        0.039377350360155106,
        0.02278130128979683,
        -0.013491012156009674,
        -0.0021324381232261658,
        0.038963671773672104,
        -0.0029118433594703674,
        -0.019739501178264618,
        0.026719439774751663,
        -0.017177624627947807,
        -0.032968051731586456,
        -0.027914801612496376,
        0.0020735152065753937,
        0.016847651451826096,
        0.03656376525759697,
        0.008221011608839035,
        0.042502615600824356,
        0.03328164294362068,
        0.008210841566324234,
        0.009875986725091934,
        0.026335719972848892,
        0.009596113115549088,
        0.035517748445272446,
        0.00020042061805725098,
        0.03328542038798332,
        -0.013423062860965729,
        -0.008782196789979935,
        0.0371469147503376,
        0.042036961764097214,
        0.0154348723590374,
        0.030071649700403214,
        0.035443443804979324,
        0.022090237587690353,
        0.008658695966005325,
        0.013749763369560242,
        -0.02223912999033928,
        0.015212416648864746,
        -0.011811306700110435,
        -0.022697389125823975,
        -0.022227171808481216,
        0.038077037781476974,
        -0.01731964945793152,
        0.017896350473165512,
        -0.039967894554138184,
        -0.00900271162390709,
        -0.005372367799282074,
        -0.022669808939099312,
        0.00623253732919693,
        0.011765174567699432,
        0.034439120441675186,
        -0.017486337572336197,
        0.02849394455552101,
        -0.0058859772980213165,
        -0.01620984449982643,
        -0.025790343061089516,
        0.00347210094332695,
        -0.04049653187394142,
        -0.015348352491855621,
        0.03838099166750908,
        -0.011223439127206802,
        -0.034015968441963196,
        -0.0118800587952137,
        -0.0031714998185634613,
        0.03155834600329399,
        0.02507447823882103,
        0.008165951818227768,
        0.010082975029945374,
        -0.042043693363666534,
        -0.03569357842206955,
        0.03100625053048134,
        0.0014386586844921112,
        -0.015193970873951912,
        -0.03927658870816231,
        -0.00012597441673278809,
        0.03921082988381386,
        -0.03448101133108139,
        0.04180443659424782,
        0.03831075504422188,
        0.013029150664806366,
        -0.022494923323392868,
        0.02647610381245613,
        0.031677793711423874,
        0.019237995147705078,
        0.04026224836707115,
        0.00151810422539711,
        0.002341296523809433,
        -0.009676441550254822,
        -0.03344620391726494,
        0.036834705621004105,
        0.009681828320026398,
        -0.03593599423766136,
        0.01854139193892479,
        0.02694699540734291,
        -0.004201427102088928,
        -0.0015099868178367615,
        -0.004727024585008621,
        0.014349360018968582,
        -0.03409962356090546,
        -0.006593577563762665,
        0.027942094951868057,
        0.020197268575429916,
        0.019833948463201523,
        0.00029741227626800537,
        0.0035025589168071747,
        0.024238940328359604,
        0.024626385420560837,
        0.0318777970969677,
        0.016311999410390854,
        -0.03474191948771477,
        -0.0389203280210495,
        0.018609821796417236,
        -0.0034423060715198517,
        0.03779248520731926,
        0.028975170105695724,
        -0.034040819853544235,
        -0.025593748316168785,
        1.952424645423889e-05,
        0.010024391114711761,
        -0.02434360608458519,
        0.03750366345047951,
        -0.01627560518682003,
        -0.004593424499034882,
        -0.013477370142936707,
        0.02111920341849327,
        0.02120364084839821,
        -0.03523385897278786,
        0.013336081057786942,
        -0.03005683794617653,
        -0.0029232241213321686,
        0.009970486164093018,
        0.03582218661904335,
        -0.009561054408550262,
        -0.039192017167806625,
        -0.02214742638170719,
        0.023914914578199387,
        -0.031185217201709747,
        0.03565247729420662,
        -0.0160916019231081,
        -0.0115281343460083,
        0.03391368314623833,
        0.025367137044668198,
        -0.031131643801927567,
        0.012666091322898865,
        -0.03744089603424072,
        0.039277199655771255,
        -0.04114070162177086,
        0.0034736767411231995,
        -0.0030605942010879517,
        0.007130857557058334,
        0.019426442682743073,
        0.011328760534524918,
        -0.022672124207019806,
        -0.021801378577947617,
        0.008913259953260422,
        -0.00562787801027298,
        -0.005556151270866394,
        0.024324845522642136,
        -0.04102502390742302,
        -0.042430032044649124,
        -0.03407750651240349,
        -0.029993299394845963,
        -0.037918128073215485,
        0.00804433599114418,
        0.019748661667108536,
        0.03065468743443489,
        -0.013964969664812088,
        0.037513356655836105,
        0.04059651866555214,
        0.04177705571055412,
        -0.034571580588817596,
        0.01442597433924675,
        -0.04104730859398842,
        -0.0031265877187252045,
        0.02638283744454384,
        -0.02346009574830532,
        0.030978213995695114,
        0.04132869467139244,
        -0.02759094536304474,
        0.0210484080016613,
        -0.02118915691971779,
        -0.00021316483616828918,
        -0.03961249068379402,
        -0.03208819776773453,
        -0.025253986939787865,
        0.03180919960141182,
        -0.0003011077642440796,
        -0.02983158826828003,
        0.027827072888612747,
        -0.032986342906951904,
        -0.039263948798179626,
        -0.020098043605685234,
        -0.023742008954286575,
        -0.03978945314884186,
        -0.006537787616252899,
        -0.020069483667612076,
        -0.03487316519021988,
        0.019024357199668884,
        -0.02635936811566353,
        0.031016048043966293,
        0.03847191855311394,
        -0.00958675891160965,
        -0.03965245559811592,
        0.0191938653588295,
        0.033262964338064194,
        -0.014450803399085999,
        0.018265854567289352,
        0.022383857518434525,
        0.02672814205288887,
        0.002900701016187668,
        -0.03807029873132706,
        -0.03027130663394928,
        -0.015117460861802101,
        -0.04199405759572983,
        -0.011191688477993011,
        0.027340341359376907,
        0.027668748050928116,
        -0.041047126054763794,
        0.03956112638115883,
        0.03309290483593941,
        -0.019048161804676056,
        -0.01202188991010189,
        0.02787761762738228,
        0.02853851392865181,
        0.02007625624537468,
        -0.03898347169160843,
        -0.031872477382421494,
        0.021752137690782547,
        -0.019047800451517105,
        0.03182564303278923,
        0.03132778778672218,
        -0.007352437824010849,
        -0.010311156511306763,
        -0.00048498809337615967,
        0.003949951380491257,
        0.022006172686815262,
        -0.028164666146039963,
        -0.038323111832141876,
        0.026484627276659012,
        -0.021308694034814835,
        -0.009215809404850006,
        0.01728532463312149,
        0.012288611382246017,
        0.03881285712122917,
        0.04038434848189354,
        -0.005899269133806229,
        0.002340160310268402,
        -0.00739065557718277,
        0.004565533250570297,
        0.014485161751508713,
        -0.02142607420682907
      ],
      [
        0.022239897400140762,
        0.03778546676039696,
        -0.023098314180970192,
        -0.03159496560692787,
        -0.02427516132593155,
        -0.032528914511203766,
        0.02705186977982521,
        0.04125647619366646,
        0.0007253997027873993,
        -0.01949303410947323,
        0.024515043944120407,
        -0.011232011020183563,
        -0.009258754551410675,
        -0.014466270804405212,
        -0.00993163138628006,
        0.022179368883371353,
        0.009694918990135193,
        -0.007001087069511414,
        -0.04043017700314522,
        -0.022803111001849174,
        0.011447057127952576,
        0.03916590288281441,
        0.016332760453224182,
        0.007901638746261597,
        -0.014106342568993568,
        0.031699057668447495,
        -0.01591786928474903,
        -0.03170374780893326,
        -0.04274560883641243,
        0.011591009795665741,
        0.008170492947101593,
        -0.03995787724852562,
        0.002128925174474716,
        -0.020904788747429848,
        -0.027184730395674706,
        -0.03166685625910759,
        -0.04121324419975281,
        0.02389882132411003,
        0.014203518629074097,
        0.009478479623794556,
        0.006529051810503006,
        -0.009493589401245117,
        -0.03257939592003822,
        -0.018061012029647827,
        -0.027404338121414185,
        0.040756989270448685,
        0.02011161670088768,
        0.010057024657726288,
        0.034095559269189835,
        0.03846537694334984,
        0.004692249000072479,
        0.01281449943780899,
        0.03789892420172691,
        -0.02229582518339157,
        0.03912218287587166,
        -0.029475137591362,
        0.036256905645132065,
        -0.019093107432127,
        -0.02973097190260887,
        0.03374702110886574,
        0.002318721264600754,
        0.028161216527223587,
        0.032324131578207016,
        0.006204608827829361,
        0.029810573905706406,
        0.022894691675901413,
        0.021740611642599106,
        -0.008108612149953842,
        -0.006995111703872681,
        -0.0004910528659820557,
        0.01738133281469345,
        0.007069166749715805,
        0.03699229285120964,
        0.001586630940437317,
        -0.03716282173991203,
        0.03898923471570015,
        0.0004536062479019165,
        -0.003935527056455612,
        0.02928512915968895,
        -0.03625886142253876,
        -0.006513811647891998,
        0.030447158962488174,
        -0.014622556045651436,
        -0.03722570836544037,
        -0.03964187204837799,
        0.04155176505446434,
        -0.03722438961267471,
        0.04213089123368263,
        0.029357779771089554,
        -0.00015768781304359436,
        -0.017631735652685165,
        -0.042191632091999054,
        -0.016797278076410294,
        0.036362115293741226,
        -0.03860235959291458,
        0.02028333768248558,
        -0.04004368931055069,
        -0.030217140913009644,
        -0.04239775612950325,
        -0.013669397681951523,
        -0.02706141211092472,
        0.004894517362117767,
        -0.011110827326774597,
        -0.03517228364944458,
        0.021539319306612015,
        -0.034925490617752075,
        -0.014395343139767647,
        0.01376299187541008,
        0.03050081804394722,
        0.019185766577720642,
        -0.039193712174892426,
        -0.027290120720863342,
        0.01697741448879242,
        -0.013479987159371376,
        0.028719764202833176,
        -0.029181422665715218,
        -0.038839299231767654,
        0.03490876033902168,
        -0.03672746568918228,
        -0.039719533175230026,
        -0.019878758117556572,
        0.005137216299772263,
        0.03854497894644737,
        0.01293393224477768,
        0.010168328881263733,
        -0.02323932573199272,
        0.0031488165259361267,
        -0.01546371728181839,
        -0.026018816977739334,
        0.02812385931611061,
        0.013708718121051788,
        -0.03871148079633713,
        0.014683138579130173,
        -0.013285929337143898,
        0.03182297572493553,
        0.03137334808707237,
        0.020446989685297012,
        -0.028335466980934143,
        -0.02378799207508564,
        -0.020432060584425926,
        0.02367594465613365,
        0.00696302205324173,
        -0.03444133326411247,
        -0.009881395846605301,
        -0.023295067250728607,
        0.02400173619389534,
        0.025260891765356064,
        0.03025023266673088,
        0.028268884867429733,
        -0.031530849635601044,
        0.008668612688779831,
        -0.031396642327308655,
        -0.013970606029033661,
        -0.03848763927817345,
        -0.030125515535473824,
        0.04223855212330818,
        0.01736488565802574,
        -0.02316933497786522,
        0.026330407708883286,
        -0.005763787776231766,
        0.005938220769166946,
        -0.01857106201350689,
        0.0017450377345085144,
        -0.02682333253324032,
        -0.000553429126739502,
        0.00040418654680252075,
        -0.02496776171028614,
        0.03981124982237816,
        -0.013807179406285286,
        0.002246543765068054,
        -0.01836826093494892,
        0.028553921729326248,
        0.023114647716283798,
        0.008682403713464737,
        0.02836265042424202,
        0.038968924432992935,
        -0.03717515990138054,
        -0.021760907024145126,
        0.038405995815992355,
        -0.042129166424274445,
        -0.016967158764600754,
        0.008837185800075531,
        -0.025752976536750793,
        0.0012070946395397186,
        0.016563497483730316,
        -0.042336951941251755,
        0.01923535391688347,
        -0.04143161326646805,
        0.021429087966680527,
        -0.0399479977786541,
        0.032134752720594406,
        -0.009383782744407654,
        0.00631704181432724,
        0.030711788684129715,
        0.040964122861623764,
        0.008702564984560013,
        0.03960694000124931,
        -0.029215123504400253,
        -0.0125824473798275,
        0.03858427330851555,
        -0.010013163089752197,
        0.02954966202378273,
        -0.03646557033061981,
        -0.0036295950412750244,
        0.003425978124141693,
        -0.038254253566265106,
        0.0025149695575237274,
        -0.03670370206236839,
        0.032760847359895706,
        -0.028271185234189034,
        0.029898371547460556,
        0.009703993797302246,
        -0.003383774310350418,
        -0.0002704821527004242,
        0.021648835390806198,
        -0.028112905099987984,
        0.03662239387631416,
        -0.003013093024492264,
        0.022782880812883377,
        0.011257145553827286,
        -0.004101846367120743,
        0.024053383618593216,
        -0.011768331751227379,
        -0.030749967321753502,
        -0.04032229632139206,
        0.025682400912046432,
        -0.033413343131542206,
        0.002382945269346237,
        -0.03429935872554779,
        -0.006613623350858688,
        -0.008777722716331482,
        0.022933263331651688,
        0.029900025576353073,
        0.03594117984175682,
        -0.002290472388267517,
        0.030922841280698776,
        -0.03934015706181526,
        -0.004347965121269226,
        -0.02863430790603161,
        -0.042236920446157455,
        -0.019957982003688812,
        -0.042661894112825394,
        -0.02665739879012108,
        -0.035773199051618576,
        0.01181165874004364,
        -0.0401633121073246,
        -0.007523037493228912,
        0.0029587894678115845,
        -0.018068118020892143,
        0.002342328429222107,
        0.012830313295125961,
        -0.030346255749464035,
        0.023403052240610123,
        -0.029848575592041016,
        0.013707630336284637,
        0.01538151502609253,
        0.03568800911307335,
        -0.019207192584872246,
        -0.03301819786429405,
        0.0019550547003746033,
        0.031144920736551285,
        0.0016510747373104095,
        0.0027235671877861023,
        -0.03134549409151077,
        -0.026323070749640465,
        0.021335776895284653,
        -0.022879784926772118,
        0.01299666240811348,
        -0.010380499064922333,
        -0.015360454097390175,
        -0.039739903062582016,
        -0.03608020395040512,
        -0.04113811254501343,
        0.011829081922769547,
        -0.04252617433667183,
        -0.026438934728503227,
        0.01865481585264206,
        -0.013890698552131653,
        0.041381221264600754,
        0.03586569055914879,
        -0.008321467787027359,
        0.0196380652487278,
        0.035411287099123,
        -0.03948639705777168,
        -0.028633855283260345,
        0.032625291496515274,
        -0.026703819632530212,
        0.026307109743356705,
        -0.029982086271047592,
        -0.0358220599591732,
        -0.02553112991154194,
        0.023195166140794754,
        0.011464551091194153,
        -0.020014038309454918,
        0.0018538758158683777,
        0.0197707898914814,
        -0.013804703950881958,
        0.028179224580526352,
        -0.03149540722370148,
        0.007786184549331665,
        0.04173041507601738,
        0.005756311118602753,
        0.021266315132379532,
        0.0012111999094486237,
        -0.021466489881277084,
        0.021831568330526352,
        0.0057697594165802,
        -0.0008813180029392242,
        -0.04104817658662796,
        0.005817648023366928,
        0.037375662475824356,
        -0.021468866616487503,
        0.016975075006484985,
        -0.0139986053109169,
        -0.0038085058331489563,
        0.019426804035902023,
        -0.008940286934375763,
        -0.010060247033834457,
        -0.006717059761285782,
        0.04119286313652992,
        -0.02381729520857334,
        0.035825882107019424,
        -0.015652459114789963,
        -0.028308913111686707,
        -0.03323011100292206,
        0.03741728886961937,
        -0.003985941410064697,
        0.011980734765529633,
        -0.006832960993051529,
        -0.014672670513391495,
        -0.04211669787764549,
        -0.04006556421518326,
        -0.01718517392873764,
        -0.020319905132055283,
        0.015556234866380692,
        0.009702712297439575,
        -0.0042920224368572235,
        0.037172164767980576,
        0.017356794327497482,
        0.025825317949056625,
        0.04097778722643852,
        0.015887677669525146,
        -0.03153117746114731,
        -0.0396822951734066,
        0.02386324480175972,
        0.029185425490140915,
        0.03446796163916588,
        -0.009217165410518646,
        -0.005428902804851532,
        0.02982116863131523,
        -0.007902026176452637,
        -0.022198958322405815,
        0.014445774257183075,
        -0.0006524659693241119,
        0.00922117754817009,
        0.03560229763388634,
        0.0335315577685833,
        -0.014177639037370682,
        0.040353041142225266,
        0.002008136361837387,
        -0.02796493098139763,
        -0.03204454109072685,
        0.002404041588306427,
        -0.007486596703529358,
        -0.04278241842985153,
        -0.0395154245197773,
        0.01954825595021248,
        -0.017432963475584984,
        -0.03715353459119797,
        -0.017642781138420105,
        0.028948258608579636,
        0.025086548179388046,
        -0.004844702780246735,
        -0.034154944121837616,
        0.021267127245664597,
        0.010065171867609024,
        0.03708906099200249,
        -0.004479058086872101,
        0.016264528036117554,
        -0.037356190383434296,
        0.008625868707895279,
        -0.009672664105892181,
        -0.040149860084056854,
        0.03257271274924278,
        0.009371783584356308,
        0.014405917376279831,
        -0.03791268914937973,
        -0.007743917405605316,
        0.0012468509376049042,
        -0.0140012726187706,
        0.0015863887965679169,
        -0.000661846250295639,
        -0.030687976628541946,
        -0.002457711845636368,
        0.02954867109656334,
        -0.030107537284493446,
        0.028815578669309616,
        -0.03931237384676933,
        -0.00596277043223381,
        0.019240330904722214,
        -0.03038831427693367,
        -0.005114171653985977,
        -0.0029011406004428864,
        0.01549837738275528,
        0.01651845872402191,
        -0.016146695241332054,
        -0.007737111300230026,
        -0.017742155119776726,
        -0.020444141700863838,
        0.007899690419435501,
        -0.02941969223320484,
        -0.02163417637348175,
        -0.006179433315992355,
        0.03144165500998497,
        -0.01521335169672966,
        0.0006785355508327484,
        0.04078323766589165,
        -0.02652999572455883,
        -0.0017948634922504425,
        0.036817681044340134,
        -0.013014866039156914,
        -0.01821596547961235,
        -0.007892429828643799,
        -0.03268542140722275,
        -0.005847245454788208,
        0.003933332860469818,
        -0.01763722486793995,
        -0.02367195300757885,
        -0.026538509875535965,
        -0.027574682608246803,
        -0.032341454178094864,
        -0.014407102018594742,
        -0.00240112841129303,
        -0.03707042708992958,
        -0.0258043110370636,
        0.011039558798074722,
        0.01771378144621849,
        0.012805737555027008,
        -0.00017097219824790955,
        0.029355745762586594,
        0.03546175733208656,
        -0.014822164550423622,
        0.039606157690286636,
        -0.04112696647644043,
        -0.02822018787264824,
        0.0394398532807827,
        0.015009049326181412,
        0.005892574787139893,
        0.00210735946893692,
        -0.036660086363554,
        -0.028522901237010956,
        -0.026136185973882675,
        -0.03331933170557022,
        -0.03161260485649109,
        -0.0026665441691875458,
        -0.025553613901138306,
        0.04149584099650383,
        0.02068248763680458,
        0.03863765671849251,
        0.0119796022772789,
        0.015487615019083023,
        -0.022937417030334473,
        -0.03056863695383072,
        -0.03828752040863037,
        -0.022288866341114044,
        -0.03366902470588684,
        0.03887457028031349,
        -0.0005380883812904358,
        -0.002927076071500778,
        -0.019493846222758293,
        -0.024422258138656616,
        -0.016267279163002968,
        0.00870075449347496,
        0.001857411116361618,
        -0.028533391654491425,
        -0.023394161835312843,
        -0.02428770624101162,
        0.04278380051255226,
        -0.01065056025981903,
        0.0029678158462047577,
        -0.027707163244485855,
        -0.03561887517571449,
        0.00778498500585556,
        0.02220406010746956,
        0.03218400850892067,
        -0.020543834194540977,
        0.03885858133435249,
        0.0001831352710723877,
        -0.026548009365797043,
        -0.041553840041160583,
        -0.03839246928691864,
        0.036191169172525406,
        0.03406783565878868,
        0.026893559843301773,
        0.028496865183115005,
        0.04260125383734703,
        -0.02829669415950775,
        0.02142919972538948,
        -0.028954919427633286,
        -0.005921803414821625,
        0.03756067529320717,
        0.00417790561914444,
        0.026240553706884384,
        -0.03713288530707359,
        -0.0345110222697258,
        -0.008143644779920578,
        -0.008303258568048477,
        -0.041842494159936905,
        -0.030899375677108765,
        0.014906574040651321,
        -0.03826264292001724,
        0.022901933640241623,
        -0.033745214343070984,
        -0.026018600910902023,
        0.009568151086568832,
        0.003443323075771332,
        0.03148028627038002,
        -0.023277271538972855,
        -0.023288607597351074,
        -0.02724684774875641,
        -0.030620165169239044,
        0.03477901592850685,
        0.02611153945326805,
        -0.017829420045018196,
        0.03032759204506874,
        0.027463797479867935,
        -0.024394281208515167,
        -0.005809575319290161,
        0.01661597564816475,
        -0.034925635904073715,
        0.008379366248846054,
        -0.031220557168126106,
        0.017699580639600754,
        0.017966624349355698,
        0.02749905362725258,
        0.03773749992251396,
        0.039155784994363785,
        -0.0023525096476078033,
        0.011855728924274445,
        -0.013232005760073662,
        0.019001740962266922,
        0.0381416492164135,
        -0.002068500965833664,
        0.011997416615486145,
        0.04096141830086708,
        -0.04197555035352707
      ],
      [
        -0.031327519565820694,
        -0.028712037950754166,
        0.0388810969889164,
        0.00878465548157692,
        0.013628941029310226,
        0.0327567495405674,
        -0.011553805321455002,
        -0.04237949475646019,
        -0.0027905628085136414,
        -0.010488726198673248,
        0.020323533564805984,
        -0.024902669712901115,
        -0.028978422284126282,
        -0.03423919528722763,
        0.00024633854627609253,
        0.041404347866773605,
        -0.01632487215101719,
        -0.022619755938649178,
        0.026044461876153946,
        -0.023769207298755646,
        0.015193574130535126,
        -0.010538391768932343,
        0.011682949960231781,
        -0.026345957070589066,
        0.02072763815522194,
        0.0035339072346687317,
        0.04266004636883736,
        0.03229408338665962,
        -0.0015410557389259338,
        0.009239189326763153,
        -0.03655700758099556,
        0.0054048895835876465,
        -0.018302902579307556,
        -0.009677939116954803,
        -0.027170918881893158,
        -0.024048922583460808,
        0.02260589227080345,
        -0.012661054730415344,
        0.03378706052899361,
        -6.735324859619141e-06,
        -0.0008933208882808685,
        0.00504661351442337,
        -0.034082964062690735,
        -0.027044223621487617,
        0.021691646426916122,
        -0.02586020529270172,
        -0.022556204348802567,
        0.005630675703287125,
        -0.022309690713882446,
        0.030532706528902054,
        -0.024106290191411972,
        0.009515929967164993,
        -0.002357225865125656,
        0.03979158774018288,
        0.002985309809446335,
        0.030497130006551743,
        0.00814063847064972,
        -0.01173684373497963,
        0.027483824640512466,
        -0.011650558561086655,
        0.010214380919933319,
        -0.014686668291687965,
        -0.015352826565504074,
        0.034133557230234146,
        0.02215546742081642,
        -0.01720140315592289,
        -0.032987624406814575,
        0.006363779306411743,
        0.024017881602048874,
        -0.0022965893149375916,
        0.0070727430284023285,
        0.016528014093637466,
        0.02998555824160576,
        -0.028988901525735855,
        -0.03395489230751991,
        0.040744636207818985,
        -0.02872687205672264,
        0.021639879792928696,
        -0.037478551268577576,
        0.0007733143866062164,
        -0.037560898810625076,
        -0.01261398196220398,
        0.041122663766145706,
        0.03702191635966301,
        -0.013345558196306229,
        -0.013763753697276115,
        0.034265171736478806,
        -0.02483528107404709,
        -0.02548982761800289,
        0.017985913902521133,
        0.03555293753743172,
        -0.031088974326848984,
        0.016813471913337708,
        0.02991647645831108,
        -0.027849214151501656,
        0.013013597577810287,
        0.030927393585443497,
        -0.005652591586112976,
        0.002215798944234848,
        0.04139525070786476,
        -0.0360739640891552,
        -0.005985986441373825,
        0.0077588558197021484,
        -0.013058546930551529,
        -0.019130436703562737,
        0.019346892833709717,
        -8.508563041687012e-06,
        0.026706505566835403,
        -0.008960187435150146,
        0.017958521842956543,
        0.01566535234451294,
        -0.030382629483938217,
        0.026167314499616623,
        0.006195716559886932,
        0.021269913762807846,
        0.04159165546298027,
        0.038534123450517654,
        0.0062905773520469666,
        -0.018279599025845528,
        -0.019867651164531708,
        -0.026843233034014702,
        -0.026252932846546173,
        -0.021090036258101463,
        -0.029352324083447456,
        -0.014486968517303467,
        0.03971163555979729,
        0.019624698907136917,
        0.018174268305301666,
        -0.02114356867969036,
        -0.011951018124818802,
        0.005883518606424332,
        0.04255333170294762,
        0.016828179359436035,
        -0.020293964073061943,
        -0.017909694463014603,
        -0.019663160666823387,
        -0.007849842309951782,
        0.0020160675048828125,
        -0.03535502031445503,
        -0.010813102126121521,
        -0.007549751549959183,
        -0.007018927484750748,
        0.012701645493507385,
        0.03072507306933403,
        -0.002353709191083908,
        0.008581914007663727,
        0.010281220078468323,
        -0.00840809941291809,
        -0.026540666818618774,
        0.04278888180851936,
        -0.03690476343035698,
        -0.02428649738430977,
        -0.0392221137881279,
        0.028349142521619797,
        0.025325100868940353,
        -0.004863616079092026,
        -0.012397419661283493,
        0.032747913151979446,
        -0.02023766189813614,
        0.03197736665606499,
        0.02302369847893715,
        0.013851247727870941,
        -0.0036757662892341614,
        0.018036480993032455,
        0.02504628524184227,
        -0.030626997351646423,
        -0.0007893294095993042,
        -0.02249189279973507,
        -0.002552628517150879,
        0.03621366247534752,
        0.03568822517991066,
        0.02932240441441536,
        -0.029904352501034737,
        0.0062965936958789825,
        -0.015467792749404907,
        -0.03497463837265968,
        -0.0055854953825473785,
        -0.03790799155831337,
        -0.012523451820015907,
        -0.04206966981291771,
        0.015226002782583237,
        -0.004407845437526703,
        0.0017570145428180695,
        -0.01888413354754448,
        -0.009705070406198502,
        0.0014229118824005127,
        0.0024453364312648773,
        -0.0005539506673812866,
        0.02292891964316368,
        -0.0011591389775276184,
        -0.01060163602232933,
        -0.014576125890016556,
        -0.03054024651646614,
        -0.010910823941230774,
        -0.03139303997159004,
        0.00397399440407753,
        -0.04135370999574661,
        0.030533622950315475,
        0.01970059797167778,
        0.03017866238951683,
        0.014655020087957382,
        0.040815118700265884,
        0.016576174646615982,
        0.004197858273983002,
        0.0380311943590641,
        -0.034063227474689484,
        -0.014480683952569962,
        -0.01639867201447487,
        0.02934722974896431,
        0.03912723436951637,
        0.03583543375134468,
        0.007465783506631851,
        -0.018349532037973404,
        -0.03764033690094948,
        -0.024569762870669365,
        -0.009488604962825775,
        -0.031127043068408966,
        -0.04277966916561127,
        -0.02054898627102375,
        -0.02650688961148262,
        -0.013075938448309898,
        -0.0238688625395298,
        -0.009484998881816864,
        -0.03121849149465561,
        0.018047966063022614,
        0.03505906090140343,
        0.015397589653730392,
        0.03508276119828224,
        -0.003467947244644165,
        0.01412222534418106,
        -0.03409907966852188,
        0.00752963125705719,
        0.0005940347909927368,
        0.02407018467783928,
        -0.0346296988427639,
        -0.023544564843177795,
        0.03529392555356026,
        0.025479566305875778,
        0.0167338065803051,
        0.014708008617162704,
        -0.02513956092298031,
        -0.004485826939344406,
        0.029733669012784958,
        0.002976350486278534,
        0.010343726724386215,
        0.040958914905786514,
        0.0354342944920063,
        -0.03870832175016403,
        -0.04109090194106102,
        0.03273070976138115,
        0.016187231987714767,
        0.007070034742355347,
        0.01502729207277298,
        0.00044509023427963257,
        -0.005379427224397659,
        0.027669589966535568,
        -0.018082270398736,
        -0.02232455275952816,
        -0.037553898990154266,
        0.011118099093437195,
        -0.02131885662674904,
        0.020857524126768112,
        -0.03954038769006729,
        0.013841405510902405,
        -0.012102669104933739,
        -0.034344881772994995,
        0.011370960623025894,
        -0.03851769119501114,
        -0.010483317077159882,
        0.015460461378097534,
        0.0146089568734169,
        -0.01950130984187126,
        0.009235598146915436,
        0.01845613121986389,
        0.01402750238776207,
        0.02461327239871025,
        0.028735753148794174,
        0.017385445535182953,
        0.007071148604154587,
        -3.127753734588623e-05,
        -0.03689127415418625,
        0.02197979763150215,
        -0.004297375679016113,
        0.04147275164723396,
        -0.022202856838703156,
        0.019471675157546997,
        0.02743488922715187,
        -0.02774372138082981,
        0.013902872800827026,
        -0.025803983211517334,
        -0.019508492201566696,
        -0.003881990909576416,
        0.01048969104886055,
        -0.014277519658207893,
        -0.033602163195610046,
        -0.0213700570166111,
        -0.019421696662902832,
        0.03386906906962395,
        -0.026609551161527634,
        -0.010010767728090286,
        0.008776426315307617,
        0.021312635391950607,
        -0.01712382584810257,
        -0.028517138212919235,
        0.037206705659627914,
        -0.04129687696695328,
        -0.004823625087738037,
        0.038040462881326675,
        0.020887698978185654,
        0.031279969960451126,
        0.02703414484858513,
        0.0004266984760761261,
        -0.041502006351947784,
        -0.0002749897539615631,
        0.00155731663107872,
        -0.02552809938788414,
        -0.04211406037211418,
        0.030963066965341568,
        0.005648113787174225,
        0.027797143906354904,
        0.004646759480237961,
        -0.02802848257124424,
        -0.027439262717962265,
        0.03563917800784111,
        -0.02855771593749523,
        0.00921357050538063,
        0.009429734200239182,
        -0.00938674807548523,
        -0.007660523056983948,
        -0.0016648992896080017,
        -0.0046053119003772736,
        0.005618460476398468,
        0.026281867176294327,
        0.005498312413692474,
        -0.019136298447847366,
        -0.029041249305009842,
        0.03164110705256462,
        -0.02419642172753811,
        0.04163118824362755,
        -0.017948642373085022,
        0.007238924503326416,
        0.018067866563796997,
        0.014085806906223297,
        -0.015379942953586578,
        0.0074064359068870544,
        0.031218480318784714,
        -0.042725201696157455,
        0.014142006635665894,
        -0.029826439917087555,
        -0.027812354266643524,
        -0.01164235919713974,
        -0.038537558168172836,
        0.023308072239160538,
        0.02055436745285988,
        -0.005917299538850784,
        -0.03811506927013397,
        -0.005525760352611542,
        0.03382934257388115,
        -0.01896826922893524,
        -0.009289100766181946,
        -0.023976799100637436,
        -0.014664098620414734,
        -0.024082057178020477,
        0.030153434723615646,
        -0.014855055138468742,
        0.04265870526432991,
        0.03261619433760643,
        -0.03370681405067444,
        -0.028606798499822617,
        -0.006470832973718643,
        0.03533906117081642,
        0.016552023589611053,
        -0.02304520085453987,
        0.031127702444791794,
        -0.028731852769851685,
        0.008157789707183838,
        0.04086007550358772,
        -0.03325875103473663,
        -0.029103999957442284,
        -0.007848713546991348,
        0.01745811104774475,
        -0.035465359687805176,
        0.0009660907089710236,
        0.026838798075914383,
        -0.009329255670309067,
        -0.023205501958727837,
        0.022135864943265915,
        -0.027208983898162842,
        0.007302433252334595,
        0.029886294156312943,
        -0.014128820970654488,
        -0.0052711814641952515,
        0.04055017605423927,
        -0.025287142023444176,
        0.0222802571952343,
        -0.0366060771048069,
        0.010866928845643997,
        -0.017782999202609062,
        0.03492521122097969,
        0.0022603273391723633,
        -0.007873497903347015,
        0.037564996629953384,
        0.024328473955392838,
        0.02360377088189125,
        0.005033664405345917,
        0.032219644635915756,
        -0.040941543877124786,
        -0.004912704229354858,
        -0.03463413566350937,
        0.03511497750878334,
        -0.039187852293252945,
        0.0012742690742015839,
        0.005908466875553131,
        -0.032926492393016815,
        0.016736675053834915,
        -0.03195027634501457,
        -0.03143627196550369,
        -0.018272874876856804,
        0.031417544931173325,
        0.0028527192771434784,
        -0.017454098910093307,
        0.024664264172315598,
        -0.014021629467606544,
        -0.01917175017297268,
        -0.03401626646518707,
        -0.006782736629247665,
        -0.021905116736888885,
        -0.039096225053071976,
        0.030271437019109726,
        -0.029302623122930527,
        0.024079080671072006,
        0.04004788026213646,
        -0.002679385244846344,
        -0.026439961045980453,
        -0.04229431971907616,
        -0.0077050961554050446,
        -0.014890497550368309,
        0.00528576597571373,
        0.03409630432724953,
        0.020392518490552902,
        -0.010213866829872131,
        -0.029722115024924278,
        0.025447625666856766,
        0.00998670607805252,
        -0.030543755739927292,
        0.004638589918613434,
        0.009893745183944702,
        -0.023378586396574974,
        0.011663395911455154,
        -0.0008557774126529694,
        -0.04162530228495598,
        0.032912563532590866,
        0.009939290583133698,
        -0.02310413122177124,
        0.028192225843667984,
        -0.02754669450223446,
        -0.004519078880548477,
        0.017125941812992096,
        -0.0024305805563926697,
        -0.04272108152508736,
        -0.0032767578959465027,
        0.014726407825946808,
        -0.023878449574112892,
        0.016638129949569702,
        -0.004402484744787216,
        -0.01078290119767189,
        -0.023271072655916214,
        0.008495528250932693,
        0.013390760868787766,
        -0.03925469145178795,
        -0.029744429513812065,
        0.02255672588944435,
        -0.020873229950666428,
        0.04182196035981178,
        -0.0070131756365299225,
        -0.01672215573489666,
        0.010914411395788193,
        -0.0400795079767704,
        0.012724041938781738,
        0.002733364701271057,
        -0.036528125405311584,
        0.03203996643424034,
        0.018182706087827682,
        -0.027181506156921387,
        -0.015959739685058594,
        0.037431616336107254,
        -0.02521052025258541,
        -0.03855292126536369,
        -0.03264137730002403,
        0.00836842879652977,
        0.019038505852222443,
        -0.00738188624382019,
        -0.03470148146152496,
        0.022415395826101303,
        0.007502790540456772,
        0.03281010314822197,
        0.0420062355697155,
        0.027785424143075943,
        0.022011611610651016,
        0.02400076761841774,
        -0.0193440243601799,
        -0.01731160469353199,
        0.015476338565349579,
        0.013325780630111694,
        0.002366289496421814,
        0.03007105365395546,
        0.03859240934252739,
        0.00760868564248085,
        -0.0035066045820713043,
        0.03403515741229057,
        -0.017806146293878555,
        0.0184246227145195,
        -0.019705025479197502,
        0.032812830060720444,
        -0.03733382001519203,
        -0.04140602797269821,
        -0.004480093717575073,
        0.012325052171945572,
        -0.040825024247169495,
        -0.04189372807741165,
        -0.0370943620800972,
        -0.040466293692588806,
        0.0023702122271060944,
        -0.03745151683688164,
        -0.04041708633303642,
        -0.03826579824090004,
        0.031033817678689957,
        -0.03176730498671532,
        0.005275312811136246,
        0.02990882471203804,
        -0.013490604236721992,
        -0.03809018060564995,
        -0.04056265205144882,
        0.035456325858831406,
        -0.006672516465187073,
        0.00971507653594017,
        0.0029858238995075226,
        -0.027776863425970078,
        -0.03948397934436798,
        0.0334615521132946,
        -0.03256997838616371,
        0.018800143152475357,
        0.037467990070581436,
        -0.0017452575266361237,
        0.022640269249677658,
        -0.03500666096806526
      ],
      [
        -0.01899990625679493,
        -0.026035621762275696,
        0.04199092462658882,
        -0.005232725292444229,
        -0.01908242516219616,
        0.003308970481157303,
        -0.027952104806900024,
        -0.005346205085515976,
        0.01731216162443161,
        0.021826785057783127,
        0.03070184215903282,
        0.026476439088582993,
        -0.03431878611445427,
        -0.01470835693180561,
        -0.02695607766509056,
        -0.030452370643615723,
        -0.022602956742048264,
        -0.020119888707995415,
        -0.004043754190206528,
        -0.0049886032938957214,
        -0.024622488766908646,
        0.014224696904420853,
        0.013927824795246124,
        0.03058544173836708,
        0.011588767170906067,
        -0.0017128363251686096,
        -0.03678921237587929,
        -0.022364044561982155,
        -0.02249949425458908,
        -0.022834934294223785,
        0.014992233365774155,
        0.012875065207481384,
        0.04140786454081535,
        -0.03711286187171936,
        -0.0260955560952425,
        0.023597318679094315,
        -0.013796832412481308,
        0.03445145860314369,
        0.0042128898203372955,
        0.005496364086866379,
        -0.03750989958643913,
        0.03787536546587944,
        -0.014072222635149956,
        -0.04013419151306152,
        -0.018011316657066345,
        0.03441590443253517,
        0.015589524060487747,
        -0.008354425430297852,
        -0.03365609049797058,
        0.03118498995900154,
        0.03914397582411766,
        -0.03455479443073273,
        -0.027972664684057236,
        0.01081778109073639,
        -0.0028786733746528625,
        -0.04045641049742699,
        0.01847214624285698,
        0.022204499691724777,
        0.030277583748102188,
        0.02795778587460518,
        -0.011694718152284622,
        0.0337943397462368,
        0.030322838574647903,
        0.02052600309252739,
        0.03563985601067543,
        -0.02183656580746174,
        -0.04229573532938957,
        -0.0012464933097362518,
        0.04184003546833992,
        0.034486327320337296,
        -0.013449616730213165,
        0.02778417244553566,
        -0.020682206377387047,
        0.042329732328653336,
        -0.0007525905966758728,
        -0.006782442331314087,
        -0.03322352096438408,
        0.0010141991078853607,
        0.023497898131608963,
        0.016303423792123795,
        -0.02785630151629448,
        -0.02469724416732788,
        -0.023580383509397507,
        -0.02638234756886959,
        -0.03213473781943321,
        0.018343385308980942,
        -0.032636821269989014,
        -0.021676698699593544,
        0.017142020165920258,
        -0.027710840106010437,
        0.018713757395744324,
        -0.04271403327584267,
        -0.0034592412412166595,
        0.015045158565044403,
        0.038701947778463364,
        0.014638498425483704,
        -0.0016574040055274963,
        -0.02108362875878811,
        -0.019401080906391144,
        -0.029866497963666916,
        0.0383562333881855,
        0.020663689821958542,
        -0.03622875362634659,
        -0.006657149642705917,
        -0.02162262611091137,
        -0.0021529309451580048,
        0.008059415966272354,
        -0.04004444554448128,
        -0.006090730428695679,
        0.02236926183104515,
        -0.028891243040561676,
        0.04169667884707451,
        0.011991620063781738,
        0.03913446143269539,
        0.02329525724053383,
        -0.025056904181838036,
        -0.028217338025569916,
        -0.029731370508670807,
        0.021128352731466293,
        -0.018071122467517853,
        -0.007390957325696945,
        -0.018276548013091087,
        -0.023815402761101723,
        -0.02193260006606579,
        -0.00037554651498794556,
        -0.018164457753300667,
        0.021786395460367203,
        -0.005426783114671707,
        -0.036929819732904434,
        -0.010034371167421341,
        -0.022370032966136932,
        0.0007166340947151184,
        0.03661121055483818,
        -0.02148115634918213,
        -0.023376157507300377,
        0.00046609342098236084,
        0.031908925622701645,
        0.010941840708255768,
        -0.03370880335569382,
        -0.01685105450451374,
        -0.03854185342788696,
        0.007515013217926025,
        0.001289021223783493,
        -0.013007933273911476,
        0.007187757641077042,
        0.023345615714788437,
        0.00829683244228363,
        0.019446950405836105,
        0.025475692003965378,
        0.04216001555323601,
        0.03582313284277916,
        0.0009160637855529785,
        0.002109512686729431,
        0.027257580310106277,
        0.03490779921412468,
        -0.011204365640878677,
        -0.034169234335422516,
        0.04057106748223305,
        0.03469117358326912,
        -0.0400417260825634,
        -0.011891225352883339,
        -0.004541400820016861,
        0.029207434505224228,
        0.03566162660717964,
        0.03719017282128334,
        0.013263721019029617,
        0.0008420646190643311,
        0.017855744808912277,
        -0.01557246409356594,
        0.0244516022503376,
        0.014625448733568192,
        -0.03882646933197975,
        -0.005766201764345169,
        -0.013388769701123238,
        0.0413648746907711,
        0.010662324726581573,
        -0.019857948645949364,
        -0.0121530182659626,
        -0.024125060066580772,
        -0.039078980684280396,
        -0.013567272573709488,
        -0.02464074268937111,
        -0.03247106075286865,
        -0.020194929093122482,
        -0.014422809705138206,
        -0.02729860506951809,
        0.03863738104701042,
        -0.023583393543958664,
        0.023228798061609268,
        0.02020406350493431,
        0.012221425771713257,
        0.03688390180468559,
        -0.01409362442791462,
        -0.02985660545527935,
        0.034382980316877365,
        0.019475534558296204,
        0.03904423490166664,
        -0.03316377103328705,
        0.017929483205080032,
        0.04019179567694664,
        -0.01164090633392334,
        -0.0356442965567112,
        0.023996520787477493,
        0.018195241689682007,
        -0.006465442478656769,
        0.01745239645242691,
        0.020863156765699387,
        -0.010453242808580399,
        -0.03204730898141861,
        -0.004823643714189529,
        -0.026494048535823822,
        0.008974764496088028,
        0.0069808028638362885,
        -0.014159919694066048,
        -0.02515225298702717,
        -0.037182871252298355,
        0.03703870251774788,
        -0.03327206149697304,
        -0.02163267694413662,
        0.01991652324795723,
        0.04026079550385475,
        0.040759775787591934,
        0.004482734948396683,
        -0.03940977528691292,
        0.017474260181188583,
        -0.0014714747667312622,
        -0.0025965236127376556,
        0.030001666396856308,
        -0.02336624078452587,
        -0.032899849116802216,
        0.0064896754920482635,
        -0.009793400764465332,
        -0.022637631744146347,
        -0.007979054003953934,
        -0.03007688745856285,
        0.0352596677839756,
        -0.021802568808197975,
        0.0231514610350132,
        0.03819204494357109,
        -0.04081371799111366,
        0.014885783195495605,
        -0.031908053904771805,
        -0.027966488152742386,
        0.03665166720747948,
        -0.008928392082452774,
        0.02309604361653328,
        -0.038496941328048706,
        -0.019152915105223656,
        0.010983522981405258,
        0.012832451611757278,
        0.03966793045401573,
        0.04076632484793663,
        0.006471600383520126,
        -0.026303092017769814,
        0.0003567822277545929,
        -0.0008926987648010254,
        -0.022787990048527718,
        0.020867403596639633,
        -0.010409612208604813,
        -0.015253940597176552,
        0.004664584994316101,
        0.042329538613557816,
        -0.009237919002771378,
        -0.008155275136232376,
        0.03589918836951256,
        -0.016608403995633125,
        0.029716763645410538,
        0.021726030856370926,
        -0.0005842149257659912,
        -0.016106681898236275,
        0.009127393364906311,
        0.037070903927087784,
        -0.008091524243354797,
        -0.012737743556499481,
        0.01985560730099678,
        -0.03365597501397133,
        0.03885873779654503,
        0.010049857199192047,
        -0.001991093158721924,
        0.036969784647226334,
        0.012356135994195938,
        0.005120459944009781,
        0.03659858927130699,
        0.011578809469938278,
        0.005221355706453323,
        0.015533946454524994,
        -0.013867190107703209,
        0.04176280274987221,
        -0.013120787218213081,
        0.03663770481944084,
        0.005262583494186401,
        -0.007656477391719818,
        0.0021945759654045105,
        -0.04184165224432945,
        -0.03595598787069321,
        -0.03242063522338867,
        0.0228712297976017,
        -0.017059529200196266,
        -0.004106435924768448,
        -0.04013346880674362,
        -0.023052118718624115,
        -0.010994281619787216,
        0.03971800580620766,
        -0.029339151456952095,
        -0.01699172891676426,
        0.006610613316297531,
        0.00620182603597641,
        -0.013426674529910088,
        -0.040434084832668304,
        0.007586676627397537,
        0.03999553993344307,
        -0.01749812252819538,
        -0.01847786083817482,
        -0.03251883387565613,
        -0.03541941195726395,
        0.012815341353416443,
        0.022924166172742844,
        0.007853861898183823,
        -0.038429297506809235,
        -0.03635857626795769,
        0.00131964311003685,
        -0.03572647273540497,
        -0.02478690631687641,
        0.03770944103598595,
        0.034418199211359024,
        -0.003138165920972824,
        -0.02008536085486412,
        0.027093160897493362,
        -0.0298471562564373,
        -0.006815623492002487,
        0.006026051938533783,
        -0.036039285361766815,
        -0.03557019680738449,
        0.022831033915281296,
        -0.021136129274964333,
        -0.023611892014741898,
        0.042645711451768875,
        -0.017849190160632133,
        -0.033364005386829376,
        0.0023849159479141235,
        0.042029041796922684,
        0.007740132510662079,
        0.026484351605176926,
        0.018837854266166687,
        0.03231940045952797,
        0.03132963553071022,
        -0.010097958147525787,
        -0.039569757878780365,
        0.01024150475859642,
        -0.013741500675678253,
        -0.003965727984905243,
        -0.0016476921737194061,
        0.023835938423871994,
        -0.011249825358390808,
        -0.04041818901896477,
        -0.006536751985549927,
        -0.040199995040893555,
        -0.0423465259373188,
        -0.04038511961698532,
        -0.00892864540219307,
        -0.03591501712799072,
        -0.04202662408351898,
        0.01369660347700119,
        0.0033809132874011993,
        -0.005803927779197693,
        0.016806088387966156,
        0.027634482830762863,
        0.03511581942439079,
        0.013268854469060898,
        0.022421319037675858,
        0.0232987217605114,
        0.010923542082309723,
        0.018089447170495987,
        -0.011399898678064346,
        -0.03732866048812866,
        -0.030835043638944626,
        0.02922717109322548,
        0.02050003781914711,
        0.03310958668589592,
        -0.020103665068745613,
        0.0019381456077098846,
        -0.01556190475821495,
        -0.03880532085895538,
        0.017420567572116852,
        0.005781061947345734,
        0.027938123792409897,
        0.0024036578834056854,
        -0.02879774570465088,
        0.024049628525972366,
        -0.031212639063596725,
        0.022781159728765488,
        0.0272783525288105,
        0.019803721457719803,
        0.029644478112459183,
        -0.015681380406022072,
        0.0347096212208271,
        -0.005473695695400238,
        0.01397966593503952,
        -0.005171004682779312,
        0.042153310030698776,
        0.03545718267560005,
        -0.013062287122011185,
        -0.033652789890766144,
        0.02972651645541191,
        0.013187181204557419,
        -0.008890315890312195,
        -0.0020017288625240326,
        0.02236773446202278,
        -0.04227413609623909,
        0.028047751635313034,
        -0.02636527083814144,
        -0.01192779466509819,
        0.03448062762618065,
        -0.010076325386762619,
        -0.03976589813828468,
        -0.010722577571868896,
        -0.03215021640062332,
        -0.006897851824760437,
        0.013121381402015686,
        0.02105700597167015,
        0.022493567317724228,
        0.024298127740621567,
        -0.008877117186784744,
        0.0013752244412899017,
        0.037444327026605606,
        -0.02412980981171131,
        0.019518595188856125,
        -0.01788509078323841,
        0.020331989973783493,
        -0.016277752816677094,
        0.004134930670261383,
        -0.034641899168491364,
        0.02626289799809456,
        0.027244392782449722,
        0.013634618371725082,
        0.01599307358264923,
        0.0007213801145553589,
        0.023092415183782578,
        0.018280908465385437,
        0.0017005950212478638,
        0.004790373146533966,
        -0.010323364287614822,
        0.02587885782122612,
        0.03398986533284187,
        0.018164902925491333,
        -0.03584028780460358,
        -0.017024889588356018,
        0.02360512688755989,
        0.024470824748277664,
        -0.02351333759725094,
        -0.024286523461341858,
        0.017964091151952744,
        -0.030820999294519424,
        0.018562253564596176,
        -0.03906944394111633,
        0.03901654854416847,
        -0.0213137399405241,
        -0.023353520780801773,
        -0.023093681782484055,
        0.0025853700935840607,
        0.03646501526236534,
        -0.0007400363683700562,
        -0.00402551144361496,
        -0.036759719252586365,
        -0.03577696532011032,
        0.0034630857408046722,
        0.018108654767274857,
        -0.004702843725681305,
        0.012736305594444275,
        -0.014070389792323112,
        -0.005127504467964172,
        0.025940891355276108,
        0.0059068463742733,
        0.010386604815721512,
        -0.0068020448088645935,
        -0.040586650371551514,
        -0.02278691716492176,
        -0.007951397448778152,
        0.034496601670980453,
        0.003036282956600189,
        0.03721807524561882,
        -0.016498971730470657,
        0.00036050379276275635,
        0.013950269669294357,
        0.024020034819841385,
        0.04175661876797676,
        -0.008648872375488281,
        -0.019191499799489975,
        0.038946736603975296,
        0.01697026565670967,
        -0.018241243436932564,
        -0.03975936025381088,
        0.008519168943166733,
        0.011860191822052002,
        0.008319079875946045,
        -0.03260920196771622,
        0.02577606961131096,
        0.02016618475317955,
        0.01989995315670967,
        -0.03554863482713699,
        -0.02012808807194233,
        0.040218327194452286,
        -0.030500801280140877,
        0.022750739008188248,
        0.028051886707544327,
        -0.03909537196159363,
        0.02742711827158928,
        0.014760173857212067,
        -0.0065607950091362,
        -0.019730696454644203,
        -0.030721407383680344,
        0.038343142718076706,
        -0.017451461404561996,
        0.023600827902555466,
        -0.025825070217251778,
        0.03420304134488106,
        0.017593864351511,
        -0.003262002021074295,
        -0.008600372821092606,
        -0.031250569969415665,
        0.03585779294371605,
        -0.02400560863316059,
        0.03535935655236244,
        0.02701445296406746,
        -0.006625331938266754,
        -0.022291099652647972,
        0.032758790999650955,
        0.041848938912153244,
        -0.011132244020700455,
        0.04025028273463249,
        0.03302193805575371,
        0.011839304119348526,
        0.02778192237019539,
        0.02289753034710884,
        0.03200020268559456,
        0.028976645320653915,
        -0.01590290106832981,
        0.0035830996930599213,
        -0.017468996345996857,
        -0.0018556304275989532,
        0.02141917124390602,
        0.01087159663438797,
        0.02409280464053154,
        0.019223753362894058,
        -0.0019897297024726868,
        0.028987925499677658
      ],
      [
        -0.03690353408455849,
        0.034593161195516586,
        0.02626129612326622,
        -0.0024100467562675476,
        -0.004253745079040527,
        -0.018458671867847443,
        0.03641225025057793,
        0.01097971573472023,
        -0.008707977831363678,
        0.030519593507051468,
        -0.012591570615768433,
        -0.0028770044445991516,
        -0.028661228716373444,
        -0.02545897290110588,
        0.027355041354894638,
        -0.03958303853869438,
        -0.005690682679414749,
