{
  "backend": "torch",
  "state_size": 546,
  "option_size": 109,
  "hidden_size": 96,
  "architecture": "deep_v2",
  "device_preference": "cpu",
  "state_dict": {
    "joint_bias": [
      -0.10717757791280746,
      0.24895629286766052,
      -0.450513631105423,
      -0.3060108721256256,
      0.33881816267967224,
      -0.05376217141747475,
      0.15353044867515564,
      0.007321019656956196,
      0.2246273308992386,
      -0.14719806611537933,
      0.6469731330871582,
      0.3557679057121277,
      -0.17744971811771393,
      0.09349542111158371,
      -0.18182498216629028,
      -0.22768357396125793,
      -0.18573543429374695,
      -0.4103088676929474,
      -0.22876766324043274,
      -0.4568101167678833,
      0.34284284710884094,
      -0.07018937170505524,
      -0.17289088666439056,
      0.6509480476379395,
      0.0,
      0.0,
      0.0,
      0.0,
      0.0,
      0.0,
      0.0,
      0.0,
      0.0,
      0.0,
      0.0,
      0.0,
      0.0,
      0.0,
      0.0,
      0.0,
      0.0,
      0.0,
      0.0,
      0.0,
      0.0,
      0.0,
      0.0,
      0.0,
      0.0,
      0.0,
      0.0,
      0.0,
      0.0,
      0.0,
      0.0,
      0.0,
      0.0,
      0.0,
      0.0,
      0.0,
      0.0,
      0.0,
      0.0,
      0.0,
      0.0,
      0.0,
      0.0,
      0.0,
      0.0,
      0.0,
      0.0,
      0.0,
      0.0,
      0.0,
      0.0,
      0.0,
      0.0,
      0.0,
      0.0,
      0.0,
      0.0,
      0.0,
      0.0,
      0.0,
      0.0,
      0.0,
      0.0,
      0.0,
      0.0,
      0.0,
      0.0,
      0.0,
      0.0,
      0.0,
      0.0,
      0.0
    ],
    "state_linear.weight": [
      [
        0.04916153848171234,
        -2.1027045249938965,
        -1.276894211769104,
        -4.069093704223633,
        0.04470920190215111,
        -1.8640501499176025,
        -1.5897339582443237,
        -0.036136873066425323,
        0.6088432669639587,
        0.09426439553499222,
        -2.0879366397857666,
        -0.3791452944278717,
        0.7141457796096802,
        0.25134778022766113,
        -1.1551285982131958,
        -0.9431272149085999,
        -0.10647812485694885,
        0.04839365929365158,
        -0.18627271056175232,
        0.10998303443193436,
        -2.34893536567688,
        -1.3511842489242554,
        -1.0453795194625854,
        -0.06434059143066406,
        -0.5465222597122192,
        -0.4143863320350647,
        -1.5087238550186157,
        -1.8048983812332153,
        -1.9737895727157593,
        -1.7089416980743408,
        0.7753269672393799,
        -0.7430968284606934,
        -1.1145060062408447,
        -1.123459815979004,
        0.29466041922569275,
        0.4540916979312897,
        2.0315957069396973,
        -0.4381922781467438,
        0.9622169137001038,
        -1.735052227973938,
        0.11788397282361984,
        0.5507988929748535,
        0.5121394991874695,
        -0.17050153017044067,
        0.042271364480257034,
        0.013041261583566666,
        0.029329191893339157,
        0.01727937161922455,
        0.17232957482337952,
        -1.2409961223602295,
        -0.6137437224388123,
        -2.520563840866089,
        0.03740399703383446,
        -0.991176187992096,
        -1.1473301649093628,
        0.2204316109418869,
        0.549483060836792,
        0.2651679217815399,
        -1.2861692905426025,
        0.06642170250415802,
        0.5698924660682678,
        0.29996752738952637,
        -0.48138394951820374,
        -0.5841871500015259,
        0.5365840792655945,
        0.2579868733882904,
        0.578264057636261,
        0.3954519033432007,
        -0.5706899166107178,
        -0.4851928949356079,
        -0.872171938419342,
        0.36946800351142883,
        -0.28249576687812805,
        0.45936065912246704,
        -0.9823624491691589,
        -0.5354831218719482,
        -1.188595175743103,
        -2.372408390045166,
        0.677309513092041,
        -1.771517276763916,
        -0.5051441192626953,
        -0.292694628238678,
        0.2196795791387558,
        0.8272722959518433,
        2.4760022163391113,
        0.8962588906288147,
        1.3739633560180664,
        -1.9918018579483032,
        0.8682538866996765,
        0.9288466572761536,
        1.1406548023223877,
        0.3185059428215027,
        0.020473141223192215,
        -0.005075026303529739,
        -0.03375384584069252,
        0.012901641428470612,
        0.13541175425052643,
        -1.893837332725525,
        -1.1942129135131836,
        -3.5039255619049072,
        0.15839336812496185,
        -1.476915955543518,
        -1.6665250062942505,
        -0.2615373134613037,
        0.6436269879341125,
        0.44796445965766907,
        -1.356471300125122,
        -0.1715172976255417,
        0.4777200520038605,
        0.3078837990760803,
        -0.8171370625495911,
        -1.1684433221817017,
        0.7312973737716675,
        -1.0830729007720947,
        0.8192026019096375,
        0.24353188276290894,
        -2.2105836868286133,
        -0.076499342918396,
        -0.9709073901176453,
        0.43395155668258667,
        -0.9216708540916443,
        -0.7965790629386902,
        -1.662685513496399,
        -0.4796879291534424,
        -1.2281498908996582,
        -1.8731426000595093,
        0.4991660416126251,
        -0.22478117048740387,
        -0.77895188331604,
        -0.5942493081092834,
        0.31227970123291016,
        0.7620338201522827,
        2.6015796661376953,
        0.2597217261791229,
        1.216462254524231,
        -1.1042044162750244,
        0.3910704255104065,
        1.189414620399475,
        0.7610105872154236,
        0.5515266060829163,
        -0.020756885409355164,
        -0.015310999006032944,
        -0.02170223742723465,
        0.03689703717827797,
        0.09334810823202133,
        -0.25955063104629517,
        -0.7318394184112549,
        -1.0001890659332275,
        0.9468189477920532,
        0.0005220696330070496,
        -0.5433246493339539,
        0.31932029128074646,
        -0.08951018750667572,
        -0.6194933652877808,
        -0.15609358251094818,
        -0.7656905651092529,
        0.4348836839199066,
        0.10474689304828644,
        -0.025833144783973694,
        0.029844585806131363,
        0.022007260471582413,
        -0.03430987149477005,
        0.028343554586172104,
        0.5566313862800598,
        -0.028074173256754875,
        -0.012409424409270287,
        -0.9919406175613403,
        0.8197634220123291,
        -0.9433711767196655,
        -0.29085904359817505,
        -0.8623740673065186,
        0.14429275691509247,
        -0.9028905034065247,
        0.040332671254873276,
        -0.027691613882780075,
        -0.6769190430641174,
        -0.11947121471166611,
        -0.8193531036376953,
        0.3814251720905304,
        -0.8824227452278137,
        0.001102149486541748,
        -0.45255663990974426,
        -0.05963751673698425,
        -0.0011582672595977783,
        0.6672649383544922,
        0.9957746863365173,
        0.029904615134000778,
        -0.3728264570236206,
        -0.036590296775102615,
        0.02121609076857567,
        0.027511324733495712,
        0.004370983690023422,
        0.1529410183429718,
        -1.4062246084213257,
        -0.583768367767334,
        -0.9909113049507141,
        -0.2240016609430313,
        -1.8472099304199219,
        -1.7380378246307373,
        0.5351919531822205,
        0.5950445532798767,
        -0.2628931403160095,
        -1.0926610231399536,
        -0.11379597336053848,
        0.4269057512283325,
        0.4637916088104248,
        -1.6673303842544556,
        -1.0187958478927612,
        0.2712857723236084,
        -0.5957332253456116,
        0.5664203763008118,
        -0.970852792263031,
        -1.7804285287857056,
        -0.09304745495319366,
        -0.6735624670982361,
        0.28068023920059204,
        -0.11066706478595734,
        0.1219516173005104,
        -1.0581631660461426,
        -0.46465444564819336,
        -1.488614797592163,
        -2.0605309009552,
        0.6867315769195557,
        -0.4976976215839386,
        -0.9786982536315918,
        -0.16796563565731049,
        0.24755440652370453,
        0.7234960794448853,
        1.7223923206329346,
        -0.058831293135881424,
        1.3683533668518066,
        -1.3768088817596436,
        0.43530169129371643,
        0.8442452549934387,
        0.6215258240699768,
        0.22979043424129486,
        -0.3601657450199127,
        0.8275688886642456,
        -0.00308312033303082,
        -0.335644006729126,
        0.2074735164642334,
        0.20854175090789795,
        -0.07118508964776993,
        -0.6176802515983582,
        -0.1589447557926178,
        0.3338429927825928,
        -0.751359224319458,
        -0.12352558970451355,
        0.5998035669326782,
        -0.10187527537345886,
        -1.0743157863616943,
        0.818877100944519,
        -0.4525345265865326,
        0.19907841086387634,
        -0.2576858401298523,
        0.13039252161979675,
        -0.2230832427740097,
        0.17367860674858093,
        -0.834144115447998,
        -0.16577742993831635,
        -0.426609069108963,
        0.0976468026638031,
        -1.0844943523406982,
        -0.43272048234939575,
        0.2239716500043869,
        -0.6332921981811523,
        -0.7048754692077637,
        1.439154863357544,
        -0.630005419254303,
        0.42944082617759705,
        1.1227318048477173,
        -2.148808479309082,
        0.10137255489826202,
        -0.8664823770523071,
        0.16717492043972015,
        0.14068304002285004,
        0.6516339182853699,
        0.41378670930862427,
        2.204495429992676,
        -1.9459211826324463,
        -0.6634390354156494,
        0.4849517345428467,
        0.3889571726322174,
        0.17231106758117676,
        0.028559718281030655,
        -0.026507828384637833,
        -0.009683821350336075,
        0.0038009360432624817,
        -0.008143158629536629,
        -0.2536155581474304,
        0.6476944088935852,
        0.13618913292884827,
        -1.0244035720825195,
        0.77107173204422,
        0.1752593219280243,
        0.06773191690444946,
        1.7268892526626587,
        -0.2611151337623596,
        -0.8500246405601501,
        1.4366153478622437,
        -0.11161810159683228,
        -0.09994974732398987,
        -0.09976227581501007,
        1.194930076599121,
        0.6421562433242798,
        -0.6057763695716858,
        -1.4572935104370117,
        2.181941270828247,
        -1.9849882125854492,
        1.2734286785125732,
        -1.0288587808609009,
        -0.3827054500579834,
        2.6274750232696533,
        0.017347434535622597,
        -1.6475768089294434,
        -0.5737150311470032,
        0.17457690834999084,
        -0.10183048993349075,
        2.7987284660339355,
        0.27593541145324707,
        0.08964677900075912,
        1.4902108907699585,
        -0.06470248848199844,
        1.059857964515686,
        0.8153555989265442,
        0.7974520325660706,
        1.1600604057312012,
        2.4278664588928223,
        -1.4528850317001343,
        1.3852555751800537,
        0.37665146589279175,
        0.19394107162952423,
        0.0306679867208004,
        -0.009433392435312271,
        0.018242090940475464,
        0.03262706473469734,
        0.008928334340453148,
        0.5858736634254456,
        2.211249589920044,
        1.1939665079116821,
        -1.0404807329177856,
        1.3175523281097412,
        0.19722990691661835,
        0.49550527334213257,
        1.2405428886413574,
        0.036976538598537445,
        -1.265242338180542,
        0.9277992844581604,
        -0.06084213778376579,
        -0.15989427268505096,
        0.4850926399230957,
        0.8415914177894592,
        -0.14385023713111877,
        -0.47581762075424194,
        -1.8751918077468872,
        3.677577018737793,
        -0.11824923753738403,
        1.7402862310409546,
        -1.8024563789367676,
        -0.7252734303474426,
        3.312946081161499,
        -0.2695770859718323,
        -1.0941715240478516,
        -0.0493992418050766,
        0.6202619671821594,
        -0.029005026444792747,
        2.248469352722168,
        0.25341764092445374,
        0.6621716618537903,
        2.056612491607666,
        -0.15085403621196747,
        1.560414433479309,
        1.4204469919204712,
        1.4472577571868896,
        0.9732111096382141,
        3.6817002296447754,
        -2.155386209487915,
        1.5247101783752441,
        0.42192894220352173,
        0.18922866880893707,
        0.010956402868032455,
        0.04099153354763985,
        0.015689034014940262,
        -0.010873585939407349,
        0.03598086163401604,
        0.036176811903715134,
        -0.007644616067409515,
        0.039441321045160294,
        0.01574370265007019,
        -0.0031410828232765198,
        0.025927212089300156,
        0.017281580716371536,
        -0.028742590919137,
        -0.0408913753926754,
        -0.019955966621637344,
        -0.008962266147136688,
        0.033707644790410995,
        0.02372189238667488,
        0.0048993900418281555,
        0.017589177936315536,
        -0.006538968533277512,
        -0.030884474515914917,
        -0.020214280113577843,
        0.02849430963397026,
        0.025817375630140305,
        0.03422116860747337,
        -0.0412583127617836,
        -0.026400942355394363,
        0.027907345443964005,
        0.0358235128223896,
        0.03587549552321434,
        -0.004157885909080505,
        -0.01949119195342064,
        -0.008508812636137009,
        -0.028767120093107224,
        -0.03233232721686363,
        0.04113691672682762,
        -0.02356589026749134,
        -0.009149167686700821,
        0.018191490322351456,
        -0.014710672199726105,
        0.038556214421987534,
        0.004591718316078186,
        -0.03363313898444176,
        0.023935984820127487,
        0.01972712203860283,
        0.037586603313684464,
        -0.019320718944072723,
        -0.012062769383192062,
        0.022860895842313766,
        -0.00955682247877121,
        0.02071230486035347,
        -0.3455711007118225,
        0.574338972568512,
        0.7829123139381409,
        1.4729461669921875,
        -1.9012084007263184,
        0.03207160159945488,
        -0.8992298245429993,
        1.6790610551834106,
        -0.47591322660446167,
        0.30391964316368103,
        -0.5548385977745056,
        0.7622804641723633,
        -0.6552045941352844,
        -0.34227943420410156,
        0.01269550621509552,
        -0.023991359397768974,
        -0.023563986644148827,
        -0.02066291682422161,
        0.03606836125254631,
        0.9158530235290527,
        0.029959451407194138,
        0.015492841601371765,
        0.11180297285318375,
        -0.16750232875347137,
        -0.14576156437397003,
        -0.422626256942749,
        0.31984108686447144,
        2.521718978881836,
        -1.1358128786087036,
        0.015052668750286102,
        -0.02874625474214554,
        -0.12655459344387054,
        -0.0107367392629385,
        1.673662781715393,
        -0.40403956174850464,
        -0.2930835783481598,
        -0.002056322991847992,
        -0.3978189527988434,
        0.1045633852481842,
        0.004807773977518082,
        -2.1438002586364746,
        0.08703349530696869,
        0.02535829320549965,
        1.5831300020217896,
        0.023574378341436386,
        -0.02348751202225685,
        0.012411434203386307,
        0.04003647342324257,
        0.8341894149780273,
        0.7648990154266357,
        1.009804129600525,
        0.016764342784881592,
        -0.5348455905914307,
        0.9633949398994446,
        -1.0820709466934204,
        0.11168792098760605,
        -0.039769697934389114,
        -0.11875011026859283,
        -0.6777854561805725,
        0.6708704233169556,
        0.02649042382836342,
        0.007404383271932602,
        0.48555296659469604,
        0.08899198472499847,
        0.7597659230232239,
        -0.33941757678985596,
        -1.3736138343811035,
        0.012097373604774475,
        1.8639370203018188,
        1.2346298694610596,
        -0.02666860818862915,
        -0.036984819918870926,
        0.005094405263662338,
        0.005884066224098206,
        0.5265595316886902,
        0.027581948786973953,
        -0.28737831115722656,
        -0.22344470024108887,
        2.4350922107696533,
        -0.03988155722618103,
        -0.4429256319999695,
        -0.010545700788497925,
        0.9128633141517639,
        0.4131416976451874,
        -0.7478537559509277,
        0.00295913964509964,
        -1.7800430059432983,
        1.0803780555725098,
        0.38281047344207764,
        0.21627184748649597,
        -0.41379567980766296,
        0.009875435382127762,
        -0.3340258002281189,
        -0.3006550967693329,
        0.0014315641019493341,
        -0.042173366993665695,
        -0.5331240296363831,
        -0.1665356457233429,
        -1.4316842555999756,
        -0.4859560430049896,
        -0.0010495667811483145,
        0.1854364275932312,
        -0.03157806023955345,
        -0.11764377355575562,
        0.4669095575809479,
        0.053935687988996506,
        0.19575010240077972,
        0.1663425713777542,
        0.13544179499149323,
        -0.32004499435424805,
        0.017212871462106705,
        0.008512996137142181,
        0.8460268974304199,
        -0.010903500020503998
      ],
      [
        -0.1799250692129135,
        -0.9729228019714355,
        -0.22084493935108185,
        -1.2461645603179932,
        -0.0190771222114563,
        -0.39632487297058105,
        -1.439881443977356,
        -0.48396846652030945,
        -1.2165559530258179,
        -0.20885707437992096,
        0.17984242737293243,
        -0.1613612323999405,
        0.07989191263914108,
        -0.17698556184768677,
        -0.4465920627117157,
        0.1507120579481125,
        1.5727486610412598,
        -0.40473246574401855,
        0.11948598176240921,
        -0.7819893956184387,
        -0.6470217704772949,
        -1.1703753471374512,
        -1.69379723072052,
        0.8181992769241333,
        -0.6262285113334656,
        0.26829805970191956,
        -1.4236273765563965,
        0.09404969960451126,
        -1.6731486320495605,
        0.2892277240753174,
        -0.8516666889190674,
        -1.0942420959472656,
        -0.460689514875412,
        -1.5706559419631958,
        -0.03480082377791405,
        0.7159648537635803,
        2.5417425632476807,
        -0.22865675389766693,
        -0.4582114517688751,
        -1.1001286506652832,
        0.626730740070343,
        -0.3013910949230194,
        1.8549025058746338,
        -0.37377873063087463,
        -0.0405387282371521,
        -0.0008882023394107819,
        0.03744478151202202,
        0.023661267012357712,
        -0.021563520655035973,
        -0.4217572808265686,
        0.151183620095253,
        -0.9398324489593506,
        0.425182968378067,
        -0.3771858215332031,
        -1.0803437232971191,
        0.4435867965221405,
        -1.143574833869934,
        0.43226563930511475,
        0.3796912133693695,
        -0.3426898717880249,
        0.2620067596435547,
        0.055311717092990875,
        -0.5200210809707642,
        0.23572930693626404,
        0.6326310038566589,
        -0.5040756464004517,
        -0.9788915514945984,
        -1.505908727645874,
        -0.8369614481925964,
        -0.549634575843811,
        -1.6246734857559204,
        0.6949618458747864,
        -3.397792100906372,
        0.39138057827949524,
        -1.0628347396850586,
        -0.7180819511413574,
        -0.9407363533973694,
        -1.0644489526748657,
        -1.9657658338546753,
        -0.9319841265678406,
        -0.05877412110567093,
        -0.9407249689102173,
        0.043295424431562424,
        0.7084313631057739,
        2.4291787147521973,
        0.5955311059951782,
        -0.45274388790130615,
        -0.5710811018943787,
        2.6285758018493652,
        -0.1873907893896103,
        1.4968080520629883,
        0.22746436297893524,
        0.02228419855237007,
        -0.036989979445934296,
        0.01248672604560852,
        -0.016555845737457275,
        0.04412411153316498,
        -0.5209507942199707,
        0.16682714223861694,
        -0.1566937416791916,
        0.1297885924577713,
        -0.3817453682422638,
        -1.202905297279358,
        0.2509297728538513,
        -0.48833203315734863,
        0.47703155875205994,
        0.12266727536916733,
        -0.49891331791877747,
        0.17819666862487793,
        0.04006808623671532,
        -0.2533724308013916,
        -0.31822842359542847,
        1.0425690412521362,
        -0.3173411786556244,
        0.5467820763587952,
        -2.1164300441741943,
        0.371905654668808,
        -1.297238826751709,
        -0.6897768974304199,
        0.7386780381202698,
        -2.15771746635437,
        -1.3547857999801636,
        -1.3921445608139038,
        -0.9648857116699219,
        -0.8678264021873474,
        1.6137539148330688,
        0.640155017375946,
        -0.061521753668785095,
        -0.4510127305984497,
        -0.987027645111084,
        0.13992194831371307,
        0.8649581670761108,
        3.170823812484741,
        -0.6168842315673828,
        -0.33430227637290955,
        -1.6558903455734253,
        0.9411337375640869,
        -0.014900955371558666,
        2.7068958282470703,
        -0.4321710169315338,
        -0.020804794505238533,
        0.033185627311468124,
        0.022935394197702408,
        -0.00888492539525032,
        0.2028847485780716,
        -0.749094545841217,
        -0.7702712416648865,
        0.8837194442749023,
        1.7264047861099243,
        0.03846190497279167,
        0.6566023230552673,
        -0.15312066674232483,
        0.21946068108081818,
        0.06782703101634979,
        0.33181795477867126,
        0.6652759909629822,
        0.14310990273952484,
        0.16723130643367767,
        0.027328554540872574,
        0.001134585589170456,
        0.03416570648550987,
        0.035544503480196,
        0.022749703377485275,
        1.4547384977340698,
        0.0023292824625968933,
        0.022854860872030258,
        -0.14818371832370758,
        1.389757752418518,
        0.8915688991546631,
        0.6656142473220825,
        -0.9340125918388367,
        0.571091890335083,
        0.30834436416625977,
        0.0023626163601875305,
        0.01385071873664856,
        -0.6183086037635803,
        1.1590769290924072,
        0.1668611615896225,
        0.5163684487342834,
        0.504212498664856,
        -0.01573197916150093,
        0.3213983178138733,
        -0.20169520378112793,
        0.029041748493909836,
        -0.19089679419994354,
        1.132840871810913,
        0.03866462782025337,
        0.0820000097155571,
        0.010437842458486557,
        -0.007969636470079422,
        -0.0008533596992492676,
        -0.021476631984114647,
        -0.14252732694149017,
        -0.7927106618881226,
        0.5642628073692322,
        0.19148299098014832,
        -0.21871834993362427,
        -1.2022557258605957,
        -1.6810039281845093,
        -0.646221935749054,
        -1.591860294342041,
        -0.4780603349208832,
        0.3000217378139496,
        -0.2964068651199341,
        0.2337161749601364,
        0.0018693354213610291,
        -0.9918123483657837,
        0.06538954377174377,
        1.7431609630584717,
        -1.126447319984436,
        -0.17801877856254578,
        -0.616365373134613,
        -0.6382195949554443,
        -1.5332527160644531,
        -1.3763096332550049,
        -0.1030820831656456,
        -0.3947537839412689,
        0.17812570929527283,
        -0.6253855228424072,
        1.0108040571212769,
        -1.6762163639068604,
        0.6161746978759766,
        0.20878516137599945,
        -1.151261568069458,
        -0.19787026941776276,
        -0.41307178139686584,
        -0.08028286695480347,
        0.1646295189857483,
        2.89642333984375,
        0.20000314712524414,
        0.4481782019138336,
        -0.9646933674812317,
        1.1821084022521973,
        -1.027719259262085,
        0.9919648766517639,
        -0.007625107187777758,
        0.6259760856628418,
        0.7472320199012756,
        0.47905537486076355,
        -1.4862806797027588,
        -0.0841234028339386,
        -0.12399013340473175,
        0.31882914900779724,
        0.843173623085022,
        0.7260432839393616,
        0.46720442175865173,
        -1.0977146625518799,
        0.5563876628875732,
        -1.5568976402282715,
        1.0960577726364136,
        1.0541188716888428,
        1.078413963317871,
        0.18849259614944458,
        -0.4682694375514984,
        -0.2462952882051468,
        0.6148836016654968,
        0.9466038346290588,
        1.0644032955169678,
        0.7942293882369995,
        0.728884220123291,
        1.7464550733566284,
        1.096767544746399,
        -2.109893798828125,
        1.2313066720962524,
        -2.7657406330108643,
        -0.5341836214065552,
        0.7958646416664124,
        1.217488169670105,
        -0.9072721004486084,
        0.26300787925720215,
        -1.690833330154419,
        1.1410796642303467,
        0.029070984572172165,
        1.0623232126235962,
        -0.12274440377950668,
        1.161643624305725,
        0.664151668548584,
        0.6905549764633179,
        -0.8822765946388245,
        -5.557259559631348,
        0.2518078684806824,
        -0.521641194820404,
        -0.270140677690506,
        0.9579579830169678,
        0.03864600136876106,
        0.0232265405356884,
        -0.03198842704296112,
        -0.009025715291500092,
        -0.09673509746789932,
        0.28623369336128235,
        0.27625274658203125,
        1.1874593496322632,
        -0.7006732821464539,
        2.0183346271514893,
        -0.8899210691452026,
        0.9744328856468201,
        -0.8502532839775085,
        -0.3954809010028839,
        0.5473234057426453,
        0.7603842616081238,
        -0.07314488291740417,
        -0.377854585647583,
        2.603987216949463,
        1.3355673551559448,
        0.42873767018318176,
        2.2931346893310547,
        -0.5470718741416931,
        0.6487082839012146,
        1.642345666885376,
        1.3775346279144287,
        -0.6465659141540527,
        0.17479777336120605,
        0.043459050357341766,
        -1.0958982706069946,
        1.6471893787384033,
        -0.5942859649658203,
        -1.1989994049072266,
        -0.3496532738208771,
        0.45787355303764343,
        1.6079845428466797,
        -0.22579964995384216,
        1.7263262271881104,
        -0.058821775019168854,
        1.3993269205093384,
        -3.0053844451904297,
        -1.6277216672897339,
        -2.1878750324249268,
        -0.7806037068367004,
        -1.2152695655822754,
        -0.7810524702072144,
        0.7396964430809021,
        -0.21866820752620697,
        0.0182422436773777,
        -0.0033719539642333984,
        -0.015295188874006271,
        -0.012652819976210594,
        -0.08527304977178574,
        0.16481460630893707,
        0.6203612089157104,
        2.3069374561309814,
        -0.7157551050186157,
        2.842986822128296,
        -0.7299200296401978,
        1.5287753343582153,
        -0.8300492167472839,
        -0.7322118282318115,
        0.5943720936775208,
        0.5250410437583923,
        -0.06060830131173134,
        -0.4037659764289856,
        4.201404094696045,
        1.3289134502410889,
        0.7560459971427917,
        2.522181510925293,
        1.1316355466842651,
        0.9788937568664551,
        0.863893449306488,
        1.6700700521469116,
        -1.2005126476287842,
        -1.2165554761886597,
        -2.3156821727752686,
        -0.8075635433197021,
        1.6166940927505493,
        0.23002435266971588,
        -1.1650207042694092,
        0.758974552154541,
        0.3079789876937866,
        -0.3621901869773865,
        0.1582147479057312,
        0.9252769351005554,
        -0.13639383018016815,
        1.6378120183944702,
        -3.0208516120910645,
        -1.0283139944076538,
        -2.7858595848083496,
        0.9578314423561096,
        -0.9217870831489563,
        -1.233154296875,
        0.7988547682762146,
        0.19136781990528107,
        0.023838546127080917,
        -0.03488779813051224,
        0.030525129288434982,
        -0.011143434792757034,
        0.007936198264360428,
        -0.014852229505777359,
        -0.008810453116893768,
        -0.03709503263235092,
        -0.0028630197048187256,
        0.035275209695100784,
        -0.03653440624475479,
        0.025706786662340164,
        -0.03387076035141945,
        -0.03700116276741028,
        0.03274836018681526,
        0.0007654428482055664,
        0.04229157045483589,
        -0.02281145192682743,
        -0.009959757328033447,
        -0.01547214575111866,
        0.005756121128797531,
        0.009389296174049377,
        -0.03745428845286369,
        -0.026818612590432167,
        -0.0020454488694667816,
        -0.010730024427175522,
        0.04204045608639717,
        -0.002383589744567871,
        -0.007620181888341904,
        0.041232090443372726,
        0.01528741791844368,
        -0.03517703339457512,
        -0.03543027117848396,
        0.004265386611223221,
        -0.013635838404297829,
        0.005652241408824921,
        0.01319393515586853,
        0.017989754676818848,
        -0.03190681338310242,
        0.036043282598257065,
        -0.014977296814322472,
        0.01920202374458313,
        0.02740752324461937,
        0.01660538837313652,
        0.013912152498960495,
        -0.03559517860412598,
        -0.02866850048303604,
        -0.04090474173426628,
        -0.01211470551788807,
        -0.0019533932209014893,
        -0.03504432737827301,
        0.006204672157764435,
        0.45629575848579407,
        0.35629263520240784,
        0.09616541117429733,
        1.3512914180755615,
        0.2972513437271118,
        -0.012393124401569366,
        -0.14572738111019135,
        -0.6142197847366333,
        -1.7374014854431152,
        0.3425954580307007,
        3.171330213546753,
        -2.1275031566619873,
        0.2528439462184906,
        0.4506174921989441,
        -0.00834491103887558,
        -0.009257566183805466,
        0.0376591719686985,
        -0.03848051652312279,
        -0.006477769464254379,
        -1.4921855926513672,
        0.029450219124555588,
        -0.030414516106247902,
        1.5153499841690063,
        1.8969817161560059,
        1.5469725131988525,
        -0.030640892684459686,
        -1.2801798582077026,
        1.211360216140747,
        0.594495952129364,
        -0.04054087772965431,
        0.03454439714550972,
        -0.680985152721405,
        -1.9096181392669678,
        1.7655149698257446,
        0.6846151351928711,
        -0.37381571531295776,
        0.022596042603254318,
        1.7673763036727905,
        -2.2342891693115234,
        0.03050968423485756,
        0.6547355055809021,
        0.3233751058578491,
        0.013069458305835724,
        0.2006687968969345,
        2.7593225240707397e-05,
        -0.03510889783501625,
        -0.0076507143676280975,
        0.01541130244731903,
        1.2123823165893555,
        1.5512220859527588,
        3.322603464126587,
        0.020123910158872604,
        0.7143281102180481,
        1.3878284692764282,
        -0.8294602632522583,
        0.5252916216850281,
        -0.6964806318283081,
        1.2869510650634766,
        1.331244707107544,
        -0.7277156710624695,
        -0.008450362831354141,
        0.006850983947515488,
        2.4571969509124756,
        -0.7932896018028259,
        0.09545962512493134,
        1.6344422101974487,
        -0.023285068571567535,
        -0.01153532788157463,
        0.17255999147891998,
        2.557732582092285,
        0.006681118160486221,
        -0.020475788041949272,
        -0.007560864090919495,
        0.018056578934192657,
        4.745523452758789,
        -0.002739854156970978,
        -0.08784875273704529,
        -0.8218633532524109,
        0.14072857797145844,
        0.011705789715051651,
        0.5630979537963867,
        -0.03848796710371971,
        0.869656503200531,
        1.3053430318832397,
        -2.209300994873047,
        -0.00201202929019928,
        -1.565323829650879,
        0.7306004166603088,
        0.5216619968414307,
        -0.4265328645706177,
        -0.00762054231017828,
        -0.015746386721730232,
        1.1618547439575195,
        -0.27625855803489685,
        0.2007061392068863,
        -0.005694963037967682,
        0.3217723071575165,
        0.08617906272411346,
        -0.13546107709407806,
        -0.2962718605995178,
        -0.20505526661872864,
        0.001993983518332243,
        0.17413347959518433,
        0.017993241548538208,
        0.11017709970474243,
        -0.13042272627353668,
        -0.048747606575489044,
        0.06287861615419388,
        -0.1551584154367447,
        0.4548931419849396,
        -0.09126567095518112,
        -0.10462456941604614,
        1.191652774810791,
        -0.038545478135347366
      ],
      [
        0.06586106866598129,
        -0.8635630011558533,
        3.51363205909729,
        -0.7392919063568115,
        -1.9656777381896973,
        -0.5838223695755005,
        -0.5675714612007141,
        0.7970353364944458,
        -0.42616400122642517,
        2.9339241981506348,
        -1.7595998048782349,
        1.8518332242965698,
        -0.33482903242111206,
        0.03888322785496712,
        0.25418829917907715,
        -0.5727829337120056,
        -0.14644993841648102,
        1.4582023620605469,
        2.738306760787964,
        -1.2960646152496338,
        -1.5259684324264526,
        -0.570859968662262,
        -0.741838812828064,
        -0.4635049104690552,
        0.20073379576206207,
        2.241915464401245,
        2.983980178833008,
        0.12669460475444794,
        0.022262953221797943,
        1.2910199165344238,
        0.9826249480247498,
        0.34090787172317505,
        -0.06955195218324661,
        1.0622153282165527,
        -0.13683727383613586,
        1.2231823205947876,
        -0.5409191250801086,
        4.035305500030518,
        -1.0341854095458984,
        -1.6588919162750244,
        -0.6935857534408569,
        1.4876842498779297,
        0.4078405797481537,
        2.13948130607605,
        0.021387819200754166,
        0.04119562730193138,
        0.03761514648795128,
        0.02145017310976982,
        0.08947412669658661,
        -1.4398409128189087,
        0.931159496307373,
        -1.245948314666748,
        -1.2097601890563965,
        -0.8789520263671875,
        -0.12840040028095245,
        -0.21976706385612488,
        0.03464117646217346,
        2.3292648792266846,
        -1.583518624305725,
        1.4487569332122803,
        -0.2075110226869583,
        0.06983448565006256,
        -0.4874148666858673,
        -0.2736685574054718,
        0.37386074662208557,
        0.7362459301948547,
        1.9542248249053955,
        -0.9365971088409424,
        -0.7221354842185974,
        -0.8214178681373596,
        -1.3636430501937866,
        -0.7894220352172852,
        -0.5389990210533142,
        0.458625465631485,
        1.8166415691375732,
        -1.9118467569351196,
        -0.41069716215133667,
        1.610764503479004,
        2.304417848587036,
        0.41921913623809814,
        -0.2942716181278229,
        0.40548422932624817,
        0.024223104119300842,
        0.7619730234146118,
        0.5171106457710266,
        3.894949436187744,
        0.06263232976198196,
        -1.2921758890151978,
        -1.8239719867706299,
        1.8518587350845337,
        0.15773168206214905,
        0.364498496055603,
        -0.02600453607738018,
        0.0367552675306797,
        -0.0160969290882349,
        -0.01871092990040779,
        0.050517112016677856,
        -0.869988203048706,
        2.474266290664673,
        -1.5031391382217407,
        -1.5779536962509155,
        -0.32452481985092163,
        -0.5138779282569885,
        -0.05119648203253746,
        0.004268034361302853,
        2.7894773483276367,
        -1.323372483253479,
        1.5936130285263062,
        -0.31093814969062805,
        -0.013513226062059402,
        0.3762950301170349,
        0.03163312375545502,
        0.13554337620735168,
        1.82041597366333,
        1.8361824750900269,
        -0.9971950650215149,
        -0.8763077855110168,
        -1.5808943510055542,
        -1.3003207445144653,
        -0.3977735638618469,
        -0.14984562993049622,
        2.9750430583953857,
        2.869612216949463,
        -0.4352145791053772,
        -0.40896153450012207,
        1.8520077466964722,
        2.0653440952301025,
        0.7481738924980164,
        -0.17043012380599976,
        0.5737219452857971,
        -0.10573049634695053,
        1.0522300004959106,
        -0.13011522591114044,
        4.590777397155762,
        -0.9227814078330994,
        -2.2116470336914062,
        -1.0847889184951782,
        1.984815239906311,
        0.47985032200813293,
        1.4171881675720215,
        0.030741211026906967,
        -0.008938591927289963,
        0.0418054424226284,
        0.013911034911870956,
        0.04319033771753311,
        -0.2730347812175751,
        -0.18019095063209534,
        -3.3449089527130127,
        0.24436704814434052,
        -0.04230763763189316,
        -0.1379849761724472,
        -0.3376036584377289,
        -0.3355964124202728,
        1.4599353075027466,
        -1.8808997869491577,
        -1.0485804080963135,
        0.027941755950450897,
        0.01382087916135788,
        -0.026064487174153328,
        -0.01220129057765007,
        -0.005316242575645447,
        0.018960826098918915,
        0.0202813558280468,
        1.2933703660964966,
        -0.022780535742640495,
        0.02738432213664055,
        1.080741047859192,
        -1.1322351694107056,
        -0.1388314664363861,
        -0.7916759848594666,
        0.2044365555047989,
        -1.9554723501205444,
        -0.5559425354003906,
        -0.010848090052604675,
        -0.029265448451042175,
        0.6611780524253845,
        -1.01017165184021,
        -1.1168116331100464,
        0.3835796117782593,
        0.7345337271690369,
        -0.035453278571367264,
        0.1122344359755516,
        -0.7497350573539734,
        0.009610023349523544,
        -0.15256986021995544,
        0.4643183946609497,
        -0.03666513413190842,
        -0.9915992617607117,
        -0.01762334816157818,
        0.03943386301398277,
        0.023998688906431198,
        0.015894483774900436,
        -0.027100419625639915,
        -0.32774198055267334,
        -0.38830944895744324,
        -2.965667963027954,
        0.0014361856738105416,
        0.08123020827770233,
        -1.1240378618240356,
        0.27143582701683044,
        -0.0998152494430542,
        2.5435831546783447,
        -2.2078490257263184,
        1.660598874092102,
        -0.2140788435935974,
        -0.07746496051549911,
        1.7457064390182495,
        -0.4136585295200348,
        -0.8476084470748901,
        1.4654868841171265,
        1.2857167720794678,
        -1.405173659324646,
        -2.483182430267334,
        -1.3426958322525024,
        -0.9352813363075256,
        -0.27381354570388794,
        0.031041964888572693,
        0.9606243968009949,
        2.385990619659424,
        -1.91694176197052,
        -0.9252413511276245,
        1.5432212352752686,
        1.6681894063949585,
        0.40137919783592224,
        -0.16292667388916016,
        -0.9498388767242432,
        -0.04095294699072838,
        0.7051824331283569,
        0.01442643254995346,
        3.222381353378296,
        -0.836135983467102,
        -0.044119130820035934,
        -1.6911401748657227,
        0.2537471055984497,
        0.23773615062236786,
        0.4447670578956604,
        0.6274165511131287,
        0.28947821259498596,
        -0.1199127659201622,
        -0.7459774017333984,
        0.10986639559268951,
        -0.36914539337158203,
        -0.44889089465141296,
        -0.906102180480957,
        0.04631764069199562,
        -0.4373875856399536,
        -0.5658746957778931,
        0.16635064780712128,
        -0.34687817096710205,
        1.3043326139450073,
        -0.23850838840007782,
        0.649470865726471,
        0.3597882390022278,
        0.3803790509700775,
        -0.06547262519598007,
        -0.35969826579093933,
        0.5015526413917542,
        -0.32062146067619324,
        1.7364795207977295,
        0.9235662817955017,
        0.26240235567092896,
        -0.7966305613517761,
        -0.15946058928966522,
        0.358011394739151,
        -2.511981964111328,
        1.5011745691299438,
        0.3843925893306732,
        -2.2201318740844727,
        0.9109796285629272,
        3.257951021194458,
        1.642370581626892,
        0.13153238594532013,
        0.0057776994071900845,
        -0.5713167786598206,
        0.06028803065419197,
        0.7153351306915283,
        0.7471606135368347,
        1.5442994832992554,
        -0.8596979379653931,
        -2.109562397003174,
        -0.8360535502433777,
        2.162745714187622,
        0.16748057305812836,
        0.7930728793144226,
        0.013263937085866928,
        -0.02953403629362583,
        0.011281032115221024,
        0.02014000341296196,
        0.06444871425628662,
        1.684431552886963,
        0.2358684092760086,
        2.4782896041870117,
        1.2496669292449951,
        -0.9311486482620239,
        0.5246391296386719,
        -0.21178604662418365,
        -1.2109458446502686,
        0.8029505014419556,
        0.7676131129264832,
        -0.5261066555976868,
        -0.07317675650119781,
        0.32133743166923523,
        -0.9212412238121033,
        -1.5474377870559692,
        -1.6472008228302002,
        -0.8038071990013123,
        -0.30557310581207275,
        1.1704599857330322,
        4.213536262512207,
        -2.327599287033081,
        0.7286900877952576,
        1.1783915758132935,
        4.113252639770508,
        1.7377500534057617,
        -0.14978544414043427,
        2.557387113571167,
        2.1515982151031494,
        2.4248206615448,
        0.7517780065536499,
        -1.1847537755966187,
        0.12802235782146454,
        3.9026999473571777,
        0.06762215495109558,
        0.006842662114650011,
        1.2054823637008667,
        0.006528093479573727,
        -0.011790613643825054,
        1.0703797340393066,
        2.0435261726379395,
        0.7672831416130066,
        -1.014387845993042,
        0.4556282162666321,
        0.0014702565968036652,
        0.02241281047463417,
        0.018487710505723953,
        -0.0016146227717399597,
        0.1747397631406784,
        1.2598986625671387,
        -0.11429722607135773,
        -0.01854374073445797,
        1.4131684303283691,
        -1.3431230783462524,
        0.954679012298584,
        -1.624212622642517,
        -1.4928672313690186,
        2.136909008026123,
        0.11843851208686829,
        -0.15506653487682343,
        -0.01045340858399868,
        0.33069854974746704,
        -1.485914945602417,
        -1.7066543102264404,
        -1.4817479848861694,
        -1.2659615278244019,
        -0.8684762716293335,
        1.406180500984192,
        3.462446689605713,
        -2.477365255355835,
        0.9855703115463257,
        2.109605073928833,
        2.9497592449188232,
        2.5000696182250977,
        -0.34032610058784485,
        0.48994630575180054,
        3.08854079246521,
        1.1598200798034668,
        1.2949780225753784,
        -0.7751027941703796,
        -0.4418138563632965,
        3.621818780899048,
        0.15834838151931763,
        0.04705609008669853,
        0.35226747393608093,
        -0.8132463097572327,
        0.23225051164627075,
        0.40700405836105347,
        4.68102502822876,
        1.7350255250930786,
        -1.0066529512405396,
        0.17633642256259918,
        -0.020578857511281967,
        -0.012788515537977219,
        -0.016268329694867134,
        0.0018204860389232635,
        -0.042545683681964874,
        0.03407396748661995,
        -0.0022078603506088257,
        0.007006198167800903,
        0.007320787757635117,
        0.023934897035360336,
        0.017224926501512527,
        0.019068442285060883,
        0.03040611371397972,
        0.040884409099817276,
        -0.01840471662580967,
        0.03213658556342125,
        0.04008610174059868,
        -0.006127212196588516,
        -0.03021780401468277,
        0.008647792041301727,
        -0.01411791704595089,
        0.02158048376441002,
        0.030287977308034897,
        0.013047296553850174,
        -0.014235144481062889,
        0.012303594499826431,
        0.005746860057115555,
        -0.03853011131286621,
        0.03372873738408089,
        -0.038874994963407516,
        -0.0030270181596279144,
        -0.008569419384002686,
        0.011331666260957718,
        0.010532859712839127,
        -0.009075302630662918,
        -0.027165425941348076,
        0.029041718691587448,
        -0.042063649743795395,
        -0.01738724112510681,
        0.015028644353151321,
        -0.02452431246638298,
        0.026475798338651657,
        0.02359027788043022,
        -0.007547762244939804,
        0.039951954036951065,
        -0.017388135194778442,
        0.004545111209154129,
        0.021792713552713394,
        -0.041374485939741135,
        0.0019927285611629486,
        -0.03237799555063248,
        -0.033152054995298386,
        1.122071623802185,
        0.9521540403366089,
        0.9619640707969666,
        1.1033062934875488,
        0.1479157954454422,
        -0.005292821675539017,
        0.5059358477592468,
        0.09283790737390518,
        0.5080063343048096,
        -0.4394961893558502,
        -1.2918487787246704,
        1.2052333354949951,
        0.7825725078582764,
        1.1463624238967896,
        0.03647821024060249,
        0.016089700162410736,
        -0.04153924807906151,
        -0.03805208206176758,
        -0.023279424756765366,
        1.0699217319488525,
        0.041915591806173325,
        -0.021789206191897392,
        -0.8622788786888123,
        -0.048465777188539505,
        -0.6460143327713013,
        -1.4215658903121948,
        1.4532115459442139,
        -0.04576600715517998,
        0.5493227243423462,
        0.013693701475858688,
        -0.03348834812641144,
        0.4081657826900482,
        0.9387326836585999,
        1.4752801656723022,
        0.3410048484802246,
        1.154597520828247,
        -0.016151225194334984,
        -1.9245413541793823,
        1.3815405368804932,
        -0.024191806092858315,
        -0.9355981945991516,
        0.12971310317516327,
        -0.008796542882919312,
        -0.49108225107192993,
        -0.020440682768821716,
        0.008990619331598282,
        -0.039780884981155396,
        0.0013248920440673828,
        -0.9228534698486328,
        -0.25579866766929626,
        -1.2512634992599487,
        0.015884090214967728,
        5.048519134521484,
        -0.6408535838127136,
        1.6457536220550537,
        -0.2444172203540802,
        -0.6913034319877625,
        -0.008497662842273712,
        -0.5435775518417358,
        1.0050357580184937,
        -0.03333988040685654,
        0.022001560777425766,
        -0.21844059228897095,
        -0.3262050151824951,
        -1.0292960405349731,
        -0.1972389668226242,
        2.236781358718872,
        -0.028938505798578262,
        4.734135150909424,
        -0.48889514803886414,
        0.0018798895180225372,
        0.038179632276296616,
        -0.011422902345657349,
        0.02706800028681755,
        3.0621469020843506,
        -0.0338662825524807,
        4.039559364318848,
        1.136936068534851,
        3.024775505065918,
        -0.0003963746130466461,
        -1.0151269435882568,
        -0.03211590275168419,
        -1.08405601978302,
        0.5298881530761719,
        0.7002031207084656,
        0.017710953950881958,
        1.049250841140747,
        1.6691536903381348,
        2.297314405441284,
        1.688661813735962,
        -0.4802730679512024,
        -0.03694441542029381,
        0.8707450032234192,
        -0.9915688633918762,
        0.6098860502243042,
        -0.021953348070383072,
        -0.6537631154060364,
        -0.7647514343261719,
        1.3478646278381348,
        0.7866268754005432,
        -0.44821178913116455,
        0.1259050965309143,
        0.265055388212204,
        -0.2646261155605316,
        0.5672520399093628,
        0.05042613670229912,
        0.05893772095441818,
        0.0056344917975366116,
        -0.019841037690639496,
        1.1853251457214355,
        0.11347156018018723,
        0.10914868116378784,
        -0.8873413801193237,
        0.03450179472565651
      ],
      [
        -0.12854547798633575,
        1.0087976455688477,
        1.6828302145004272,
        3.1891231536865234,
        -1.3349549770355225,
        1.024444580078125,
        -0.4148204028606415,
        1.0369231700897217,
        -1.2539641857147217,
        -0.9462189674377441,
        -0.04644932225346565,
        -0.5088613033294678,
        0.26359063386917114,
        -0.2540567219257355,
        0.582176148891449,
        0.30854150652885437,
        -0.20399636030197144,
        0.9216251969337463,
        0.37565281987190247,
        0.3580629229545593,
        -0.29951414465904236,
        -0.27108466625213623,
        -1.868592619895935,
        -1.7555537223815918,
        0.4533909559249878,
        2.61246657371521,
        0.10820197314023972,
        -0.06864205002784729,
        -0.9035221934318542,
        -0.8623113632202148,
        0.9662318825721741,
        -0.9284107685089111,
        0.32634660601615906,
        -0.3284613788127899,
        -0.05401204526424408,
        -0.7537564635276794,
        2.095099925994873,
        -1.3556946516036987,
        -1.7123075723648071,
        0.7613953351974487,
        -1.5238982439041138,
        -1.2250515222549438,
        1.1136537790298462,
        1.0710697174072266,
        0.007083579897880554,
        -0.04140157997608185,
        0.013799093663692474,
        0.018841274082660675,
        -0.06882606446743011,
        0.388304203748703,
        0.7623589634895325,
        3.019892692565918,
        -0.550784707069397,
        0.04755047708749771,
        -0.3873312175273895,
        0.9896188378334045,
        -0.9115322232246399,
        -0.4041687846183777,
        -0.06595336645841599,
        -0.2800804376602173,
        0.06284821033477783,
        -0.0746532455086708,
        -0.037389904260635376,
        0.4244685173034668,
        0.030587313696742058,
        0.8918429613113403,
        -0.8306142687797546,
        -0.6140614748001099,
        -0.8260647058486938,
        -0.32954904437065125,
        -1.456700086593628,
        -1.465213418006897,
        0.9407923221588135,
        2.5664970874786377,
        0.3616640865802765,
        -0.7600505352020264,
        -2.807795286178589,
        -1.5559293031692505,
        0.417728453874588,
        -1.8340293169021606,
        0.24153169989585876,
        -0.4618734121322632,
        -0.03986050933599472,
        -0.7260782718658447,
        1.9987621307373047,
        -0.89119952917099,
        -0.9426881074905396,
        1.3543741703033447,
        -1.2713658809661865,
        -0.48276621103286743,
        0.497001588344574,
        0.9218206405639648,
        -0.008364289999008179,
        -0.019697586074471474,
        0.006095193326473236,
        -0.008912086486816406,
        -0.05434875935316086,
        0.44004154205322266,
        0.8246315121650696,
        3.3178751468658447,
        -0.560397207736969,
        0.34893280267715454,
        -0.8179675340652466,
        0.81472247838974,
        -1.4010977745056152,
        -0.9943803548812866,
        -0.27106520533561707,
        -0.75138258934021,
        0.26569676399230957,
        -0.11172018945217133,
        0.6340380907058716,
        0.3863495886325836,
        -0.08007972687482834,
        1.3619258403778076,
        -0.7323576807975769,
        1.321298360824585,
        -1.5393803119659424,
        -0.04164969548583031,
        -1.651753306388855,
        -2.144697666168213,
        1.156926155090332,
        2.499349355697632,
        0.5445191860198975,
        -1.1869006156921387,
        -1.375842571258545,
        -0.03810959309339523,
        1.4319669008255005,
        -1.6421699523925781,
        -0.022488387301564217,
        -0.2142799347639084,
        0.00814613327383995,
        -0.6437579989433289,
        2.5785608291625977,
        -1.256386399269104,
        -1.702104091644287,
        0.4632547199726105,
        -1.5133930444717407,
        -0.5028595328330994,
        0.8712425231933594,
        1.0921097993850708,
        0.020234961062669754,
        -0.0036612562835216522,
        -0.02997826598584652,
        0.02463594451546669,
        -0.26814138889312744,
        0.28568926453590393,
        0.7144991159439087,
        0.38994014263153076,
        -0.6602779030799866,
        -0.009536553174257278,
        0.4411424994468689,
        0.24449270963668823,
        0.5966556072235107,
        0.4679531455039978,
        0.71473628282547,
        -0.6987212896347046,
        0.10876864194869995,
        -0.2839664816856384,
        0.038687918335199356,
        -0.024204635992646217,
        -0.005766537040472031,
        -0.016321035102009773,
        -0.002558387815952301,
        -0.41385313868522644,
        -0.04046744108200073,
        -0.016804348677396774,
        0.21505971252918243,
        0.4012886881828308,
        0.012448432855308056,
        0.7636218667030334,
        1.0959683656692505,
        -0.37118980288505554,
        -0.34211069345474243,
        -0.025723937898874283,
        -0.014415724202990532,
        -0.7433955669403076,
        -0.20644474029541016,
        -0.1574764996767044,
        -0.3675304353237152,
        -0.389026403427124,
        0.024308178573846817,
        -1.0249226093292236,
        0.37226438522338867,
        -0.006417922675609589,
        0.14320160448551178,
        -0.10648998618125916,
        0.005544900894165039,
        -0.634291410446167,
        0.03531378135085106,
        -0.022390613332390785,
        -0.003269381821155548,
        0.029869478195905685,
        -0.0348428450524807,
        0.546330988407135,
        0.7804112434387207,
        1.7242804765701294,
        -0.3759961724281311,
        1.1373534202575684,
        -0.9893897771835327,
        0.6753816604614258,
        -1.0026392936706543,
        -0.26993319392204285,
        -0.7132921814918518,
        -0.876127302646637,
        0.03883199021220207,
        -0.3563057780265808,
        1.0690491199493408,
        0.55348140001297,
        -1.1926803588867188,
        1.0234264135360718,
        -1.4556149244308472,
        1.456705927848816,
        -1.511266827583313,
        -0.1617479771375656,
        -1.0288760662078857,
        -1.7605537176132202,
        0.47505319118499756,
        2.8789303302764893,
        0.4357239603996277,
        -1.0756447315216064,
        -1.5141842365264893,
        -2.2681221961975098,
        0.48606494069099426,
        -1.2537388801574707,
        0.547335147857666,
        -1.0399765968322754,
        0.012408224865794182,
        -0.5110067129135132,
        1.464241862297058,
        -1.6179718971252441,
        -1.9173252582550049,
        0.8825504779815674,
        -1.1656057834625244,
        -1.0430728197097778,
        0.11757314205169678,
        0.9951651096343994,
        -0.15241464972496033,
        -0.22267462313175201,
        -0.04422113299369812,
        0.4628487825393677,
        -0.2468147873878479,
        -0.4809388518333435,
        -0.47867000102996826,
        0.7000442147254944,
        -0.31309837102890015,
        -0.4668623208999634,
        -0.47409918904304504,
        0.8111152648925781,
        0.43119046092033386,
        -0.5057265162467957,
        -0.6920982599258423,
        -0.5262488722801208,
        0.05664081871509552,
        -0.04982376471161842,
        -0.8360339403152466,
        0.5028774738311768,
        0.8739514946937561,
        1.2394089698791504,
        -1.7516695261001587,
        0.31355538964271545,
        -3.098301649093628,
        0.8066298961639404,
        -1.7019850015640259,
        1.183776617050171,
        -2.867532730102539,
        2.1902825832366943,
        0.2729789912700653,
        0.17485247552394867,
        -0.28291910886764526,
        -0.3022538125514984,
        0.48962530493736267,
        -2.394930124282837,
        0.2814004421234131,
        -0.4765900671482086,
        -0.38084396719932556,
        -0.08758138865232468,
        2.852355718612671,
        -0.20521049201488495,
        -0.05267158895730972,
        0.9068761467933655,
        -0.7521994113922119,
        -1.5140364170074463,
        -0.049343694001436234,
        0.22061318159103394,
        0.02564838156104088,
        -0.0010032877326011658,
        -0.02805936709046364,
        0.006518270820379257,
        0.32708999514579773,
        0.36306148767471313,
        -0.5834027528762817,
        -0.8248116374015808,
        0.7056052684783936,
        0.6085208058357239,
        0.47144219279289246,
        -0.8638315796852112,
        0.11731331050395966,
        1.9521011114120483,
        0.1793537586927414,
        0.15384364128112793,
        -0.12236928939819336,
        0.25917890667915344,
        -0.6769343018531799,
        0.932080864906311,
        -0.8671080470085144,
        0.2590997517108917,
        -0.620845377445221,
        -1.6391006708145142,
        0.8726093769073486,
        1.6610828638076782,
        0.1597725749015808,
        1.682386875152588,
        -0.742516815662384,
        -2.14825439453125,
        0.27459585666656494,
        0.019711509346961975,
        -0.4053947329521179,
        0.019359232857823372,
        1.9867249727249146,
        -0.2512947618961334,
        0.2660864293575287,
        -0.2963157296180725,
        0.27308109402656555,
        -0.7982449531555176,
        3.634671688079834,
        2.5776422023773193,
        0.39651721715927124,
        -2.5023627281188965,
        0.6696188449859619,
        -1.3903026580810547,
        0.8820376992225647,
        -1.908682107925415,
        -0.022559475153684616,
        0.020424049347639084,
        -0.03628186881542206,
        -0.019382154569029808,
        0.33618947863578796,
        -0.09708575159311295,
        -1.8924981355667114,
        -0.740429162979126,
        1.1181156635284424,
        0.3965839147567749,
        0.3334331512451172,
        -0.8285077810287476,
        0.2695600986480713,
        2.1419498920440674,
        -0.08975199609994888,
        0.43735313415527344,
        -0.139332577586174,
        0.2543586194515228,
        -0.6395083665847778,
        0.8178277015686035,
        -0.889456570148468,
        1.0225385427474976,
        0.15536639094352722,
        -1.4918875694274902,
        -0.6350922584533691,
        2.2805373668670654,
        0.4301062822341919,
        2.340170383453369,
        -0.9053257703781128,
        -1.7709131240844727,
        0.23165731132030487,
        -0.6515464186668396,
        -0.4475964307785034,
        1.6136353015899658,
        4.137851238250732,
        -0.6324440836906433,
        0.058848343789577484,
        0.48311254382133484,
        0.31527453660964966,
        -1.050777792930603,
        3.787000894546509,
        3.7159016132354736,
        0.33305174112319946,
        0.038916606456041336,
        0.46010851860046387,
        -0.9914935231208801,
        1.2777339220046997,
        -2.1262521743774414,
        0.0244445763528347,
        0.004818465560674667,
        -0.0034972578287124634,
        0.023057270795106888,
        -0.035370081663131714,
        0.022748608142137527,
        -0.02988370507955551,
        -0.03952481225132942,
        0.002499181777238846,
        0.022459056228399277,
        -0.01136947050690651,
        -0.006616756319999695,
        0.0009723268449306488,
        -0.030363913625478745,
        0.01328267902135849,
        0.02555098757147789,
        0.02611299231648445,
        -0.0050647929310798645,
        0.01402193307876587,
        -0.013047304004430771,
        -0.019354013726115227,
        0.005227360874414444,
        -0.0020515955984592438,
        0.01929868385195732,
        0.03668111935257912,
        -0.03427421301603317,
        -0.0005413293838500977,
        0.03018636628985405,
        0.023823332041502,
        0.035045746713876724,
        -0.027763046324253082,
        0.03109467402100563,
        0.014608144760131836,
        -0.005259986966848373,
        0.018111471086740494,
        -0.02970964089035988,
        -0.02083275280892849,
        -0.01855349726974964,
        -0.036292072385549545,
        -0.026439465582370758,
        0.022032860666513443,
        -0.02059987559914589,
        0.0072290487587451935,
        0.014088347554206848,
        0.005374342203140259,
        -0.01346452347934246,
        -0.01779685541987419,
        0.003905259072780609,
        -0.015678809955716133,
        0.018269773572683334,
        0.010176416486501694,
        -0.036210205405950546,
        0.09006049484014511,
        -0.45579224824905396,
        -0.2191888689994812,
        -2.687833547592163,
        1.5578547716140747,
        -0.021633753553032875,
        1.0591440200805664,
        -0.5554495453834534,
        -1.459965705871582,
        0.02692427486181259,
        -0.005988347344100475,
        1.504332423210144,
        0.12934675812721252,
        0.08865706622600555,
        0.006579745560884476,
        0.04129967465996742,
        -0.025007564574480057,
        0.0068557485938072205,
        -0.0010265707969665527,
        0.16578853130340576,
        0.04225287213921547,
        -0.01996862329542637,
        0.8312464952468872,
        0.5982996821403503,
        0.5604535937309265,
        0.9100920557975769,
        0.15967124700546265,
        0.1498308926820755,
        -1.64744234085083,
        -0.010183021426200867,
        0.02440016344189644,
        0.611024796962738,
        0.6881738901138306,
        0.17166633903980255,
        0.32530996203422546,
        -1.1967980861663818,
        -0.009019725024700165,
        0.907325804233551,
        -1.6520981788635254,
        0.001840539276599884,
        1.4640922546386719,
        -0.45244768261909485,
        0.018674291670322418,
        -0.31959614157676697,
        -0.0030506402254104614,
        -0.026770707219839096,
        -0.03942173719406128,
        0.004594136029481888,
        0.2335021048784256,
        0.6574985384941101,
        -1.4783191680908203,
        -0.01247132383286953,
        1.3971906900405884,
        0.13761746883392334,
        -0.048784367740154266,
        -0.7240423560142517,
        0.004847155883908272,
        -1.3851768970489502,
        0.552139937877655,
        0.6476656198501587,
        0.040053416043519974,
        -0.00026744231581687927,
        0.49877315759658813,
        0.22045116126537323,
        -0.8215593099594116,
        1.3742731809616089,
        -0.5680906176567078,
        -0.031177029013633728,
        -2.9901156425476074,
        1.3777581453323364,
        -0.02520562708377838,
        0.006084170192480087,
        -0.013054195791482925,
        -0.03346690535545349,
        -0.12639562785625458,
        0.042340610176324844,
        -0.6855890154838562,
        1.2145105600357056,
        0.07330553233623505,
        -0.0035368427634239197,
        -0.8667705655097961,
        0.022302646189928055,
        0.4934515058994293,
        -0.10341617465019226,
        2.7235825061798096,
        0.004168670624494553,
        0.8738662004470825,
        -0.20274096727371216,
        1.863403558731079,
        -2.513800859451294,
        0.6477121710777283,
        -0.011845273897051811,
        -0.008416458033025265,
        0.8018171191215515,
        0.41271987557411194,
        0.040720630437135696,
        0.19748583436012268,
        0.24037355184555054,
        0.2973893880844116,
        0.05554971098899841,
        -0.2685871422290802,
        0.07870557904243469,
        -0.0009808260947465897,
        -0.24528411030769348,
        -0.160602405667305,
        -0.14844739437103271,
        -0.019700506702065468,
        -0.039958152920007706,
        -0.04102189466357231,
        0.0966206043958664,
        0.3381301760673523,
        0.31868213415145874,
        0.2212260514497757,
        0.024005018174648285
      ],
      [
        0.01052960567176342,
        -2.2182211875915527,
        -1.8665475845336914,
        -1.9897818565368652,
        -0.488810658454895,
        -2.3021299839019775,
        0.14985354244709015,
        -0.6462714672088623,
        1.0443525314331055,
        -1.5175986289978027,
        -0.07640588283538818,
        0.9670924544334412,
        0.11123127490282059,
        0.14348556101322174,
        -1.7198607921600342,
        -0.155730739235878,
        2.899003028869629,
        -0.5471230149269104,
        -0.08104995638132095,
        -0.7107589840888977,
        -2.1783831119537354,
        -3.435915470123291,
        0.3609767258167267,
        -0.448189914226532,
        2.435547351837158,
        0.5836510062217712,
        0.43991467356681824,
        -0.4770297706127167,
        -1.2357306480407715,
        0.3153758645057678,
        -0.8384801149368286,
        -0.41649919748306274,
        -0.19600233435630798,
        -2.727632761001587,
        0.017331134527921677,
        1.4450128078460693,
        1.1680841445922852,
        0.3447542190551758,
        1.0142861604690552,
        -1.8004775047302246,
        -0.8943921327590942,
        -2.0759940147399902,
        1.097685694694519,
        -0.36447873711586,
        -0.005392678081989288,
        -0.018906785175204277,
        -0.03288693726062775,
        -0.01689177192747593,
        0.11039639264345169,
        -1.1665961742401123,
        -1.2339532375335693,
        -0.9961357712745667,
        -0.09532446414232254,
        -1.2046964168548584,
        0.2152741551399231,
        -0.9700416922569275,
        0.5395179986953735,
        -0.6455193161964417,
        0.1885511428117752,
        1.0588488578796387,
        0.052374836057424545,
        0.31080397963523865,
        -1.104635238647461,
        -0.3173205852508545,
        2.202608823776245,
        -0.1662968546152115,
        -0.5772958993911743,
        -1.0568397045135498,
        -1.2695268392562866,
        -4.173480033874512,
        0.18767119944095612,
        -0.8195551037788391,
        2.586585521697998,
        -0.30834469199180603,
        0.9479852318763733,
        -1.1986867189407349,
        -0.5932838320732117,
        0.7127111554145813,
        -0.2827531695365906,
        -0.35486900806427,
        -0.13692672550678253,
        -0.8641056418418884,
        0.1372901201248169,
        1.19035804271698,
        1.0556312799453735,
        0.18320582807064056,
        0.2547987401485443,
        -3.2180583477020264,
        -1.004093885421753,
        -2.1004183292388916,
        0.7323336601257324,
        0.3845282793045044,
        -0.03734889626502991,
        -0.0012137927114963531,
        -0.009607188403606415,
        0.01713118702173233,
        0.15055610239505768,
        -1.3892287015914917,
        -1.201328158378601,
        -0.3818162977695465,
        -0.08366082608699799,
        -1.5754575729370117,
        0.11294690519571304,
        -0.9048699140548706,
        1.3246829509735107,
        -1.034298062324524,
        0.11743858456611633,
        1.1431571245193481,
        0.17864157259464264,
        0.24190373718738556,
        -1.3636528253555298,
        -0.2283996194601059,
        2.307668924331665,
        -0.03550254926085472,
        0.05412701889872551,
        -0.3788137435913086,
        -1.7277361154556274,
        -4.49896764755249,
        0.904835045337677,
        -1.3341730833053589,
        2.708604097366333,
        -1.0835957527160645,
        0.3734421730041504,
        -0.2039005011320114,
        -2.189382553100586,
        1.0294504165649414,
        -0.9653961062431335,
        -0.2704736292362213,
        -0.24552978575229645,
        -1.9302059412002563,
        0.2429182380437851,
        1.2057350873947144,
        1.759849190711975,
        -0.024246852844953537,
        0.47219550609588623,
        -1.353642463684082,
        -1.0612691640853882,
        -2.0035665035247803,
        1.2078324556350708,
        -0.20986606180667877,
        0.003417186439037323,
        0.004377957433462143,
        -0.02799256145954132,
        0.034903060644865036,
        0.5656351447105408,
        0.1291123628616333,
        0.0150368083268404,
        -1.4117467403411865,
        0.05014578625559807,
        0.02142789587378502,
        -0.5931745171546936,
        0.6404967308044434,
        0.3177924156188965,
        -0.333670973777771,
        -1.3572959899902344,
        1.0629521608352661,
        -0.4425910413265228,
        0.5696586966514587,
        -0.02123679593205452,
        -0.011158838868141174,
        -0.026804175227880478,
        -0.020688496530056,
        -0.01842765510082245,
        0.45536962151527405,
        -0.01298345997929573,
        0.02567073330283165,
        -0.2721281945705414,
        -0.15309521555900574,
        0.07246174663305283,
        -1.189998745918274,
        -0.18876062333583832,
        -0.9131863713264465,
        0.3629882037639618,
        0.016769055277109146,
        0.005714643746614456,
        0.18218828737735748,
        0.23796957731246948,
        -1.8244171142578125,
        0.29133206605911255,
        0.6162077188491821,
        0.025503050535917282,
        -0.30326607823371887,
        0.09404700249433517,
        0.01804722100496292,
        -0.8593366742134094,
        -0.0508701428771019,
        0.012114856392145157,
        -1.4813642501831055,
        -0.03750269114971161,
        -0.0023905225098133087,
        -0.010038740932941437,
        -0.025889217853546143,
        -0.048835139721632004,
        -1.419527292251587,
        -0.8304329514503479,
        -0.8612232208251953,
        -0.29619690775871277,
        -2.685560941696167,
        0.06672210991382599,
        -0.4851634204387665,
        0.6791041493415833,
        -1.7186599969863892,
        0.1857193559408188,
        1.2886736392974854,
        0.06254658848047256,
        0.3789113461971283,
        -3.2876691818237305,
        0.28141534328460693,
        3.526808738708496,
        -0.3512171804904938,
        -0.7098258137702942,
        -1.9242366552352905,
        -1.0971665382385254,
        -3.8706183433532715,
        0.05245417729020119,
        -0.8036782741546631,
        1.2953577041625977,
        -0.2623203694820404,
        0.7420113682746887,
        -0.3405441641807556,
        -0.8326743841171265,
        -0.5105621814727783,
        -0.4827477037906647,
        -1.0325347185134888,
        -0.1458349972963333,
        -1.7822867631912231,
        0.020594777539372444,
        0.5493040084838867,
        0.9552375674247742,
        0.2812117636203766,
        0.4274751842021942,
        -0.5879296064376831,
        -1.2512140274047852,
        -2.077808141708374,
        0.8163837790489197,
        -0.06716436892747879,
        0.16712763905525208,
        0.6602397561073303,
        0.32438433170318604,
        1.365016222000122,
        -0.06869145482778549,
        0.3376082479953766,
        0.5029012560844421,
        0.7482377886772156,
        -1.2527828216552734,
        0.08056845515966415,
        -0.14309771358966827,
        -0.038963887840509415,
        -0.19808387756347656,
        -0.5607534646987915,
        0.7738843560218811,
        0.6844978332519531,
        -0.40713974833488464,
        -0.09345068037509918,
        -0.30130717158317566,
        -0.06488107889890671,
        0.7679513692855835,
        0.26296383142471313,
        -1.3524829149246216,
        1.4808355569839478,
        0.5494141578674316,
        -0.30487948656082153,
        1.133493185043335,
        -0.3367428779602051,
        1.7459102869033813,
        -1.0047968626022339,
        0.0018100955057889223,
        0.1474200040102005,
        -0.26630809903144836,
        -1.0990070104599,
        0.7919001579284668,
        0.38373374938964844,
        -0.3109884262084961,
        0.20882685482501984,
        -0.05639268830418587,
        0.2622028589248657,
        -0.9543880820274353,
        -0.527678906917572,
        -0.41654500365257263,
        0.6112438440322876,
        -1.1111637353897095,
        -1.4426417350769043,
        0.24649681150913239,
        0.7442498207092285,
        0.012993428856134415,
        0.02756907418370247,
        0.042390648275613785,
        0.02637365832924843,
        -0.06827389448881149,
        1.6034303903579712,
        1.3963488340377808,
        1.19941246509552,
        -0.10214925557374954,
        1.2640599012374878,
        -0.11267315596342087,
        0.27976924180984497,
        -0.0265728197991848,
        -0.002801137510687113,
        1.278324842453003,
        -1.3473072052001953,
        -0.05348733067512512,
        -0.17907492816448212,
        1.3044692277908325,
        0.03465956822037697,
        -0.5875158905982971,
        -0.2963407337665558,
        -3.3709826469421387,
        0.8506588935852051,
        1.6282960176467896,
        1.5670198202133179,
        0.986892580986023,
        0.5304806232452393,
        -1.2352206707000732,
        -1.1019766330718994,
        1.5144885778427124,
        0.9797738194465637,
        1.0643281936645508,
        0.9671857953071594,
        -0.18875792622566223,
        1.4790483713150024,
        -0.5396987199783325,
        1.7151217460632324,
        -0.1378532499074936,
        -0.34495964646339417,
        -2.050036907196045,
        -0.11472897231578827,
        -0.09792949259281158,
        2.613046884536743,
        0.5348469018936157,
        -0.44852253794670105,
        -0.8005279302597046,
        0.03442937508225441,
        0.030466970056295395,
        -0.01477518305182457,
        0.008244846016168594,
        0.005518987774848938,
        -0.17218142747879028,
        2.405189037322998,
        1.530080795288086,
        1.8244976997375488,
        0.606235146522522,
        1.8421000242233276,
        -0.40290889143943787,
        0.4113263785839081,
        -0.36980822682380676,
        -0.3272387981414795,
        1.2620502710342407,
        -1.7319345474243164,
        -0.05556540563702583,
        -0.13434191048145294,
        1.5069854259490967,
        -0.1711103767156601,
        -1.5449943542480469,
        -0.6243149042129517,
        -3.0537590980529785,
        0.03962668776512146,
        1.7197626829147339,
        3.1843433380126953,
        0.7874360680580139,
        -0.8134997487068176,
        -1.1169782876968384,
        -1.747239589691162,
        1.393131971359253,
        4.192978382110596,
        1.2589972019195557,
        -0.03070116974413395,
        -2.3579115867614746,
        2.2650909423828125,
        -0.11084058880805969,
        4.055713176727295,
        -0.18804015219211578,
        -0.32546618580818176,
        -2.4701755046844482,
        -1.7113685607910156,
        -0.14112918078899384,
        3.536928653717041,
        1.5727510452270508,
        -1.0197052955627441,
        -1.441646695137024,
        0.5828097462654114,
        0.042382899671792984,
        0.02233075723052025,
        0.02793581411242485,
        0.001990754157304764,
        0.016950033605098724,
        -0.012055939063429832,
        0.024081427603960037,
        -0.007618695497512817,
        0.026146095246076584,
        -0.010489854961633682,
        -0.030241956934332848,
        -0.024631967768073082,
        0.02258724346756935,
        0.026162799447774887,
        -0.03828723356127739,
        0.03025452420115471,
        0.012528486549854279,
        0.029074091464281082,
        0.02454482391476631,
        0.022447403520345688,
        -0.018647216260433197,
        -0.029564686119556427,
        0.027476217597723007,
        0.013060476630926132,
        -0.004191610962152481,
        0.02299562469124794,
        -0.0036657042801380157,
        0.021691810339689255,
        -0.020664550364017487,
        0.025251302868127823,
        -0.039308756589889526,
        -0.028723934665322304,
        0.03004666045308113,
        0.003430694341659546,
        0.020650368183851242,
        -0.011911805719137192,
        -0.02090458944439888,
        -0.03031911328434944,
        -0.02447688765823841,
        0.030263643711805344,
        0.025143731385469437,
        -0.04127533361315727,
        -0.017421947792172432,
        0.039841022342443466,
        -0.008205275982618332,
        0.039628710597753525,
        -0.0038205645978450775,
        0.010265421122312546,
        -0.0165715329349041,
        0.032067809253931046,
        0.029645834118127823,
        -0.019528480246663094,
        0.3838890492916107,
        0.6741130948066711,
        0.7958431243896484,
        0.9460888504981995,
        1.0715829133987427,
        -0.01665702648460865,
        0.14428018033504486,
        1.9846993684768677,
        -0.0036080377176404,
        1.4838546514511108,
        -0.047417569905519485,
        0.8345350623130798,
        0.7793145179748535,
        0.4113156199455261,
        0.0272737555205822,
        -0.04206077754497528,
        0.024587344378232956,
        -0.023991186171770096,
        -0.015318471938371658,
        -0.0992865115404129,
        0.018538866192102432,
        -0.041331399232149124,
        1.0533965826034546,
        0.4159370958805084,
        0.579128623008728,
        -0.9354327917098999,
        -0.3838546574115753,
        -0.016483357176184654,
        0.16381368041038513,
        0.007781751453876495,
        -0.039992835372686386,
        2.232119560241699,
        0.15905344486236572,
        0.7993861436843872,
        1.3178154230117798,
        0.4874023497104645,
        -0.03850412741303444,
        -0.0053058951161801815,
        -0.9987667202949524,
        -0.016758866608142853,
        -0.6450281739234924,
        0.9397476315498352,
        -0.02768344059586525,
        -0.016814501956105232,
        0.024470839649438858,
        0.037674855440855026,
        -0.00222112238407135,
        -0.012516273185610771,
        1.0151108503341675,
        1.4532004594802856,
        2.1813759803771973,
        0.03685849532485008,
        1.7613273859024048,
        1.2320548295974731,
        -1.9514780044555664,
        0.09769880771636963,
        0.2202482521533966,
        1.7917555570602417,
        0.7955006957054138,
        -0.7023649215698242,
        0.03726589307188988,
        0.011942528188228607,
        2.4395267963409424,
        -0.7337483167648315,
        -0.5180235505104065,
        1.1604743003845215,
        -1.2021288871765137,
        -0.030627332627773285,
        1.5610030889511108,
        2.0263724327087402,
        -0.04049655422568321,
        0.00032573193311691284,
        -0.035720791667699814,
        0.0366651825606823,
        4.807757377624512,
        0.006983764469623566,
        2.2935569286346436,
        0.7079012393951416,
        -1.5462156534194946,
        0.03237676993012428,
        -0.2336302250623703,
        -0.0033456720411777496,
        0.7446005940437317,
        0.3951682448387146,
        -2.696462869644165,
        -0.008375082165002823,
        -2.107006549835205,
        -0.904496431350708,
        -0.29958927631378174,
        -0.18863096833229065,
        -0.7012824416160583,
        0.03418100252747536,
        0.17878560721874237,
        -0.582536518573761,
        -0.8703665733337402,
        0.04259948804974556,
        0.1209525540471077,
        0.10523034632205963,
        -0.9050039649009705,
        -0.37731969356536865,
        -0.14009572565555573,
        0.16601867973804474,
        0.4525177478790283,
        -0.009060388430953026,
        0.13609154522418976,
        0.06735099852085114,
        0.14195355772972107,
        0.16893289983272552,
        -0.0712597593665123,
        0.36224743723869324,
        -0.15974752604961395,
        -0.08652456849813461,
        1.0385700464248657,
        -0.048094943165779114
      ],
      [
        0.19635944068431854,
        4.620527267456055,
        2.3066680431365967,
        3.7580745220184326,
        1.7877697944641113,
        2.4869775772094727,
        1.1945360898971558,
        -0.8110142350196838,
        -1.4064600467681885,
        1.9353395700454712,
        1.2929015159606934,
        0.7443129420280457,
        -0.36050400137901306,
        0.08685021102428436,
        2.43908953666687,
        0.11458677053451538,
        -1.886358380317688,
        -1.1550467014312744,
        -0.8284923434257507,
        2.9673149585723877,
        3.9823312759399414,
        0.4658660590648651,
        -0.8823812007904053,
        -0.9404929876327515,
        -1.9979443550109863,
        0.3468366861343384,
        1.6119470596313477,
        1.0381513833999634,
        0.34465891122817993,
        0.5622848868370056,
        2.9219136238098145,
        1.2707182168960571,
        1.1399272680282593,
        4.066108226776123,
        -0.04211365804076195,
        1.253853440284729,
        -0.7263603210449219,
        0.6179059743881226,
        -1.2825148105621338,
        2.2965846061706543,
        3.7277472019195557,
        -0.9247987866401672,
        -1.3003145456314087,
        1.7219865322113037,
        0.00534464418888092,
        0.020035427063703537,
        0.018490638583898544,
        -0.015671906992793083,
        0.0744003877043724,
        3.1835508346557617,
        2.599778890609741,
        3.6061792373657227,
        0.48429563641548157,
        2.1498587131500244,
        1.2262563705444336,
        -0.5370882749557495,
        -0.9655038714408875,
        1.3365596532821655,
        0.7116000652313232,
        0.2922808825969696,
        -0.3782927989959717,
        -0.03379519283771515,
        2.057244300842285,
        0.5091395974159241,
        -1.691407322883606,
        -0.6581880450248718,
        -0.5728909969329834,
        2.8338561058044434,
        2.347774028778076,
        0.0913994237780571,
        -0.8000578880310059,
        -0.9936032295227051,
        -1.5065428018569946,
        1.3252816200256348,
        1.4377315044403076,
        -0.012688693590462208,
        0.409282922744751,
        -0.22312718629837036,
        1.2828834056854248,
        0.03298750892281532,
        1.1014838218688965,
        2.4928033351898193,
        -0.17619949579238892,
        1.244360089302063,
        -1.0409832000732422,
        0.3823937773704529,
        -0.7863627076148987,
        2.1163320541381836,
        1.3017067909240723,
        -0.9656246900558472,
        -0.3773353695869446,
        0.8846888542175293,
        0.0365336649119854,
        0.03848994895815849,
        0.008153393864631653,
        -0.0370437353849411,
        0.020625228062272072,
        3.831338405609131,
        2.682119846343994,
        3.924781084060669,
        0.6332046389579773,
        2.4256458282470703,
        1.1398814916610718,
        -0.9636784195899963,
        -1.5328245162963867,
        1.2720235586166382,
        1.0585942268371582,
        0.14041535556316376,
        -0.4590792953968048,
        -0.06902202218770981,
        2.2050273418426514,
        0.34315380454063416,
        -1.928505539894104,
        -1.5887266397476196,
        -0.29872485995292664,
        2.1445605754852295,
        2.8019943237304688,
        -0.37280023097991943,
        -1.6019823551177979,
        -1.024430751800537,
        -0.8614802956581116,
        1.8491922616958618,
        1.7959825992584229,
        0.1470165103673935,
        0.2665529251098633,
        -0.411149799823761,
        0.7042008638381958,
        -0.008135923184454441,
        1.2177484035491943,
        3.0037992000579834,
        -0.18680888414382935,
        0.9350976943969727,
        -1.3345519304275513,
        -0.046196408569812775,
        -0.318352609872818,
        2.1129543781280518,
        3.0940935611724854,
        -1.4044691324234009,
        -0.8216872811317444,
        1.3979862928390503,
        0.008316494524478912,
        0.004127237945795059,
        0.04218020662665367,
        0.030972305685281754,
        0.1151227131485939,
        1.1313754320144653,
        1.374075174331665,
        1.3500559329986572,
        -0.8553767800331116,
        -0.007855061441659927,
        -0.606048047542572,
        1.456982135772705,
        -0.45210790634155273,
        0.5983735918998718,
        0.4048108458518982,
        0.21634408831596375,
        1.5952403545379639,
        0.15183928608894348,
        -0.014465214684605598,
        -0.011974183842539787,
        0.010978039354085922,
        0.04175447300076485,
        0.040459420531988144,
        -0.44284069538116455,
        -0.0017977356910705566,
        0.025969248265028,
        0.9173920154571533,
        0.17438778281211853,
        -0.17178085446357727,
        0.44856593012809753,
        1.5433627367019653,
        1.6938914060592651,
        0.47356706857681274,
        0.006945431232452393,
        -0.030448850244283676,
        -0.12211086601018906,
        -0.42135629057884216,
        2.2687337398529053,
        0.0003466293856035918,
        0.05489363521337509,
        0.018473483622074127,
        -0.08594207465648651,
        -0.7225068211555481,
        0.029442403465509415,
        0.46537548303604126,
        0.6742458343505859,
        0.009864568710327148,
        1.9631726741790771,
        -0.002680916339159012,
        -0.013393085449934006,
        -0.042347151786088943,
        -0.0047935545444488525,
        0.03946945443749428,
        3.6816749572753906,
        2.770404577255249,
        4.054065227508545,
        0.2943650484085083,
        3.5938053131103516,
        1.2259374856948853,
        -1.4744620323181152,
        -1.741503357887268,
        1.8398455381393433,
        0.6945842504501343,
        0.30271774530410767,
        -0.3056885004043579,
        -0.40939104557037354,
        3.262852907180786,
        0.8165472745895386,
        -1.2499897480010986,
        -0.9951412677764893,
        -0.6860197186470032,
        3.0996739864349365,
        2.8999645709991455,
        -0.31032875180244446,
        -0.6573534607887268,
        -0.545872151851654,
        -0.594655454158783,
        0.9206598401069641,
        2.128204822540283,
        1.1818854808807373,
        -1.1528704166412354,
        0.6801734566688538,
        3.846376419067383,
        1.355607271194458,
        0.9710261225700378,
        3.304987668991089,
        -0.05313172936439514,
        0.9272538423538208,
        -1.0735995769500732,
        0.1893077939748764,
        -0.4563541114330292,
        0.8429217338562012,
        2.250811815261841,
        -1.0558139085769653,
        -0.5708431005477905,
        1.3254786729812622,
        -0.11720537394285202,
        -0.3572317957878113,
        0.05530393496155739,
        -1.0408153533935547,
        -0.0053490083664655685,
        -0.3527180254459381,
        0.2705458700656891,
        0.6950064301490784,
        0.7403549551963806,
        -0.47686120867729187,
        0.5630006194114685,
        0.20558762550354004,
        0.0006413328228518367,
        0.058122552931308746,
        -0.3774949014186859,
        -0.04191179946064949,
        0.5639545321464539,
        0.16872139275074005,
        -0.3906746208667755,
        0.020623696967959404,
        0.0611988790333271,
        0.3228374123573303,
        0.5610583424568176,
        -0.7557224035263062,
        0.4327366352081299,
        -0.15553927421569824,
        -0.05899267643690109,
        -0.7640861868858337,
        -0.8929163217544556,
        1.4793301820755005,
        0.5355819463729858,
        -1.877578854560852,
        1.3326436281204224,
        -0.2480245679616928,
        -1.6025646924972534,
        -0.560059130191803,
        0.47624754905700684,
        -0.700548529624939,
        -0.025781571865081787,
        0.5934699773788452,
        0.40517911314964294,
        0.8741433620452881,
        0.14182433485984802,
        1.3242343664169312,
        0.23096774518489838,
        0.41265350580215454,
        0.8648241758346558,
        -0.8690267205238342,
        0.025575947016477585,
        0.0339348129928112,
        -0.013803960755467415,
        -0.01957368664443493,
        0.02511119656264782,
        -2.4199154376983643,
        -2.028013229370117,
        -2.545832633972168,
        -0.25844883918762207,
        -2.2570059299468994,
        -0.9964451193809509,
        -0.10484205931425095,
        1.2285475730895996,
        -0.8494950532913208,
        -1.0740333795547485,
        0.9290040135383606,
        0.05602637305855751,
        0.19198501110076904,
        -2.2456676959991455,
        -0.5109122395515442,
        1.5273661613464355,
        1.1115182638168335,
        1.1222816705703735,
        -1.4710359573364258,
        -1.2904202938079834,
        -1.0161699056625366,
        0.5111002922058105,
        -0.4327024221420288,
        2.1709234714508057,
        1.1468689441680908,
        -0.15904931724071503,
        -0.16201451420783997,
        -0.4931560158729553,
        -0.3291434049606323,
        -0.41908204555511475,
        -1.3033995628356934,
        -0.6594296097755432,
        -3.53753924369812,
        0.012245632708072662,
        0.507361650466919,
        2.558603048324585,
        1.0736289024353027,
        1.1017482280731201,
        0.06871126592159271,
        -1.0111011266708374,
        1.1961573362350464,
        0.7624524831771851,
        -0.7229110598564148,
        -0.02553413063287735,
        -0.022820819169282913,
        0.024278435856103897,
        0.02881650999188423,
        0.06320305913686752,
        -3.305429220199585,
        -1.5209808349609375,
        -3.599942922592163,
        -1.1914198398590088,
        -2.824446201324463,
        -0.9618980288505554,
        -0.16106726229190826,
        2.0487542152404785,
        -0.6255022883415222,
        -1.5242438316345215,
        1.330719232559204,
        0.17192654311656952,
        0.24040091037750244,
        -2.3800134658813477,
        -0.7357341051101685,
        2.0359838008880615,
        1.9688193798065186,
        1.147971749305725,
        -2.663010358810425,
        -2.7814929485321045,
        -0.7914503216743469,
        0.6674959063529968,
        -0.318582683801651,
        2.983828544616699,
        0.9029061794281006,
        -0.19983196258544922,
        0.019207192584872246,
        -0.9169222116470337,
        -0.4285658299922943,
        -0.22551178932189941,
        -0.8318055868148804,
        -0.9781628251075745,
        -3.675938844680786,
        0.10342064499855042,
        0.4115463197231293,
        2.4275083541870117,
        0.9058420658111572,
        0.8921998739242554,
        -1.4111922979354858,
        -0.7924985885620117,
        1.6629977226257324,
        1.0636484622955322,
        -0.38487526774406433,
        -0.021234184503555298,
        -0.03267243131995201,
        0.03802168741822243,
        0.013076134026050568,
        0.0005464106798171997,
        0.035226453095674515,
        -0.02575279399752617,
        -0.021597204729914665,
        0.03134073689579964,
        0.01920655369758606,
        0.015523668378591537,
        -0.03091708943247795,
        0.030708815902471542,
        -0.027897339314222336,
        0.005443178117275238,
        0.006334178149700165,
        -0.03276112303137779,
        0.01771826297044754,
        0.0052965618669986725,
        0.03727841004729271,
        -0.010705020278692245,
        0.025376636534929276,
        -0.021067490801215172,
        0.022698942571878433,
        0.007567014545202255,
        0.04159913584589958,
        0.0253770612180233,
        -0.016144031658768654,
        0.03958640620112419,
        0.04036084935069084,
        0.005885526537895203,
        0.04154335334897041,
        0.008198317140340805,
        -0.00013451650738716125,
        0.016548283398151398,
        0.009540233761072159,
        -0.011234093457460403,
        -0.02412501908838749,
        -0.01344337873160839,
        -0.03560149297118187,
        0.008135270327329636,
        0.035658400505781174,
        0.030893448740243912,
        -0.005654674023389816,
        -0.02489917352795601,
        -0.014522358775138855,
        -0.03369053825736046,
        0.030563894659280777,
        0.04122145101428032,
        -0.03487994521856308,
        -0.0048865750432014465,
        0.013002414256334305,
        0.20933738350868225,
        -1.4243885278701782,
        -1.9551360607147217,
        -4.3296799659729,
        1.2903047800064087,
        -0.03776995837688446,
        0.8921939134597778,
        -1.8071587085723877,
        0.8537613153457642,
        -0.6995351910591125,
        -2.523139476776123,
        0.10050521790981293,
        0.026771610602736473,
        0.20450210571289062,
        -0.03699741140007973,
        -0.007761038839817047,
        0.03808566555380821,
        -0.012635815888643265,
        -0.019620154052972794,
        -0.6020004749298096,
        -0.009205926209688187,
        -0.002843908965587616,
        -1.265375018119812,
        -0.040220197290182114,
        1.3400202989578247,
        1.715450644493103,
        -0.5344378352165222,
        -2.940744400024414,
        -0.38026562333106995,
        -0.027430539950728416,
        -0.036530110985040665,
        -0.5608869194984436,
        0.6821771264076233,
        -2.015174150466919,
        0.2555992305278778,
        1.119063377380371,
        -0.0077935196459293365,
        -0.3474538326263428,
        0.49375665187835693,
        0.02573653683066368,
        0.6107360124588013,
        -0.7626358270645142,
        -0.04266273230314255,
        -0.5796269774436951,
        -0.003793109208345413,
        0.04004206880927086,
        -0.010602958500385284,
        0.023002702742815018,
        -0.799471378326416,
        -1.6536476612091064,
        -2.9724478721618652,
        -0.027444109320640564,
        -2.054288387298584,
        -1.0017606019973755,
        -0.30243438482284546,
        0.8728283643722534,
        0.1049949899315834,
        -1.2709821462631226,
        -0.7895180583000183,
        -0.0004948102287016809,
        -0.015079418197274208,
        0.0017864182591438293,
        -1.3110119104385376,
        -0.08882598578929901,
        -0.6225746870040894,
        -0.6755446791648865,
        -0.9704533815383911,
        0.002330455929040909,
        -3.871011734008789,
        -0.9044284820556641,
        0.02400139346718788,
        -0.02414442040026188,
        -0.02077876217663288,
        0.013554226607084274,
        -6.151514530181885,
        -0.004876274615526199,
        -2.1750590801239014,
        0.1554831713438034,
        -2.525646686553955,
        -0.017560193315148354,
        -1.1505249738693237,
        -0.0036759227514266968,
        -0.4460138976573944,
        -1.118741512298584,
        3.1587722301483154,
        0.031323399394750595,
        0.8336783051490784,
        -0.7250620126724243,
        1.393038272857666,
        0.9487016201019287,
        0.270537406206131,
        -0.00122176855802536,
        1.1254618167877197,
        -0.19194495677947998,
        -0.47358575463294983,
        -0.02549961768090725,
        -0.4137551188468933,
        -0.4517979025840759,
        0.46565088629722595,
        0.4133799076080322,
        0.968732476234436,
        -0.0964406430721283,
        0.23904965817928314,
        -0.005105169024318457,
        -0.09338817000389099,
        0.18697193264961243,
        0.05575951561331749,
        0.04056087136268616,
        0.08600692451000214,
        0.26682814955711365,
        0.03434888646006584,
        0.04104689136147499,
        -0.748517632484436,
        0.17918021976947784
      ],
      [
        0.36908066272735596,
        1.286803960800171,
        1.4043090343475342,
        0.29504749178886414,
        0.0812397375702858,
        1.284641146659851,
        3.1787965297698975,
        0.42446133494377136,
        -0.28129395842552185,
        0.172122061252594,
        1.3539575338363647,
        1.9244332313537598,
        -0.3620680272579193,
        0.21785295009613037,
        0.03901301696896553,
        1.8321973085403442,
        -0.04811493679881096,
        2.9046003818511963,
        0.4852270185947418,
        2.1915433406829834,
        0.051703549921512604,
        2.9910717010498047,
        2.876559019088745,
        -0.8946914672851562,
        1.5590394735336304,
        -0.7555791735649109,
        1.0720884799957275,
        -0.22341223061084747,
        1.8277684450149536,
        -0.5534505844116211,
        0.025178607553243637,
        3.251265048980713,
        1.2566992044448853,
        2.58878231048584,
        -0.03934946656227112,
        1.2966632843017578,
        -2.3336448669433594,
        2.629920244216919,
        -0.60870361328125,
        1.0580044984817505,
        -0.0928688794374466,
        0.8033403158187866,
        -0.013872993178665638,
        0.8125197291374207,
        -0.03478255495429039,
        -0.015581352636218071,
        -0.01564902625977993,
        0.03148774430155754,
        0.19668889045715332,
        0.5197081565856934,
        1.1376450061798096,
        -0.905131995677948,
        -0.6261278390884399,
        1.1397417783737183,
        2.8207929134368896,
        -0.026850737631320953,
        0.2871587872505188,
        0.40396493673324585,
        0.9994940757751465,
        1.8994207382202148,
        -0.43964412808418274,
        -0.004904740024358034,
        -0.3232719302177429,
        1.5913516283035278,
        1.3371036052703857,
        2.6289405822753906,
        0.6418963074684143,
        2.047617197036743,
        -0.238708034157753,
        2.6490318775177,
        2.525808572769165,
        -1.194443702697754,
        1.7333377599716187,
        -0.4535517990589142,
        0.46012651920318604,
        -4.875243186950684,
        -0.44394928216934204,
        -0.2479207068681717,
        1.55649733543396,
        1.9030369520187378,
        1.1543118953704834,
        0.3725144565105438,
        -0.026935193687677383,
        0.11596668511629105,
        -2.313110828399658,
        1.7208539247512817,
        -0.36010870337486267,
        -0.11169052869081497,
        -0.5969865918159485,
        0.7452530860900879,
        0.22860205173492432,
        -0.6522959470748901,
        -0.007898379117250443,
        -0.04013689607381821,
        0.03938665613532066,
        -0.014704566448926926,
        0.20055115222930908,
        0.9463638067245483,
        1.5858927965164185,
        -1.36543869972229,
        -0.0670517235994339,
        0.9135274887084961,
        3.0202932357788086,
        0.2645644545555115,
        0.03406532108783722,
        0.2664206326007843,
        1.2592697143554688,
        1.9337347745895386,
        -0.455753356218338,
        0.1278984099626541,
        0.249354287981987,
        1.3359698057174683,
        0.1312575787305832,
        2.028290033340454,
        0.11317301541566849,
