{
  "backend": "torch",
  "state_size": 546,
  "option_size": 109,
  "hidden_size": 96,
  "architecture": "deep_v2",
  "device_preference": "cpu",
  "state_dict": {
    "joint_bias": [
      0.25722816586494446,
      0.2575332522392273,
      -0.36128807067871094,
      -0.8297560811042786,
      0.7622575163841248,
      -0.45459064841270447,
      -0.42606988549232483,
      0.504029393196106,
      0.6561898589134216,
      -0.3132857084274292,
      0.6899459362030029,
      0.20830415189266205,
      0.1955483853816986,
      0.5459251999855042,
      0.5394734740257263,
      0.5394791960716248,
      0.2939278781414032,
      -0.6677876114845276,
      0.7784917950630188,
      0.28317055106163025,
      -0.3077382445335388,
      -0.5241488218307495,
      -0.2900369465351105,
      0.664589524269104,
      0.0,
      0.0,
      0.0,
      0.0,
      0.0,
      0.0,
      0.0,
      0.0,
      0.0,
      0.0,
      0.0,
      0.0,
      0.0,
      0.0,
      0.0,
      0.0,
      0.0,
      0.0,
      0.0,
      0.0,
      0.0,
      0.0,
      0.0,
      0.0,
      0.0,
      0.0,
      0.0,
      0.0,
      0.0,
      0.0,
      0.0,
      0.0,
      0.0,
      0.0,
      0.0,
      0.0,
      0.0,
      0.0,
      0.0,
      0.0,
      0.0,
      0.0,
      0.0,
      0.0,
      0.0,
      0.0,
      0.0,
      0.0,
      0.0,
      0.0,
      0.0,
      0.0,
      0.0,
      0.0,
      0.0,
      0.0,
      0.0,
      0.0,
      0.0,
      0.0,
      0.0,
      0.0,
      0.0,
      0.0,
      0.0,
      0.0,
      0.0,
      0.0,
      0.0,
      0.0,
      0.0,
      0.0
    ],
    "state_linear.weight": [
      [
        0.15786419808864594,
        -1.0511164665222168,
        -0.5671694278717041,
        -0.8035207986831665,
        -0.07443910092115402,
        -0.8445441126823425,
        -0.9103707075119019,
        -0.3370783030986786,
        -0.2682281732559204,
        -0.5131512880325317,
        -0.2136153131723404,
        -0.4097164273262024,
        0.6632503867149353,
        0.25826990604400635,
        -0.6089974045753479,
        -0.5633239150047302,
        0.4231480360031128,
        -1.0116229057312012,
        0.04681742936372757,
        -0.5553588271141052,
        -0.7059681415557861,
        -1.0561987161636353,
        -0.16678395867347717,
        0.6026643514633179,
        -0.66518634557724,
        0.14501164853572845,
        -1.0292000770568848,
        -2.1575586795806885,
        -0.5278970003128052,
        -0.37898704409599304,
        -0.1748078167438507,
        -0.3950845003128052,
        -0.8532126545906067,
        -1.923435091972351,
        0.3660189211368561,
        0.17176692187786102,
        0.6139340400695801,
        -0.7659106254577637,
        0.4726811647415161,
        -1.06525719165802,
        -0.8585023880004883,
        0.16932205855846405,
        0.3765038549900055,
        -0.054984018206596375,
        0.042271364480257034,
        0.013041261583566666,
        0.029329191893339157,
        0.01727937161922455,
        0.04439438879489899,
        -0.3998868465423584,
        -0.2659672796726227,
        -0.9029189944267273,
        -0.00282904296182096,
        -0.4371277689933777,
        -0.9659759402275085,
        -0.2867976427078247,
        0.19045406579971313,
        -0.2928178608417511,
        -0.260395884513855,
        0.08553100377321243,
        0.2412772923707962,
        0.08009860664606094,
        -0.4698512554168701,
        -0.2511264681816101,
        0.3567942976951599,
        -0.046013813465833664,
        -0.5460934638977051,
        -0.12090370804071426,
        -1.159429669380188,
        -0.6940554976463318,
        -0.29897040128707886,
        1.7603832483291626,
        -0.905704915523529,
        1.5194201469421387,
        -0.7250664234161377,
        -2.0816192626953125,
        0.09937058389186859,
        -0.41339290142059326,
        0.09060109406709671,
        -0.7947216629981995,
        -0.40905383229255676,
        -1.2195653915405273,
        0.02666989527642727,
        0.9257071614265442,
        1.0688385963439941,
        -0.07485636323690414,
        0.9419228434562683,
        -1.0357849597930908,
        -0.10411334782838821,
        -0.3106376826763153,
        0.7015740275382996,
        0.7695092558860779,
        0.020473141223192215,
        -0.005075026303529739,
        -0.03375384584069252,
        0.012901641428470612,
        -0.002687860745936632,
        -0.6364933848381042,
        -0.07542753219604492,
        -0.398383229970932,
        -0.15611882507801056,
        -0.4347006678581238,
        -0.7035725116729736,
        -0.134424090385437,
        -0.052790138870477676,
        -0.3155350089073181,
        -0.08589295297861099,
        -0.004865248687565327,
        0.15976521372795105,
        0.06336589902639389,
        -0.946556806564331,
        0.01769942231476307,
        0.2927089035511017,
        -0.4905158579349518,
        0.43252256512641907,
        -0.7176840901374817,
        -2.2416117191314697,
        -0.8248324394226074,
        -0.12629561126232147,
        1.0185991525650024,
        -0.5941705107688904,
        0.5998176336288452,
        -0.6717615723609924,
        -1.6631118059158325,
        0.3236917555332184,
        -0.155283123254776,
        0.3602643311023712,
        0.4040383994579315,
        -0.3962927758693695,
        -1.6453580856323242,
        0.08787353336811066,
        0.41630178689956665,
        0.00397820770740509,
        -0.3129279315471649,
        0.3376854658126831,
        -1.1719027757644653,
        -0.5862721800804138,
        0.46624115109443665,
        0.11338262259960175,
        0.4917711317539215,
        -0.020756885409355164,
        -0.015310999006032944,
        -0.02170223742723465,
        0.03689703717827797,
        -0.6427220702171326,
        -0.8552836775779724,
        -0.7466395497322083,
        -0.8211140036582947,
        0.4959602653980255,
        0.0005220696330070496,
        -0.78816157579422,
        0.3416895866394043,
        -0.4054013788700104,
        -0.43478915095329285,
        -0.8782674074172974,
        -0.29525619745254517,
        0.40945714712142944,
        -0.6313230395317078,
        -0.025833144783973694,
        0.029844585806131363,
        0.022007260471582413,
        -0.03430987149477005,
        0.028343554586172104,
        -0.20413905382156372,
        -0.028074173256754875,
        -0.012409424409270287,
        -0.7936823964118958,
        0.4986148178577423,
        -0.06555354595184326,
        0.2833279073238373,
        -0.5582244396209717,
        -0.8386269807815552,
        -0.1167542114853859,
        0.040332671254873276,
        -0.027691613882780075,
        -0.2099115550518036,
        0.04359972104430199,
        -0.9529589414596558,
        -0.31687361001968384,
        -0.6371008157730103,
        0.001102149486541748,
        0.26164695620536804,
        -0.24403856694698334,
        -0.0011582672595977783,
        0.5801977515220642,
        -0.3008671700954437,
        0.029904615134000778,
        -0.8732591271400452,
        -0.036590296775102615,
        0.02121609076857567,
        0.027511324733495712,
        0.004370983690023422,
        -0.10822531580924988,
        -0.6396132707595825,
        -0.41906628012657166,
        0.1274230033159256,
        -0.10083668678998947,
        -1.0868819952011108,
        -1.1861885786056519,
        -0.40946996212005615,
        0.19225838780403137,
        -0.7065027952194214,
        -0.3132486641407013,
        0.2049264907836914,
        0.07013639807701111,
        0.07106564193964005,
        -1.2302147150039673,
        -0.5417457818984985,
        -0.2325904816389084,
        -0.31527799367904663,
        -0.16216419637203217,
        -0.7194350361824036,
        -0.3355996906757355,
        -0.4746576249599457,
        -0.2227087765932083,
        1.3485221862792969,
        0.02098803035914898,
        1.2128368616104126,
        -0.7514834403991699,
        -1.67336905002594,
        0.3160879909992218,
        -1.3392606973648071,
        0.3153269290924072,
        -0.32666149735450745,
        -0.4453071653842926,
        -0.7463964223861694,
        -0.10301361978054047,
        0.38135623931884766,
        1.2230159044265747,
        -0.031214335933327675,
        1.2545315027236938,
        -0.9673624634742737,
        -0.7260069251060486,
        -0.3834778070449829,
        0.33255481719970703,
        0.7719523310661316,
        -0.2238343507051468,
        0.2622435688972473,
        -1.2600276470184326,
        0.17707212269306183,
        0.059522345662117004,
        0.22938363254070282,
        0.5079228281974792,
        1.1039987802505493,
        -0.48736199736595154,
        -0.04842505604028702,
        -0.1294330209493637,
        -0.19612981379032135,
        -0.35385480523109436,
        0.16477327048778534,
        -0.07107970118522644,
        0.7904662489891052,
        0.07163504511117935,
        0.09352664649486542,
        -0.25139012932777405,
        -0.10264221578836441,
        0.6825523376464844,
        -0.2897682189941406,
        -0.22935059666633606,
        -0.5888732075691223,
        -0.7520632743835449,
        -1.1658722162246704,
        -0.14786066114902496,
        0.7284286618232727,
        0.49513405561447144,
        -0.48762014508247375,
        0.18889467418193817,
        0.8244775533676147,
        -0.3755934536457062,
        0.26315879821777344,
        0.6535428166389465,
        0.10480637848377228,
        -0.15883734822273254,
        -0.14378127455711365,
        0.03216885030269623,
        -0.05997077748179436,
        -0.37100908160209656,
        0.40065136551856995,
        0.28473377227783203,
        0.3057125210762024,
        -0.9970307350158691,
        0.9366801381111145,
        -0.21951176226139069,
        0.1076001301407814,
        0.028559718281030655,
        -0.026507828384637833,
        -0.009683821350336075,
        0.0038009360432624817,
        0.019796093925833702,
        -0.03635817766189575,
        0.6190751791000366,
        0.3320814371109009,
        -0.33806249499320984,
        0.20752236247062683,
        0.13560090959072113,
        0.07301319390535355,
        0.21408359706401825,
        0.2407168298959732,
        -0.03994381055235863,
        0.5241950154304504,
        -0.060677338391542435,
        -0.012930665165185928,
        0.6958405375480652,
        -0.05344264209270477,
        -0.0506705604493618,
        -0.8022372126579285,
        -0.7005363702774048,
        -1.3741105794906616,
        -1.1961307525634766,
        1.3524895906448364,
        -0.8027236461639404,
        -0.06050030142068863,
        0.5576589703559875,
        -1.071104884147644,
        0.3099137842655182,
        -1.0616194009780884,
        -0.003327763406559825,
        0.6087642312049866,
        0.04475542530417442,
        0.743951678276062,
        0.40873485803604126,
        -0.15249095857143402,
        -0.07833625376224518,
        0.7963225245475769,
        -0.8852428197860718,
        0.8094878196716309,
        -0.22600312530994415,
        -0.3636381924152374,
        0.5111645460128784,
        0.14253655076026917,
        -0.5291834473609924,
        -0.8741233944892883,
        0.0306679867208004,
        -0.009433392435312271,
        0.018242090940475464,
        0.03262706473469734,
        -0.011265619657933712,
        0.362917959690094,
        0.7739374041557312,
        0.8724412322044373,
        -0.18458132445812225,
        0.5615159273147583,
        0.34361112117767334,
        0.22686795890331268,
        -0.2180357426404953,
        0.2353069931268692,
        0.1270449459552765,
        0.5798169374465942,
        -0.22371022403240204,
        -0.11433972418308258,
        1.0617437362670898,
        0.05372557044029236,
        0.33353155851364136,
        -0.5485191345214844,
        -0.43383097648620605,
        -0.8638057708740234,
        0.1827552765607834,
        0.894291341304779,
        -0.383661150932312,
        0.055261217057704926,
        0.5089712738990784,
        -0.8736943006515503,
        0.5490016937255859,
        -1.2587010860443115,
        -0.10059479624032974,
        -0.6862809658050537,
        0.40663352608680725,
        1.1400654315948486,
        0.4476577937602997,
        -0.14341270923614502,
        -0.145660862326622,
        0.5500555038452148,
        -0.7610766291618347,
        0.32563188672065735,
        -0.06419751048088074,
        0.6877555847167969,
        0.6291663646697998,
        0.4847462773323059,
        -0.3856898248195648,
        -0.812861979007721,
        0.010956402868032455,
        0.04099153354763985,
        0.015689034014940262,
        -0.010873585939407349,
        0.03598086163401604,
        0.036176811903715134,
        -0.007644616067409515,
        0.039441321045160294,
        0.01574370265007019,
        -0.0031410828232765198,
        0.025927212089300156,
        0.017281580716371536,
        -0.028742590919137,
        -0.0408913753926754,
        -0.019955966621637344,
        -0.008962266147136688,
        0.033707644790410995,
        0.02372189238667488,
        0.0048993900418281555,
        0.017589177936315536,
        -0.006538968533277512,
        -0.030884474515914917,
        -0.020214280113577843,
        0.02849430963397026,
        0.025817375630140305,
        0.03422116860747337,
        -0.0412583127617836,
        -0.026400942355394363,
        0.027907345443964005,
        0.0358235128223896,
        0.03587549552321434,
        -0.004157885909080505,
        -0.01949119195342064,
        -0.008508812636137009,
        -0.028767120093107224,
        -0.03233232721686363,
        0.04113691672682762,
        -0.02356589026749134,
        -0.009149167686700821,
        0.018191490322351456,
        -0.014710672199726105,
        0.038556214421987534,
        0.004591718316078186,
        -0.03363313898444176,
        0.023935984820127487,
        0.01972712203860283,
        0.037586603313684464,
        -0.019320718944072723,
        -0.012062769383192062,
        0.022860895842313766,
        -0.00955682247877121,
        0.02071230486035347,
        -0.008593037724494934,
        0.21718885004520416,
        -0.10202823579311371,
        -0.5750648379325867,
        -0.3455498516559601,
        0.03207160159945488,
        -0.6732121706008911,
        0.11264225095510483,
        -1.176592469215393,
        -0.18783557415008545,
        -0.3264627158641815,
        -0.3663279712200165,
        -0.015759598463773727,
        -0.005302525125443935,
        0.01269550621509552,
        -0.023991359397768974,
        -0.023563986644148827,
        -0.02066291682422161,
        0.03606836125254631,
        -0.22558262944221497,
        0.029959451407194138,
        0.015492841601371765,
        0.4620731472969055,
        -0.19325965642929077,
        0.056895267218351364,
        -0.24813835322856903,
        -0.10308926552534103,
        0.6206916570663452,
        -0.3800647556781769,
        0.015052668750286102,
        -0.02874625474214554,
        -0.3470325469970703,
        -0.6534079313278198,
        0.5779464840888977,
        0.12271780520677567,
        -0.4250653088092804,
        -0.002056322991847992,
        0.02753041312098503,
        -1.3255869150161743,
        0.004807773977518082,
        -0.19486236572265625,
        -0.11535671353340149,
        0.02535829320549965,
        -0.10762029141187668,
        0.023574378341436386,
        -0.02348751202225685,
        0.012411434203386307,
        0.04003647342324257,
        0.733311653137207,
        0.9005612134933472,
        1.1588771343231201,
        0.016764342784881592,
        -0.47606244683265686,
        0.8347020149230957,
        0.15179018676280975,
        -0.694053053855896,
        0.23428893089294434,
        0.10037948191165924,
        -0.19537752866744995,
        0.2538412809371948,
        0.02649042382836342,
        0.007404383271932602,
        0.29981914162635803,
        0.362251341342926,
        0.14355897903442383,
        -0.9287350177764893,
        -0.3779567778110504,
        0.012097373604774475,
        -0.23610587418079376,
        0.98298579454422,
        -0.02666860818862915,
        -0.036984819918870926,
        0.005094405263662338,
        0.005884066224098206,
        1.4385831356048584,
        0.027581948786973953,
        -0.9776084423065186,
        0.39072102308273315,
        0.7325204014778137,
        -0.03988155722618103,
        0.0741247683763504,
        -0.010545700788497925,
        0.7886661887168884,
        0.311803936958313,
        -0.7213024497032166,
        0.00295913964509964,
        -0.7490769624710083,
        0.20480474829673767,
        0.048533689230680466,
        -0.5243932604789734,
        -0.13037332892417908,
        0.009875435382127762,
        -0.8518596887588501,
        -0.03431910276412964,
        1.0274792909622192,
        -0.042173366993665695,
        -0.09560222178697586,
        0.1218462735414505,
        -1.3461054563522339,
        0.0066490983590483665,
        -0.11434502899646759,
        -0.15981869399547577,
        0.27139219641685486,
        0.05916681885719299,
        -0.2177039235830307,
        0.16263754665851593,
        0.06781744956970215,
        0.018951836973428726,
        -0.1257249414920807,
        0.01695505529642105,
        -0.0029812725260853767,
        0.03646033629775047,
        0.7451492547988892,
        -0.2256627380847931
      ],
      [
        0.12748734652996063,
        -1.6357731819152832,
        -1.414610743522644,
        -0.7446609735488892,
        0.3094920217990875,
        -1.4379667043685913,
        -0.6571990251541138,
        -0.4308550953865051,
        -0.4417365491390228,
        -0.6281103491783142,
        -0.506881058216095,
        -0.4794328212738037,
        0.6438299417495728,
        0.2945197522640228,
        -0.45114246010780334,
        -1.2131658792495728,
        0.36785033345222473,
        -1.3353636264801025,
        -0.5352932214736938,
        -1.1007215976715088,
        -0.8719466924667358,
        -1.0133426189422607,
        -0.37372222542762756,
        0.3873961269855499,
        -0.03452996537089348,
        -1.039823293685913,
        -1.157894492149353,
        -0.7780107855796814,
        -1.7650283575057983,
        -0.03012995421886444,
        -0.6882561445236206,
        -1.0755964517593384,
        -0.5212688446044922,
        -2.4181981086730957,
        0.4161466062068939,
        -0.10178903490304947,
        0.5874489545822144,
        -1.1098028421401978,
        0.0747760534286499,
        -0.6100541949272156,
        -1.0593191385269165,
        0.06378858536481857,
        0.1973046511411667,
        -1.4344706535339355,
        -0.0405387282371521,
        -0.0008882023394107819,
        0.03744478151202202,
        0.023661267012357712,
        -0.07184477150440216,
        -0.6445692181587219,
        -0.8545918464660645,
        -0.6984080076217651,
        0.16984476149082184,
        -0.39806944131851196,
        -0.5815225839614868,
        -0.1649693101644516,
        0.08927305042743683,
        -0.1112034022808075,
        0.09388094395399094,
        -0.3937273621559143,
        0.2044704258441925,
        -0.0218188613653183,
        -0.2586599588394165,
        -0.17500470578670502,
        0.5490840673446655,
        -1.2565202713012695,
        0.11123930662870407,
        -0.5666263103485107,
        -0.6112821698188782,
        -1.1946768760681152,
        -0.46932992339134216,
        0.21608753502368927,
        0.20650263130664825,
        -0.27753010392189026,
        -0.8939787149429321,
        -0.3049221932888031,
        -0.24297896027565002,
        0.1825280785560608,
        -0.7099456191062927,
        -1.129539966583252,
        -0.11221860349178314,
        -2.0264573097229004,
        0.00685595627874136,
        0.26765719056129456,
        1.6168094873428345,
        -0.13332024216651917,
        0.29970303177833557,
        -0.44535544514656067,
        0.24742570519447327,
        -0.4374941289424896,
        1.5002400875091553,
        -0.4373234808444977,
        0.02228419855237007,
        -0.036989979445934296,
        0.01248672604560852,
        -0.016555845737457275,
        0.012467969208955765,
        -0.9152080416679382,
        -0.8447813987731934,
        -0.04562945291399956,
        0.1528090536594391,
        -0.6045259237289429,
        -0.6457494497299194,
        0.21674486994743347,
        0.3800547420978546,
        0.1275320053100586,
        -0.2924894094467163,
        -0.24890342354774475,
        0.22353015840053558,
        0.034761298447847366,
        -0.2567509114742279,
        -0.5903244018554688,
        0.5260757207870483,
        -0.7961629033088684,
        0.3321954309940338,
        -0.5366562604904175,
        -0.22306318581104279,
        -1.490979790687561,
        -0.8380942344665527,
        0.08185657113790512,
        0.9104987978935242,
        -0.723538339138031,
        -0.7673460245132446,
        -0.9508198499679565,
        -0.4777638912200928,
        0.5270784497261047,
        -0.8342296481132507,
        -1.4263532161712646,
        -0.1638997495174408,
        -1.8337701559066772,
        0.06961287558078766,
        0.46199125051498413,
        0.4451838731765747,
        -0.4829139709472656,
        0.8711652755737305,
        -0.27725914120674133,
        -0.09835854172706604,
        0.9216769933700562,
        1.0333372354507446,
        -0.22870522737503052,
        -0.020804794505238533,
        0.033185627311468124,
        0.022935394197702408,
        -0.00888492539525032,
        -0.36734330654144287,
        -0.8300198316574097,
        -0.7485769391059875,
        -0.2411452829837799,
        0.7586205005645752,
        0.03846190497279167,
        0.22795426845550537,
        -0.23863348364830017,
        0.04768690466880798,
        -0.7243657112121582,
        -0.3121257722377777,
        0.3177674412727356,
        -0.011133315041661263,
        -0.4029982089996338,
        0.027328554540872574,
        0.001134585589170456,
        0.03416570648550987,
        0.035544503480196,
        0.022749703377485275,
        -0.18556363880634308,
        0.0023292824625968933,
        0.022854860872030258,
        -0.47111600637435913,
        0.5814547538757324,
        0.04611396789550781,
        0.04337579756975174,
        -0.6123116612434387,
        -0.4916910231113434,
        -0.34079039096832275,
        0.0023626163601875305,
        0.01385071873664856,
        -0.5174741744995117,
        0.49318021535873413,
        -0.6179670691490173,
        -0.046718232333660126,
        -0.3059658408164978,
        -0.01573197916150093,
        -0.0872991532087326,
        0.028369160369038582,
        0.029041748493909836,
        -0.2565092444419861,
        -0.1727817803621292,
        0.03866462782025337,
        -1.1735831499099731,
        0.010437842458486557,
        -0.007969636470079422,
        -0.0008533596992492676,
        -0.021476631984114647,
        0.038383305072784424,
        -1.0341777801513672,
        -0.6066962480545044,
        0.3221864402294159,
        -0.04189567640423775,
        -1.157442569732666,
        -0.49909406900405884,
        -0.19408701360225677,
        0.11446739733219147,
        -0.3276102840900421,
        0.09311936050653458,
        -0.2191852480173111,
        0.27915847301483154,
        0.20912271738052368,
        -0.8486509323120117,
        -0.5732879638671875,
        0.3183324933052063,
        -0.8298301100730896,
        0.4354030191898346,
        -0.4011320471763611,
        -0.5641359090805054,
        -0.7041022181510925,
        -0.2795485854148865,
        -0.09084152430295944,
        0.05602739378809929,
        -0.6147168278694153,
        -0.610628604888916,
        -0.46759870648384094,
        -0.21332713961601257,
        0.1970704048871994,
        -0.46622177958488464,
        -0.7629920840263367,
        -0.16303591430187225,
        -0.8699190616607666,
        0.07651049643754959,
        -0.2902373671531677,
        1.3260456323623657,
        0.09021518379449844,
        0.7673981189727783,
        -0.5941327810287476,
        -0.3157508671283722,
        0.30564361810684204,
        0.5082451105117798,
        -0.34681397676467896,
        0.011939285323023796,
        0.5138552784919739,
        -1.000301718711853,
        0.1617973893880844,
        0.03328130394220352,
        0.1477096825838089,
        0.1429285854101181,
        -0.1025196835398674,
        0.4483474791049957,
        0.09358175843954086,
        0.1404217779636383,
        -0.4708689749240875,
        -0.3065652847290039,
        0.4186190962791443,
        0.4632857143878937,
        -0.2391176074743271,
        0.21169710159301758,
        -0.033337730914354324,
        -0.3966797888278961,
        0.10191938281059265,
        0.11399166285991669,
        -0.5609406232833862,
        -0.3507486581802368,
        -0.16376614570617676,
        -0.6041299104690552,
        -0.5855671167373657,
        0.3103863298892975,
        0.8270054459571838,
        -0.39222443103790283,
        -1.1192224025726318,
        0.7171288132667542,
        0.11965739727020264,
        -0.42289525270462036,
        -0.769416093826294,
        -0.5114628672599792,
        -0.5798078775405884,
        -0.11014208197593689,
        0.054876793175935745,
        -0.03416283056139946,
        -0.09226372092962265,
        0.008450266905128956,
        -0.38751816749572754,
        0.09715097397565842,
        -0.15580150485038757,
        0.5352493524551392,
        -0.34886544942855835,
        -0.252229779958725,
        -0.21772828698158264,
        0.03864600136876106,
        0.0232265405356884,
        -0.03198842704296112,
        -0.009025715291500092,
        -0.007816527970135212,
        0.33820831775665283,
        0.638283908367157,
        0.858481228351593,
        0.0781555101275444,
        0.6319800615310669,
        0.5319965481758118,
        -0.02912977524101734,
        -0.588879406452179,
        0.594876229763031,
        0.9073066711425781,
        -0.03473251312971115,
        -0.10716741532087326,
        -0.12263427674770355,
        0.6711042523384094,
        0.3485189974308014,
        -1.060691475868225,
        0.06157492473721504,
        -0.8408745527267456,
        -1.2551510334014893,
        -0.2172071635723114,
        -0.03415472432971001,
        0.19567085802555084,
        0.31917235255241394,
        -1.68864107131958,
        -0.9145398736000061,
        0.662075400352478,
        0.15053899586200714,
        -0.8700676560401917,
        -0.34672385454177856,
        0.3568214476108551,
        0.2214692234992981,
        0.4552590250968933,
        0.9989764094352722,
        0.011260400526225567,
        0.0017004524124786258,
        -1.2522475719451904,
        -0.4373010993003845,
        -0.5477010011672974,
        0.060830604285001755,
        0.18668557703495026,
        -1.1311551332473755,
        -0.27654123306274414,
        -0.2807808220386505,
        0.0182422436773777,
        -0.0033719539642333984,
        -0.015295188874006271,
        -0.012652819976210594,
        -0.0391635000705719,
        0.9220436215400696,
        1.1529605388641357,
        1.8746470212936401,
        0.19048351049423218,
        0.9068834781646729,
        0.7197636961936951,
        0.21709120273590088,
        -1.133694052696228,
        0.5004563331604004,
        1.2385351657867432,
        -0.0025403043255209923,
        -0.22655420005321503,
        -0.19841571152210236,
        0.6621109247207642,
        0.8076498508453369,
        -0.6953444480895996,
        -0.1760796457529068,
        -0.2787841260433197,
        -1.0901645421981812,
        0.773781955242157,
        0.7505589723587036,
        -0.07236563414335251,
        0.214656800031662,
        -1.2234232425689697,
        -0.1634231060743332,
        0.4874230921268463,
        0.401486337184906,
        -0.3830462098121643,
        -1.068346381187439,
        0.013201981782913208,
        -0.666558027267456,
        0.41516777873039246,
        1.2653424739837646,
        -0.14960359036922455,
        0.10188012570142746,
        -1.120158076286316,
        -0.39934876561164856,
        -1.23456871509552,
        0.5599641799926758,
        0.5821594595909119,
        -0.7000179886817932,
        -0.1385323852300644,
        0.07857678830623627,
        0.023838546127080917,
        -0.03488779813051224,
        0.030525129288434982,
        -0.011143434792757034,
        0.007936198264360428,
        -0.014852229505777359,
        -0.008810453116893768,
        -0.03709503263235092,
        -0.0028630197048187256,
        0.035275209695100784,
        -0.03653440624475479,
        0.025706786662340164,
        -0.03387076035141945,
        -0.03700116276741028,
        0.03274836018681526,
        0.0007654428482055664,
        0.04229157045483589,
        -0.02281145192682743,
        -0.009959757328033447,
        -0.01547214575111866,
        0.005756121128797531,
        0.009389296174049377,
        -0.03745428845286369,
        -0.026818612590432167,
        -0.0020454488694667816,
        -0.010730024427175522,
        0.04204045608639717,
        -0.002383589744567871,
        -0.007620181888341904,
        0.041232090443372726,
        0.01528741791844368,
        -0.03517703339457512,
        -0.03543027117848396,
        0.004265386611223221,
        -0.013635838404297829,
        0.005652241408824921,
        0.01319393515586853,
        0.017989754676818848,
        -0.03190681338310242,
        0.036043282598257065,
        -0.014977296814322472,
        0.01920202374458313,
        0.02740752324461937,
        0.01660538837313652,
        0.013912152498960495,
        -0.03559517860412598,
        -0.02866850048303604,
        -0.04090474173426628,
        -0.01211470551788807,
        -0.0019533932209014893,
        -0.03504432737827301,
        0.006204672157764435,
        -0.2244482785463333,
        0.1650753915309906,
        0.24310021102428436,
        1.0873421430587769,
        -0.4602199196815491,
        -0.012393124401569366,
        0.3968236744403839,
        -0.5792352557182312,
        -0.6174559593200684,
        -0.3363272547721863,
        1.3237688541412354,
        -0.7997377514839172,
        -0.24502122402191162,
        -0.23012669384479523,
        -0.00834491103887558,
        -0.009257566183805466,
        0.0376591719686985,
        -0.03848051652312279,
        -0.006477769464254379,
        -0.2964061200618744,
        0.029450219124555588,
        -0.030414516106247902,
        0.6212506890296936,
        -0.5171313285827637,
        0.049044061452150345,
        -0.27787458896636963,
        0.32571491599082947,
        1.0763524770736694,
        0.05656509846448898,
        -0.04054087772965431,
        0.03454439714550972,
        -0.03246521204710007,
        -0.6143316626548767,
        1.0407503843307495,
        -0.3760955333709717,
        -0.16413579881191254,
        0.022596042603254318,
        0.03754190355539322,
        -0.6389989852905273,
        0.03050968423485756,
        -0.07881443947553635,
        -0.009245806373655796,
        0.013069458305835724,
        0.013569035567343235,
        2.7593225240707397e-05,
        -0.03510889783501625,
        -0.0076507143676280975,
        0.01541130244731903,
        0.9491216540336609,
        1.2916275262832642,
        1.8749713897705078,
        0.020123910158872604,
        0.5963053107261658,
        1.0351498126983643,
        0.16961847245693207,
        -0.2659146785736084,
        0.0050419969484210014,
        0.13084419071674347,
        0.8995329737663269,
        -0.04478636011481285,
        -0.008450362831354141,
        0.006850983947515488,
        0.7348912358283997,
        0.19487880170345306,
        0.28007444739341736,
        0.8813485503196716,
        -0.2663571536540985,
        -0.01153532788157463,
        0.03335973992943764,
        0.7298480868339539,
        0.006681118160486221,
        -0.020475788041949272,
        -0.007560864090919495,
        0.018056578934192657,
        2.1539807319641113,
        -0.002739854156970978,
        0.3023681938648224,
        -1.2888240814208984,
        0.405612051486969,
        0.011705789715051651,
        0.8005045056343079,
        -0.03848796710371971,
        0.8972764611244202,
        0.8287869691848755,
        -1.4509210586547852,
        -0.00201202929019928,
        0.17008481919765472,
        -0.0751054510474205,
        0.15547245740890503,
        -1.0710893869400024,
        0.046580106019973755,
        -0.015746386721730232,
        0.10348596423864365,
        -0.038314130157232285,
        0.8477023243904114,
        -0.005694963037967682,
        0.08754797279834747,
        0.3586111068725586,
        -2.127169370651245,
        0.060204632580280304,
        -0.23995548486709595,
        -0.09034432470798492,
        0.029522888362407684,
        -0.38451725244522095,
        -0.05315209552645683,
        0.1769847273826599,
        -0.09903065860271454,
        0.039252862334251404,
        0.025751978158950806,
        -0.22799842059612274,
        -0.04516831040382385,
        -0.015721367672085762,
        0.9283908009529114,
        -0.15082144737243652
      ],
      [
        -0.1826154589653015,
        0.8761916756629944,
        0.5400761365890503,
        0.6156491637229919,
        -0.040906552225351334,
        0.44552889466285706,
        0.4240877032279968,
        0.2129906266927719,
        0.4425717890262604,
        0.7918974161148071,
        0.14655959606170654,
        0.10214239358901978,
        -0.576937198638916,
        -0.255977064371109,
        0.6764314770698547,
        -0.23676852881908417,
        -0.3058355450630188,
        0.3081604242324829,
        0.9979369640350342,
        0.3281981945037842,
        0.5279610753059387,
        1.027480959892273,
        0.26606208086013794,
        0.3291279971599579,
        -0.8829060792922974,
        0.17704688012599945,
        0.6972121596336365,
        1.0292181968688965,
        0.3764386773109436,
        -0.4199783205986023,
        1.571898341178894,
        1.3957006931304932,
        0.47170981764793396,
        1.5123339891433716,
        -0.40511608123779297,
        0.19680637121200562,
        -1.1747674942016602,
        0.8555735349655151,
        0.3907078504562378,
        0.5320176482200623,
        1.110085368156433,
        -0.18015483021736145,
        -0.3072466254234314,
        1.004512071609497,
        0.021387819200754166,
        0.04119562730193138,
        0.03761514648795128,
        0.02145017310976982,
        -0.00011767912656068802,
        0.2610580325126648,
        0.28309598565101624,
        0.08288507163524628,
        -0.021308107301592827,
        0.025292709469795227,
        0.2503519058227539,
        -0.37290164828300476,
        0.20077398419380188,
        0.08391125500202179,
        -0.003092234255746007,
        -0.41656163334846497,
        -0.12277146428823471,
        -0.024986516684293747,
        0.4753246009349823,
        -0.5009394884109497,
        -0.4251106083393097,
        1.250797986984253,
        0.9538822174072266,
        0.7579359412193298,
        0.5424845218658447,
        0.2104581892490387,
        -0.14669297635555267,
        -0.33442234992980957,
        -0.6027144193649292,
        -1.2230541706085205,
        0.3666928708553314,
        -0.5017194151878357,
        0.8156630396842957,
        -0.4934176802635193,
        2.023533582687378,
        0.9757514595985413,
        0.032475512474775314,
        1.384690523147583,
        -0.06521588563919067,
        -0.20776574313640594,
        -1.011034607887268,
        0.0791340246796608,
        0.478245347738266,
        0.807395339012146,
        -0.03460737317800522,
        -0.22385583817958832,
        -0.6863725185394287,
        -0.40674254298210144,
        -0.02600453607738018,
        0.0367552675306797,
        -0.0160969290882349,
        -0.01871092990040779,
        0.08638230711221695,
        0.766322135925293,
        0.75356525182724,
        0.263910710811615,
        0.07395470887422562,
        0.048352740705013275,
        0.15419600903987885,
        -0.15843655169010162,
        0.4021916091442108,
        0.45611923933029175,
        0.42150160670280457,
        -0.29762187600135803,
        -0.18749885261058807,
        0.03859647363424301,
        0.3795870244503021,
        -0.19470049440860748,
        -0.6626410484313965,
        0.6589259505271912,
        -0.02404094487428665,
        -0.17502912878990173,
        0.22332915663719177,
        0.6991493105888367,
        0.14599324762821198,
        0.7276159524917603,
        -0.762597382068634,
        0.8706573843955994,
        0.8929286003112793,
        0.12268059700727463,
        0.2943666875362396,
        -0.668751060962677,
        1.8693331480026245,
        1.2775901556015015,
        0.09484516829252243,
        0.38997969031333923,
        -0.02323104813694954,
        -0.5552230477333069,
        -0.6085243225097656,
        0.11564408987760544,
        0.5439321398735046,
        0.5685738325119019,
        0.3065897226333618,
        -0.18070665001869202,
        -0.49994271993637085,
        0.8024789094924927,
        0.030741211026906967,
        -0.008938591927289963,
        0.0418054424226284,
        0.013911034911870956,
        0.38782191276550293,
        0.4718404710292816,
        0.5727342367172241,
        -0.2513997256755829,
        0.12675414979457855,
        -0.04230763763189316,
        0.045968472957611084,
        -0.2781490087509155,
        0.3106359839439392,
        0.6888002753257751,
        -0.24994638562202454,
        -0.14460617303848267,
        0.42031267285346985,
        0.3584519028663635,
        -0.026064487174153328,
        -0.01220129057765007,
        -0.005316242575645447,
        0.018960826098918915,
        0.0202813558280468,
        0.4838784337043762,
        -0.022780535742640495,
        0.02738432213664055,
        0.11983481794595718,
        -0.22780950367450714,
        0.030740685760974884,
        0.12656766176223755,
        0.4581754207611084,
        -0.33354121446609497,
        0.1506696194410324,
        -0.010848090052604675,
        -0.029265448451042175,
        0.5983589291572571,
        -0.19143429398536682,
        0.7560532689094543,
        0.5088409185409546,
        0.24379175901412964,
        -0.035453278571367264,
        0.2808874249458313,
        -0.0279359333217144,
        0.009610023349523544,
        0.050713617354631424,
        -0.27097123861312866,
        -0.03666513413190842,
        0.910930335521698,
        -0.01762334816157818,
        0.03943386301398277,
        0.023998688906431198,
        0.015894483774900436,
        0.028182009235024452,
        1.0381003618240356,
        0.33256831765174866,
        -0.13986767828464508,
        0.44981616735458374,
        1.2631748914718628,
        0.2736213505268097,
        -0.08496858179569244,
        1.0189456939697266,
        0.5967006087303162,
        0.5218432545661926,
        -0.37894901633262634,
        -0.19549036026000977,
        -0.09708120673894882,
        1.5743787288665771,
        0.14105616509914398,
        -1.2725167274475098,
        0.38445448875427246,
        -0.0961415246129036,
        0.5967912077903748,
        0.31988412141799927,
        0.9769687652587891,
        0.26548096537590027,
        -0.001965077593922615,
        -0.019675781950354576,
        -0.027849918231368065,
        0.4927986264228821,
        -0.14406627416610718,
        1.2440959215164185,
        -0.4444250464439392,
        2.1409685611724854,
        1.0708268880844116,
        0.08391021937131882,
        0.2823653519153595,
        -0.000269001757260412,
        -0.19192266464233398,
        -1.0011240243911743,
        -0.10402408987283707,
        0.11962711066007614,
        0.4554629325866699,
        0.503876268863678,
        -0.2791692614555359,
        -0.47151610255241394,
        0.6170702576637268,
        -0.019741760566830635,
        -0.3436739146709442,
        0.1706271469593048,
        -0.611197292804718,
        -0.0043961051851511,
        -0.3337917625904083,
        -0.19394196569919586,
        -1.181746244430542,
        0.8250951766967773,
        -0.626787543296814,
        0.5914032459259033,
        -0.02155628614127636,
        -0.18238775432109833,
        0.009602128528058529,
        0.0347040630877018,
        -0.021284732967615128,
        0.3463076055049896,
        0.4237293303012848,
        -0.3951900899410248,
        -0.3558249771595001,
        0.5692383050918579,
        0.2928972840309143,
        1.558077096939087,
        -0.011068787425756454,
        -0.17984697222709656,
        -0.43440622091293335,
        0.5610935688018799,
        0.26291412115097046,
        0.27558833360671997,
        -0.10894237458705902,
        -0.10288100689649582,
        -1.6453853845596313,
        1.1173135042190552,
        0.405495822429657,
        0.7195968627929688,
        0.7258787155151367,
        0.32959187030792236,
        -0.9389755725860596,
        -0.04594094306230545,
        -0.06933744996786118,
        0.5417722463607788,
        0.2812768518924713,
        0.11025016009807587,
        -1.3101868629455566,
        -0.2362668663263321,
        0.7994474768638611,
        -0.3833426535129547,
        -0.35502317547798157,
        0.013263937085866928,
        -0.02953403629362583,
        0.011281032115221024,
        0.02014000341296196,
        -0.0541735514998436,
        -0.4221380054950714,
        -0.8520024418830872,
        -0.8208275437355042,
        0.2178904116153717,
        -0.752041757106781,
        -0.7139289975166321,
        1.4275946617126465,
        -0.5013551712036133,
        0.11392930150032043,
        -0.6942727565765381,
        -0.3941366672515869,
        0.13103365898132324,
        0.052311673760414124,
        -0.38131001591682434,
        -0.6617557406425476,
        0.8572781682014465,
        1.7809934616088867,
        1.0629973411560059,
        -0.244156152009964,
        0.07015487551689148,
        -1.47676682472229,
        -0.37563827633857727,
        0.09204116463661194,
        2.3560428619384766,
        0.8268473148345947,
        -0.5078575015068054,
        -0.9101775884628296,
        0.5183901190757751,
        0.04983117803931236,
        -0.4631616771221161,
        -1.3770076036453247,
        0.16953648626804352,
        -1.0636752843856812,
        -0.0032242685556411743,
        -0.611167311668396,
        0.3824586868286133,
        -0.18787646293640137,
        -0.7137446403503418,
        0.07796262949705124,
        -0.6463666558265686,
        1.1807669401168823,
        0.9266422390937805,
        -0.48426541686058044,
        0.0014702565968036652,
        0.02241281047463417,
        0.018487710505723953,
        -0.0016146227717399597,
        0.08184726536273956,
        -0.7725390195846558,
        -1.0497850179672241,
        -1.8652993440628052,
        0.20437264442443848,
        -1.3262392282485962,
        -0.4397004544734955,
        0.17874810099601746,
        -0.06520778685808182,
        -0.3462240397930145,
        -0.4534398317337036,
        -0.26080405712127686,
        0.24688757956027985,
        0.17980092763900757,
        -0.9962635040283203,
        -0.9882915616035461,
        0.7085018157958984,
        1.0272377729415894,
        1.4557024240493774,
        -0.37679603695869446,
        -0.5039497017860413,
        -1.5049002170562744,
        0.18973428010940552,
        0.772479772567749,
        3.1903369426727295,
        0.11306335777044296,
        -0.7625306844711304,
        -1.2286940813064575,
        0.4128730595111847,
        -0.3848680257797241,
        -0.1546025425195694,
        -1.6125353574752808,
        -0.24262921512126923,
        -1.087165355682373,
        0.1418619453907013,
        -0.3441999852657318,
        0.02128979004919529,
        -0.8062563538551331,
        -0.3187166452407837,
        0.2535247206687927,
        -0.06811592727899551,
        1.099724531173706,
        1.0276603698730469,
        -1.622487187385559,
        -0.020578857511281967,
        -0.012788515537977219,
        -0.016268329694867134,
        0.0018204860389232635,
        -0.042545683681964874,
        0.03407396748661995,
        -0.0022078603506088257,
        0.007006198167800903,
        0.007320787757635117,
        0.023934897035360336,
        0.017224926501512527,
        0.019068442285060883,
        0.03040611371397972,
        0.040884409099817276,
        -0.01840471662580967,
        0.03213658556342125,
        0.04008610174059868,
        -0.006127212196588516,
        -0.03021780401468277,
        0.008647792041301727,
        -0.01411791704595089,
        0.02158048376441002,
        0.030287977308034897,
        0.013047296553850174,
        -0.014235144481062889,
        0.012303594499826431,
        0.005746860057115555,
        -0.03853011131286621,
        0.03372873738408089,
        -0.038874994963407516,
        -0.0030270181596279144,
        -0.008569419384002686,
        0.011331666260957718,
        0.010532859712839127,
        -0.009075302630662918,
        -0.027165425941348076,
        0.029041718691587448,
        -0.042063649743795395,
        -0.01738724112510681,
        0.015028644353151321,
        -0.02452431246638298,
        0.026475798338651657,
        0.02359027788043022,
        -0.007547762244939804,
        0.039951954036951065,
        -0.017388135194778442,
        0.004545111209154129,
        0.021792713552713394,
        -0.041374485939741135,
        0.0019927285611629486,
        -0.03237799555063248,
        -0.033152054995298386,
        -0.4129859507083893,
        -0.41870978474617004,
        -0.33496761322021484,
        -0.0017099352553486824,
        -0.28480958938598633,
        -0.005292821675539017,
        0.35536015033721924,
        -0.760083794593811,
        0.5177082419395447,
        -0.07723890244960785,
        0.05826452374458313,
        -0.06885398924350739,
        -0.035500846803188324,
        -0.38869789242744446,
        0.03647821024060249,
        0.016089700162410736,
        -0.04153924807906151,
        -0.03805208206176758,
        -0.023279424756765366,
        -0.18894009292125702,
        0.041915591806173325,
        -0.021789206191897392,
        -0.21527159214019775,
        0.1732226014137268,
        -0.24271175265312195,
        0.03102383390069008,
        0.225942924618721,
        -0.3072337210178375,
        0.12927405536174774,
        0.013693701475858688,
        -0.03348834812641144,
        0.04041879251599312,
        -0.3345443904399872,
        0.023639779537916183,
        -0.5196775794029236,
        0.6625381112098694,
        -0.016151225194334984,
        -0.0993407666683197,
        0.8442183136940002,
        -0.024191806092858315,
        0.2849304974079132,
        0.5686852335929871,
        -0.008796542882919312,
        -0.3512269854545593,
        -0.020440682768821716,
        0.008990619331598282,
        -0.039780884981155396,
        0.0013248920440673828,
        -0.9435300827026367,
        -1.1000416278839111,
        -2.4163553714752197,
        0.015884090214967728,
        -0.47809267044067383,
        -1.0524042844772339,
        0.37955307960510254,
        0.7024180293083191,
        -0.5511534810066223,
        -0.7472259402275085,
        0.492626428604126,
        -0.5360087156295776,
        -0.03333988040685654,
        0.022001560777425766,
        -0.6380714774131775,
        -0.6404791474342346,
        -0.5318412184715271,
        1.3055975437164307,
        1.202467441558838,
        -0.028938505798578262,
        0.7860683798789978,
        -0.5664911270141602,
        0.0018798895180225372,
        0.038179632276296616,
        -0.011422902345657349,
        0.02706800028681755,
        -2.0885984897613525,
        -0.0338662825524807,
        -0.5025278925895691,
        -0.06787125766277313,
        0.9509398937225342,
        -0.0003963746130466461,
        0.2355814278125763,
        -0.03211590275168419,
        -1.1592283248901367,
        -1.772472858428955,
        0.8639400005340576,
        0.017710953950881958,
        0.5463740229606628,
        -0.013307902961969376,
        -0.05004289001226425,
        0.9696877002716064,
        0.6377154588699341,
        -0.03694441542029381,
        1.735088586807251,
        0.18520234525203705,
        -1.2174423933029175,
        -0.021953348070383072,
        0.07539792358875275,
        -0.11370428651571274,
        1.26626455783844,
        -0.15091072022914886,
        0.014894315041601658,
        -0.12350165098905563,
        -0.24235689640045166,
        0.2909465432167053,
        0.11634013801813126,
        -0.19805502891540527,
        -0.030659422278404236,
        0.03293329477310181,
        0.03544144332408905,
        -0.35016587376594543,
        0.0205763541162014,
        -0.00948033295571804,
        -0.908013105392456,
        0.14917945861816406
      ],
      [
        0.3842775225639343,
        0.27895689010620117,
        0.9193412065505981,
        0.5703073740005493,
        -0.20876897871494293,
        0.5627265572547913,
        -0.13032299280166626,
        0.4331897497177124,
        -0.14192762970924377,
        0.06623972207307816,
        -0.1550585925579071,
        -0.004369884263724089,
        0.4917369782924652,
        0.43843740224838257,
        -0.31445127725601196,
        0.7451325058937073,
        0.3772798776626587,
        0.049040284007787704,
        -0.39549145102500916,
        -0.0455872118473053,
        0.04293873533606529,
        -0.8424063324928284,
        -0.6755000352859497,
        -0.4297511577606201,
        0.5715795755386353,
        1.0387499332427979,
        0.24608656764030457,
        -0.6018673181533813,
        0.4208220839500427,
        0.2914978265762329,
        0.023570844903588295,
        -0.2559359669685364,
        0.06744604557752609,
        -0.051072586327791214,
        0.45599690079689026,
        -0.03512892872095108,
        1.0595247745513916,
        0.07341481000185013,
        -0.357979416847229,
        0.4773348569869995,
        -0.8276345133781433,
        -0.553783655166626,
        1.0452213287353516,
        0.28693318367004395,
        0.007083579897880554,
        -0.04140157997608185,
        0.013799093663692474,
        0.018841274082660675,
        -0.08161935210227966,
        -0.15557576715946198,
        0.23943676054477692,
        -0.30155208706855774,
        -0.5937098860740662,
        0.07239704579114914,
        -0.6354979276657104,
        0.7455874681472778,
        0.008793974295258522,
        -0.682614266872406,
        -0.6369165182113647,
        -0.11778686195611954,
        0.11196130514144897,
        -0.062451548874378204,
        -0.2524048388004303,
        0.4009198844432831,
        0.19212846457958221,
        -0.30862900614738464,
        -1.4442840814590454,
        -0.255498468875885,
        -0.9755123853683472,
        -1.573482871055603,
        -0.5964667797088623,
        -1.2916868925094604,
        1.4123048782348633,
        1.0494641065597534,
        -0.2810007631778717,
        -0.6178871393203735,
        -0.9630022048950195,
        -0.07617133855819702,
        -0.33219099044799805,
        0.2962082326412201,
        -0.33364129066467285,
        0.10580871254205704,
        -0.02829425409436226,
        -1.034637451171875,
        1.7328203916549683,
        0.19722841680049896,
        -0.546143651008606,
        0.34903454780578613,
        -0.6490819454193115,
        -0.18879224359989166,
        0.7956506013870239,
        0.5210301280021667,
        -0.008364289999008179,
        -0.019697586074471474,
        0.006095193326473236,
        -0.008912086486816406,
        -0.2047053873538971,
        -0.12762729823589325,
        0.1947358101606369,
        0.05902818962931633,
        -0.2562338709831238,
        -0.037224121391773224,
        -0.2510276436805725,
        0.71168452501297,
        -1.0319355726242065,
        -0.013692332431674004,
        -0.7444005012512207,
        -0.3181746006011963,
        -0.14181894063949585,
        -0.20568282902240753,
        -0.027011895552277565,
        0.03246314451098442,
        -0.1575472205877304,
        0.7058943510055542,
        -1.2704907655715942,
        -0.1354362964630127,
        -0.3670227527618408,
        -1.0982608795166016,
        -0.45569631457328796,
        -0.3857797086238861,
        0.45434054732322693,
        1.4608120918273926,
        -0.7769983410835266,
        -0.013697044923901558,
        -0.10904430598020554,
        0.12802013754844666,
        -0.5036566257476807,
        -0.16934511065483093,
        0.030358675867319107,
        -0.0996733158826828,
        -0.20222054421901703,
        -0.7570501565933228,
        1.2952899932861328,
        0.016525525599718094,
        -1.1759313344955444,
        0.1713157445192337,
        -0.9537931084632874,
        0.027727853506803513,
        0.5866020917892456,
        0.6038469672203064,
        0.020234961062669754,
        -0.0036612562835216522,
        -0.02997826598584652,
        0.02463594451546669,
        0.2804296910762787,
        0.5648160576820374,
        0.5076907277107239,
        0.35735586285591125,
        0.26630929112434387,
        -0.009536553174257278,
        0.3246138095855713,
        0.13561157882213593,
        0.6345335841178894,
        0.19845335185527802,
        0.9612276554107666,
        -0.3865076005458832,
        -0.026324043050408363,
        0.26460474729537964,
        0.038687918335199356,
        -0.024204635992646217,
        -0.005766537040472031,
        -0.016321035102009773,
        -0.002558387815952301,
        -0.03290615230798721,
        -0.04046744108200073,
        -0.016804348677396774,
        0.8241912126541138,
        -0.28139251470565796,
        0.07478193193674088,
        0.13627605140209198,
        0.7158756256103516,
        0.46340909600257874,
        -0.21894687414169312,
        -0.025723937898874283,
        -0.014415724202990532,
        0.0008046298171393573,
        -0.012558862566947937,
        0.26174190640449524,
        0.5488845109939575,
        -0.3809579014778137,
        0.024308178573846817,
        -0.10145633667707443,
        0.37155482172966003,
        -0.006417922675609589,
        0.10340582579374313,
        -0.01561564952135086,
        0.005544900894165039,
        0.406699001789093,
        0.03531378135085106,
        -0.022390613332390785,
        -0.003269381821155548,
        0.029869478195905685,
        0.031331200152635574,
        0.31682127714157104,
        0.32219740748405457,
        0.26032042503356934,
        0.011814404278993607,
        0.31617531180381775,
        -0.476777583360672,
        -0.243564635515213,
        -0.11394987255334854,
        -0.10663291066884995,
        -0.6283295154571533,
        0.16820241510868073,
        -0.01162191852927208,
        -0.018262630328536034,
        -0.26674583554267883,
        0.544015109539032,
        -0.5594696402549744,
        -0.11011046171188354,
        -1.2243473529815674,
        0.9103398323059082,
        -0.0016512272413820028,
        -1.6706674098968506,
        -0.3296152353286743,
        -0.2442745864391327,
        0.7893390655517578,
        1.4400787353515625,
        -0.35651645064353943,
        -0.3988734781742096,
        -0.6205196976661682,
        0.2985905408859253,
        -0.3504861295223236,
        -0.07453972101211548,
        -0.06936931610107422,
        -0.2580592930316925,
        0.08072330802679062,
        -0.36812010407447815,
        1.5186814069747925,
        -0.07671193778514862,
        -0.17950619757175446,
        0.6969005465507507,
        -0.3920871913433075,
        -0.6634544134140015,
        0.5112107992172241,
        1.0764069557189941,
        0.5103914737701416,
        -0.02263210527598858,
        -0.5750879645347595,
        1.1930996179580688,
        -0.007837668992578983,
        0.02508167177438736,
        0.4483555853366852,
        -0.46750113368034363,
        -0.21639777719974518,
        0.11601006239652634,
        -0.07215386629104614,
        0.8168538808822632,
        0.02421780489385128,
        0.5197900533676147,
        -0.26814478635787964,
        -0.01760368049144745,
        0.3136518597602844,
        0.025113636627793312,
        -0.6458505392074585,
        0.8889838457107544,
        0.10340671241283417,
        -0.4919698238372803,
        -1.2794325351715088,
        -0.053443290293216705,
        -0.7903487086296082,
        0.41243669390678406,
        0.6498191356658936,
        0.07109064608812332,
        -0.9982097148895264,
        0.8570475578308105,
        0.6393669843673706,
        -0.462789386510849,
        0.2958293855190277,
        0.008179854601621628,
        0.0876668393611908,
        0.5830655694007874,
        0.17022645473480225,
        -0.18108360469341278,
        0.09270622581243515,
        0.08756619691848755,
        1.7996199131011963,
        0.1138220950961113,
        -0.60711270570755,
        -0.4258576035499573,
        -0.3779800832271576,
        -0.6748750805854797,
        -0.2925959527492523,
        0.27643951773643494,
        0.02564838156104088,
        -0.0010032877326011658,
        -0.02805936709046364,
        0.006518270820379257,
        0.08247146010398865,
        -0.22115014493465424,
        -0.44541460275650024,
        -0.3625674545764923,
        0.07365143299102783,
        -0.07693017274141312,
        0.22293777763843536,
        -0.36600470542907715,
        0.3804835379123688,
        0.04407596215605736,
        -0.28932279348373413,
        0.0029791719280183315,
        0.061437807977199554,
        0.10004030913114548,
        -0.6660395264625549,
        0.0265182051807642,
        -0.510589063167572,
        -0.774827778339386,
        -0.15062618255615234,
        0.8077875375747681,
        0.8731562495231628,
        1.445650339126587,
        0.694628119468689,
        0.39941102266311646,
        -0.24495433270931244,
        -0.36183324456214905,
        -0.40838998556137085,
        0.9675812721252441,
        -0.23927780985832214,
        -0.22565560042858124,
        0.7084975838661194,
        1.2207281589508057,
        0.15640774369239807,
        0.18076235055923462,
        0.10297911614179611,
        -0.5618723630905151,
        0.03809667378664017,
        0.5264392495155334,
        0.6389780640602112,
        -0.2922940254211426,
        -0.8120724558830261,
        -1.0152415037155151,
        -1.1720025539398193,
        0.6861660480499268,
        -0.022559475153684616,
        0.020424049347639084,
        -0.03628186881542206,
        -0.019382154569029808,
        0.18113406002521515,
        -0.41732633113861084,
        -0.9042962789535522,
        -0.2692101001739502,
        0.3092952370643616,
        0.29713594913482666,
        0.31903138756752014,
        -0.22868582606315613,
        0.7815282344818115,
        0.234644815325737,
        -0.19033752381801605,
        -0.38060277700424194,
        0.1847396343946457,
        0.15563887357711792,
        -0.5313698649406433,
        0.469809353351593,
        -0.3306349515914917,
        -0.8369550704956055,
        -0.12571576237678528,
        0.9668861627578735,
        0.673141598701477,
        0.9581359624862671,
        0.8709012269973755,
        -0.0998062714934349,
        -0.9412368535995483,
        -0.6980482935905457,
        -0.6411771774291992,
        -0.35938864946365356,
        -0.8584796786308289,
        1.1424514055252075,
        0.6601651310920715,
        1.4035999774932861,
        0.1577022671699524,
        -0.19463220238685608,
        0.25446295738220215,
        -0.8181729316711426,
        0.8233821988105774,
        1.0505125522613525,
        1.0104343891143799,
        -1.063227891921997,
        -1.4927486181259155,
        -1.5071840286254883,
        -0.25790390372276306,
        0.210121750831604,
        0.0244445763528347,
        0.004818465560674667,
        -0.0034972578287124634,
        0.023057270795106888,
        -0.035370081663131714,
        0.022748608142137527,
        -0.02988370507955551,
        -0.03952481225132942,
        0.002499181777238846,
        0.022459056228399277,
        -0.01136947050690651,
        -0.006616756319999695,
        0.0009723268449306488,
        -0.030363913625478745,
        0.01328267902135849,
        0.02555098757147789,
        0.02611299231648445,
        -0.0050647929310798645,
        0.01402193307876587,
        -0.013047304004430771,
        -0.019354013726115227,
        0.005227360874414444,
        -0.0020515955984592438,
        0.01929868385195732,
        0.03668111935257912,
        -0.03427421301603317,
        -0.0005413293838500977,
        0.03018636628985405,
        0.023823332041502,
        0.035045746713876724,
        -0.027763046324253082,
        0.03109467402100563,
        0.014608144760131836,
        -0.005259986966848373,
        0.018111471086740494,
        -0.02970964089035988,
        -0.02083275280892849,
        -0.01855349726974964,
        -0.036292072385549545,
        -0.026439465582370758,
        0.022032860666513443,
        -0.02059987559914589,
        0.0072290487587451935,
        0.014088347554206848,
        0.005374342203140259,
        -0.01346452347934246,
        -0.01779685541987419,
        0.003905259072780609,
        -0.015678809955716133,
        0.018269773572683334,
        0.010176416486501694,
        -0.036210205405950546,
        0.5624731183052063,
        0.3364553153514862,
        -0.4902462661266327,
        -0.7551549673080444,
        1.5086398124694824,
        -0.021633753553032875,
        0.16931027173995972,
        0.661990761756897,
        0.24605076014995575,
        -0.879723072052002,
        -0.3822879493236542,
        1.1591330766677856,
        0.6411771178245544,
        0.561069905757904,
        0.006579745560884476,
        0.04129967465996742,
        -0.025007564574480057,
        0.0068557485938072205,
        -0.0010265707969665527,
        -0.0759550929069519,
        0.04225287213921547,
        -0.01996862329542637,
        -0.024379488080739975,
        -0.01883874274790287,
        0.33565017580986023,
        0.3360418677330017,
        0.2634270489215851,
        -0.15687301754951477,
        -0.1719023436307907,
        -0.010183021426200867,
        0.02440016344189644,
        -0.38082000613212585,
        0.7372578978538513,
        -0.37967509031295776,
        0.8122437000274658,
        0.15574799478054047,
        -0.009019725024700165,
        -0.5071079134941101,
        -0.07662291824817657,
        0.001840539276599884,
        0.126503586769104,
        -0.3583790957927704,
        0.018674291670322418,
        -0.11754873394966125,
        -0.0030506402254104614,
        -0.026770707219839096,
        -0.03942173719406128,
        0.004594136029481888,
        -0.27671700716018677,
        0.031468264758586884,
        -0.4749097526073456,
        -0.01247132383286953,
        0.5736274719238281,
        -0.24364769458770752,
        -0.8223205208778381,
        -0.6456051468849182,
        -0.08494826406240463,
        -0.4216780662536621,
        -0.09385848045349121,
        -0.13071036338806152,
        0.040053416043519974,
        -0.00026744231581687927,
        -0.6153215765953064,
        0.24082507193088531,
        0.7427006363868713,
        -0.45392873883247375,
        -0.26931461691856384,
        -0.031177029013633728,
        -0.4584122896194458,
        0.879034161567688,
        -0.02520562708377838,
        0.006084170192480087,
        -0.013054195791482925,
        -0.03346690535545349,
        0.7073368430137634,
        0.042340610176324844,
        0.29182642698287964,
        -0.26995739340782166,
        -0.3700725734233856,
        -0.0035368427634239197,
        -0.5641145706176758,
        0.022302646189928055,
        -0.1320427656173706,
        0.09254671633243561,
        0.6255712509155273,
        0.004168670624494553,
        -1.470332384109497,
        -0.41439616680145264,
        0.2537636458873749,
        -1.8951588869094849,
        -0.14786727726459503,
        -0.011845273897051811,
        -0.7198988795280457,
        0.15251702070236206,
        0.17894655466079712,
        0.040720630437135696,
        0.2126198261976242,
        -0.013133901171386242,
        1.359615445137024,
        0.5407798290252686,
        0.17530184984207153,
        -0.3892974257469177,
        -0.523622453212738,
        0.05103336274623871,
        0.062059368938207626,
        0.36437439918518066,
        -0.032495345920324326,
        -0.17686079442501068,
        0.025151832029223442,
        0.5689646601676941,
        0.1830754280090332,
        0.07406222075223923,
        -0.2889949083328247,
        0.2675665616989136
      ],
      [
        -0.6853024363517761,
        -1.3825621604919434,
        -1.811061978340149,
        -2.2381653785705566,
        -0.5645912885665894,
        -1.075830101966858,
        -0.9068014025688171,
        0.2989690601825714,
        0.4314464032649994,
        -0.9762904644012451,
        -1.237719178199768,
        -0.47982341051101685,
        -0.3864075839519501,
        -0.6897640228271484,
        0.11605103313922882,
        -0.8760617971420288,
        1.0365077257156372,
        0.16800439357757568,
        -0.3731502294540405,
        0.03134746849536896,
        -0.37795257568359375,
        -1.2641228437423706,
        -0.4227345585823059,
        -0.620411217212677,
        0.38697388768196106,
        -0.055458735674619675,
        -1.0040515661239624,
        0.028695877641439438,
        -1.4828375577926636,
        -0.2415357083082199,
        -0.4175463616847992,
        -0.45342355966567993,
        -0.12553934752941132,
        -2.5115244388580322,
        -0.7113098502159119,
        0.08466242998838425,
        0.8253570199012756,
        -1.0014679431915283,
        0.8785494565963745,
        -0.2623249590396881,
        -1.4277174472808838,
        -0.3105924427509308,
        0.4576059877872467,
        -0.5418155193328857,
        -0.005392678081989288,
        -0.018906785175204277,
        -0.03288693726062775,
        -0.01689177192747593,
        0.013277558609843254,
        -0.666545033454895,
        -0.9119885563850403,
        -0.8392496705055237,
        0.20876054465770721,
        -0.6146198511123657,
        -0.3636883795261383,
        0.3202763795852661,
        -0.2068808227777481,
        0.14040394127368927,
        -0.3288230895996094,
        -0.43618908524513245,
        0.27882757782936096,
        0.15038050711154938,
        -0.06697981804609299,
        -0.5227720141410828,
        0.7095706462860107,
        -0.6047453880310059,
        0.2806248664855957,
        -0.8414404988288879,
        -0.25427889823913574,
        -1.1006313562393188,
        -0.9215242266654968,
        0.015413719229400158,
        1.0645716190338135,
        -0.7975967526435852,
        -0.44273117184638977,
        0.6185047030448914,
        -1.7852915525436401,
        -0.7322959899902344,
        -0.3363211750984192,
        -1.340436577796936,
        0.19835330545902252,
        -1.4670745134353638,
        0.07602786272764206,
        -0.5358965396881104,
        0.6129786968231201,
        0.3759685754776001,
        0.07082341611385345,
        -0.8241758942604065,
        -0.15925374627113342,
        -0.22498996555805206,
        0.3941796123981476,
        -0.626158595085144,
        -0.03734889626502991,
        -0.0012137927114963531,
        -0.009607188403606415,
        0.01713118702173233,
        0.11482048779726028,
        -0.9625951051712036,
        -0.930173397064209,
        -0.8664973378181458,
        0.19600443542003632,
        -1.0223186016082764,
        -0.6465288996696472,
        -0.20172417163848877,
        0.027153395116329193,
        -0.07290804386138916,
        -0.5632061958312988,
        -0.36377373337745667,
        0.4428417980670929,
        0.20973625779151917,
        -0.22441092133522034,
        -0.731662392616272,
        0.6102394461631775,
        -0.0634433776140213,
        0.37455904483795166,
        -0.49897927045822144,
        0.6732211709022522,
        -1.4573464393615723,
        -0.1346239298582077,
        -0.5874659419059753,
        1.0577536821365356,
        -0.8328794836997986,
        -0.2852182984352112,
        -0.41073858737945557,
        -0.9074553847312927,
        -0.46484196186065674,
        -0.9548418521881104,
        -1.2747377157211304,
        -0.23700670897960663,
        -2.300779342651367,
        0.2649921774864197,
        0.3419255316257477,
        0.4880535304546356,
        -0.36226385831832886,
        0.255654901266098,
        -0.4805108308792114,
        -0.4668331444263458,
        -0.17815682291984558,
        0.4135679006576538,
        -0.8516154885292053,
        0.003417186439037323,
        0.004377957433462143,
        -0.02799256145954132,
        0.034903060644865036,
        -0.8337653279304504,
        -1.1426066160202026,
        -1.4615334272384644,
        0.27269989252090454,
        0.31782761216163635,
        0.02142789587378502,
        0.14071619510650635,
        -0.5767256617546082,
        0.027808304876089096,
        -1.0639369487762451,
        -0.4039556384086609,
        -0.22587895393371582,
        -0.2351415604352951,
        -0.8297422528266907,
        -0.02123679593205452,
        -0.011158838868141174,
        -0.026804175227880478,
        -0.020688496530056,
        -0.01842765510082245,
        -0.13178284466266632,
        -0.01298345997929573,
        0.02567073330283165,
        -0.41423535346984863,
        0.30310192704200745,
        -0.06579497456550598,
        -0.010795829817652702,
        -1.286903738975525,
        -0.33570587635040283,
        -0.18160466849803925,
        0.016769055277109146,
        0.005714643746614456,
        -0.17790871858596802,
        0.27022090554237366,
        -0.68906170129776,
        -0.6325913071632385,
        -0.4013495147228241,
        0.025503050535917282,
        -0.27396565675735474,
        0.2371741533279419,
        0.01804722100496292,
        -0.43541595339775085,
        0.03193562850356102,
        0.012114856392145157,
        -0.6398869752883911,
        -0.03750269114971161,
        -0.0023905225098133087,
        -0.010038740932941437,
        -0.025889217853546143,
        0.24608556926250458,
        -0.8665491342544556,
        -0.23229479789733887,
        0.26384419202804565,
        -0.008648429997265339,
        -1.0806342363357544,
        -0.4391951560974121,
        0.3173520565032959,
        -0.010608512908220291,
        -0.42292073369026184,
        0.14794667065143585,
        -0.1348596215248108,
        0.35842856764793396,
        0.4125507175922394,
        -0.9106974601745605,
        -0.49577566981315613,
        0.9310001134872437,
        -0.12705378234386444,
        -0.09501321613788605,
        -0.09165820479393005,
        -0.032415833324193954,
        -0.5216390490531921,
        -0.7755125164985657,
        0.17962031066417694,
        0.4607805907726288,
        -0.5616217851638794,
        -0.16376955807209015,
        0.4007933735847473,
        -0.8166120648384094,
        0.29949378967285156,
        -0.7523449659347534,
        -1.1498361825942993,
        -0.05219036713242531,
        -1.4460335969924927,
        0.2634555995464325,
        0.017760518938302994,
        0.7721008062362671,
        -0.09018174558877945,
        0.4242120683193207,
        -0.6317821741104126,
        -0.8247387409210205,
        0.648394763469696,
        0.31454041600227356,
        -0.19189636409282684,
        -0.027554867789149284,
        0.40560173988342285,
        -0.2973721921443939,
        0.5589627027511597,
        -0.0013295429525896907,
        0.157766655087471,
        -0.09341010451316833,
        -0.44538581371307373,
        -0.015980811789631844,
        0.30186522006988525,
        -0.41122448444366455,
        -0.36236074566841125,
        -0.05063791573047638,
        0.11740054190158844,
        0.13393472135066986,
        0.08864366263151169,
        -0.21294744312763214,
        -0.1365738958120346,
        0.23325172066688538,
        -0.09785663336515427,
        0.2810409665107727,
        -0.04814208298921585,
        -1.5971789360046387,
        0.5313912630081177,
        0.517822265625,
        -0.3442004919052124,
        0.283356249332428,
        0.2569921016693115,
        0.5740478038787842,
        0.14423997700214386,
        -0.16009797155857086,
        0.40615519881248474,
        -0.49171578884124756,
        -0.8421905636787415,
        -0.2088213860988617,
        0.2498149424791336,
        -0.1788007616996765,
        0.32301563024520874,
        0.04594409093260765,
        0.17674343287944794,
        -0.23218882083892822,
        -0.18378792703151703,
        0.3162241578102112,
        -0.6782466769218445,
        0.32921692728996277,
        -0.88409024477005,
        0.25417476892471313,
        0.4945482909679413,
        0.012993428856134415,
        0.02756907418370247,
        0.042390648275613785,
        0.02637365832924843,
        0.08963491022586823,
        0.6765840649604797,
        0.7466397881507874,
        0.803908109664917,
        0.08291161060333252,
        0.726799488067627,
        0.8769811987876892,
        -0.19224627315998077,
        0.19238348305225372,
        0.4421914517879486,
        0.8533346652984619,
        0.014719471335411072,
        -0.20623432099819183,
        -0.013532323762774467,
        0.6061718463897705,
        0.406438946723938,
        -1.2295979261398315,
        0.12062302231788635,
        -1.4207067489624023,
        -0.3072284758090973,
        0.8410293459892273,
        0.8493359088897705,
        0.2769952118396759,
        0.49390292167663574,
        -1.2554913759231567,
        0.23950982093811035,
        0.6215547919273376,
        0.6689459681510925,
        0.29053765535354614,
        -0.3529914319515228,
        -0.2019309550523758,
        0.12960048019886017,
        0.11601144820451736,
        1.642072081565857,
        -0.011592601425945759,
        -0.13021692633628845,
        -0.954515814781189,
        -0.5060675144195557,
        -0.10862025618553162,
        0.9226024150848389,
        0.3602963984012604,
        -0.31644946336746216,
        -0.6070087552070618,
        0.415296345949173,
        0.030466970056295395,
        -0.01477518305182457,
        0.008244846016168594,
        0.005518987774848938,
        -0.013037734664976597,
        1.3104270696640015,
        1.1990748643875122,
        2.048642873764038,
        0.1690855175256729,
        1.3412442207336426,
        0.6750678420066833,
        0.039496615529060364,
        -0.533336877822876,
        0.7206272482872009,
        1.28028404712677,
        -0.007855258882045746,
        -0.19610166549682617,
        -0.021269699558615685,
        0.3665021061897278,
        0.9695804715156555,
        -1.6670503616333008,
        -0.8662018775939941,
        -0.7929280400276184,
        -0.22699150443077087,
        1.0603013038635254,
        1.1839994192123413,
        0.20056210458278656,
        0.5561485290527344,
        -1.8875356912612915,
        0.1936454325914383,
        0.6874215006828308,
        1.8976266384124756,
        0.384602814912796,
        -0.15210609138011932,
        -0.6113573908805847,
        0.25991350412368774,
        0.2255408614873886,
        2.5036513805389404,
        -0.023089634254574776,
        0.22409582138061523,
        -0.5596567392349243,
        0.40033242106437683,
        -0.9821119904518127,
        1.3120999336242676,
        -0.23160219192504883,
        -0.7397305369377136,
        -0.32577216625213623,
        1.0347940921783447,
        0.042382899671792984,
        0.02233075723052025,
        0.02793581411242485,
        0.001990754157304764,
        0.016950033605098724,
        -0.012055939063429832,
        0.024081427603960037,
        -0.007618695497512817,
        0.026146095246076584,
        -0.010489854961633682,
        -0.030241956934332848,
        -0.024631967768073082,
        0.02258724346756935,
        0.026162799447774887,
        -0.03828723356127739,
        0.03025452420115471,
        0.012528486549854279,
        0.029074091464281082,
        0.02454482391476631,
        0.022447403520345688,
        -0.018647216260433197,
        -0.029564686119556427,
        0.027476217597723007,
        0.013060476630926132,
        -0.004191610962152481,
        0.02299562469124794,
        -0.0036657042801380157,
        0.021691810339689255,
        -0.020664550364017487,
        0.025251302868127823,
        -0.039308756589889526,
        -0.028723934665322304,
        0.03004666045308113,
        0.003430694341659546,
        0.020650368183851242,
        -0.011911805719137192,
        -0.02090458944439888,
        -0.03031911328434944,
        -0.02447688765823841,
        0.030263643711805344,
        0.025143731385469437,
        -0.04127533361315727,
        -0.017421947792172432,
        0.039841022342443466,
        -0.008205275982618332,
        0.039628710597753525,
        -0.0038205645978450775,
        0.010265421122312546,
        -0.0165715329349041,
        0.032067809253931046,
        0.029645834118127823,
        -0.019528480246663094,
        -0.10174645483493805,
        0.12621332705020905,
        0.3513319492340088,
        1.1062920093536377,
        0.05237576737999916,
        -0.01665702648460865,
        0.25618499517440796,
        -0.578832745552063,
        -0.7242774367332458,
        0.1373901665210724,
        0.9751396179199219,
        -0.08656878024339676,
        0.09131457656621933,
        -0.07432122528553009,
        0.0272737555205822,
        -0.04206077754497528,
        0.024587344378232956,
        -0.023991186171770096,
        -0.015318471938371658,
        0.14537717401981354,
        0.018538866192102432,
        -0.041331399232149124,
        0.5247065424919128,
        0.12047643959522247,
        -0.06363296508789062,
        0.12005767226219177,
        -0.9535130262374878,
        0.59860759973526,
        -0.08640330284833908,
        0.007781751453876495,
        -0.039992835372686386,
        0.5196430087089539,
        -0.33393239974975586,
        0.09732062369585037,
        -0.06074518710374832,
        0.07811679691076279,
        -0.03850412741303444,
        -0.07922952622175217,
        -0.19946546852588654,
        -0.016758866608142853,
        -0.06833094358444214,
        0.17690838873386383,
        -0.02768344059586525,
        0.978660523891449,
        0.024470839649438858,
        0.037674855440855026,
        -0.00222112238407135,
        -0.012516273185610771,
        0.5855961441993713,
        0.8022314310073853,
        1.6638574600219727,
        0.03685849532485008,
        1.2724069356918335,
        0.6408923268318176,
        -0.6370424628257751,
        -0.45961830019950867,
        0.24419380724430084,
        0.575016438961029,
        -0.06957891583442688,
        -0.011625384911894798,
        0.03726589307188988,
        0.011942528188228607,
        1.0782188177108765,
        -0.36601799726486206,
        -0.8835060596466064,
        0.5905015468597412,
        -0.8921736478805542,
        -0.030627332627773285,
        0.5468441247940063,
        0.33512082695961,
        -0.04049655422568321,
        0.00032573193311691284,
        -0.035720791667699814,
        0.0366651825606823,
        1.9022488594055176,
        0.006983764469623566,
        1.2985693216323853,
        -0.8154502511024475,
        -0.9846071004867554,
        0.03237676993012428,
        -0.20089025795459747,
        -0.0033456720411777496,
        0.6778091192245483,
        0.9300348162651062,
        -1.2275010347366333,
        -0.008375082165002823,
        0.13057491183280945,
        0.07592879980802536,
        0.024815693497657776,
        -0.8805316090583801,
        -0.7092031836509705,
        0.03418100252747536,
        -0.08298251777887344,
        -0.40998777747154236,
        0.6316995620727539,
        0.04259948804974556,
        -0.01710081286728382,
        0.026838203892111778,
        -1.2477387189865112,
        -1.2077696323394775,
        0.07712723314762115,
        -0.015310383401811123,
        0.3044189512729645,
        -0.12798161804676056,
        0.3683876395225525,
        -0.6284812092781067,
        0.044820111244916916,
        0.12149427831172943,
        0.22366049885749817,
        -0.12412436306476593,
        -0.0006069397204555571,
        0.07138318568468094,
        0.6090522408485413,
        -0.3794139623641968
      ],
      [
        0.323864609003067,
        2.950094699859619,
        2.9566268920898438,
        3.259502649307251,
        0.453018456697464,
        1.86451256275177,
        1.8260339498519897,
        0.3090064823627472,
        -0.16004112362861633,
        1.4115417003631592,
        2.0329177379608154,
        0.6461936831474304,
        -0.3601052761077881,
        0.22041499614715576,
        0.8736723065376282,
        1.248410940170288,
        -1.6155837774276733,
        0.2509014308452606,
        0.6129865646362305,
        1.284435749053955,
        1.545242428779602,
        1.3999191522598267,
        1.4911235570907593,
        0.16919490694999695,
        -0.7155623435974121,
        0.5702335238456726,
        1.882751703262329,
        1.1099188327789307,
        1.2238696813583374,
        -0.03020002879202366,
        0.7380962371826172,
        1.681157112121582,
        0.8048551082611084,
        3.5652050971984863,
        0.06646047532558441,
        0.49242883920669556,
        -0.8915790319442749,
        1.027755618095398,
        -1.0306217670440674,
        0.723198413848877,
        1.1672663688659668,
        -0.3763851523399353,
        -0.5764254331588745,
        1.6561959981918335,
        0.00534464418888092,
        0.020035427063703537,
        0.018490638583898544,
        -0.015671906992793083,
        0.12820397317409515,
        1.3413591384887695,
        1.7001047134399414,
        1.796586513519287,
        -0.09809364378452301,
        1.6034549474716187,
        1.0277031660079956,
        -0.2800191640853882,
        -0.05282539501786232,
        0.9150267839431763,
        0.8327555060386658,
        0.44224828481674194,
        -0.354802668094635,
        0.004131829831749201,
        1.1718530654907227,
        0.8571493029594421,
        -1.1909263134002686,
        0.22787617146968842,
        -0.47703811526298523,
        -0.10325687378644943,
        1.4341297149658203,
        0.7020044922828674,
        1.1679277420043945,
        -0.21975985169410706,
        -0.8204513788223267,
        0.057948894798755646,
        1.2608323097229004,
        1.0640277862548828,
        1.0211236476898193,
        -0.0005144826136529446,
        0.2397637516260147,
        1.6375675201416016,
        0.060552626848220825,
        2.5708158016204834,
        0.03216671198606491,
        -0.011567622423171997,
        -0.8686943650245667,
        0.6867623925209045,
        -1.072731375694275,
        1.243943452835083,
        0.5130970478057861,
        -0.4702383577823639,
        -0.689182698726654,
        -0.1502612829208374,
        0.0365336649119854,
        0.03848994895815849,
        0.008153393864631653,
        -0.0370437353849411,
        0.12463654577732086,
        2.202514410018921,
        2.210286855697632,
        1.9014278650283813,
        0.06896286457777023,
        1.847290277481079,
        1.6058963537216187,
        -0.2900809347629547,
        -0.564068615436554,
        0.9356579184532166,
        1.242072582244873,
        0.41649752855300903,
        -0.4066654145717621,
        0.01036278810352087,
        1.2825722694396973,
        1.0817670822143555,
        -1.7864946126937866,
        -0.3106577396392822,
        -0.5473421812057495,
        0.6618805527687073,
        0.48254039883613586,
        1.2774114608764648,
        1.1182016134262085,
        -0.03347952291369438,
        -1.3669058084487915,
        0.6071896553039551,
        1.354133129119873,
        1.2795010805130005,
        0.5384097695350647,
        -0.1584586650133133,
        -0.16608664393424988,
        1.9350733757019043,
        0.5190821886062622,
        2.560676336288452,
        -0.023449836298823357,
        0.15785323083400726,
        -0.687472939491272,
        0.601634681224823,
        -1.1384963989257812,
        1.1703604459762573,
        1.0971487760543823,
        -0.5481057167053223,
        -0.8492695093154907,
        1.1962181329727173,
        0.008316494524478912,
        0.004127237945795059,
        0.04218020662665367,
        0.030972305685281754,
        0.4141075015068054,
        0.7556831240653992,
        0.8026848435401917,
        0.5236524939537048,
        -0.39510565996170044,
        -0.007855061441659927,
        0.03856808319687843,
        0.3823646008968353,
        -0.031047673895955086,
        0.9630134105682373,
        0.5452771782875061,
        -0.026102246716618538,
        0.06588074564933777,
        0.4508240222930908,
        -0.014465214684605598,
        -0.011974183842539787,
        0.010978039354085922,
        0.04175447300076485,
        0.040459420531988144,
        0.06937703490257263,
        -0.0017977356910705566,
        0.025969248265028,
        0.6987786293029785,
        -0.5670117735862732,
        0.0019831652753055096,
        -0.13661639392375946,
        1.0827590227127075,
        0.8107483983039856,
        0.390910267829895,
        0.006945431232452393,
        -0.030448850244283676,
        -0.012029157020151615,
        -0.4900135099887848,
        0.9589343667030334,
        0.34528595209121704,
        0.19497880339622498,
        0.018473483622074127,
        0.17730014026165009,
        -0.07384751737117767,
        0.029442403465509415,
        0.07197380065917969,
        -0.021143414080142975,
        0.009864568710327148,
        0.8118503093719482,
        -0.002680916339159012,
        -0.013393085449934006,
        -0.042347151786088943,
        -0.0047935545444488525,
        0.06018643453717232,
        2.4474949836730957,
        0.5229784250259399,
        0.9869396090507507,
        0.598922610282898,
        2.887108087539673,
        1.047236442565918,
        -0.4515637159347534,
        0.45236968994140625,
        1.1391521692276,
        0.6354407668113708,
        0.12094788998365402,
        -0.29156994819641113,
        -0.3205278813838959,
        2.352569580078125,
        1.01790189743042,
        -1.5735419988632202,
        0.6151108741760254,
        -0.2806098461151123,
        0.2086464762687683,
        1.760945200920105,
        0.7491123080253601,
        1.543228030204773,
        0.23553727567195892,
        -0.4695291221141815,
        0.3359147012233734,
        1.3866822719573975,
        1.2946807146072388,
        0.4623042643070221,
        0.2978551685810089,
        1.1598432064056396,
        1.1790164709091187,
        0.23537065088748932,
        2.21278715133667,
        0.02600672096014023,
        0.5127297639846802,
        -0.8679609894752502,
        0.1518067568540573,
        -0.5414443016052246,
        0.968805193901062,
        0.7225729823112488,
        -1.4034210443496704,
        0.2815806567668915,
        0.11920946836471558,
        0.3612349331378937,
        -0.14552783966064453,
        0.3597047030925751,
        -0.7460859417915344,
        0.03035029210150242,
        -0.04855966940522194,
        0.215910404920578,
        0.5822121500968933,
        -0.10088326781988144,
        0.011475840583443642,
        0.15483500063419342,
        0.38676267862319946,
        0.24187839031219482,
        -0.020743034780025482,
        -0.16872218251228333,
        -0.08474230766296387,
        -0.053309738636016846,
        -0.013816632330417633,
        0.2405967116355896,
        0.1066661924123764,
        0.06878512352705002,
        0.1176021471619606,
        0.9704853296279907,
        -0.10255226492881775,
        0.24276351928710938,
        -0.7512248754501343,
        0.354746013879776,
        -0.5641602277755737,
        0.1508706957101822,
        0.28090476989746094,
        0.4766966998577118,
        -0.9653720855712891,
        -0.10255564004182816,
        0.725560188293457,
        -0.028149139136075974,
        0.0846574679017067,
        0.007489128969609737,
        0.292518675327301,
        0.06393630057573318,
        -0.28534451127052307,
        0.3614126741886139,
        0.7168431282043457,
        -0.05845526605844498,
        -0.5371090769767761,
        -0.22829967737197876,
        0.5943098068237305,
        0.24725787341594696,
        0.07536520808935165,
        0.025575947016477585,
        0.0339348129928112,
        -0.013803960755467415,
        -0.01957368664443493,
        -0.05753514543175697,
        -1.1267391443252563,
        -1.2314666509628296,
        -1.5139087438583374,
        -0.1106574609875679,
        -1.5321836471557617,
        -1.0854474306106567,
        0.5968189835548401,
        0.35165175795555115,
        -0.9382684826850891,
        -1.105680227279663,
        -0.36500924825668335,
        0.30442512035369873,
        0.07282548397779465,
        -1.572982668876648,
        -0.6558974385261536,
        1.0601191520690918,
        0.14989200234413147,
        0.39278408885002136,
        0.18019026517868042,
        -0.27388256788253784,
        -0.7462689876556396,
        0.5708491802215576,
        -1.245632290840149,
        2.113271474838257,
        0.3997168242931366,
        -0.6115861535072327,
        -1.2618426084518433,
        -0.15709739923477173,
        0.19484442472457886,
        0.21283933520317078,
        -0.6517678499221802,
        -0.3316090703010559,
        -1.0169219970703125,
        0.0036050663329660892,
        -0.23924310505390167,
        1.9490089416503906,
        0.5772210359573364,
        0.5902180075645447,
        -0.7258314490318298,
        -0.9811345934867859,
        0.9040757417678833,
        0.4769236147403717,
        -0.9208390116691589,
        -0.02553413063287735,
        -0.022820819169282913,
        0.024278435856103897,
        0.02881650999188423,
        -0.010339734144508839,
        -2.2229180335998535,
        -1.6119600534439087,
        -3.5582172870635986,
        -0.436388224363327,
        -2.074754476547241,
        -1.2375922203063965,
        0.25999733805656433,
        1.15471351146698,
        -0.960493803024292,
        -1.7086204290390015,
        -0.0007230478222481906,
        0.41620224714279175,
        0.15731947124004364,
        -2.0020370483398438,
        -0.7809094786643982,
        2.421757221221924,
        0.6231445670127869,
        -0.21712824702262878,
        -0.31815311312675476,
        -1.290530800819397,
        -1.0787566900253296,
        0.7347192168235779,
        -1.38335120677948,
        3.2334377765655518,
        -0.31710582971572876,
        -0.9172269105911255,
        -0.5544502139091492,
        0.43963250517845154,
        -0.3382766544818878,
        0.040512729436159134,
        -1.0531163215637207,
        -0.7413146495819092,
        -1.9855539798736572,
        0.07492475211620331,
        -0.03587091714143753,
        1.3361393213272095,
        0.19163905084133148,
        1.5839482545852661,
        -2.2018840312957764,
        -1.5092346668243408,
        1.8032175302505493,
        0.5527910590171814,
        -1.6469064950942993,
        -0.021234184503555298,
        -0.03267243131995201,
        0.03802168741822243,
        0.013076134026050568,
        0.0005464106798171997,
        0.035226453095674515,
        -0.02575279399752617,
        -0.021597204729914665,
        0.03134073689579964,
        0.01920655369758606,
        0.015523668378591537,
        -0.03091708943247795,
        0.030708815902471542,
        -0.027897339314222336,
        0.005443178117275238,
        0.006334178149700165,
        -0.03276112303137779,
        0.01771826297044754,
        0.0052965618669986725,
        0.03727841004729271,
        -0.010705020278692245,
        0.025376636534929276,
        -0.021067490801215172,
        0.022698942571878433,
        0.007567014545202255,
        0.04159913584589958,
        0.0253770612180233,
        -0.016144031658768654,
        0.03958640620112419,
        0.04036084935069084,
        0.005885526537895203,
        0.04154335334897041,
        0.008198317140340805,
        -0.00013451650738716125,
        0.016548283398151398,
        0.009540233761072159,
        -0.011234093457460403,
        -0.02412501908838749,
        -0.01344337873160839,
        -0.03560149297118187,
        0.008135270327329636,
        0.035658400505781174,
        0.030893448740243912,
        -0.005654674023389816,
        -0.02489917352795601,
        -0.014522358775138855,
        -0.03369053825736046,
        0.030563894659280777,
        0.04122145101428032,
        -0.03487994521856308,
        -0.0048865750432014465,
        0.013002414256334305,
        -0.7056494355201721,
        -1.4374548196792603,
        -1.5451867580413818,
        -1.665662407875061,
        0.5484933853149414,
        -0.03776995837688446,
        0.25329798460006714,
        0.4791504442691803,
        -0.04362685605883598,
        -0.25693875551223755,
        -1.9639681577682495,
        0.37506338953971863,
        0.4476373791694641,
        -0.7104865908622742,
        -0.03699741140007973,
        -0.007761038839817047,
        0.03808566555380821,
        -0.012635815888643265,
        -0.019620154052972794,
        -0.07828778773546219,
        -0.009205926209688187,
        -0.002843908965587616,
        -0.7210662961006165,
        -0.1379934698343277,
        0.16808201372623444,
        0.060163240879774094,
        -0.5919967293739319,
        -1.4914112091064453,
        -0.37277093529701233,
        -0.027430539950728416,
        -0.036530110985040665,
        -0.14454162120819092,
        0.9184852838516235,
        -1.8751544952392578,
        -0.3766995668411255,
        -0.025260519236326218,
        -0.0077935196459293365,
        0.03607092797756195,
        0.1808047890663147,
        0.02573653683066368,
        -0.03814899921417236,
        -0.41388943791389465,
        -0.04266273230314255,
        -0.9172451496124268,
        -0.003793109208345413,
        0.04004206880927086,
        -0.010602958500385284,
        0.023002702742815018,
        -1.0912035703659058,
        -1.73489248752594,
        -2.834899425506592,
        -0.027444109320640564,
        -1.7264344692230225,
        -1.2380154132843018,
        0.2798793911933899,
        0.8264451622962952,
        -0.801308274269104,
        -0.9615142345428467,
        -0.6879675388336182,
        -0.3489932417869568,
        -0.015079418197274208,
        0.0017864182591438293,
        -1.3981059789657593,
        -0.2587156891822815,
        0.5207325220108032,
        -0.6303121447563171,
        -0.6901058554649353,
        0.002330455929040909,
        -1.0611110925674438,
        -0.36874935030937195,
        0.02400139346718788,
        -0.02414442040026188,
        -0.02077876217663288,
        0.013554226607084274,
        -3.881309986114502,
        -0.004876274615526199,
        -1.1816720962524414,
        -0.567507803440094,
        -0.5253351926803589,
        -0.017560193315148354,
        -0.4393043518066406,
        -0.0036759227514266968,
        -1.2161848545074463,
        -2.014186382293701,
        1.3889086246490479,
        0.031323399394750595,
        -0.08071471750736237,
        -1.466887354850769,
        -0.9799014329910278,
        1.5204652547836304,
        0.18036742508411407,
        -0.00122176855802536,
        0.2770114541053772,
        -0.12041003257036209,
        -2.521514415740967,
        -0.02549961768090725,
        -0.09809266775846481,
        -0.33969733119010925,
        2.0380144119262695,
        0.9546654224395752,
        0.4437117576599121,
        -0.1573610156774521,
        0.21258403360843658,
        0.04045389965176582,
        -0.19497103989124298,
        0.31447291374206543,
        0.10956373065710068,
        0.14356836676597595,
        0.10672421008348465,
        -0.6482281684875488,
        -0.03919702023267746,
        -0.04159956052899361,
        -1.0402477979660034,
        0.17728231847286224
      ],
      [
        0.13516201078891754,
        1.6996514797210693,
        1.4431641101837158,
        1.2758147716522217,
        0.18987135589122772,
        1.1133471727371216,
        1.3392630815505981,
        -0.18691928684711456,
        0.18919211626052856,
        0.6393563747406006,
        1.5575040578842163,
        0.673378586769104,
        -0.558022677898407,
        0.014668880961835384,
        0.35634294152259827,
        0.6937388777732849,
        -0.955122709274292,
        0.5331317186355591,
        0.953248143196106,
        1.6640031337738037,
        0.36167359352111816,
        1.870671272277832,
        1.8474653959274292,
        0.7373574376106262,
        -0.390351802110672,
        0.3156416714191437,
        1.52495539188385,
        0.39657971262931824,
        0.5422516465187073,
        -0.1430758535861969,
        1.2780990600585938,
        1.3167988061904907,
        0.3504931628704071,
        1.6250125169754028,
        -0.20247787237167358,
        0.3106885850429535,
        -1.3056086301803589,
        1.5154696702957153,
        -0.3335089683532715,
        0.19063107669353485,
        1.9721957445144653,
        0.005323053803294897,
        -0.6161655187606812,
        1.060119390487671,
        -0.03478255495429039,
        -0.015581352636218071,
        -0.01564902625977993,
        0.03148774430155754,
        0.10248640924692154,
        0.601460337638855,
        0.8287291526794434,
        0.26492840051651,
        -0.1651473194360733,
        0.8878013491630554,
        0.8702986836433411,
        -0.9981303811073303,
        -0.026113271713256836,
        0.14778591692447662,
        0.6714840531349182,
        0.494022935628891,
        -0.262302428483963,
        0.033811427652835846,
        0.27668148279190063,
        0.40606921911239624,
        -1.4455198049545288,
        1.5867514610290527,
        0.7244071960449219,
        1.143554449081421,
        0.5924135446548462,
        2.6153149604797363,
        1.6985584497451782,
        0.14522890746593475,
        -0.26985546946525574,
        -0.38928884267807007,
        0.42427965998649597,
        -1.6190426349639893,
        0.1803201287984848,
        -0.7670027017593384,
        1.0350877046585083,
        1.8953543901443481,
        -0.15806618332862854,
        0.6072090864181519,
        0.05951978638768196,
        0.6128244400024414,
        -2.1341912746429443,
        -0.22803375124931335,
        -0.5053591132164001,
        -0.705715000629425,
        -0.1554739773273468,
        -0.39917469024658203,
        -1.1543288230895996,
        -0.14719142019748688,
        -0.007898379117250443,
        -0.04013689607381821,
